10313 24
6797 -0.0456767 0.0975461 0.235379 0.134435 0.0101414 0.408736 0.0375196 -0.117582 -0.243971 -0.514854 -0.325065 -0.172162 -0.00354155 -0.489141 -0.193556 0.0613349 0.295225 -0.286311 0.219224 0.433021 -0.512784 0.0687352 0.0918893 -0.208719
7196 0.00758489 0.066026 0.227743 0.143368 0.0136161 0.473668 0.0130064 -0.116667 -0.317758 -0.616155 -0.457226 -0.264897 0.000602267 -0.576395 -0.280232 0.0931194 0.422025 -0.387667 0.250642 0.459509 -0.605388 0.0226702 0.164416 -0.261749
7630 0.0208183 -0.0250624 0.224817 0.155664 0.0628419 0.445902 -0.0150711 -0.0977898 -0.239641 -0.487651 -0.381783 -0.217696 0.00720349 -0.515862 -0.232238 0.101349 0.336559 -0.309159 0.182875 0.334828 -0.512777 -0.0493391 0.170532 -0.211119
3850 -0.00560183 0.0610781 0.219544 0.13302 0.00426647 0.381068 0.02313 -0.092285 -0.252295 -0.4991 -0.361509 -0.206639 -0.0244985 -0.502693 -0.215005 0.0907742 0.30515 -0.320997 0.194929 0.403079 -0.519702 0.0244715 0.108382 -0.200194
5625 0.011591 0.096245 0.282296 0.159295 0.0098353 0.481717 0.0596101 -0.163762 -0.355382 -0.715453 -0.472078 -0.266149 -0.00208857 -0.624908 -0.302503 0.0996223 0.441585 -0.42585 0.29703 0.566844 -0.660124 0.0690348 0.172915 -0.267039
7061 0.016827 0.0176452 0.267399 0.16042 0.0407143 0.54343 -0.0059592 -0.141079 -0.298537 -0.612596 -0.454623 -0.247643 0.000676033 -0.600226 -0.273431 0.10778 0.411698 -0.368882 0.22865 0.409885 -0.596433 -0.0359092 0.205293 -0.266009
8523 0.0032255 0.0127774 0.221661 0.147098 0.0345802 0.472257 -0.0227064 -0.107764 -0.258619 -0.546153 -0.406826 -0.20645 0.0144369 -0.533105 -0.249525 0.116721 0.348347 -0.35668 0.222512 0.363395 -0.545478 -0.0287909 0.171095 -0.22165
9587 0.0284661 -0.0145257 0.258313 0.172292 0.0351364 0.521186 0.009229 -0.139718 -0.286036 -0.599592 -0.450141 -0.210874 0.00596473 -0.577016 -0.258286 0.104117 0.376585 -0.410308 0.221741 0.364238 -0.586525 -0.0797591 0.195815 -0.274291
9872 -0.0107478 -0.0145243 0.285286 0.15717 0.0730485 0.570821 -0.0164458 -0.175939 -0.229921 -0.561196 -0.393762 -0.232666 0.0343407 -0.592569 -0.257683 0.0711158 0.348639 -0.33905 0.222704 0.34314 -0.512955 -0.0576206 0.22434 -0.284784
9249 -0.00103591 0.0299505 0.196555 0.136934 0.0204624 0.39469 -0.0111095 -0.111512 -0.24583 -0.47959 -0.333183 -0.181517 0.0105617 -0.478267 -0.19934 0.0716035 0.274519 -0.296943 0.181796 0.341443 -0.472788 0.016681 0.123994 -0.173289
9526 -0.00199847 0.187551 0.153224 0.0267574 -0.0201842 0.371823 -0.055872 -0.235463 -0.247429 -0.709735 -0.517709 -0.270297 0.0326436 -0.479875 -0.319725 0.0594758 0.402882 -0.426231 0.359976 0.471959 -0.514332 0.109031 0.134804 -0.2705
9596 0.0273209 -0.00736977 0.234029 0.170886 0.0591961 0.443848 -0.00180016 -0.137884 -0.270236 -0.563016 -0.413961 -0.200131 0.0172704 -0.527463 -0.265214 0.0743786 0.370633 -0.356128 0.212353 0.345509 -0.512839 -0.018828 0.147183 -0.222297
3471 0.00731517 0.0715523 0.192245 0.0971828 0.0139783 0.332719 0.0437841 -0.0946991 -0.201565 -0.447237 -0.294281 -0.150801 -0.000497889 -0.384094 -0.162448 0.0513435 0.270409 -0.252026 0.15612 0.334279 -0.40784 0.0235708 0.0916657 -0.173371
5450 -0.014589 0.166225 0.265027 0.130975 -0.0587042 0.498148 0.0850946 -0.154124 -0.411962 -0.725264 -0.47049 -0.273255 -0.0292094 -0.644538 -0.316168 0.0874388 0.424391 -0.416222 0.301595 0.634648 -0.723326 0.146966 0.143388 -0.256536
5638 0.0190756 0.0261886 0.20326 0.126209 0.0298253 0.453913 0.00598014 -0.125493 -0.27615 -0.540786 -0.387055 -0.178261 -0.0133342 -0.529706 -0.239593 0.0940522 0.333755 -0.329098 0.197039 0.375718 -0.523365 0.0204039 0.145022 -0.240052
35 -0.020606 0.0157967 0.162142 0.0958975 0.0295006 0.350478 0.0286013 -0.0837468 -0.226136 -0.425097 -0.306326 -0.148965 -8.13081e-05 -0.429057 -0.166605 0.0742776 0.269868 -0.23752 0.173102 0.325694 -0.412293 0.0115791 0.119787 -0.159842
5705 0.0204418 0.120301 0.258452 0.106249 -0.0097605 0.505721 0.0902726 -0.173844 -0.347127 -0.678691 -0.486134 -0.290912 -0.0209431 -0.614426 -0.301404 0.0616001 0.441327 -0.438841 0.287317 0.587635 -0.666109 0.0977341 0.196224 -0.294214
5781 -0.0326363 0.0939981 0.234484 0.157017 0.004063 0.480939 0.0275491 -0.112842 -0.311565 -0.591011 -0.396005 -0.201338 0.00403212 -0.588846 -0.267599 0.103628 0.367687 -0.340564 0.219543 0.447837 -0.588363 0.0592794 0.132653 -0.246926
4639 -0.0111429 0.0415018 0.158449 0.0968466 0.00607346 0.341097 0.0205471 -0.0827816 -0.207561 -0.430509 -0.290374 -0.143647 0.0091208 -0.37593 -0.151954 0.0721704 0.243572 -0.215336 0.137184 0.317483 -0.428598 0.0456547 0.112199 -0.148476
8868 -0.0222094 0.0425298 0.235696 0.132215 0.0716514 0.574515 0.056168 -0.198268 -0.26782 -0.628007 -0.444685 -0.248512 -0.0014078 -0.632431 -0.277732 0.0533507 0.392429 -0.444005 0.254513 0.468255 -0.587377 -0.00111128 0.236403 -0.30793
9740 0.0230986 0.034401 0.226273 0.138817 0.045609 0.479593 -0.00522769 -0.113665 -0.296768 -0.589358 -0.423718 -0.22668 0.0303563 -0.555032 -0.245555 0.0985822 0.369077 -0.333415 0.207564 0.369342 -0.550556 -0.00697332 0.184043 -0.25804
1186 -0.00269985 0.0218358 0.186757 0.0978401 -0.0129663 0.331348 0.0223401 -0.0819613 -0.192789 -0.409817 -0.273775 -0.157555 0.00179443 -0.386485 -0.159615 0.0674381 0.236941 -0.224985 0.174108 0.31833 -0.402155 0.0293634 0.10709 -0.168101
2241 0.0347741 0.0252114 0.314123 0.202134 0.0357726 0.602238 -0.00924745 -0.167926 -0.383317 -0.759583 -0.535958 -0.291329 0.0115847 -0.706322 -0.351642 0.137317 0.487042 -0.473645 0.2944 0.529494 -0.711175 -0.0409212 0.230637 -0.297306
3051 -0.0165386 0.0640315 0.225101 0.131691 -0.0255952 0.434514 0.0220536 -0.134655 -0.255473 -0.530186 -0.321 -0.173225 -0.0299025 -0.506054 -0.223797 0.0940474 0.318176 -0.290605 0.198868 0.430488 -0.507778 0.0723831 0.115593 -0.228029
9203 0.0282767 0.0474843 0.235263 0.120903 0.0153478 0.48369 0.039767 -0.154467 -0.288118 -0.606463 -0.424863 -0.251165 -0.0215631 -0.564089 -0.27874 0.081514 0.375551 -0.39014 0.238457 0.422282 -0.554322 -0.0123657 0.161506 -0.248677
9578 0.0390727 0.0383225 0.227401 0.144609 0.0546542 0.439884 -0.00711546 -0.11741 -0.273013 -0.54598 -0.400651 -0.224949 0.0192985 -0.48569 -0.260305 0.0915843 0.351342 -0.341435 0.223273 0.36929 -0.494267 -0.000124825 0.164078 -0.217609
9997 -0.189333 -0.00782874 0.351526 0.370221 0.126982 0.644086 -0.470709 0.0367085 -0.316093 -0.716462 -0.601102 0.026751 0.158409 -0.764182 -0.221505 0.305502 0.0756136 -0.109272 0.11451 0.171693 -0.88849 -0.114069 0.0033 -0.247362
10178 0.0202993 -0.0100717 0.264437 0.178628 0.0949653 0.549888 -0.0717684 -0.0956245 -0.262986 -0.599001 -0.445244 -0.197833 0.0611325 -0.580004 -0.258827 0.141642 0.339527 -0.321147 0.210419 0.298141 -0.57502 -0.0723905 0.139159 -0.226668
10293 0.133121 -0.126151 0.201117 0.197891 0.197194 0.518706 -0.0720819 -0.134396 -0.292158 -0.592579 -0.549753 -0.272264 0.0462263 -0.502636 -0.302536 0.106744 0.442182 -0.4387 0.219695 0.237644 -0.528183 -0.245772 0.277534 -0.243492
10311 0.165305 -0.145147 0.156569 0.202228 0.181076 0.454913 -0.0533793 -0.137212 -0.243877 -0.577977 -0.589766 -0.301119 0.0446096 -0.528785 -0.311808 0.128907 0.446166 -0.465053 0.230959 0.208215 -0.526139 -0.306881 0.336592 -0.266
11 -0.00582625 0.0669157 0.175789 0.0946845 0.00524571 0.328835 0.0147113 -0.0826946 -0.201333 -0.429674 -0.261463 -0.140227 -0.029357 -0.38582 -0.174899 0.0613672 0.250519 -0.232615 0.162919 0.341003 -0.394045 0.0553404 0.0950088 -0.165132
3690 0.00668675 0.0174974 0.264188 0.182575 0.0303207 0.526669 -0.00536222 -0.134316 -0.33314 -0.630628 -0.439404 -0.218039 0.012592 -0.594854 -0.280851 0.0870999 0.378353 -0.3905 0.243477 0.452505 -0.618146 -0.00404571 0.174235 -0.259499
8486 -0.0109578 0.0603114 0.245462 0.121944 -0.0105598 0.484772 0.00130658 -0.110738 -0.278735 -0.59411 -0.42708 -0.218216 0.0102921 -0.57777 -0.26724 0.0987574 0.353878 -0.331407 0.231902 0.408659 -0.599925 0.0140526 0.144805 -0.249951
1196 0.0195182 0.00910576 0.18719 0.102044 0.0213157 0.382185 0.0154242 -0.12008 -0.213995 -0.475231 -0.320442 -0.169431 0.0182482 -0.432224 -0.199459 0.067325 0.295856 -0.276735 0.186902 0.343176 -0.469884 0.0199651 0.112024 -0.192994
2599 -0.0317014 0.0673537 0.282633 0.147443 0.00858931 0.532662 0.0292503 -0.140321 -0.314601 -0.644349 -0.451221 -0.241492 -0.00944381 -0.642124 -0.278761 0.0903649 0.399837 -0.392652 0.251743 0.521466 -0.686082 0.0511103 0.158708 -0.270342
1627 -0.0211094 0.0378347 0.196204 0.113712 0.00247278 0.41589 0.0372865 -0.11202 -0.25907 -0.497067 -0.34301 -0.188929 -0.00523101 -0.471993 -0.228827 0.0636976 0.29581 -0.316831 0.194024 0.3856 -0.479985 0.0282962 0.121119 -0.208818
4211 0.0143299 0.0603656 0.258851 0.159374 0.0164802 0.523601 0.0184026 -0.160291 -0.346391 -0.656361 -0.474501 -0.243881 -0.0112115 -0.594183 -0.296803 0.0807534 0.446178 -0.401533 0.286281 0.505717 -0.666597 0.0346872 0.146791 -0.269735
4700 -0.00228771 0.0021197 0.226036 0.135575 0.0258319 0.458158 0.0138051 -0.11479 -0.258975 -0.554985 -0.424355 -0.235718 0.0237298 -0.537395 -0.26033 0.112417 0.342179 -0.329858 0.236385 0.384075 -0.5523 -0.0108901 0.154663 -0.226856
6127 -0.00354801 0.0469178 0.178516 0.133743 0.000423266 0.389248 0.0311189 -0.101621 -0.253697 -0.515479 -0.353656 -0.202044 -0.00961867 -0.454073 -0.229407 0.0647524 0.301693 -0.311706 0.188139 0.377279 -0.480196 0.0229813 0.129077 -0.207228
6141 0.0368457 0.0409354 0.275389 0.189399 0.0524543 0.582288 0.0444392 -0.148942 -0.419748 -0.802025 -0.612472 -0.306852 -0.0236364 -0.692841 -0.373965 0.147784 0.517794 -0.481651 0.311965 0.589471 -0.756929 -0.0105305 0.180237 -0.32066
6557 0.0949484 -0.084867 0.147565 0.14319 0.128076 0.420002 -0.0362195 -0.10639 -0.219266 -0.462712 -0.420233 -0.201646 0.0312657 -0.430594 -0.240696 0.0891785 0.339605 -0.318214 0.158601 0.23448 -0.408056 -0.170974 0.189035 -0.21436
5445 -0.0539055 0.117972 0.173437 0.0781718 -0.0157101 0.346515 0.0524005 -0.112516 -0.214462 -0.415927 -0.235387 -0.141682 -0.00901133 -0.393212 -0.149897 0.0345046 0.254247 -0.238065 0.156588 0.363341 -0.412008 0.109775 0.0633953 -0.164445
6074 -0.00126141 0.0651562 0.274648 0.165572 -0.0102167 0.521068 0.0496752 -0.169816 -0.337942 -0.702133 -0.486587 -0.253109 0.00364213 -0.654358 -0.302985 0.127353 0.426761 -0.39932 0.253887 0.511951 -0.657397 0.0375148 0.173296 -0.276435
6581 -0.0302092 0.0586153 0.224759 0.147631 -0.0332896 0.445874 0.0552005 -0.119659 -0.27697 -0.577305 -0.367229 -0.197077 -0.0223985 -0.543497 -0.211722 0.0656176 0.34482 -0.326681 0.232822 0.431365 -0.554599 0.0681699 0.122569 -0.222174
735 0.00620885 0.0721397 0.193963 0.093198 -0.00736466 0.314684 0.0493872 -0.097718 -0.220497 -0.4569 -0.306568 -0.182612 -0.00283736 -0.40687 -0.202552 0.039844 0.249993 -0.248399 0.19322 0.349685 -0.405518 0.0516507 0.117603 -0.187977
3526 0.0294768 0.00158007 0.299033 0.201833 0.0337864 0.631162 0.0170632 -0.191975 -0.348004 -0.781385 -0.539475 -0.293191 -0.00212421 -0.729383 -0.327053 0.112786 0.480431 -0.457822 0.307084 0.528767 -0.726185 -0.010778 0.209946 -0.3062
6100 0.0193885 0.0187186 0.182665 0.0971867 0.0146298 0.397387 0.000610225 -0.129328 -0.189084 -0.449165 -0.317842 -0.166695 -0.00604328 -0.439185 -0.216611 0.0877788 0.280342 -0.285117 0.164411 0.320453 -0.424566 0.00911243 0.157339 -0.203439
1524 -0.0026092 -0.0517963 0.152802 0.117723 0.0411944 0.324598 -0.0780988 -0.0645396 -0.146412 -0.336166 -0.301259 -0.107026 0.0536779 -0.457132 -0.155246 0.112963 0.184928 -0.17922 0.121571 0.197129 -0.444191 -0.0577946 0.100745 -0.181523
2358 0.00681992 0.0338367 0.298407 0.18355 0.0636026 0.577548 0.00259727 -0.168664 -0.339986 -0.733228 -0.556331 -0.279711 0.0275856 -0.6798 -0.34082 0.136008 0.476946 -0.457793 0.284968 0.508278 -0.722019 -0.0397225 0.214628 -0.292151
6798 0.00273949 0.0470244 0.20608 0.12731 0.0166322 0.390978 0.00516491 -0.126876 -0.224451 -0.473798 -0.331761 -0.185471 0.020503 -0.437269 -0.227551 0.0778094 0.320089 -0.289598 0.168661 0.358955 -0.473062 0.0256718 0.116746 -0.213257
4340 0.02215 0.0416518 0.190334 0.124963 0.0188874 0.413838 0.0207194 -0.0975075 -0.249402 -0.530065 -0.38242 -0.179872 -0.00360202 -0.485154 -0.217345 0.0876692 0.340124 -0.301832 0.196458 0.389057 -0.527624 -0.0136391 0.136845 -0.191509
9720 0.256526 -0.285948 0.161426 0.247581 0.297981 0.582758 -0.128975 -0.151339 -0.297709 -0.600917 -0.719205 -0.376921 0.0748022 -0.54119 -0.383464 0.128126 0.575606 -0.582494 0.232378 0.10842 -0.497846 -0.501881 0.400567 -0.302717
2205 0.00364575 0.0562493 0.305711 0.191906 0.0245383 0.589678 0.014452 -0.139883 -0.365056 -0.712242 -0.48319 -0.239091 -0.0176112 -0.681694 -0.297913 0.127245 0.433579 -0.404417 0.280323 0.521744 -0.697352 0.0250656 0.166577 -0.276133
2421 -0.0335276 0.0540765 0.253177 0.153411 0.021901 0.444356 0.00861388 -0.12611 -0.290128 -0.606525 -0.385108 -0.224833 -0.00613978 -0.52298 -0.266022 0.0857034 0.3647 -0.329294 0.246738 0.441807 -0.57527 0.0587848 0.130043 -0.247791
8270 -0.0125833 0.0937487 0.32635 0.0652971 -0.0838787 0.666587 -0.00146976 -0.10605 -0.279541 -0.74372 -0.221013 -0.235227 -0.0401477 -0.830681 -0.0932412 0.0178507 0.302472 -0.379828 0.133737 0.464851 -0.595261 0.150775 0.135977 -0.360005
3416 -0.037609 0.0939419 0.204407 0.109968 -0.0309387 0.38637 0.0570658 -0.135512 -0.264147 -0.505078 -0.294919 -0.163775 -0.0260942 -0.466172 -0.211552 0.0749119 0.285385 -0.28918 0.212262 0.440528 -0.512722 0.122531 0.0914145 -0.198511
4247 0.00224138 0.0257714 0.249951 0.17592 0.057527 0.506787 0.00773084 -0.142552 -0.280335 -0.614069 -0.450844 -0.247573 0.0101955 -0.593214 -0.282491 0.107091 0.37475 -0.378004 0.252289 0.410605 -0.60594 -0.0235773 0.200203 -0.244666
5030 0.00206893 0.0621242 0.267581 0.166666 0.00973083 0.531804 0.0464957 -0.156352 -0.338691 -0.662187 -0.485554 -0.245213 -0.00424672 -0.626237 -0.290477 0.126146 0.434413 -0.440866 0.270576 0.506689 -0.683773 0.0443899 0.156339 -0.288682
2703 -0.0512086 0.1259 0.198066 0.0853288 -0.0493181 0.344977 0.0571459 -0.0993865 -0.200309 -0.412694 -0.237385 -0.147374 -0.0355303 -0.382751 -0.143709 0.078366 0.246223 -0.209412 0.181722 0.395265 -0.453757 0.133896 0.0423848 -0.148536
4839 0.0182042 0.135272 0.277943 0.144288 -0.00916913 0.544973 0.0798315 -0.152519 -0.373925 -0.773527 -0.5646 -0.328291 -0.0223206 -0.637896 -0.368678 0.0894989 0.499995 -0.484945 0.332828 0.627905 -0.733523 0.100005 0.184241 -0.290932
5001 -0.00665562 0.0409037 0.222483 0.115416 0.0178791 0.401365 0.0421169 -0.109296 -0.254375 -0.528914 -0.356547 -0.200079 -0.0228907 -0.479214 -0.242982 0.0648599 0.325292 -0.322022 0.201772 0.398026 -0.516142 0.0243315 0.128312 -0.216065
4435 -0.0695318 0.0954396 0.178231 0.0976166 -0.0498473 0.287875 0.0151661 -0.058804 -0.187545 -0.408438 -0.232645 -0.133867 0.00781279 -0.391441 -0.136891 0.0851531 0.208862 -0.203975 0.154454 0.363098 -0.439038 0.103505 0.0617936 -0.122406
8610 -0.03974 0.0192713 0.250445 0.133658 -0.00217057 0.499064 0.042129 -0.140483 -0.288766 -0.579407 -0.370845 -0.184625 0.0456415 -0.606249 -0.220232 0.0815503 0.325779 -0.316433 0.227113 0.402316 -0.572848 0.0353981 0.14957 -0.20402
3801 -0.0271351 0.0736238 0.223337 0.123511 0.0141463 0.432224 0.00379316 -0.132887 -0.295473 -0.564371 -0.368065 -0.213517 -0.0195711 -0.514535 -0.21433 0.10727 0.328634 -0.305065 0.22614 0.422376 -0.552962 0.060574 0.118021 -0.202835
5092 0.00384272 0.0520606 0.250636 0.157246 0.00440381 0.505654 0.00112244 -0.140234 -0.327204 -0.62349 -0.430202 -0.225638 -0.0123257 -0.602672 -0.295654 0.125682 0.417951 -0.381544 0.252174 0.46192 -0.644947 0.00510513 0.182381 -0.237598
6624 0.00912282 0.0287441 0.209141 0.162435 0.0417066 0.481391 -0.00172433 -0.103934 -0.263885 -0.560939 -0.415804 -0.193252 -0.00413016 -0.545098 -0.231783 0.115982 0.366387 -0.353951 0.205308 0.404092 -0.575018 -0.00371126 0.173036 -0.248021
6957 -0.0249996 0.0869882 0.19232 0.111071 -0.0139882 0.322774 0.0440028 -0.113238 -0.244724 -0.459754 -0.269699 -0.167101 -0.0321371 -0.41845 -0.181175 0.0752145 0.246267 -0.225849 0.15467 0.363711 -0.442098 0.0976594 0.0640199 -0.167163
7701 0.0206802 0.00204151 0.234607 0.159043 0.0662282 0.519226 0.0099172 -0.129591 -0.273982 -0.607038 -0.460384 -0.253829 0.0166138 -0.569207 -0.270764 0.0924615 0.371065 -0.398726 0.218444 0.395797 -0.562301 -0.0700879 0.181861 -0.269903
8857 0.00522859 0.0548474 0.249012 0.16317 0.021366 0.456394 0.0218386 -0.116783 -0.277422 -0.560784 -0.400791 -0.215375 0.00271412 -0.530876 -0.2418 0.10075 0.386461 -0.354426 0.23117 0.418793 -0.55518 0.00224259 0.135131 -0.242426
4719 0.00686502 -0.00149345 0.191228 0.115487 0.0404668 0.402362 -0.0103376 -0.0877542 -0.234613 -0.494731 -0.356774 -0.177177 0.00843569 -0.458281 -0.195022 0.0639875 0.300909 -0.317867 0.201295 0.313908 -0.474929 -0.0315559 0.140344 -0.201734
5749 0.0179356 0.0343467 0.202109 0.127931 0.0296091 0.455456 0.0255736 -0.145546 -0.302604 -0.570816 -0.419323 -0.203554 0.00946298 -0.506591 -0.265748 0.0803744 0.369267 -0.362731 0.200451 0.441987 -0.53508 0.0296187 0.143771 -0.216133
3936 -0.0419885 0.101339 0.268637 0.154021 -0.0062774 0.472519 0.0390112 -0.128393 -0.30567 -0.623147 -0.380806 -0.217181 -0.0089488 -0.556252 -0.247993 0.10559 0.345451 -0.337091 0.227693 0.495216 -0.592431 0.0775373 0.125821 -0.218596
6373 -0.010549 0.115597 0.230661 0.12212 -0.00327726 0.501815 0.0642936 -0.158211 -0.353796 -0.653597 -0.481571 -0.26003 -0.0186804 -0.585392 -0.290815 0.0865371 0.429212 -0.39707 0.257157 0.530963 -0.646788 0.044975 0.142705 -0.247711
7641 -0.0289687 0.0556346 0.226276 0.149344 -0.0136428 0.446897 0.042862 -0.105061 -0.257758 -0.558514 -0.376263 -0.219604 -0.0151482 -0.54419 -0.240699 0.107705 0.325092 -0.337776 0.234546 0.416107 -0.569152 0.0588762 0.137206 -0.232034
404 -0.0173533 0.0814009 0.15355 0.077989 0.000516658 0.337195 0.0172035 -0.0964681 -0.22873 -0.44121 -0.306457 -0.171265 -0.0122493 -0.382359 -0.181912 0.0777813 0.28326 -0.276924 0.180831 0.364382 -0.441777 0.0735689 0.0716649 -0.145224
8118 -0.00160778 0.0915369 0.248517 0.130643 0.0109876 0.436788 0.0374313 -0.141115 -0.32412 -0.627412 -0.435519 -0.226215 -0.0170733 -0.550919 -0.24198 0.10686 0.371754 -0.341031 0.247036 0.460613 -0.563728 0.0454295 0.128787 -0.21905
7319 -0.00321934 0.00821721 0.209486 0.152043 0.0171464 0.442886 -0.00854496 -0.113074 -0.244825 -0.518939 -0.38889 -0.180495 0.0285361 -0.528715 -0.243286 0.096349 0.30835 -0.308587 0.1806 0.378286 -0.517538 -0.00837905 0.148326 -0.210133
10140 -0.0883839 -0.184646 0.472809 0.221251 0.0990035 0.814305 0.0854969 -0.388901 -0.0930631 -0.519689 -0.164632 -0.195245 0.0673165 -0.797636 -0.240218 -0.0382914 0.256849 -0.379894 0.170185 0.238991 -0.436919 -0.113619 0.416836 -0.424804
10271 -0.133035 0.0758428 0.459551 0.5192 0.138028 1.22812 -0.197153 -0.167675 -0.421119 -0.760508 -0.336715 -0.135927 0.193026 -0.621766 -0.180974 -0.10352 0.0271493 -0.0767124 0.317515 -0.005065 -0.202984 -0.0919579 0.407603 -0.348972
10235 0.0128321 -0.26648 0.385195 0.228735 0.197532 0.831215 -0.0239809 -0.293967 -0.0955257 -0.510127 -0.309669 -0.228259 0.119585 -0.82437 -0.252163 0.0450652 0.303759 -0.335791 0.134194 0.150992 -0.467043 -0.244648 0.465024 -0.406689
10297 -0.51167 0.206567 0.811573 0.91747 0.446295 1.35879 -0.711597 0.0105831 -0.270801 -1.04341 -0.707065 -0.0251182 0.342681 -0.841737 -0.182149 0.502722 -0.435525 0.121856 -0.186565 -0.0104269 -0.517733 0.0429824 0.241578 -0.0910185
10310 -0.0895516 -0.189175 0.82097 0.566468 0.437378 1.41701 -0.244458 -0.418323 -0.00458692 -0.798379 -0.461449 -0.175358 0.276049 -0.888036 -0.0682663 0.0822272 0.0432556 -0.190576 -0.0591613 0.0899447 -0.30979 -0.307426 0.649082 -0.524783
9531 0.0135257 -0.0101657 0.233201 0.172046 0.0594363 0.443444 -0.0149041 -0.11927 -0.288183 -0.559836 -0.400002 -0.21055 0.0105087 -0.521972 -0.246594 0.091566 0.366059 -0.370561 0.23092 0.371814 -0.528417 -0.0240731 0.153316 -0.236304
10040 0.0369397 -0.00646122 0.210615 0.137121 0.0529022 0.429066 0.016594 -0.125491 -0.24935 -0.547637 -0.362969 -0.199692 0.00886162 -0.510123 -0.233124 0.0841846 0.315447 -0.330775 0.218585 0.336892 -0.488711 -0.0422295 0.178879 -0.240674
10167 -0.054479 -0.189475 0.427751 0.276048 0.0192928 0.628049 -0.0321995 -0.192653 -0.156539 -0.512226 -0.390791 -0.187726 0.0486245 -0.746066 -0.183879 0.0665226 0.286692 -0.412403 0.104941 0.195467 -0.56275 -0.307362 0.321711 -0.392675
6780 -0.0255345 0.0269789 0.207053 0.122935 0.00485493 0.379499 0.00867126 -0.0719637 -0.20986 -0.421492 -0.303633 -0.137502 0.019503 -0.450104 -0.169635 0.076347 0.235051 -0.241346 0.153446 0.331498 -0.494083 0.0338243 0.108537 -0.167003
7806 -0.0085775 0.089529 0.23893 0.145404 0.053659 0.469177 0.00271605 -0.11361 -0.335377 -0.665001 -0.530997 -0.273028 0.0152434 -0.585765 -0.294096 0.126108 0.420787 -0.389289 0.270005 0.508623 -0.675372 0.0394082 0.170834 -0.248673
8775 0.0124918 0.0491352 0.262684 0.172227 0.0166384 0.511862 0.00910782 -0.139429 -0.308158 -0.65107 -0.471112 -0.270406 -0.00846124 -0.578835 -0.271687 0.0698664 0.397856 -0.395869 0.236013 0.459072 -0.615458 -0.0078232 0.168528 -0.260477
5161 -0.0137443 0.0471058 0.174999 0.0963206 0.0286849 0.329498 0.0198103 -0.106802 -0.221802 -0.433451 -0.310827 -0.1542 -0.00708213 -0.390579 -0.180901 0.0507877 0.291976 -0.286834 0.164876 0.305252 -0.42479 0.0139253 0.119292 -0.172297
8060 0.107089 -0.050874 0.242737 0.184663 0.0943742 0.575237 -0.0375805 -0.164405 -0.305642 -0.692691 -0.581229 -0.295095 0.0388194 -0.649314 -0.339906 0.147291 0.48264 -0.471501 0.276772 0.377341 -0.626548 -0.143492 0.252627 -0.278914
8092 0.00354377 0.0449759 0.256847 0.160314 0.0180594 0.518326 0.0177305 -0.16781 -0.277364 -0.622426 -0.421878 -0.244126 -0.00766374 -0.596043 -0.262828 0.0816915 0.369851 -0.369937 0.214822 0.416516 -0.570581 0.0379567 0.162918 -0.266312
5675 -0.0462384 0.0904535 0.198772 0.100393 -0.0197746 0.387699 0.0244973 -0.0846626 -0.241538 -0.498286 -0.318549 -0.159677 0.00214822 -0.484745 -0.216673 0.0727182 0.290621 -0.297649 0.1984 0.422208 -0.508601 0.0895137 0.0835404 -0.171698
6332 0.0189583 0.0209637 0.229163 0.129556 0.0225591 0.479953 0.0404191 -0.116589 -0.31043 -0.6165 -0.421675 -0.233647 0.0155984 -0.559934 -0.266589 0.0921168 0.379727 -0.368643 0.230743 0.423974 -0.592401 0.00870428 0.178582 -0.239682
6380 -0.000459764 0.0593729 0.221185 0.164792 0.0342835 0.485771 0.00446621 -0.130349 -0.31764 -0.581298 -0.432143 -0.215889 0.0115119 -0.561022 -0.257889 0.10938 0.374488 -0.328638 0.238217 0.420365 -0.603064 0.0350804 0.135947 -0.233528
3053 -0.0645967 0.116678 0.194421 0.100273 -0.0282688 0.307343 0.0546738 -0.0996313 -0.215112 -0.424893 -0.268889 -0.123877 -0.013445 -0.415471 -0.16213 0.0539159 0.259478 -0.214645 0.172574 0.362405 -0.419194 0.0847802 0.0795257 -0.161477
3832 0.02601 0.00972868 0.23778 0.153537 0.0371088 0.537231 -0.00336442 -0.125042 -0.305441 -0.621578 -0.480569 -0.254648 0.00413876 -0.627875 -0.265461 0.115698 0.397817 -0.402187 0.253657 0.455792 -0.643878 -0.029641 0.166659 -0.246006
4312 -0.0343907 0.112721 0.206032 0.0959845 -0.0384773 0.405074 0.0640962 -0.0942508 -0.279264 -0.511668 -0.306411 -0.185039 -0.04423 -0.484653 -0.188145 0.065507 0.276168 -0.271357 0.207768 0.477716 -0.529447 0.155534 0.0771253 -0.194116
4400 0.00244003 0.0167024 0.1965 0.101126 0.0057706 0.368914 -0.00631731 -0.108265 -0.223072 -0.45866 -0.324461 -0.160612 0.0179534 -0.449758 -0.199573 0.0630307 0.268161 -0.284189 0.184867 0.339476 -0.471965 0.00581763 0.120354 -0.191248
9188 0.00506536 0.103612 0.210792 0.111219 0.022201 0.426875 0.0637332 -0.108173 -0.339637 -0.691477 -0.529599 -0.305978 -0.0730239 -0.501983 -0.321135 0.070008 0.424931 -0.446825 0.321435 0.513721 -0.620608 0.0681912 0.129729 -0.265005
9218 0.00632471 0.000937235 0.221738 0.166196 0.0390962 0.426029 -0.0137995 -0.126487 -0.253664 -0.508397 -0.371244 -0.21771 0.0275229 -0.518983 -0.232603 0.0946128 0.338537 -0.346374 0.214827 0.348261 -0.492645 -0.0170568 0.162035 -0.230322
861 -0.057162 0.10086 0.207572 0.110211 -0.0257101 0.367482 0.0447322 -0.103113 -0.248793 -0.462785 -0.291775 -0.143373 -0.0146975 -0.464936 -0.183462 0.0751457 0.266599 -0.272407 0.169284 0.39734 -0.475485 0.0698438 0.0901318 -0.176876
4723 0.0137121 0.0242321 0.262293 0.150956 0.0453191 0.5457 0.0112182 -0.134674 -0.314676 -0.657206 -0.454386 -0.247457 0.0126609 -0.612383 -0.261988 0.112063 0.4117 -0.395335 0.260768 0.45465 -0.650899 0.000974003 0.188787 -0.25536
5405 -0.00121807 0.0301343 0.228242 0.145855 0.0383394 0.418435 0.00670109 -0.129786 -0.278852 -0.536005 -0.384905 -0.215717 -0.00138915 -0.515799 -0.246827 0.113154 0.351631 -0.329041 0.20398 0.371845 -0.551422 -0.00399531 0.133437 -0.205943
4681 -0.137481 0.19554 0.209176 0.0975037 -0.0920924 0.359855 0.0742643 -0.102081 -0.264922 -0.472988 -0.208548 -0.117154 -0.0323961 -0.463031 -0.157742 0.0653882 0.211372 -0.215076 0.182601 0.508333 -0.475631 0.253638 0.0147908 -0.162907
8624 -0.0319954 0.0131363 0.231811 0.144145 0.0205339 0.474343 -0.0100369 -0.12505 -0.256961 -0.528228 -0.406235 -0.185204 0.0401367 -0.560013 -0.230922 0.115813 0.317111 -0.282767 0.20675 0.374365 -0.589966 -0.00614558 0.136623 -0.242661
5013 -0.0287394 0.08495 0.23661 0.108193 -0.0204274 0.41058 0.0533402 -0.108525 -0.278476 -0.520796 -0.315133 -0.147864 -0.0228276 -0.500065 -0.217307 0.0831762 0.294712 -0.261929 0.215801 0.424533 -0.518998 0.103571 0.099843 -0.20325
9787 0.0374231 -0.0450812 0.22607 0.172361 0.102113 0.472067 -0.0190784 -0.126525 -0.248222 -0.536757 -0.431098 -0.200582 0.0312753 -0.496031 -0.260631 0.104828 0.319845 -0.362372 0.181132 0.291088 -0.490408 -0.0898869 0.194384 -0.231568
6673 -0.00530958 0.0471915 0.199937 0.141588 0.0267976 0.382087 -0.000701875 -0.107515 -0.246375 -0.501477 -0.348942 -0.186388 -0.00838788 -0.492066 -0.203416 0.0780491 0.327468 -0.315297 0.189311 0.374123 -0.49577 -0.00089819 0.124191 -0.186045
7350 -0.0226854 0.0767637 0.2159 0.117189 0.00976014 0.432148 0.0162083 -0.104976 -0.297915 -0.580302 -0.385133 -0.203702 -0.0161001 -0.544053 -0.214762 0.0790024 0.332407 -0.334707 0.216159 0.420751 -0.556285 0.0776855 0.130908 -0.228804
8471 -0.0033766 0.0388534 0.246253 0.14967 -0.0190315 0.459762 0.0232107 -0.136594 -0.282263 -0.617209 -0.412557 -0.208647 -0.00139272 -0.594802 -0.247356 0.117086 0.384728 -0.342249 0.239882 0.43772 -0.569825 0.0526986 0.178646 -0.218824
6019 -0.0054891 0.0390453 0.190962 0.108266 0.0259745 0.365634 0.0126387 -0.100067 -0.225793 -0.437189 -0.31726 -0.18641 -0.0128154 -0.412861 -0.199208 0.0971845 0.279893 -0.287147 0.161779 0.321506 -0.461887 0.0012878 0.130476 -0.198169
8194 -0.0176732 -0.0257979 0.248188 0.185833 0.0531137 0.517196 -0.0307147 -0.148513 -0.274753 -0.578269 -0.455666 -0.219685 0.0415418 -0.66954 -0.271657 0.13629 0.377059 -0.358577 0.211649 0.359175 -0.641063 -0.0548979 0.161094 -0.278221
8976 0.0171724 0.0447364 0.232339 0.167573 0.0485626 0.482803 0.0226432 -0.134907 -0.282173 -0.588496 -0.428083 -0.212335 4.83742e-05 -0.53054 -0.239296 0.110677 0.37754 -0.355918 0.198512 0.395515 -0.561291 -0.0161308 0.165408 -0.226574
7571 0.144267 -0.125861 0.0946263 0.152305 0.151758 0.368988 -0.0345783 -0.108142 -0.220219 -0.425434 -0.459804 -0.231068 0.0356187 -0.338229 -0.281479 0.0702229 0.383166 -0.393341 0.168538 0.173986 -0.358146 -0.251694 0.221512 -0.202467
0 -0.753429 0.993643 0.956232 1.33454 1.1691 2.24071 -0.546662 -0.500699 -0.769136 -1.87078 -1.12749 -0.538472 -0.140093 0.22944 -0.347768 0.105496 0.0925831 -0.164989 0.349882 0.371147 -0.130619 0.178059 0.410871 -0.261329
7608 0.00124051 0.0302441 0.223987 0.136975 0.0409449 0.503626 0.0228483 -0.136501 -0.289188 -0.563808 -0.448774 -0.241669 -0.0082179 -0.563471 -0.249373 0.0981601 0.381266 -0.344958 0.218371 0.393131 -0.598182 -0.0337576 0.158567 -0.250674
9263 -0.000486073 0.00683897 0.276067 0.162934 0.0351334 0.491218 -0.0192421 -0.150994 -0.292004 -0.619155 -0.424211 -0.218716 0.0284886 -0.618177 -0.248238 0.0952425 0.371404 -0.380156 0.23054 0.408281 -0.611664 -0.0452805 0.202524 -0.263068
9890 -0.0121694 -0.0748762 0.290671 0.188074 0.0965945 0.604119 -0.0425946 -0.113727 -0.192416 -0.549423 -0.379533 -0.149206 0.0853512 -0.752486 -0.189082 0.141835 0.310382 -0.238466 0.191481 0.264299 -0.649091 -0.081025 0.248431 -0.250481
6112 0.0073999 0.0397251 0.236261 0.129121 0.0281861 0.467216 0.00711226 -0.10758 -0.303377 -0.598105 -0.383318 -0.19379 -0.0255745 -0.554287 -0.261813 0.100262 0.352345 -0.332531 0.226102 0.445562 -0.593513 0.0396016 0.148435 -0.257412
6959 -0.0153661 0.106645 0.268799 0.153379 -0.0244656 0.545152 0.0300498 -0.163041 -0.368779 -0.7644 -0.518483 -0.287043 -0.0155549 -0.619986 -0.327998 0.0952279 0.483845 -0.473668 0.30971 0.61776 -0.716937 0.0837432 0.184814 -0.28547
7385 -0.0155437 0.0505393 0.225765 0.157266 0.0248667 0.473209 0.0299953 -0.122664 -0.271105 -0.583403 -0.398072 -0.187474 -0.00738832 -0.566726 -0.247286 0.0876488 0.360916 -0.352964 0.222742 0.420817 -0.58292 0.0471465 0.155054 -0.244688
4228 -0.0591796 0.10795 0.205568 0.111653 -0.00871589 0.345111 0.0295809 -0.104855 -0.207851 -0.445559 -0.25861 -0.146662 -0.019188 -0.419342 -0.168798 0.0810404 0.247953 -0.222085 0.175169 0.355711 -0.461416 0.120599 0.0617651 -0.17329
7955 -0.0272352 0.0412568 0.244127 0.121491 -0.00528194 0.444297 0.0292247 -0.139594 -0.276516 -0.573516 -0.38859 -0.189716 -0.0178523 -0.54477 -0.256679 0.0818325 0.346537 -0.336026 0.209929 0.406025 -0.56595 0.0339109 0.142274 -0.232828
6615 0.0150939 0.0354427 0.232851 0.15586 0.0515173 0.450298 -0.00648455 -0.105843 -0.286095 -0.557184 -0.392024 -0.219245 -0.00868214 -0.536904 -0.255342 0.094292 0.351112 -0.329893 0.225238 0.379634 -0.553338 -0.0213504 0.160145 -0.235056
6654 -0.0497701 0.123943 0.209718 0.137421 -0.0384903 0.426506 0.0605172 -0.115896 -0.305722 -0.574256 -0.338063 -0.204869 -0.0163211 -0.53463 -0.24109 0.0681629 0.324483 -0.298276 0.203083 0.457339 -0.565219 0.0892813 0.104989 -0.193555
9472 -0.0272162 0.0191378 0.257173 0.154231 0.0121976 0.538544 0.0546208 -0.181371 -0.260241 -0.563516 -0.379079 -0.192055 0.00916421 -0.589038 -0.256105 0.0788584 0.341103 -0.337283 0.240127 0.404181 -0.557202 -0.00875825 0.194777 -0.249294
10109 0.0098598 -0.12752 0.301335 0.182417 0.12041 0.674287 0.0250074 -0.261284 -0.174059 -0.523599 -0.289975 -0.197948 0.0575322 -0.710251 -0.270978 0.0166169 0.288834 -0.336082 0.191262 0.23191 -0.479013 -0.11919 0.381031 -0.340221
10130 0.118357 -0.198624 0.211498 0.179325 0.124418 0.528353 -0.0890574 -0.109797 -0.293534 -0.611435 -0.597869 -0.252485 0.0678778 -0.641662 -0.33903 0.170623 0.449331 -0.439409 0.203225 0.218269 -0.60749 -0.308445 0.316699 -0.271007
5718 0.000936176 0.011703 0.222086 0.154797 0.0414604 0.472662 0.00439871 -0.110255 -0.286804 -0.538927 -0.398391 -0.17318 0.0137855 -0.555794 -0.224296 0.124478 0.329832 -0.309199 0.195041 0.372333 -0.575316 0.00137393 0.164339 -0.237069
7305 -0.0110402 0.0336765 0.255697 0.161931 0.0322942 0.503856 -0.00508622 -0.148484 -0.29179 -0.614345 -0.450633 -0.238778 0.0321308 -0.615578 -0.26291 0.130662 0.425646 -0.391097 0.226514 0.470209 -0.656441 0.00974572 0.164668 -0.268132
7702 -0.000858295 0.0112433 0.224087 0.172224 0.0421824 0.483602 0.0222414 -0.118735 -0.294735 -0.585112 -0.436123 -0.225312 0.000855778 -0.598238 -0.252336 0.114942 0.393825 -0.360249 0.245645 0.415932 -0.582579 -0.0119423 0.150363 -0.24893
9083 0.0287185 -0.0216664 0.216992 0.159545 0.0648024 0.449058 -0.0210491 -0.122737 -0.242035 -0.496049 -0.365467 -0.191026 0.0260759 -0.552414 -0.199393 0.129151 0.307775 -0.279933 0.15359 0.264178 -0.530049 -0.0864775 0.175699 -0.218255
9843 -2.81754e-05 0.0198353 0.214962 0.156621 0.0294061 0.49432 -0.0268831 -0.123494 -0.274275 -0.571885 -0.430366 -0.197101 0.0170507 -0.572952 -0.249983 0.0997653 0.37182 -0.35209 0.215414 0.356339 -0.557376 -0.038277 0.172601 -0.22267
9964 0.0684311 -0.0597417 0.201799 0.140063 0.0747778 0.47476 -0.0303763 -0.13858 -0.253262 -0.562078 -0.438217 -0.220157 0.0206628 -0.523782 -0.280861 0.116053 0.379604 -0.369281 0.235884 0.3261 -0.504158 -0.0832521 0.196939 -0.225886
3137 -0.0109963 0.0175268 0.166439 0.126942 0.0245773 0.349688 0.0163005 -0.0928258 -0.226033 -0.47845 -0.327 -0.171505 -0.00364034 -0.434812 -0.215034 0.0699135 0.294496 -0.272656 0.159959 0.34832 -0.444801 0.00346872 0.140393 -0.175057
3198 0.0159932 0.0621452 0.300409 0.194109 0.040144 0.647344 0.0241283 -0.189372 -0.396546 -0.793512 -0.569624 -0.320344 0.0254303 -0.775179 -0.344392 0.141985 0.517544 -0.488572 0.337139 0.589441 -0.787247 -0.00601446 0.202144 -0.314533
3334 0.00128469 -0.0102524 0.314417 0.213916 0.0447353 0.640009 0.000321648 -0.160777 -0.366342 -0.73512 -0.560686 -0.266847 0.0342545 -0.75252 -0.324293 0.133493 0.476942 -0.438499 0.28914 0.498898 -0.743992 -0.0541312 0.232925 -0.296296
8607 0.00565187 0.0437915 0.188325 0.14651 0.00428648 0.381726 0.0223733 -0.0993994 -0.273102 -0.498489 -0.344447 -0.164441 -0.022683 -0.473898 -0.200624 0.0732786 0.32306 -0.299914 0.188831 0.367679 -0.537783 0.0216153 0.108502 -0.189142
8859 -0.00670755 0.0899378 0.270587 0.123565 0.0917566 0.567625 0.0571624 -0.184504 -0.287346 -0.739441 -0.44115 -0.330942 0.0139835 -0.551397 -0.337243 0.049215 0.387832 -0.397584 0.293909 0.519698 -0.574713 0.0801391 0.284093 -0.306957
9479 0.018962 -0.0117235 0.216326 0.150103 0.0503399 0.480582 0.00180775 -0.145014 -0.267827 -0.575387 -0.414291 -0.205234 0.0412239 -0.593857 -0.261129 0.0741337 0.364878 -0.344505 0.215028 0.33597 -0.579597 -0.0356356 0.198821 -0.277212
3601 0.195465 -0.169765 0.102378 0.118521 0.185556 0.362822 -0.0419559 -0.120167 -0.168611 -0.376651 -0.479942 -0.264104 0.0530656 -0.300742 -0.27123 0.0925541 0.378929 -0.41133 0.154868 0.107988 -0.296118 -0.303978 0.288683 -0.177642
6097 0.00794285 0.022067 0.20563 0.136649 0.0349053 0.426438 -0.015664 -0.118554 -0.229068 -0.504465 -0.380216 -0.171974 0.0154696 -0.514268 -0.229986 0.104827 0.322482 -0.299529 0.187092 0.36465 -0.51502 -0.0250808 0.132135 -0.198766
6660 -0.0165643 0.0796385 0.22984 0.131479 0.0153486 0.478612 0.0292403 -0.141103 -0.296332 -0.593694 -0.441462 -0.220062 -0.018702 -0.554939 -0.270566 0.0911917 0.379073 -0.347187 0.222527 0.490309 -0.598087 0.0402692 0.124169 -0.241604
7533 0.00210984 0.0683628 0.233929 0.151675 -0.0217157 0.490943 0.0636342 -0.125196 -0.344732 -0.697917 -0.478387 -0.25376 -0.00693775 -0.617337 -0.28588 0.118216 0.416632 -0.413685 0.281976 0.513225 -0.666529 0.0447053 0.145083 -0.265383
7311 -0.00162482 0.0433077 0.176901 0.13168 0.0251787 0.325081 0.0157606 -0.0915285 -0.220226 -0.438382 -0.311998 -0.165969 0.00736467 -0.413863 -0.188451 0.0624992 0.258296 -0.261576 0.14644 0.313055 -0.432471 0.03273 0.0954015 -0.163556
7376 0.0204395 0.0236035 0.228189 0.155675 0.0186328 0.49348 0.00168305 -0.112419 -0.292125 -0.630823 -0.464036 -0.220087 0.00413582 -0.604004 -0.279027 0.132962 0.427559 -0.391491 0.231937 0.413477 -0.642166 -0.0604448 0.19981 -0.245267
7422 0.00873763 0.0312242 0.270551 0.147799 0.029672 0.489488 -0.00525798 -0.14895 -0.319511 -0.618885 -0.464318 -0.260043 0.000101043 -0.583092 -0.290278 0.132491 0.414403 -0.399823 0.250079 0.42862 -0.624805 -0.0206807 0.17245 -0.269207
9485 0.0142465 -0.0124007 0.189918 0.156883 0.066771 0.454628 -0.0103439 -0.102261 -0.24132 -0.502365 -0.371311 -0.19745 0.0229892 -0.490217 -0.229921 0.0685641 0.310169 -0.309101 0.197666 0.303971 -0.480856 -0.0603651 0.148912 -0.196945
1824 0.0529801 -0.0167777 0.381814 0.268799 0.114784 0.777704 -0.025089 -0.180988 -0.449195 -0.927258 -0.730271 -0.365097 0.0222947 -0.890171 -0.398088 0.170041 0.576183 -0.561939 0.329809 0.557048 -0.92075 -0.121438 0.299906 -0.389655
2652 0.00494278 0.0658241 0.271963 0.171927 0.0166288 0.540634 0.0487503 -0.147748 -0.316162 -0.667986 -0.452272 -0.252918 -0.00770034 -0.632654 -0.299871 0.103179 0.404449 -0.391699 0.252507 0.515106 -0.665194 0.0503403 0.155703 -0.284898
3114 -0.0153304 0.0318316 0.298481 0.177086 0.0105572 0.588632 -0.00197798 -0.165366 -0.328731 -0.689397 -0.480498 -0.259905 0.0130784 -0.67552 -0.286604 0.132891 0.41188 -0.415136 0.274635 0.498637 -0.682653 0.0049441 0.184687 -0.273987
8673 -0.0258845 0.0454773 0.166362 0.126262 0.0196886 0.336865 0.00324818 -0.106906 -0.224979 -0.43528 -0.305746 -0.138542 -0.0202989 -0.405189 -0.172163 0.0899834 0.251191 -0.255483 0.157527 0.351208 -0.442477 0.0643905 0.0816461 -0.185455
9259 0.0257151 0.03836 0.244286 0.16676 0.0149333 0.498246 0.0228324 -0.124145 -0.315378 -0.622729 -0.435787 -0.238222 0.0134535 -0.603513 -0.272666 0.120907 0.382805 -0.403903 0.218527 0.420077 -0.601234 -0.00614894 0.167789 -0.248701
9548 0.027964 -0.0307019 0.234281 0.15541 0.0692758 0.541817 0.0119963 -0.165046 -0.26618 -0.572358 -0.409987 -0.219542 0.0356016 -0.606611 -0.258724 0.0726347 0.355673 -0.376122 0.199886 0.367194 -0.56149 -0.0442352 0.191471 -0.267578
7691 -0.0258848 0.0776244 0.214874 0.1132 -0.00673015 0.396856 0.0469333 -0.0957914 -0.253138 -0.53677 -0.350827 -0.199997 -0.021647 -0.496361 -0.220865 0.0970739 0.346916 -0.318687 0.196364 0.405179 -0.526846 0.0639501 0.126309 -0.215607
9050 0.00360291 -0.0410532 0.229509 0.160858 0.0685312 0.499768 -0.0287302 -0.132883 -0.25533 -0.579717 -0.425721 -0.209251 0.00906532 -0.590938 -0.23441 0.112848 0.370488 -0.377302 0.208214 0.338399 -0.554441 -0.0511529 0.20148 -0.260648
10146 -0.210116 -0.166155 0.324244 0.368819 0.210201 0.766815 -0.390438 0.0508604 -0.276855 -0.614647 -0.540091 -0.0633928 0.341908 -1.1061 -0.123598 0.387477 0.185081 0.0078272 0.118125 0.0549976 -1.01863 -0.180629 0.146764 -0.323515
1161 -0.00308448 0.0512967 0.164669 0.10024 0.0122679 0.282553 0.00295492 -0.0776218 -0.199391 -0.386354 -0.292947 -0.169007 0.00149446 -0.37184 -0.168051 0.0465365 0.277363 -0.262705 0.18184 0.312424 -0.38654 0.00827011 0.118255 -0.148605
3326 -0.0167432 0.0126792 0.2253 0.160086 0.0336095 0.436035 0.0184318 -0.132817 -0.259468 -0.549394 -0.39077 -0.226865 -0.0068114 -0.544008 -0.251019 0.114109 0.326341 -0.345048 0.234274 0.383201 -0.541104 0.00101138 0.153579 -0.225529
1703 -0.00472362 0.013411 0.182758 0.105889 0.0257819 0.370326 -0.0109962 -0.116374 -0.234541 -0.450173 -0.341292 -0.183774 0.0178267 -0.431558 -0.18196 0.0690867 0.303717 -0.283621 0.152003 0.324335 -0.440176 -0.0336046 0.121963 -0.204418
10222 0.0474226 -0.191204 0.308115 0.213604 0.184683 0.668146 -0.0823027 -0.200521 -0.124502 -0.496616 -0.364983 -0.198629 0.0820847 -0.642054 -0.222668 0.10056 0.281716 -0.328365 0.132736 0.191892 -0.448257 -0.220345 0.328444 -0.289061
5792 -0.0347081 0.0436845 0.184871 0.118185 -0.00193585 0.335442 0.0124543 -0.0842782 -0.240568 -0.45929 -0.286595 -0.167692 -0.00600849 -0.42765 -0.193092 0.0795081 0.247519 -0.259336 0.154477 0.34421 -0.440752 0.0514298 0.100278 -0.194579
6825 -0.00326827 0.0229645 0.194524 0.141397 0.00753653 0.39386 0.0292861 -0.131273 -0.245766 -0.498518 -0.343422 -0.190378 -0.00348822 -0.470967 -0.220839 0.0681828 0.314155 -0.326644 0.212801 0.374581 -0.505067 -0.0084244 0.159384 -0.203828
9696 0.0148967 0.0513268 0.222346 0.124832 -0.00411149 0.467336 0.0324771 -0.125171 -0.274429 -0.577765 -0.416754 -0.229812 0.00451026 -0.520629 -0.232455 0.0785654 0.355242 -0.369371 0.216534 0.410169 -0.561926 -0.000186009 0.143854 -0.209214
9907 -0.00286067 -0.000300301 0.219871 0.155747 0.028406 0.464404 -0.0262197 -0.0955799 -0.266371 -0.536408 -0.401781 -0.208766 0.0193921 -0.549221 -0.244575 0.0814092 0.324482 -0.321667 0.208174 0.368611 -0.539936 -0.000464941 0.160937 -0.231966
10038 0.0468042 -0.0760748 0.261373 0.1915 0.112654 0.561218 -0.0742722 -0.11137 -0.235215 -0.549242 -0.459024 -0.187801 0.0598046 -0.576384 -0.246235 0.135827 0.347305 -0.342094 0.167217 0.25643 -0.51976 -0.139223 0.208595 -0.247086
4657 -0.035163 0.0825714 0.191759 0.121689 -0.0139853 0.355138 0.0104916 -0.0936491 -0.207093 -0.448125 -0.279669 -0.134363 -0.000343249 -0.424954 -0.194181 0.0664603 0.266661 -0.254427 0.16172 0.337823 -0.444165 0.0664963 0.0952569 -0.180023
8095 0.0177145 0.0744845 0.246599 0.152015 0.0194722 0.500329 0.0180156 -0.139783 -0.38309 -0.682216 -0.500706 -0.275514 -0.0222155 -0.608604 -0.286848 0.16497 0.453627 -0.388939 0.234867 0.493233 -0.677225 -0.0210228 0.15242 -0.263359
8360 0.0621624 -0.0238021 0.230092 0.172065 0.0837567 0.502656 -0.0174427 -0.114631 -0.296546 -0.575513 -0.458486 -0.264067 0.0186554 -0.512779 -0.287888 0.107995 0.383708 -0.364948 0.23928 0.352055 -0.510211 -0.0661132 0.186812 -0.234239
989 -0.00738299 0.0351685 0.178425 0.0979823 0.0234361 0.339046 0.0415817 -0.108574 -0.192508 -0.418366 -0.270023 -0.140022 0.00340443 -0.3719 -0.184715 0.0609801 0.246793 -0.262079 0.179975 0.291505 -0.381699 0.0396833 0.0995136 -0.16558
4984 0.0154175 0.0863098 0.277323 0.16593 -0.00713085 0.54093 0.0512084 -0.169349 -0.371708 -0.743233 -0.485067 -0.29106 -0.0465437 -0.642496 -0.304849 0.121217 0.459084 -0.461237 0.301857 0.58117 -0.694374 0.061342 0.189768 -0.293959
7272 -0.0218035 0.084009 0.25024 0.149341 -0.00022498 0.431886 0.0600689 -0.111081 -0.287086 -0.58939 -0.382794 -0.212741 -0.00751144 -0.554653 -0.232316 0.067525 0.322501 -0.341601 0.230815 0.464622 -0.578653 0.099088 0.107703 -0.234748
1525 -0.00157203 0.0174055 0.170107 0.114137 0.0165988 0.354054 0.0156875 -0.07592 -0.179922 -0.428882 -0.294813 -0.136649 0.000489146 -0.413364 -0.174605 0.079064 0.255626 -0.267786 0.138733 0.272191 -0.410021 -0.0246337 0.128519 -0.192837
9919 -0.701955 -0.0997809 0.88746 -0.166633 0.13381 1.84999 0.675447 -1.14012 0.484092 -0.589123 0.967411 -0.232196 0.10324 -1.75602 -0.239651 -0.525466 0.00124577 -0.365314 0.319393 0.810778 -0.575547 0.79494 1.01178 -1.03344
6212 -0.0360009 0.0403965 0.255765 0.148365 -0.0147275 0.480156 0.0389219 -0.145782 -0.272123 -0.576384 -0.364346 -0.184088 -0.0218144 -0.553277 -0.241798 0.0865197 0.356297 -0.317616 0.228161 0.439189 -0.556936 0.0674547 0.152416 -0.220588
6977 0.0200448 0.0771003 0.238691 0.1599 -0.0186071 0.481507 0.0129766 -0.136376 -0.326666 -0.617111 -0.425224 -0.216545 -0.011539 -0.557765 -0.252718 0.0781809 0.380294 -0.384199 0.232853 0.459543 -0.591189 0.0417018 0.147919 -0.236678
7099 -0.00478333 -0.00315037 0.200819 0.133627 0.0259751 0.430655 -0.00271795 -0.105806 -0.264883 -0.524525 -0.38061 -0.184272 0.0195176 -0.513365 -0.227992 0.0987335 0.356893 -0.311601 0.210645 0.353673 -0.541633 -0.0224923 0.172354 -0.207955
4204 0.0154142 0.0216137 0.236591 0.142162 0.0486366 0.423855 -0.0088399 -0.12741 -0.256757 -0.524978 -0.396219 -0.210302 0.00368324 -0.523564 -0.242192 0.116834 0.340436 -0.340542 0.208989 0.380019 -0.543981 -0.0183176 0.167613 -0.239945
5152 -0.0232712 0.118808 0.246134 0.130269 0.00749935 0.502253 0.0836044 -0.149391 -0.350788 -0.697567 -0.499321 -0.287462 -0.0290101 -0.611963 -0.321758 0.105815 0.463677 -0.407428 0.292297 0.558331 -0.677826 0.10088 0.157579 -0.267796
6639 -0.00537044 0.0613798 0.28587 0.157416 0.0103975 0.488093 0.0427187 -0.147184 -0.345571 -0.655187 -0.412623 -0.214561 -0.0177547 -0.62674 -0.283639 0.113301 0.373501 -0.375507 0.272415 0.498709 -0.644145 0.0566281 0.15698 -0.249548
4098 0.00572501 0.0192242 0.168101 0.0902374 0.00209793 0.292003 -0.0103268 -0.0924746 -0.194444 -0.396138 -0.291748 -0.152777 0.0227809 -0.395081 -0.180047 0.0914508 0.254025 -0.238967 0.171147 0.267624 -0.416302 0.00072516 0.10684 -0.173013
4507 -0.0102548 0.0744868 0.260578 0.173187 0.0399218 0.539856 0.0416095 -0.164665 -0.334239 -0.680043 -0.500133 -0.262667 -0.0200055 -0.629844 -0.30679 0.0916283 0.443051 -0.423121 0.254571 0.47762 -0.63073 0.0105179 0.192215 -0.268343
5820 -0.00547115 0.0624862 0.255097 0.165496 0.00953806 0.450857 0.0117315 -0.126099 -0.296486 -0.599462 -0.420419 -0.222834 -0.00915343 -0.57808 -0.22603 0.1142 0.355173 -0.352046 0.229799 0.460675 -0.589179 0.0598964 0.13755 -0.227847
8693 0.182758 -0.170916 0.0893433 0.143008 0.160016 0.333512 -0.0650575 -0.100459 -0.173377 -0.403535 -0.451198 -0.246689 0.0468891 -0.317104 -0.250712 0.0769875 0.366577 -0.375945 0.159047 0.0977638 -0.301433 -0.318612 0.237013 -0.192755
3651 -0.057927 0.114108 0.180505 0.106062 -0.0190032 0.326869 0.0524914 -0.0657678 -0.224506 -0.45649 -0.25883 -0.138735 -0.00367787 -0.412406 -0.162223 0.0569251 0.246031 -0.222778 0.155478 0.362395 -0.458719 0.075863 0.055763 -0.18134
7664 0.0197843 -0.000417665 0.208575 0.122113 0.0173947 0.421264 -0.00997473 -0.0977273 -0.246854 -0.513829 -0.334777 -0.163117 0.0443892 -0.47803 -0.231483 0.111354 0.314076 -0.287605 0.204779 0.339177 -0.488795 -0.00392216 0.160917 -0.188284
6839 -0.0380523 0.0390115 0.200613 0.0971 0.00390702 0.369788 0.0183455 -0.0910682 -0.240455 -0.480842 -0.295113 -0.164223 -0.00191875 -0.467674 -0.171636 0.0763318 0.260178 -0.237468 0.150685 0.339473 -0.496388 0.0359427 0.119798 -0.181657
6873 0.0032921 0.143882 0.258386 0.106334 -0.00694152 0.465583 0.0868876 -0.174626 -0.328023 -0.665094 -0.470088 -0.314876 -0.0498335 -0.540563 -0.311807 0.0773674 0.443485 -0.434992 0.269132 0.605896 -0.59027 0.134997 0.158221 -0.260558
6927 0.00148685 0.0538011 0.206295 0.134829 0.00675414 0.4396 0.0227874 -0.0943228 -0.27715 -0.55254 -0.402713 -0.219121 -0.0181788 -0.53908 -0.246289 0.0974078 0.363661 -0.339429 0.21291 0.421284 -0.541991 0.00289337 0.154061 -0.210772
9908 0.00702099 0.0114576 0.219993 0.168116 0.0394977 0.427836 -0.0243914 -0.0898056 -0.239268 -0.494618 -0.39043 -0.186677 0.0147757 -0.449381 -0.220819 0.093884 0.321447 -0.283788 0.182976 0.296118 -0.475828 -0.0577595 0.154904 -0.190641
10126 0.0560512 -0.0956571 0.276976 0.198227 0.0894973 0.60283 0.00235875 -0.202265 -0.237593 -0.580859 -0.42033 -0.215432 0.043003 -0.640487 -0.253395 0.0616362 0.378805 -0.403986 0.227718 0.26914 -0.511507 -0.163378 0.27247 -0.29817
7009 -0.0128706 0.0270053 0.195243 0.125103 0.0290056 0.396286 -0.00143924 -0.125349 -0.25119 -0.509922 -0.335701 -0.165863 0.00791151 -0.489996 -0.210071 0.0881572 0.295417 -0.313182 0.176122 0.377402 -0.491606 -0.00537442 0.130439 -0.219952
8157 0.0347986 0.153708 0.188695 -0.00270742 -0.0359525 0.484659 0.201679 -0.219918 -0.287005 -0.760245 -0.456145 -0.348141 -0.0786576 -0.573952 -0.326793 0.0203256 0.508836 -0.498497 0.351316 0.652182 -0.530094 0.184294 0.251686 -0.316193
8557 0.0164024 0.0116224 0.229853 0.181666 0.0208333 0.495581 0.00565595 -0.14446 -0.282333 -0.591827 -0.441636 -0.21562 -0.00378006 -0.568202 -0.246338 0.109015 0.355257 -0.368562 0.210026 0.421919 -0.586179 -0.000423242 0.146362 -0.23032
3066 -0.000181152 0.0228057 0.219801 0.121378 0.0347728 0.401798 0.0200074 -0.123115 -0.25797 -0.506336 -0.348628 -0.204198 0.0174447 -0.480154 -0.207724 0.105572 0.323276 -0.286687 0.178147 0.355718 -0.48704 0.0203019 0.122684 -0.192339
4861 0.0209288 0.0209393 0.220428 0.124135 0.00713035 0.432763 0.0237158 -0.110326 -0.271686 -0.520753 -0.378162 -0.207422 0.00997668 -0.478492 -0.216396 0.0731651 0.324147 -0.331139 0.221832 0.390381 -0.510762 -0.00962506 0.119631 -0.195007
5292 0.000461459 0.00292921 0.188975 0.116539 0.00629341 0.371174 -0.00637334 -0.108444 -0.228689 -0.471002 -0.359476 -0.175526 0.00274031 -0.458581 -0.221378 0.0615757 0.318112 -0.29913 0.172077 0.339044 -0.46861 -0.00627626 0.153924 -0.19881
3193 -0.014606 0.050345 0.166143 0.090435 -0.0118506 0.325573 0.016177 -0.117626 -0.20003 -0.422546 -0.267103 -0.155382 -0.024952 -0.395268 -0.169174 0.0587658 0.265729 -0.242107 0.170929 0.309242 -0.41195 0.0491783 0.0922932 -0.187677
9198 -0.0114885 0.0240815 0.240208 0.163478 -0.0050064 0.467469 -0.00107545 -0.153295 -0.280485 -0.572297 -0.399871 -0.19357 0.0238096 -0.570532 -0.232238 0.0894902 0.362261 -0.356919 0.222248 0.439438 -0.58894 -0.00189464 0.13583 -0.263347
9452 -0.0274572 -0.00254999 0.227098 0.16818 0.0349086 0.476804 -0.0357572 -0.100627 -0.280777 -0.558023 -0.416328 -0.168438 0.0198895 -0.604656 -0.201849 0.133999 0.329544 -0.278307 0.202638 0.385136 -0.628096 -0.0288962 0.120554 -0.237459
5909 0.00986469 0.0440047 0.212822 0.163477 0.0216278 0.475155 0.00542738 -0.124717 -0.265608 -0.582331 -0.419606 -0.218302 -0.0131144 -0.529879 -0.248235 0.0998947 0.377153 -0.357922 0.221058 0.394686 -0.562458 0.0248209 0.160611 -0.240291
7129 -0.00647222 0.0425196 0.259324 0.17551 0.0377107 0.503834 0.00239151 -0.138471 -0.306459 -0.632894 -0.450175 -0.246438 0.0285604 -0.615188 -0.286206 0.0999008 0.391944 -0.36882 0.253961 0.429786 -0.622875 0.0096443 0.191409 -0.246375
8425 -0.00515173 0.0186369 0.279892 0.165555 0.0561942 0.533175 -0.00907348 -0.149312 -0.285653 -0.592317 -0.401467 -0.218666 0.0353337 -0.602697 -0.269841 0.100629 0.345907 -0.372742 0.235004 0.406653 -0.594571 -0.0289255 0.215609 -0.282921
343 0.0127631 0.064336 0.139945 0.0808361 -0.0113254 0.301282 0.054891 -0.109753 -0.222773 -0.420552 -0.266516 -0.141191 -0.0104738 -0.33692 -0.188142 0.0443966 0.275567 -0.247918 0.14752 0.319897 -0.397032 0.0492563 0.117707 -0.163201
5467 -0.0126468 0.0454093 0.226909 0.141765 0.0237296 0.460095 0.0238218 -0.117184 -0.26888 -0.566939 -0.421858 -0.224446 -0.0124178 -0.510844 -0.23362 0.095379 0.375081 -0.345942 0.219937 0.406504 -0.538164 -0.0125472 0.127199 -0.240568
9709 0.0550066 -0.07019 0.267384 0.177891 0.0837258 0.50973 -0.0224268 -0.170042 -0.252588 -0.567367 -0.44151 -0.249466 0.0383828 -0.589448 -0.24826 0.0813485 0.372658 -0.362698 0.204143 0.30984 -0.520494 -0.156212 0.252657 -0.258781
8373 -0.0158148 0.0289349 0.236791 0.160329 0.0313563 0.446083 -0.0336761 -0.110101 -0.250257 -0.493315 -0.343398 -0.164298 0.0417371 -0.520188 -0.198147 0.0899817 0.299119 -0.268053 0.158648 0.344346 -0.550517 0.00735503 0.141685 -0.228408
10083 0.0347458 -0.112791 0.256261 0.19145 0.116169 0.579 -0.0551217 -0.14 -0.22365 -0.533011 -0.436551 -0.207738 0.0747701 -0.625515 -0.253486 0.111846 0.325281 -0.340076 0.177366 0.226793 -0.512798 -0.155695 0.267344 -0.280178
5594 0.167242 -0.207449 0.0995879 0.138334 0.190365 0.345156 -0.0891462 -0.099202 -0.191861 -0.380457 -0.479404 -0.208082 0.0774463 -0.325207 -0.252972 0.0960053 0.359613 -0.356988 0.146207 0.0794668 -0.317603 -0.315951 0.243799 -0.186633
6645 -0.0582609 0.124563 0.217677 0.0986044 -0.0155399 0.376504 0.0661423 -0.0924678 -0.24855 -0.489394 -0.300504 -0.174583 -0.0225149 -0.457585 -0.186554 0.0754793 0.252284 -0.276294 0.180703 0.400517 -0.470674 0.0954751 0.0949073 -0.191796
7715 -0.0261901 0.0365179 0.252721 0.127854 0.011371 0.469089 0.0322899 -0.152213 -0.250253 -0.539437 -0.367351 -0.187441 -0.00149346 -0.559507 -0.219581 0.0942809 0.344125 -0.311415 0.197878 0.401214 -0.555382 0.00338407 0.148093 -0.238488
8525 -0.0238431 0.0363008 0.255169 0.160132 0.015617 0.504566 0.0460388 -0.157011 -0.315396 -0.646737 -0.407497 -0.24581 0.000601228 -0.571855 -0.273121 0.119453 0.40984 -0.357871 0.27912 0.47832 -0.573318 0.0400894 0.174065 -0.246374
2770 0.200981 -0.232094 0.0883071 0.156403 0.217027 0.391461 -0.0899085 -0.114457 -0.184759 -0.422314 -0.522576 -0.231362 0.0481061 -0.384043 -0.26584 0.114013 0.40757 -0.375861 0.150935 0.0876994 -0.367171 -0.370337 0.252343 -0.194914
5821 0.0022309 0.0548829 0.213285 0.123518 -0.00850422 0.413343 0.0173238 -0.124273 -0.262494 -0.514656 -0.359149 -0.209187 -0.0102786 -0.479995 -0.204577 0.0776248 0.332818 -0.296428 0.214134 0.425264 -0.52789 0.0449513 0.135623 -0.20522
5877 -0.034985 0.0897324 0.232828 0.111394 -0.0335437 0.423466 0.0226177 -0.108216 -0.271053 -0.531973 -0.344572 -0.186137 -0.0252659 -0.499352 -0.197362 0.0943818 0.327376 -0.316307 0.218823 0.430471 -0.517626 0.0805325 0.0895057 -0.21724
8615 0.0222733 0.0547521 0.268409 0.168471 0.0307122 0.495339 0.0249247 -0.130518 -0.287214 -0.595738 -0.41933 -0.212239 0.0193644 -0.556712 -0.277578 0.101262 0.409914 -0.371656 0.236863 0.427098 -0.601842 -0.00986122 0.165325 -0.245382
9688 0.160519 -0.17119 0.102181 0.178183 0.187373 0.396614 -0.0900511 -0.102494 -0.210445 -0.431284 -0.540754 -0.248443 0.0491656 -0.375733 -0.277342 0.0965442 0.399053 -0.389797 0.181057 0.138756 -0.394489 -0.317355 0.250381 -0.180674
6312 -0.0115223 0.0340542 0.191619 0.119713 0.022637 0.387042 0.0346256 -0.0865551 -0.230021 -0.46015 -0.31353 -0.167529 -0.00975916 -0.43264 -0.206549 0.0789372 0.294849 -0.267131 0.171309 0.36296 -0.446821 0.0429049 0.112919 -0.188791
9384 -0.0130473 0.0217956 0.242164 0.145895 0.0184751 0.477052 -0.00311897 -0.118931 -0.261605 -0.571408 -0.408477 -0.211844 0.0127244 -0.556828 -0.239012 0.0835372 0.338618 -0.327075 0.200956 0.405653 -0.571259 0.00703539 0.169898 -0.221276
1280 0.00812222 0.00940288 0.190071 0.0902045 -0.00489552 0.346776 0.00141445 -0.0725671 -0.194886 -0.414108 -0.313078 -0.157158 0.00559547 -0.408205 -0.196679 0.0779989 0.270783 -0.254487 0.150772 0.293554 -0.417988 0.00147395 0.124997 -0.182267
9134 -0.00125888 0.0358423 0.218518 0.15427 0.0381134 0.476708 -0.00239827 -0.122187 -0.269033 -0.553943 -0.403787 -0.211565 0.00365386 -0.571651 -0.25161 0.0812265 0.330032 -0.35506 0.219154 0.368722 -0.534468 -0.00855918 0.151934 -0.236757
1057 -0.00499788 0.0491305 0.170498 0.0807426 -0.00818377 0.354658 0.0414199 -0.0822039 -0.218355 -0.44364 -0.268864 -0.155995 -0.0147201 -0.397263 -0.191882 0.0747297 0.264495 -0.263352 0.165817 0.356603 -0.418802 0.0495489 0.0994569 -0.167196
8436 -0.00285159 0.0174047 0.209427 0.148406 0.0167538 0.44718 0.0010851 -0.0992069 -0.266393 -0.517231 -0.370219 -0.17398 0.00702287 -0.53172 -0.219423 0.079155 0.351723 -0.32783 0.188653 0.365822 -0.505789 -0.0134052 0.147495 -0.195344
3329 -0.0340764 0.102088 0.199511 0.112424 -0.0556691 0.345577 0.0512841 -0.0846846 -0.251119 -0.48443 -0.29089 -0.155609 -0.0184743 -0.463281 -0.182138 0.064057 0.252058 -0.25642 0.200124 0.402289 -0.515284 0.125677 0.0936324 -0.167622
7791 0.024316 -0.0221781 0.255202 0.172702 0.063424 0.533255 -0.0416435 -0.145517 -0.285397 -0.595243 -0.454445 -0.262254 0.0423471 -0.555537 -0.289659 0.103709 0.382256 -0.374421 0.220753 0.367216 -0.5445 -0.0812608 0.224923 -0.26913
5568 -0.0701123 0.0994173 0.18365 0.0844687 -0.0374147 0.333056 0.0598778 -0.113811 -0.224865 -0.45448 -0.259596 -0.149726 -0.0274124 -0.414873 -0.182034 0.0774607 0.259089 -0.226821 0.172926 0.382806 -0.442325 0.110662 0.0778024 -0.159677
9314 0.0208414 0.0103902 0.233977 0.1728 0.0562469 0.469699 0.0158063 -0.160475 -0.263839 -0.564747 -0.397506 -0.205398 0.0268723 -0.587758 -0.24663 0.0867247 0.337296 -0.345815 0.205592 0.386598 -0.551022 -0.0419625 0.156154 -0.224253
10034 0.0131561 -0.0877326 0.314512 0.155188 0.123937 0.627887 0.0549561 -0.222246 -0.140205 -0.530378 -0.30909 -0.218134 0.0466958 -0.663404 -0.226237 0.048257 0.292154 -0.339353 0.199991 0.278451 -0.457805 -0.0731714 0.318291 -0.341993
10192 0.0250276 -0.195165 0.337248 0.195739 0.138907 0.760032 -0.0255456 -0.250224 -0.179451 -0.537495 -0.371048 -0.239611 0.0976977 -0.78756 -0.263515 0.0415524 0.340056 -0.404074 0.189604 0.240605 -0.512997 -0.23305 0.399072 -0.366315
10305 0.0540462 -0.130041 0.219192 0.219218 0.168843 0.582504 -0.11045 -0.119511 -0.280361 -0.557329 -0.505547 -0.230346 0.0871968 -0.563975 -0.288655 0.155496 0.369537 -0.362645 0.173594 0.198402 -0.560683 -0.23365 0.252149 -0.283624
3147 -0.017237 0.0564602 0.225227 0.145827 0.0396731 0.467456 0.0183232 -0.143052 -0.283882 -0.603464 -0.43225 -0.248806 -0.0222861 -0.570253 -0.277308 0.0795592 0.382743 -0.375847 0.25401 0.454928 -0.597747 0.0223829 0.166343 -0.241046
6113 -0.0166292 0.0597449 0.204956 0.142414 0.0329508 0.412911 0.0331744 -0.107693 -0.257395 -0.521853 -0.382072 -0.185232 -0.0241614 -0.501141 -0.246258 0.0791107 0.340694 -0.321271 0.205402 0.41347 -0.545331 0.0219102 0.112313 -0.210243
6175 -0.000587941 0.0662725 0.266629 0.11932 -0.00389652 0.500493 0.0718613 -0.16633 -0.305561 -0.63137 -0.427602 -0.232714 0.0038158 -0.603046 -0.272227 0.0855004 0.413503 -0.372762 0.274172 0.508184 -0.63833 0.0739275 0.166936 -0.249328
1 0.000708119 0.0276169 0.165046 0.094728 -0.0149874 0.30257 0.00415544 -0.103328 -0.20548 -0.418228 -0.285208 -0.149946 0.00445602 -0.397724 -0.158084 0.0577058 0.253367 -0.239252 0.154001 0.321704 -0.394427 0.0483646 0.108429 -0.164297
5685 0.0210295 0.0730972 0.255641 0.164637 0.0244995 0.529886 0.0102867 -0.151244 -0.355455 -0.692246 -0.468204 -0.262776 0.0041402 -0.608564 -0.271756 0.125474 0.406828 -0.394635 0.254095 0.518038 -0.638407 0.0291013 0.145816 -0.248746
6517 -0.0199884 0.0373595 0.196952 0.144832 0.00501284 0.392444 0.0146947 -0.11271 -0.249826 -0.473334 -0.344339 -0.186774 0.0185195 -0.452858 -0.220013 0.0860784 0.285147 -0.284398 0.168672 0.342508 -0.468908 -0.00799659 0.148567 -0.181912
9266 0.0243602 0.0217368 0.210136 0.142998 0.0702338 0.491554 0.0139469 -0.11548 -0.262849 -0.571776 -0.439438 -0.205851 -0.000650389 -0.510945 -0.254873 0.110165 0.34275 -0.332609 0.221807 0.375601 -0.513094 -0.0362102 0.150539 -0.202775
9674 0.00130259 0.110679 0.188984 0.0839944 0.0283565 0.396514 -0.0260478 -0.161864 -0.290797 -0.583081 -0.485929 -0.262728 -0.0185683 -0.564858 -0.278296 0.0638274 0.311243 -0.438033 0.258734 0.37266 -0.462246 0.0176406 0.132106 -0.276968
9713 0.038495 -0.0668227 0.231978 0.151377 0.0569383 0.494105 -0.0109645 -0.156063 -0.241167 -0.532887 -0.386344 -0.214823 0.0186477 -0.595985 -0.229242 0.0585374 0.335541 -0.346614 0.1784 0.263846 -0.485595 -0.112914 0.217674 -0.241474
3030 0.0160806 0.0487997 0.202162 0.147278 0.0292841 0.457373 0.0138907 -0.135592 -0.264073 -0.577694 -0.378493 -0.232859 0.0149012 -0.507958 -0.252055 0.0877817 0.339204 -0.338768 0.233501 0.413911 -0.54547 0.0323483 0.152102 -0.238088
3513 -0.000434003 -0.00217657 0.215791 0.156515 0.0177202 0.457462 -0.019524 -0.099157 -0.271782 -0.57053 -0.388383 -0.193031 0.0294492 -0.550817 -0.225462 0.103793 0.315796 -0.308258 0.209671 0.351064 -0.608501 -0.035792 0.125454 -0.218861
9549 0.0227856 0.0694212 0.232844 0.136687 0.020207 0.436098 -0.00448133 -0.176657 -0.277554 -0.566027 -0.394612 -0.232857 -0.0178385 -0.565616 -0.270289 0.0898492 0.394765 -0.380436 0.217724 0.39068 -0.536407 -0.0222302 0.143035 -0.212323
6466 0.0177462 0.0294841 0.163285 0.118395 0.0235122 0.39113 0.00963593 -0.115619 -0.218169 -0.457639 -0.352681 -0.193356 -0.00215184 -0.430758 -0.207271 0.10225 0.296232 -0.272608 0.168016 0.345839 -0.4698 -0.0107947 0.134531 -0.175639
7112 0.00367483 -0.044259 0.327182 0.2189 0.0815364 0.652213 -0.0586323 -0.183409 -0.30529 -0.680129 -0.516271 -0.28435 0.0730588 -0.772471 -0.290077 0.138965 0.417861 -0.41961 0.228737 0.379214 -0.704231 -0.0813772 0.273603 -0.307334
8172 0.00107613 0.000902211 0.261428 0.181164 0.0313899 0.473304 -0.0377822 -0.0964389 -0.245929 -0.552455 -0.383462 -0.1671 0.0212095 -0.614353 -0.237851 0.13322 0.315312 -0.291441 0.177531 0.374214 -0.595517 -0.0039803 0.145091 -0.23527
8989 -0.0270636 0.000830784 0.197202 0.14708 0.0398533 0.438712 -0.00646131 -0.119207 -0.227754 -0.482761 -0.35113 -0.168731 0.0116716 -0.500838 -0.190104 0.0732817 0.291769 -0.282205 0.181592 0.338625 -0.517016 -0.016765 0.141348 -0.200554
3693 -0.00721257 -0.00380101 0.240276 0.140008 0.0523482 0.520446 0.00182421 -0.153249 -0.314931 -0.620017 -0.461144 -0.25245 0.0133221 -0.593678 -0.275073 0.119584 0.379804 -0.393415 0.235075 0.407686 -0.609832 -0.00657263 0.161293 -0.271598
7215 -0.0453631 0.119786 0.257033 0.157912 0.000222201 0.517873 0.0383537 -0.134333 -0.31356 -0.645812 -0.391353 -0.232831 -0.0163535 -0.603628 -0.257512 0.12413 0.398763 -0.345638 0.244801 0.533427 -0.646003 0.105914 0.138755 -0.239364
8234 0.0173373 0.14078 0.224332 0.0921697 -0.0615112 0.461337 0.125514 -0.162734 -0.329137 -0.664948 -0.400488 -0.270992 -0.0593337 -0.576865 -0.260712 0.0391338 0.424678 -0.426113 0.265601 0.553377 -0.596756 0.154937 0.138705 -0.242839
3005 0.00866886 0.0436803 0.167195 0.0903186 -0.00498926 0.37374 0.0190834 -0.115458 -0.210646 -0.427104 -0.312401 -0.188551 0.0147122 -0.401837 -0.186677 0.0590837 0.280165 -0.270171 0.159811 0.335449 -0.460549 0.0109494 0.125811 -0.183717
6072 -0.0274217 0.0697227 0.240092 0.16375 -0.0124598 0.447661 -0.00748112 -0.0903175 -0.272537 -0.586246 -0.383725 -0.187703 0.00222118 -0.604438 -0.238689 0.128594 0.348376 -0.302065 0.195372 0.449328 -0.640482 0.0361883 0.139707 -0.231732
7428 -0.00588965 0.00977787 0.144586 0.128813 0.0525708 0.338905 -0.00839613 -0.082408 -0.178571 -0.389572 -0.300485 -0.144051 0.00111411 -0.397761 -0.177533 0.0753373 0.242946 -0.237454 0.130912 0.262971 -0.37298 -0.0283219 0.120694 -0.179831
2294 -0.0269744 0.0266349 0.225741 0.13219 0.00986825 0.397142 0.0465003 -0.109632 -0.220805 -0.475349 -0.322304 -0.180424 -0.0156655 -0.467304 -0.22144 0.0920156 0.301314 -0.263667 0.171571 0.395893 -0.488738 0.0394133 0.120479 -0.186875
3702 -0.000631774 0.0483323 0.283104 0.142721 0.00744847 0.54746 0.051533 -0.136512 -0.36131 -0.699324 -0.467238 -0.266529 -0.0032352 -0.645645 -0.290594 0.113787 0.424925 -0.418394 0.253105 0.510193 -0.68475 0.0454232 0.183053 -0.274341
4608 0.0141918 0.0252407 0.177698 0.135333 0.0163042 0.402292 -0.00717991 -0.121031 -0.244292 -0.470808 -0.341153 -0.177613 -0.0129464 -0.464171 -0.196663 0.0751985 0.2924 -0.306721 0.168134 0.344736 -0.472271 -0.00644898 0.134825 -0.206855
9006 -0.0702723 -0.110863 0.291175 0.289848 0.132422 0.542707 -0.229307 -0.0583975 -0.24621 -0.537075 -0.449798 -0.0857194 0.164076 -0.797519 -0.177968 0.246602 0.260774 -0.176611 0.107397 0.212106 -0.777539 -0.139302 0.119753 -0.20393
10110 -0.135202 -0.271162 0.37844 0.44386 0.176216 0.768304 -0.475356 0.0910386 -0.323533 -0.666548 -0.68171 0.00586551 0.330427 -1.26997 -0.134744 0.463811 0.21658 -0.0513588 0.0554374 0.127537 -1.26335 -0.313024 0.101317 -0.326099
9304 -0.0340937 0.031015 0.180572 0.113873 -0.0175451 0.371982 0.0356972 -0.0774509 -0.211314 -0.460095 -0.316811 -0.147748 0.00287312 -0.396814 -0.171701 0.0507934 0.250909 -0.264007 0.184428 0.327726 -0.426139 0.0510658 0.0973101 -0.189692
10269 -0.24127 -0.010182 0.60091 0.589805 0.108526 0.848219 -0.0277692 -0.267188 -0.0418138 -0.671173 -0.431041 -0.160094 0.0805498 -0.722432 -0.176251 -0.109952 0.106622 -0.417524 0.0423508 0.160298 -0.378726 -0.12928 0.512563 -0.203249
2802 -0.0403009 0.075745 0.193157 0.0795794 -0.0254317 0.299401 0.0613682 -0.0698639 -0.217535 -0.395337 -0.241403 -0.137323 -0.0141461 -0.385131 -0.158372 0.0647591 0.20166 -0.226882 0.156251 0.371536 -0.401641 0.117725 0.0847548 -0.167159
7098 -0.013688 0.0794613 0.230801 0.143076 0.033891 0.491911 0.054085 -0.148988 -0.342407 -0.709654 -0.468513 -0.265595 -0.0227903 -0.572647 -0.286496 0.0949921 0.437116 -0.427481 0.279287 0.550668 -0.626123 0.0527 0.148081 -0.267969
9783 0.0109492 -0.0200421 0.234118 0.146778 0.0555759 0.47063 -0.0145252 -0.127332 -0.257006 -0.549241 -0.398456 -0.203933 0.0117342 -0.527971 -0.238193 0.1079 0.357721 -0.328658 0.21108 0.315727 -0.520365 -0.0802012 0.199085 -0.242625
10231 0.227945 -0.278759 0.189144 0.259783 0.241451 0.626671 -0.129673 -0.158617 -0.305387 -0.716549 -0.768703 -0.393773 0.108996 -0.687458 -0.397711 0.176055 0.607391 -0.611479 0.268104 0.232856 -0.630889 -0.43918 0.426901 -0.348757
383 -0.00632659 0.0277483 0.16663 0.105936 0.0372851 0.340064 0.018886 -0.0700756 -0.221836 -0.401497 -0.300717 -0.171131 0.00821786 -0.392545 -0.171307 0.0597174 0.270478 -0.257242 0.171334 0.271471 -0.414825 -0.0261297 0.130358 -0.155738
4561 -0.00757699 0.0433302 0.263974 0.138911 0.0433455 0.521465 0.0230355 -0.120882 -0.32941 -0.619177 -0.459574 -0.254665 -0.0147962 -0.567253 -0.262405 0.0846006 0.404938 -0.413446 0.268583 0.473358 -0.637 0.00252868 0.188063 -0.241481
4652 0.0313194 -0.0139824 0.298715 0.189055 0.086202 0.636783 -0.0346742 -0.14953 -0.367114 -0.746204 -0.570633 -0.284928 0.0232097 -0.709522 -0.348772 0.147191 0.486215 -0.466404 0.29374 0.507166 -0.76743 -0.0500491 0.232828 -0.315247
9744 0.154663 -0.146032 0.115132 0.136203 0.155295 0.330621 -0.0595732 -0.0792371 -0.192211 -0.398411 -0.442164 -0.22104 0.0329746 -0.382018 -0.230779 0.097026 0.348083 -0.328918 0.159236 0.106685 -0.387536 -0.277148 0.215663 -0.183627
4175 -0.0101715 0.0758483 0.18045 0.106453 -0.0103781 0.322988 0.00836156 -0.101627 -0.204113 -0.406937 -0.277381 -0.142654 -0.0216699 -0.379349 -0.167071 0.0620886 0.265996 -0.252037 0.160062 0.320278 -0.420205 0.060735 0.101807 -0.179191
6086 0.0214627 0.0400614 0.267196 0.150409 0.022169 0.55265 0.029908 -0.154694 -0.318492 -0.664394 -0.479268 -0.238127 -0.0179701 -0.651959 -0.297622 0.124406 0.430882 -0.423166 0.265119 0.50259 -0.662236 0.0266553 0.167142 -0.279414
8387 -0.00866811 0.038235 0.265422 0.150112 0.00689659 0.490788 0.0193943 -0.121964 -0.317699 -0.639756 -0.419237 -0.231942 0.0408482 -0.649267 -0.265664 0.142598 0.395154 -0.358551 0.220559 0.430818 -0.653642 0.0188759 0.177183 -0.19951
1060 -0.0187925 0.064134 0.189424 0.0834873 0.0212372 0.318201 0.0223628 -0.0875461 -0.187043 -0.407676 -0.263378 -0.153191 -0.000761928 -0.387489 -0.180754 0.0564834 0.25258 -0.220056 0.162349 0.312404 -0.416219 0.0627519 0.108089 -0.145271
3407 0.0409491 -0.0106706 0.264037 0.190721 0.0950306 0.605975 -0.0055002 -0.167322 -0.368184 -0.730026 -0.604215 -0.319435 0.0160905 -0.669975 -0.358926 0.124808 0.504379 -0.494205 0.290163 0.456755 -0.69522 -0.0937648 0.244092 -0.307073
4515 -0.00196935 0.00489211 0.189052 0.121861 0.0369698 0.374786 0.0257034 -0.11502 -0.201004 -0.435767 -0.311585 -0.177684 -0.00107734 -0.420286 -0.195041 0.093643 0.294522 -0.273086 0.175328 0.312106 -0.436024 0.0178457 0.101968 -0.194605
7725 0.166614 -0.180514 0.0938639 0.125708 0.182352 0.332895 -0.0712138 -0.110937 -0.162579 -0.400544 -0.473123 -0.224952 0.0546463 -0.342744 -0.281913 0.0822938 0.380862 -0.36496 0.154646 0.0722609 -0.332855 -0.325107 0.252543 -0.180693
2535 -0.00900467 0.00546628 0.223807 0.150874 0.0461502 0.428446 -0.00985917 -0.100277 -0.241358 -0.510577 -0.395365 -0.195877 -0.00196665 -0.501153 -0.212891 0.102438 0.326459 -0.33405 0.213565 0.347179 -0.523042 -0.00599664 0.156351 -0.21806
4265 -0.0165258 0.0701493 0.285894 0.173198 0.00448517 0.537121 0.030526 -0.145073 -0.346372 -0.67472 -0.453388 -0.248109 -0.0093388 -0.611886 -0.278505 0.0902803 0.422449 -0.37996 0.255296 0.490767 -0.626882 0.0456123 0.177978 -0.239787
863 0.00470062 0.0291892 0.157737 0.0935693 0.0257298 0.388606 0.0258542 -0.105084 -0.220323 -0.467506 -0.344884 -0.181311 0.0199808 -0.424347 -0.196939 0.0700353 0.305409 -0.30436 0.197656 0.305352 -0.427436 -0.0161948 0.139442 -0.200652
1206 -0.0171846 0.0208068 0.200735 0.146916 0.0319789 0.430105 -0.00736356 -0.131251 -0.236621 -0.495654 -0.34896 -0.166781 -0.00020661 -0.50814 -0.210945 0.10895 0.318377 -0.28899 0.181772 0.340445 -0.489954 -0.0162645 0.131963 -0.208643
8248 -0.00905733 0.0365088 0.220131 0.119942 0.0356538 0.435165 0.0100391 -0.142453 -0.296503 -0.574502 -0.380359 -0.224225 -0.00719657 -0.536075 -0.249348 0.101013 0.360795 -0.355482 0.233967 0.401584 -0.540867 -0.00537132 0.165124 -0.215134
6561 -0.000908369 0.0391376 0.176551 0.128939 0.0309246 0.340219 -0.0080605 -0.0898319 -0.189453 -0.443244 -0.301358 -0.171987 -0.00873545 -0.397665 -0.187874 0.0658811 0.276749 -0.240423 0.147283 0.312964 -0.422278 0.011635 0.134367 -0.193756
6876 -0.0156716 -0.0278617 0.213268 0.150206 0.0503484 0.445075 -0.0240824 -0.0989289 -0.227985 -0.459039 -0.344673 -0.162383 0.0263691 -0.556168 -0.192826 0.0978577 0.26596 -0.246817 0.1765 0.271866 -0.529914 -0.0224043 0.156501 -0.23622
7748 0.0105847 0.0516696 0.205498 0.137199 0.00507774 0.449916 0.00664134 -0.127466 -0.276686 -0.543039 -0.403033 -0.18348 -0.0239451 -0.545043 -0.233769 0.111728 0.356827 -0.33876 0.237026 0.40794 -0.552075 0.0279493 0.114644 -0.229967
8419 -0.00604826 0.0160203 0.139118 0.127703 0.030094 0.319077 -0.0173182 -0.0980223 -0.183704 -0.406465 -0.311856 -0.151935 0.0165554 -0.395497 -0.188549 0.0786206 0.246943 -0.237052 0.170157 0.296039 -0.411669 -0.023679 0.127389 -0.170818
9969 0.0143921 -0.0672007 0.25762 0.202298 0.0973748 0.580069 -0.0085191 -0.155629 -0.232837 -0.572728 -0.404706 -0.19956 0.0397865 -0.555743 -0.221878 0.0750417 0.347268 -0.360004 0.216576 0.268131 -0.482659 -0.13249 0.217198 -0.258627
7066 -0.0550578 0.0930542 0.155964 0.101273 -0.0285984 0.342318 0.0125437 -0.0632068 -0.180009 -0.414047 -0.21756 -0.13366 -0.0119823 -0.367977 -0.149944 0.073382 0.208245 -0.208597 0.141201 0.325174 -0.379043 0.0914854 0.0882723 -0.165096
10286 -0.00352069 -0.212696 0.360732 0.194678 0.15231 0.778514 -0.000321942 -0.302626 -0.0921118 -0.480761 -0.258822 -0.217712 0.121839 -0.772951 -0.239791 0.0183168 0.278262 -0.34539 0.151277 0.185848 -0.44806 -0.185837 0.386764 -0.377672
10291 0.0150965 -0.231425 0.380026 0.237868 0.163328 0.794402 -0.0571902 -0.280704 -0.121006 -0.499307 -0.281464 -0.192699 0.105751 -0.740451 -0.217446 0.0548816 0.271077 -0.295857 0.147654 0.170515 -0.465958 -0.205538 0.424132 -0.384503
8222 -0.00574464 0.0402998 0.182257 0.0978009 0.00897043 0.3883 0.0153032 -0.0985661 -0.232649 -0.493172 -0.336794 -0.180852 -0.0116847 -0.436768 -0.232308 0.0726429 0.303797 -0.319447 0.211193 0.342392 -0.460667 -0.00908341 0.119881 -0.190249
8476 -0.00853691 0.114402 0.245653 0.122009 -0.00549512 0.453485 0.071124 -0.138709 -0.294495 -0.672404 -0.415716 -0.274589 -0.0201458 -0.542496 -0.283737 0.0801567 0.412363 -0.369664 0.3004 0.506411 -0.575366 0.112536 0.186244 -0.235806
9667 0.0851797 -0.0883619 0.212577 0.187999 0.130227 0.502228 -0.0295271 -0.149103 -0.239816 -0.543042 -0.461442 -0.232734 0.0503749 -0.564374 -0.273134 0.0896127 0.383074 -0.416715 0.213483 0.223112 -0.471292 -0.17847 0.241031 -0.24103
13 0.0163222 -0.00727628 0.164412 0.11057 0.0382974 0.343977 0.0101024 -0.0846051 -0.219992 -0.442052 -0.319708 -0.179154 0.00396245 -0.417802 -0.17582 0.0721589 0.266954 -0.248929 0.167373 0.271141 -0.391543 -0.0284281 0.132711 -0.176163
8727 0.0212202 0.0198842 0.215843 0.14564 0.0471542 0.467644 0.0260324 -0.118632 -0.317485 -0.591398 -0.453479 -0.224145 0.00900951 -0.544052 -0.263639 0.0862273 0.400264 -0.365003 0.245188 0.428546 -0.572751 -0.0282841 0.148098 -0.215566
9321 -0.00443125 -0.0314799 0.237232 0.189409 0.035571 0.484107 -0.0561584 -0.0869751 -0.260688 -0.526541 -0.422048 -0.168097 0.0491297 -0.56618 -0.23298 0.11548 0.32427 -0.280403 0.198504 0.331595 -0.628758 -0.0567283 0.172911 -0.234088
2608 0.000373156 0.0477716 0.18897 0.112118 0.0201444 0.331291 0.0109851 -0.0848944 -0.202621 -0.409724 -0.297234 -0.157125 0.0207519 -0.422049 -0.179192 0.0649167 0.247428 -0.232633 0.157159 0.31023 -0.433043 0.0297804 0.0968205 -0.166432
9905 0.0447466 -0.0269377 0.266163 0.173956 0.0474117 0.479849 -0.0128944 -0.172958 -0.243409 -0.552593 -0.397086 -0.226885 -0.0117864 -0.570315 -0.256099 0.0803651 0.333382 -0.380661 0.220378 0.352065 -0.53721 -0.0870749 0.176479 -0.256193
6884 -0.0185749 0.0320577 0.214615 0.160121 0.00888906 0.442765 0.0174179 -0.124143 -0.288952 -0.532316 -0.37091 -0.213602 0.0119103 -0.53479 -0.243746 0.0888547 0.343677 -0.328398 0.198073 0.380356 -0.529314 0.0106465 0.16158 -0.231537
8310 -0.01672 0.0456603 0.251602 0.15524 0.0114657 0.503893 0.0228652 -0.132875 -0.308047 -0.64325 -0.418214 -0.247222 -0.023031 -0.616338 -0.28538 0.0773866 0.390377 -0.399096 0.249671 0.465388 -0.595523 0.0550271 0.162123 -0.240585
9098 -0.00737814 0.0673334 0.282963 0.137527 -0.00167487 0.497592 0.0142095 -0.150909 -0.32875 -0.619061 -0.428127 -0.202747 -0.000702419 -0.614402 -0.265767 0.113858 0.394863 -0.36067 0.266625 0.471114 -0.623054 0.0536665 0.147756 -0.214447
3341 -0.0233214 0.0853007 0.182876 0.103458 0.0010701 0.336227 0.0146015 -0.0784877 -0.22048 -0.431744 -0.23902 -0.134344 -0.0222912 -0.375732 -0.149725 0.0568815 0.24971 -0.232502 0.163683 0.354801 -0.437332 0.104749 0.0770342 -0.155176
5443 0.0247898 0.0421599 0.264879 0.164946 0.0247942 0.535129 0.00681985 -0.149468 -0.323038 -0.634868 -0.472203 -0.232634 0.0154141 -0.630311 -0.305943 0.0989342 0.402713 -0.390084 0.240902 0.446384 -0.624729 -0.00624713 0.176066 -0.281768
1313 -0.0448807 0.0967494 0.202977 0.103166 -0.00408773 0.359211 0.0181371 -0.0725399 -0.225987 -0.429735 -0.286698 -0.134518 -0.0141614 -0.434971 -0.160207 0.0856926 0.256639 -0.22219 0.175199 0.347796 -0.45508 0.0685149 0.0986757 -0.180137
5886 0.0114685 0.0372351 0.26922 0.180432 0.0416235 0.531312 -0.0014258 -0.166813 -0.332909 -0.661409 -0.490438 -0.260763 0.0141262 -0.618855 -0.296022 0.0945813 0.440678 -0.415776 0.275979 0.43866 -0.642667 0.00801367 0.174753 -0.279216
6275 -0.0384388 0.0889919 0.215302 0.107915 -0.0374238 0.40257 0.0362963 -0.115097 -0.264126 -0.491604 -0.286915 -0.168673 0.00156944 -0.51986 -0.186228 0.0734015 0.269824 -0.277848 0.205013 0.405133 -0.492475 0.0667307 0.104504 -0.191036
6971 -0.0704276 -0.0155739 0.212493 0.151156 0.0150307 0.395199 -0.0749255 -0.0281318 -0.16509 -0.365597 -0.25578 -0.0828387 0.0662956 -0.533198 -0.137526 0.130006 0.197584 -0.128324 0.0992901 0.246161 -0.560709 0.00625899 0.0818857 -0.202371
2619 0.00489325 0.044095 0.167096 0.102179 0.0146627 0.295913 0.00185988 -0.102087 -0.189755 -0.399436 -0.247052 -0.140448 -0.0055316 -0.369814 -0.176066 0.0640906 0.244402 -0.222779 0.153177 0.298308 -0.415312 0.0415931 0.10568 -0.157731
3830 0.0139108 0.0475929 0.303124 0.156568 0.0321763 0.596026 0.038494 -0.154012 -0.348747 -0.734403 -0.493226 -0.25039 0.0210688 -0.673802 -0.32973 0.097463 0.420827 -0.432877 0.269692 0.476337 -0.676414 -0.0122399 0.228179 -0.31506
7966 0.0202468 0.0107594 0.247939 0.147284 0.0344799 0.47385 0.0011557 -0.126998 -0.287447 -0.560776 -0.412572 -0.227825 -0.00209091 -0.561922 -0.267204 0.100623 0.354588 -0.377192 0.225169 0.417242 -0.569175 -0.0179157 0.180828 -0.262846
3287 -0.0213954 0.0129705 0.156447 0.138795 0.0418706 0.349799 0.00685373 -0.105157 -0.191554 -0.403617 -0.301584 -0.13619 0.0279321 -0.456318 -0.191204 0.0741183 0.269358 -0.243411 0.140556 0.270312 -0.461707 -0.0206705 0.116444 -0.169093
9719 0.0174015 -0.0202824 0.26255 0.187584 0.033494 0.503425 -0.00359461 -0.14103 -0.284912 -0.596374 -0.420484 -0.236804 0.0174048 -0.613447 -0.276654 0.0878913 0.364258 -0.369163 0.214467 0.370368 -0.561545 -0.0482092 0.185592 -0.263284
9876 -0.0099149 -0.0489134 0.293276 0.150897 0.0486111 0.576612 0.00626594 -0.179052 -0.245326 -0.606685 -0.386567 -0.215661 0.0623667 -0.615301 -0.263922 0.0769384 0.356116 -0.351573 0.235823 0.335253 -0.528781 -0.0359723 0.226872 -0.218426
6442 -0.0402303 0.0812726 0.207474 0.0929013 -0.034029 0.358498 0.0589182 -0.102605 -0.232284 -0.463019 -0.258078 -0.152547 -0.00836494 -0.429301 -0.191572 0.0482897 0.248441 -0.241084 0.186302 0.368867 -0.449247 0.100717 0.0797881 -0.17292
6647 -0.00776941 0.0273217 0.256142 0.145247 0.039254 0.4804 0.0198631 -0.137423 -0.286316 -0.604781 -0.465269 -0.242363 0.0034016 -0.572149 -0.288876 0.115416 0.385292 -0.393121 0.255592 0.401334 -0.619558 -0.00617129 0.169979 -0.230109
6697 0.00318536 0.000776965 0.207839 0.144315 0.0184957 0.412555 -0.0352193 -0.0811101 -0.265338 -0.493276 -0.359499 -0.143801 0.0377408 -0.524929 -0.205103 0.112769 0.323246 -0.288201 0.186035 0.358751 -0.57937 0.0150838 0.134404 -0.198071
1294 -0.0449399 0.0510708 0.210135 0.106013 0.00848373 0.359691 0.0329491 -0.116021 -0.209241 -0.483234 -0.284437 -0.133801 -0.0158547 -0.463071 -0.20273 0.0837447 0.280603 -0.238585 0.178325 0.386315 -0.478259 0.077135 0.0998666 -0.16278
1644 -0.0214503 0.0478863 0.254944 0.159706 0.0204884 0.530937 -0.00368991 -0.150714 -0.305553 -0.663897 -0.436196 -0.24139 0.00622315 -0.640071 -0.270745 0.135203 0.406529 -0.397818 0.261905 0.479094 -0.689199 0.0273546 0.161585 -0.259198
7864 0.0290527 0.0166796 0.142347 0.0989991 0.0312616 0.336772 0.00133617 -0.105307 -0.224945 -0.404885 -0.331907 -0.177316 -0.00385119 -0.398175 -0.197824 0.0518811 0.290309 -0.261541 0.191567 0.31677 -0.398599 0.0145977 0.101217 -0.1723
6349 0.00708908 0.0349883 0.156022 0.132062 0.00143153 0.321434 -0.0113486 -0.070274 -0.220325 -0.434911 -0.317273 -0.154569 -0.00266925 -0.3997 -0.201399 0.0717672 0.277299 -0.237945 0.176273 0.332316 -0.455192 0.0150117 0.124872 -0.171622
9448 0.0570858 0.00377633 0.254105 0.149166 0.0441254 0.531064 -0.0018135 -0.160202 -0.28265 -0.635213 -0.446558 -0.250291 -0.0100087 -0.601812 -0.289627 0.103014 0.392902 -0.39704 0.24323 0.38812 -0.607127 -0.0483786 0.189147 -0.265344
9480 0.00998064 -0.0357648 0.237715 0.168628 0.0389732 0.519308 -0.0827205 -0.141806 -0.265302 -0.595134 -0.455343 -0.206304 0.0589293 -0.678184 -0.23707 0.130159 0.341587 -0.321415 0.207161 0.326648 -0.615797 -0.0995415 0.196097 -0.280333
3345 -0.0429999 0.0452363 0.179145 0.102645 -0.00666672 0.312442 0.019343 -0.0966956 -0.225655 -0.43743 -0.266903 -0.133883 -0.0162147 -0.381382 -0.189323 0.0586632 0.233739 -0.255546 0.175719 0.334453 -0.441125 0.074193 0.0994564 -0.167828
4022 -0.001204 0.0514452 0.23662 0.140335 0.022849 0.501387 0.0182711 -0.115174 -0.273375 -0.580436 -0.410735 -0.233052 0.010832 -0.547419 -0.264023 0.0956843 0.377915 -0.352612 0.24437 0.436535 -0.56526 0.00306968 0.14359 -0.222607
4733 0.00526169 0.0599458 0.248952 0.126902 0.0348987 0.517238 0.0388211 -0.12408 -0.313196 -0.645655 -0.449728 -0.23823 0.00369315 -0.582352 -0.26293 0.105005 0.417792 -0.382718 0.238488 0.473278 -0.584009 0.00834065 0.153116 -0.259081
1156 0.0145408 0.0139409 0.151934 0.0989348 0.0337528 0.316159 0.00661341 -0.0853981 -0.224543 -0.427654 -0.327846 -0.167111 -0.0122581 -0.401327 -0.200519 0.0921442 0.279543 -0.247148 0.168751 0.270008 -0.430358 -0.032711 0.106022 -0.162142
5170 -0.00590341 0.00517107 0.233527 0.129511 0.0271719 0.44788 0.0225363 -0.139935 -0.270777 -0.553952 -0.398025 -0.218746 0.00334117 -0.532797 -0.244213 0.110461 0.35001 -0.360896 0.227086 0.381404 -0.542849 -0.024062 0.154037 -0.220475
352 -0.00287151 0.0290155 0.148496 0.10223 0.00890033 0.332421 -0.0157621 -0.0801774 -0.201237 -0.432994 -0.290913 -0.145444 -0.00412709 -0.406245 -0.17887 0.0671004 0.262878 -0.230589 0.15905 0.296066 -0.433357 0.0381208 0.106701 -0.142718
7265 -0.0198719 -0.00924262 0.247249 0.143395 0.0330385 0.465839 -0.0272381 -0.115522 -0.243159 -0.547935 -0.407675 -0.170548 0.0194041 -0.589551 -0.220143 0.0979056 0.337871 -0.33417 0.171053 0.323546 -0.576207 -0.0343019 0.152429 -0.236763
8099 0.00980663 0.023948 0.255149 0.152412 0.00290264 0.504499 0.00401222 -0.115233 -0.271976 -0.597036 -0.43279 -0.233429 -0.00401688 -0.606557 -0.262401 0.0803371 0.355605 -0.377523 0.250433 0.447619 -0.580689 0.0405557 0.146654 -0.235125
4502 -0.0315327 0.0683934 0.184243 0.0845201 0.0102309 0.351836 0.039741 -0.100496 -0.219719 -0.44526 -0.274751 -0.154455 0.00459621 -0.414234 -0.165168 0.074366 0.244594 -0.239476 0.183283 0.336473 -0.436481 0.0502888 0.106896 -0.167578
5776 -0.0508589 0.0779618 0.248102 0.136916 -0.031652 0.404779 0.012262 -0.0877897 -0.251461 -0.514864 -0.33897 -0.152823 -0.0162944 -0.536977 -0.211916 0.0913136 0.277582 -0.269069 0.198891 0.415459 -0.565316 0.0890761 0.0989607 -0.192407
3452 0.00557527 0.0301621 0.150257 0.0977031 -0.00356915 0.330136 -0.00417106 -0.0948824 -0.216739 -0.385709 -0.287032 -0.15955 -0.00967767 -0.36853 -0.160758 0.070252 0.241725 -0.23169 0.165952 0.289783 -0.405373 0.00254036 0.106326 -0.166516
6664 -0.00504605 0.0343015 0.246747 0.186364 0.0258597 0.535432 -0.0139546 -0.120803 -0.305853 -0.641669 -0.434245 -0.217195 -0.00293556 -0.621133 -0.271176 0.125722 0.386147 -0.350635 0.214897 0.413757 -0.639829 0.0122271 0.15471 -0.277767
10084 0.00765699 -0.0044872 0.225436 0.185129 0.0334029 0.493241 -0.0178926 -0.123456 -0.269074 -0.568363 -0.420695 -0.186248 0.0226542 -0.577064 -0.244614 0.112354 0.335919 -0.329402 0.204233 0.345911 -0.564131 -0.0475294 0.150705 -0.202433
6311 -0.0172122 0.0116994 0.180682 0.104878 0.0177217 0.324856 0.000328863 -0.069914 -0.202589 -0.380458 -0.307311 -0.154438 0.00137805 -0.415403 -0.18148 0.0836704 0.253352 -0.247651 0.145336 0.267933 -0.407774 -0.0464759 0.0938791 -0.157869
10090 0.17278 -0.190435 0.168747 0.196633 0.186419 0.47658 -0.0806352 -0.145692 -0.257358 -0.521987 -0.560354 -0.306124 0.0414607 -0.475451 -0.30107 0.118684 0.44955 -0.43006 0.217854 0.2021 -0.472326 -0.309014 0.29955 -0.22764
6661 -0.0184401 0.0457934 0.208702 0.11733 -0.00995135 0.422316 0.0199474 -0.0889648 -0.274466 -0.529779 -0.356273 -0.182856 -0.000446781 -0.500517 -0.228938 0.0772227 0.306945 -0.302226 0.221889 0.406651 -0.540286 0.0596216 0.109678 -0.198536
8554 0.00161787 0.0301549 0.224242 0.124148 0.000612443 0.445325 -0.000720051 -0.137933 -0.280033 -0.515695 -0.375248 -0.213943 0.0178543 -0.488533 -0.223082 0.0791359 0.326636 -0.310415 0.194923 0.385716 -0.529347 0.00982365 0.148705 -0.227324
3574 -0.0642637 0.0825334 0.170302 0.0945381 -0.0100633 0.328277 0.0381788 -0.0707707 -0.217215 -0.458506 -0.240492 -0.134777 -0.0373276 -0.421141 -0.177421 0.0538545 0.244941 -0.221004 0.15177 0.400559 -0.478146 0.113398 0.0736372 -0.160806
8911 0.000960997 0.0552735 0.37483 0.141208 0.062336 0.636001 0.0471395 -0.542227 -0.35013 -0.678825 -0.444031 -0.373153 -0.0861061 -0.796622 -0.160973 -0.109019 0.388262 -0.438813 0.168167 0.277562 -0.254137 -0.0639044 0.200568 -0.286658
9215 0.0402483 -0.015065 0.206323 0.114562 0.0344911 0.461389 -0.0759875 -0.137772 -0.269909 -0.569143 -0.468912 -0.229682 0.00571939 -0.580856 -0.302753 0.141324 0.382342 -0.420718 0.259051 0.375821 -0.591618 -0.0515173 0.151361 -0.268868
7675 -0.0565382 -0.0236622 0.186688 0.12541 0.030065 0.36351 -0.0276411 -0.0566044 -0.206814 -0.411312 -0.280408 -0.0977351 0.0353883 -0.477926 -0.146737 0.125407 0.20858 -0.180937 0.13288 0.272756 -0.501083 -0.0117025 0.0942299 -0.181156
9935 -0.204503 -0.267341 0.401576 0.436227 0.168427 0.761705 -0.487212 0.106865 -0.317465 -0.669261 -0.65324 0.0498902 0.36742 -1.39094 -0.134474 0.501292 0.222568 -0.0347552 0.0337982 0.112835 -1.37556 -0.265348 0.11593 -0.332886
9194 0.0369795 -0.00650477 0.20065 0.154739 0.0594645 0.462082 -0.0266183 -0.122933 -0.248734 -0.5541 -0.438844 -0.221897 0.0107353 -0.551532 -0.274009 0.110296 0.393903 -0.383811 0.210737 0.342527 -0.552262 -0.101513 0.180969 -0.23904
9220 0.0273182 0.0258286 0.250503 0.144568 0.0465031 0.49494 -0.0133571 -0.122465 -0.261202 -0.596824 -0.439943 -0.24137 0.0184535 -0.606162 -0.251098 0.0839259 0.364349 -0.34882 0.219246 0.393857 -0.579457 -0.0185572 0.176993 -0.237086
9857 0.0671048 -0.0573498 0.194999 0.173875 0.124041 0.490305 -0.0371 -0.135254 -0.260861 -0.504393 -0.442845 -0.249018 0.0167049 -0.476837 -0.252814 0.0822675 0.359067 -0.379038 0.216492 0.266397 -0.477643 -0.156747 0.21607 -0.216017
5810 0.184163 -0.213839 0.120315 0.149389 0.208207 0.384801 -0.0878752 -0.100783 -0.192114 -0.394241 -0.47851 -0.252297 0.0541768 -0.34905 -0.277459 0.0906112 0.39619 -0.37621 0.168453 0.0759783 -0.31777 -0.345254 0.288633 -0.18777
4388 -0.0152404 0.0529371 0.178688 0.0904687 -0.00727809 0.324734 0.0290995 -0.105027 -0.214046 -0.426579 -0.294597 -0.168821 0.0100291 -0.389652 -0.192476 0.0869254 0.268374 -0.244441 0.17954 0.326272 -0.431372 0.0375506 0.0973083 -0.1806
6875 -0.0122716 0.0274862 0.2355 0.146077 0.0245817 0.471278 0.0171966 -0.120216 -0.266155 -0.520647 -0.378585 -0.198918 0.0111592 -0.497941 -0.24705 0.107913 0.322684 -0.316886 0.205315 0.363311 -0.511686 -0.0172011 0.147553 -0.225283
9940 0.115789 -0.117443 0.170019 0.162677 0.161437 0.440378 -0.0432535 -0.145524 -0.261639 -0.520494 -0.508744 -0.257103 0.0164647 -0.444172 -0.271133 0.119626 0.413703 -0.402576 0.18396 0.210513 -0.463143 -0.217408 0.238231 -0.230423
4172 0.00366509 -0.0436416 0.168315 0.125529 0.0709582 0.374886 -0.0553385 -0.0675246 -0.176726 -0.420617 -0.326019 -0.11748 0.0315146 -0.480935 -0.159993 0.121142 0.240644 -0.211513 0.150091 0.243797 -0.461384 -0.068804 0.12205 -0.181899
1878 0.00163457 0.037104 0.153977 0.0799186 0.00560813 0.312842 0.0145597 -0.079174 -0.194123 -0.434215 -0.270084 -0.165541 -0.0031542 -0.419228 -0.156316 0.0768658 0.26875 -0.23842 0.180804 0.336524 -0.444136 0.0459229 0.106701 -0.150319
2345 0.0194564 0.0134026 0.197321 0.140204 0.0573842 0.426695 0.00223566 -0.107695 -0.23547 -0.519833 -0.355296 -0.196469 -0.00154688 -0.498031 -0.242908 0.0665353 0.314488 -0.3459 0.213168 0.346738 -0.484589 -0.0242629 0.147797 -0.223811
4321 -0.0308754 0.0752863 0.204845 0.107019 0.00707901 0.391433 0.0156041 -0.104029 -0.277517 -0.532309 -0.357127 -0.187645 -0.027195 -0.481093 -0.213357 0.0886945 0.323276 -0.320621 0.233493 0.419539 -0.564105 0.070947 0.0938104 -0.22893
6816 -0.00292092 0.0439725 0.257995 0.162512 0.0249688 0.525203 0.00748495 -0.146307 -0.316304 -0.619106 -0.414479 -0.209601 0.0168645 -0.585191 -0.276278 0.113188 0.399595 -0.386704 0.231891 0.443701 -0.60537 0.0411694 0.183187 -0.273489
9659 -0.031566 0.0225932 0.267637 0.127499 0.0316721 0.517004 0.0225537 -0.131726 -0.239743 -0.551661 -0.336341 -0.170515 0.0195602 -0.580374 -0.227544 0.0566732 0.32292 -0.295154 0.204483 0.400115 -0.548537 0.0156457 0.154907 -0.231389
8185 -0.0163156 -0.00572679 0.208784 0.156766 0.040429 0.408004 -0.00847621 -0.0813496 -0.252209 -0.490002 -0.339283 -0.176036 0.00890913 -0.515933 -0.213082 0.102399 0.317302 -0.280893 0.19325 0.317539 -0.537367 0.00226191 0.141642 -0.208978
9092 0.0243343 0.0105519 0.221587 0.132922 0.0673281 0.447702 -0.00535843 -0.110308 -0.267033 -0.554114 -0.438846 -0.245309 0.00649055 -0.549439 -0.247522 0.0837691 0.378848 -0.374397 0.210112 0.397251 -0.552836 -0.06559 0.168095 -0.252781
6198 -0.0398832 -0.00457669 0.224561 0.135552 0.0319732 0.440768 -0.0119469 -0.0775215 -0.233207 -0.447292 -0.316628 -0.127925 0.0462159 -0.525747 -0.194792 0.124975 0.251134 -0.217441 0.153527 0.313231 -0.532634 -0.000384817 0.138324 -0.208374
6753 0.0128885 0.0162838 0.243666 0.176054 0.0285063 0.514609 -0.0150008 -0.111472 -0.327565 -0.644473 -0.513611 -0.246949 0.0174347 -0.620851 -0.317928 0.126612 0.445959 -0.415462 0.263566 0.455152 -0.657172 -0.0265932 0.209466 -0.259625
9697 0.0203869 -0.0361038 0.239539 0.175295 0.113753 0.535684 0.00219305 -0.147055 -0.268743 -0.565701 -0.42498 -0.229519 0.0473896 -0.563422 -0.267133 0.0824562 0.382838 -0.396348 0.226089 0.306573 -0.502782 -0.0899868 0.218456 -0.25093
10117 0.0515146 -0.041034 0.215975 0.153352 0.0766407 0.473111 -0.0518639 -0.10571 -0.23573 -0.491121 -0.392404 -0.174249 0.0647142 -0.514815 -0.218288 0.0992039 0.304922 -0.327927 0.175175 0.263146 -0.507275 -0.122412 0.195161 -0.22895
8430 -0.0318458 0.0541429 0.169766 0.0973563 -0.0125501 0.326353 0.00364657 -0.0818673 -0.220689 -0.415466 -0.287265 -0.13996 -0.019627 -0.388983 -0.172684 0.0452147 0.230886 -0.255258 0.150319 0.338188 -0.422436 0.0278362 0.0891851 -0.17138
8898 -0.00418064 0.0305649 0.202839 0.0984192 -0.00166765 0.361729 0.0190714 -0.0940948 -0.213577 -0.455124 -0.305192 -0.170325 -0.00439839 -0.450282 -0.193801 0.0794056 0.290104 -0.256099 0.165229 0.352093 -0.479273 0.00513681 0.102603 -0.204771
2146 -0.0206562 0.01523 0.152978 0.0811068 -0.0032328 0.331191 0.000790307 -0.0834563 -0.193482 -0.413166 -0.291682 -0.137479 -0.00523027 -0.405192 -0.153572 0.0536 0.258296 -0.256072 0.137252 0.298507 -0.408588 0.0034131 0.103974 -0.163313
2830 0.0205941 0.0539049 0.249315 0.163019 0.0374729 0.52443 0.0020062 -0.131957 -0.305301 -0.667147 -0.470925 -0.228774 -0.00420357 -0.60196 -0.305401 0.118473 0.419656 -0.39605 0.236878 0.471489 -0.640365 0.000959731 0.178461 -0.255627
4448 0.0213345 0.0332506 0.205111 0.121834 0.0457536 0.397354 -0.0107055 -0.0913862 -0.202673 -0.446209 -0.29379 -0.149313 0.021558 -0.442697 -0.20602 0.0510224 0.286446 -0.256063 0.178578 0.298873 -0.419787 0.0108275 0.145761 -0.184009
6966 -0.0255427 0.0479721 0.167616 0.110349 -0.0105463 0.283764 0.0310828 -0.0755196 -0.207643 -0.392891 -0.252313 -0.14627 -0.0100668 -0.357065 -0.146288 0.0448031 0.249099 -0.234925 0.142612 0.341154 -0.4121 0.0746228 0.0785006 -0.164433
9180 0.00307866 0.0322907 0.232725 0.149876 0.0330492 0.434594 0.0241227 -0.134072 -0.283128 -0.543779 -0.382092 -0.220005 -0.00433611 -0.527588 -0.234084 0.0941447 0.337486 -0.346307 0.197787 0.413708 -0.51842 0.0280129 0.148176 -0.216411
7163 -0.0228926 0.0291841 0.211384 0.133081 -0.00407446 0.385766 -0.0111898 -0.102091 -0.26883 -0.506889 -0.348379 -0.20201 -0.00858644 -0.50009 -0.238283 0.103874 0.304244 -0.278032 0.182449 0.36389 -0.497916 0.0292476 0.133996 -0.193504
7922 0.0175996 0.0946588 0.283479 0.102069 -0.0418081 0.482209 0.0967011 -0.150079 -0.341148 -0.634973 -0.404563 -0.262968 -0.0493635 -0.576288 -0.241447 0.060686 0.405648 -0.430623 0.265319 0.520104 -0.577363 0.0548711 0.177765 -0.24874
8067 -0.015094 0.0284193 0.243628 0.136585 0.0174791 0.452268 0.0015685 -0.109582 -0.295267 -0.571249 -0.430279 -0.218451 0.00306412 -0.577673 -0.246826 0.097019 0.376558 -0.357189 0.236058 0.416069 -0.559922 -0.0116624 0.14947 -0.241493
9153 0.0195978 -0.0268097 0.249583 0.184956 0.0763582 0.52101 -0.00585063 -0.120831 -0.300777 -0.621739 -0.459377 -0.221237 0.0267919 -0.573419 -0.266249 0.0908291 0.388986 -0.399313 0.243892 0.389444 -0.582326 -0.0403785 0.177413 -0.245869
9613 0.0134295 0.0118227 0.255017 0.140849 0.0483466 0.48275 0.00817568 -0.133144 -0.276518 -0.549971 -0.403727 -0.209773 0.00948941 -0.591648 -0.262189 0.0695516 0.342619 -0.349046 0.216832 0.373944 -0.529233 -0.0457215 0.191583 -0.254926
2602 -0.0258684 0.0893611 0.198141 0.108826 -0.00854026 0.348811 0.0455514 -0.0845786 -0.234778 -0.458194 -0.293664 -0.169279 -0.00345275 -0.4313 -0.196665 0.0808819 0.242047 -0.241604 0.196481 0.398374 -0.48392 0.0695493 0.105555 -0.197314
6972 0.017354 0.0164777 0.213019 0.139039 0.0303103 0.444993 0.00246773 -0.147091 -0.277094 -0.586538 -0.407821 -0.201015 0.000490347 -0.517541 -0.245687 0.094793 0.358394 -0.332833 0.218637 0.385913 -0.530381 0.0248896 0.1754 -0.239063
7515 -0.0367015 0.0299747 0.250071 0.147674 0.0195816 0.534532 0.00544207 -0.135962 -0.267536 -0.622664 -0.401389 -0.23693 0.0130639 -0.609328 -0.263226 0.0863424 0.365095 -0.369971 0.217001 0.424721 -0.601136 -0.00447219 0.183443 -0.280001
4793 -0.0267901 0.0553768 0.178035 0.0975337 0.0109 0.335377 0.0116435 -0.0774095 -0.226028 -0.415124 -0.266927 -0.15244 -0.0277933 -0.365673 -0.15183 0.0443169 0.246935 -0.229618 0.179133 0.338818 -0.402931 0.0670972 0.102001 -0.177334
7489 -0.0248568 0.0975379 0.225221 0.118239 -0.00578725 0.396793 0.0506672 -0.0945632 -0.280926 -0.510382 -0.323715 -0.191187 -0.0190675 -0.46204 -0.196848 0.0913489 0.316416 -0.287844 0.218531 0.412221 -0.509196 0.0788632 0.0800718 -0.216224
8262 0.0167379 0.00656816 0.226288 0.15474 0.0250654 0.495864 0.0299298 -0.127235 -0.279374 -0.581603 -0.391142 -0.209142 -0.00265206 -0.559813 -0.239131 0.0794969 0.361071 -0.334285 0.206723 0.399591 -0.562959 -0.0183259 0.160338 -0.256524
6738 -0.0145911 0.0505899 0.182333 0.108936 0.00137362 0.364824 0.0225352 -0.113927 -0.264482 -0.512492 -0.35594 -0.174804 -0.0149806 -0.432115 -0.234998 0.0696416 0.298058 -0.314545 0.200549 0.367592 -0.498568 0.0320749 0.111021 -0.184251
6917 -0.032851 0.145559 0.259583 0.130123 -0.0368275 0.484052 0.0744863 -0.138647 -0.365286 -0.69816 -0.451156 -0.277619 -0.0354662 -0.588184 -0.313075 0.111874 0.410558 -0.398027 0.283127 0.602696 -0.664758 0.116352 0.143667 -0.280877
7375 0.0115956 0.0475289 0.225386 0.131335 0.0175656 0.45099 0.0228365 -0.114718 -0.285278 -0.543309 -0.427296 -0.216633 -0.0157277 -0.538836 -0.257875 0.0773043 0.358674 -0.32441 0.1997 0.380969 -0.55556 -0.00796697 0.138417 -0.221009
5755 -0.0321111 0.00635264 0.193573 0.145084 0.00887792 0.375562 -0.0575344 -0.0585381 -0.202091 -0.435254 -0.302006 -0.125028 0.0346301 -0.505222 -0.174626 0.121997 0.240461 -0.230811 0.136267 0.29133 -0.531707 -0.0192178 0.0844167 -0.175377
9607 0.0195168 -0.0277445 0.238202 0.155902 0.0478464 0.47874 -0.0354258 -0.110249 -0.266958 -0.572588 -0.433933 -0.225772 0.00372105 -0.57373 -0.269907 0.101371 0.363845 -0.373731 0.217304 0.347644 -0.563047 -0.080252 0.201466 -0.244036
9803 -0.0446796 -0.00330689 0.25754 0.15487 0.000551239 0.522793 0.00380291 -0.143225 -0.265786 -0.545741 -0.351663 -0.17845 0.0121429 -0.639698 -0.230582 0.123341 0.331205 -0.309137 0.219594 0.352669 -0.621522 -0.0246994 0.167712 -0.260604
9858 0.0372867 -0.0571182 0.27193 0.184178 0.110341 0.570373 -0.0576964 -0.131973 -0.256307 -0.567956 -0.478511 -0.187847 0.0345065 -0.586719 -0.256042 0.129443 0.341744 -0.342088 0.170544 0.285513 -0.556122 -0.11461 0.221823 -0.270362
2570 -0.0266451 -0.001086 0.222666 0.146302 0.0360703 0.418511 0.0198906 -0.109426 -0.237037 -0.480795 -0.347537 -0.197148 -0.0106088 -0.512453 -0.230936 0.0879024 0.307914 -0.293686 0.204706 0.341675 -0.520499 0.0118363 0.132265 -0.212558
3846 0.0394943 -0.0137607 0.144116 0.106696 0.0200595 0.334544 -0.023486 -0.0832255 -0.201287 -0.393455 -0.284418 -0.16715 0.025206 -0.365814 -0.1872 0.0442371 0.27344 -0.290367 0.168517 0.261893 -0.354767 -0.0335853 0.129466 -0.186591
9168 0.0219482 -0.0657432 0.232863 0.158587 0.0442746 0.49911 -0.159719 -0.0895477 -0.264113 -0.53408 -0.451129 -0.158305 0.0907403 -0.678944 -0.236142 0.145803 0.334271 -0.327165 0.214679 0.302589 -0.667604 -0.0823924 0.155976 -0.25024
8272 -0.00940849 -0.0666451 0.226533 0.18565 0.0833578 0.426294 -0.0806542 -0.0635426 -0.186652 -0.459031 -0.333588 -0.117574 0.0858257 -0.586383 -0.180735 0.126274 0.250043 -0.20045 0.125499 0.244295 -0.566183 -0.0633022 0.134878 -0.21368
10143 -0.165009 -0.232141 0.388592 0.407231 0.244981 0.846341 -0.396665 -0.0339989 -0.250717 -0.637116 -0.525566 0.000178181 0.27111 -1.08255 -0.113412 0.330734 0.157947 -0.127539 0.0427593 0.064925 -0.996329 -0.302021 0.20335 -0.366924
9047 0.034087 -0.0217445 0.211631 0.127786 0.024144 0.451288 -0.0912292 -0.105087 -0.284399 -0.584183 -0.501102 -0.191173 0.0242943 -0.607956 -0.319859 0.132566 0.396322 -0.40886 0.265215 0.345098 -0.609597 -0.03954 0.125611 -0.251976
9960 0.11457 -0.123417 0.211881 0.20691 0.161373 0.584084 -0.0242828 -0.161703 -0.266173 -0.62805 -0.550346 -0.287752 0.0577057 -0.534078 -0.337937 0.111377 0.4447 -0.448053 0.228284 0.261421 -0.494187 -0.222546 0.293871 -0.259349
10021 0.148899 -0.180617 0.222636 0.160703 0.131991 0.51614 -0.0169802 -0.2092 -0.233775 -0.583382 -0.531073 -0.319201 0.0729314 -0.646994 -0.327033 0.108681 0.496223 -0.503991 0.253503 0.237964 -0.537874 -0.292458 0.329176 -0.305411
2020 0.00347351 0.0327278 0.152707 0.0854308 -0.0150017 0.326168 0.0326781 -0.0762401 -0.185947 -0.400408 -0.285607 -0.15892 0.00391535 -0.401715 -0.186746 0.0525022 0.246726 -0.235242 0.142004 0.304633 -0.407206 0.0220843 0.0884793 -0.16776
4613 -0.0291054 0.0841267 0.23561 0.146746 -0.00490307 0.507522 0.0497085 -0.123428 -0.31148 -0.620165 -0.38339 -0.233904 -0.0247807 -0.568363 -0.262374 0.0766471 0.357535 -0.366806 0.224357 0.457206 -0.607662 0.032885 0.150746 -0.236189
1531 -0.0343727 0.0569765 0.194996 0.129705 -0.000285961 0.376855 0.0476949 -0.0866446 -0.247777 -0.515637 -0.319766 -0.169982 -0.0124084 -0.463828 -0.22126 0.0873352 0.311751 -0.294894 0.210242 0.389302 -0.497829 0.0773239 0.116915 -0.215672
2150 0.0304432 0.028057 0.243198 0.150731 0.0214513 0.52236 -0.0130181 -0.158538 -0.307227 -0.654985 -0.490592 -0.255592 0.0202151 -0.622737 -0.299793 0.111223 0.413157 -0.39152 0.260444 0.431847 -0.638919 -0.00807061 0.170664 -0.270818
2597 -0.0304389 0.0781937 0.25522 0.124006 -0.0263396 0.429679 0.0536513 -0.100764 -0.271144 -0.571533 -0.354374 -0.178023 0.00211566 -0.538662 -0.251612 0.10248 0.338474 -0.30492 0.200979 0.446393 -0.569145 0.0717572 0.112312 -0.211088
10127 0.143498 -0.199775 0.220241 0.198109 0.208 0.568311 -0.0459852 -0.203709 -0.187268 -0.537779 -0.483096 -0.289155 0.0598556 -0.565889 -0.294579 0.0710536 0.412922 -0.428883 0.207605 0.158229 -0.466636 -0.308998 0.321146 -0.276671
10124 0.0145529 -0.0776205 0.258695 0.203269 0.0881527 0.589849 0.00436943 -0.17095 -0.20528 -0.539926 -0.388267 -0.219386 0.0585559 -0.600533 -0.254995 0.0910195 0.29349 -0.354541 0.192186 0.240578 -0.493962 -0.116158 0.277731 -0.285103
10275 0.0157665 -0.323455 0.41214 0.279072 0.124405 0.676617 -0.125598 -0.203377 -0.177406 -0.544134 -0.498823 -0.232039 0.0930481 -0.743514 -0.268044 0.0773361 0.355767 -0.492908 0.127039 0.0838706 -0.618466 -0.453424 0.444893 -0.39997
3711 0.0074027 0.0658696 0.182503 0.131453 -0.0130583 0.410731 0.00697529 -0.108149 -0.238324 -0.518007 -0.352705 -0.180096 0.0068556 -0.481743 -0.222401 0.077166 0.312436 -0.30399 0.201431 0.381312 -0.484439 0.017301 0.109718 -0.18196
9123 0.0431006 0.0217508 0.211003 0.102149 0.0474499 0.43774 -0.0887193 -0.160953 -0.310757 -0.593166 -0.500306 -0.250075 0.0201488 -0.566696 -0.318095 0.122908 0.407065 -0.438026 0.283189 0.350749 -0.559001 -0.028912 0.128125 -0.194705
9424 0.000788762 -0.0185256 0.2279 0.145717 0.0478983 0.516591 0.0182158 -0.12781 -0.26999 -0.581787 -0.421135 -0.204552 0.0168901 -0.582828 -0.237072 0.101095 0.365516 -0.370629 0.212623 0.40232 -0.556119 -0.041481 0.173321 -0.264251
4329 0.00807826 0.0440885 0.292899 0.159077 0.0270198 0.543644 0.041167 -0.148927 -0.327389 -0.69834 -0.466249 -0.261287 0.00597822 -0.667904 -0.283749 0.118544 0.455145 -0.431777 0.283895 0.532813 -0.67833 0.055255 0.187581 -0.279826
5700 0.00351648 0.120461 0.231267 0.0826693 -0.0433176 0.424088 0.0644584 -0.120885 -0.353905 -0.654903 -0.449792 -0.288769 -0.024344 -0.537077 -0.3081 0.100998 0.433682 -0.392837 0.280158 0.579617 -0.601372 0.136598 0.114397 -0.244184
6392 -0.0125873 0.0127328 0.192757 0.144185 0.0392771 0.395289 0.0227535 -0.116233 -0.26171 -0.486375 -0.352516 -0.193752 0.0141921 -0.476111 -0.203727 0.072436 0.303419 -0.288729 0.210785 0.360284 -0.50847 0.0107744 0.152605 -0.219177
2833 -0.0195773 0.0150254 0.16408 0.112477 0.00734658 0.35257 -0.0131296 -0.0980105 -0.228608 -0.436581 -0.299069 -0.158786 0.00120652 -0.418525 -0.176561 0.0910572 0.266953 -0.24118 0.149649 0.325275 -0.42626 -0.00708284 0.132657 -0.188275
4964 0.0609779 -0.0429987 0.275635 0.180277 0.0959247 0.555033 0.0036147 -0.173282 -0.327315 -0.68854 -0.510797 -0.264289 0.0421517 -0.647803 -0.323501 0.100835 0.469294 -0.459451 0.240877 0.429752 -0.655284 -0.079246 0.239253 -0.280486
10205 0.0341432 -0.0936776 0.247412 0.181478 0.0925564 0.562796 -0.0298071 -0.173187 -0.226009 -0.54443 -0.422877 -0.174874 0.0404796 -0.615432 -0.232401 0.0825278 0.364981 -0.37089 0.194381 0.277842 -0.534281 -0.13596 0.222336 -0.264114
10279 0.0655497 -0.253404 0.324189 0.255487 0.130868 0.724536 -0.134163 -0.167934 -0.223042 -0.524545 -0.4596 -0.190425 0.121993 -0.719552 -0.247231 0.101948 0.31813 -0.350883 0.131887 0.159268 -0.495277 -0.29225 0.319583 -0.337867
6562 0.0955781 -0.0979749 0.127734 0.13392 0.112624 0.349646 -0.0648144 -0.0981147 -0.196542 -0.409324 -0.423565 -0.211927 0.057816 -0.360064 -0.206984 0.100143 0.321372 -0.300561 0.158108 0.163242 -0.368682 -0.178444 0.197217 -0.170888
9165 0.229924 -0.269567 0.173519 0.189069 0.251027 0.547736 -0.12077 -0.146383 -0.256781 -0.586759 -0.682907 -0.321135 0.101315 -0.587475 -0.351005 0.141343 0.537629 -0.537547 0.254546 0.160402 -0.549739 -0.420955 0.398529 -0.299738
9230 -0.0402629 0.0858604 0.226147 0.137606 -0.0184345 0.388902 0.0172835 -0.103063 -0.290472 -0.544023 -0.375248 -0.187883 -0.00902512 -0.489012 -0.228818 0.0745501 0.346601 -0.291971 0.218106 0.421624 -0.57432 0.0727459 0.123643 -0.221606
9420 -0.0154001 0.0801949 0.251463 0.124021 0.00911824 0.495352 0.0465304 -0.153267 -0.258631 -0.644091 -0.414369 -0.273249 -0.0255398 -0.541222 -0.263867 0.0291294 0.353237 -0.38457 0.257835 0.46692 -0.533793 0.0711355 0.204426 -0.276118
9841 -0.00649797 0.000281947 0.255692 0.167853 0.0302815 0.464071 -0.018118 -0.108819 -0.259693 -0.534002 -0.364285 -0.17705 0.0111638 -0.557809 -0.23777 0.0855857 0.323385 -0.34092 0.219317 0.336951 -0.571058 -0.0249418 0.182192 -0.247954
5604 -0.00543273 0.0242516 0.182422 0.112654 0.0263363 0.3807 0.015085 -0.0981242 -0.262542 -0.500177 -0.356884 -0.168364 0.0181399 -0.445966 -0.23426 0.0936561 0.304211 -0.302999 0.203506 0.323973 -0.498326 -0.0264871 0.118959 -0.174845
6986 -0.020391 0.0848779 0.2678 0.151151 5.57124e-05 0.500684 0.0418034 -0.133039 -0.313914 -0.638266 -0.432075 -0.247679 0.00214961 -0.576208 -0.273175 0.110514 0.403248 -0.367872 0.241926 0.490349 -0.601634 0.0683604 0.136074 -0.2609
