10313 24
624 -0.055963 -0.135156 -0.0284146 -0.292547 0.0257139 0.182823 0.225725 -0.0303816 -0.374247 0.297536 -0.362466 -0.0859891 -0.0952601 0.100606 0.0611676 0.144798 -0.145095 0.304937 0.107217 0.312235 -0.156429 0.434323 -0.11191 0.105766
4374 0.0071316 0.0137021 0.044971 -0.404785 -0.111576 0.471949 0.461958 0.181054 -0.664927 0.699162 -0.741769 -0.273719 -0.044562 0.0340561 0.155507 0.151045 -0.480701 0.590683 0.273867 0.68589 -0.157789 0.804152 -0.080693 0.259728
5101 0.018304 -0.260561 -0.0463504 -0.41005 -0.0273371 0.157164 0.288008 -0.00990806 -0.371003 0.353255 -0.360306 -0.146155 -0.0514637 0.054735 0.0638028 0.127896 -0.1186 0.287618 0.108576 0.318949 -0.121144 0.461408 -0.0315252 0.11496
7297 0.0825393 -0.0543819 -0.0935701 -0.463759 -0.107473 -0.0658025 0.3291 -0.166747 -0.292719 0.484945 -0.380464 -0.353327 -0.00791532 -0.0385844 0.0832651 0.217984 -0.0217234 0.207832 0.048891 0.288284 -0.0529484 0.434245 -0.0195295 0.0776454
8270 -0.778705 0.835757 -0.694876 -2.51845 0.990553 1.67067 1.39712 -0.5189 -0.316942 1.88178 0.894356 -2.97387 0.0210085 1.2708 -0.0468321 0.554009 0.856019 1.49735 0.884385 0.771282 0.471125 0.058966 0.414405 0.896229
9845 0.283051 -0.735095 -0.0352407 -0.652845 -0.290684 -0.115838 0.687905 0.00959563 -0.31975 0.585839 -0.536405 -0.348533 0.137786 -0.147746 0.146172 0.276707 -0.22746 0.551446 -0.0229263 0.614545 -0.110867 0.392227 -0.058558 -0.0693847
6474 -0.0989956 0.12998 -0.0822543 -0.448401 0.0194431 0.107284 0.428317 -0.219422 -0.578564 0.532467 -0.598325 -0.293654 -0.148162 0.127927 0.0888429 0.306675 -0.0911883 0.436646 0.144946 0.451333 -0.217864 0.632049 -0.143356 0.155683
8362 -0.054814 -0.354874 -0.246232 -0.489178 -0.167891 -0.18432 0.495718 -0.280823 -0.403565 0.37012 -0.598062 -0.414278 0.0171121 0.0914365 0.078919 0.337062 -0.150103 0.587605 0.0689172 0.657895 -0.161745 0.461508 -0.285374 0.173447
3644 0.0171439 -0.0940577 -0.0331974 -0.32061 -0.0536013 0.0757001 0.262489 -0.0346431 -0.250077 0.307319 -0.339356 -0.128784 -0.00364903 -0.0242491 0.0760542 0.162593 -0.139927 0.243965 0.0513926 0.277334 -0.0812923 0.381462 -0.0345651 0.0188659
4839 -0.105932 0.365492 -0.135133 -0.427467 0.082014 0.689755 0.221202 -0.149286 -0.90657 0.698357 -0.820274 -0.646864 -0.18856 0.22343 0.0954033 0.146524 -0.258207 0.665304 0.477349 0.686204 -0.117511 0.944469 -0.197246 0.566934
8241 -0.0362974 -0.281598 -0.124832 -0.514323 -0.0654251 0.0866529 0.320673 -0.129737 -0.398037 0.437174 -0.440987 -0.276918 -0.0555285 0.101469 0.0699254 0.185546 -0.115573 0.365304 0.115449 0.465735 -0.135902 0.550432 -0.0914263 0.166251
3529 -0.000539137 -0.11777 -0.042597 -0.285261 -0.0371354 0.0521855 0.248821 -0.0489232 -0.305089 0.308853 -0.305479 -0.13413 -0.0753574 0.038324 0.0722942 0.173171 -0.110323 0.258323 0.0598911 0.306751 -0.11567 0.378776 -0.0348376 0.0900601
5402 -0.0185549 -0.0615788 -0.0822485 -0.526343 -0.045564 0.121098 0.420712 -0.134651 -0.567347 0.613187 -0.611684 -0.335884 -0.12885 0.092615 0.11136 0.279575 -0.168003 0.434039 0.173563 0.478777 -0.165262 0.718498 -0.0923898 0.174025
6641 -0.12446 -0.147457 -0.139547 -0.446606 0.0456088 0.172233 0.371277 -0.163255 -0.586724 0.50175 -0.553357 -0.239268 -0.163676 0.172615 0.0802341 0.250788 -0.12827 0.371755 0.145823 0.358427 -0.218588 0.62454 -0.171515 0.13712
352 -0.0104241 -0.184026 -0.0498505 -0.328963 0.00153954 0.118452 0.200693 -0.0362951 -0.324383 0.30806 -0.32198 -0.10236 -0.0783441 0.0506418 0.0742962 0.12262 -0.141186 0.229718 0.115548 0.251586 -0.134095 0.408769 -0.0633528 0.062489
3407 -0.0670725 -0.113271 0.0200994 -0.487546 -0.0413421 0.357924 0.414196 0.0419821 -0.674408 0.604975 -0.68108 -0.243108 -0.110154 0.103626 0.116265 0.196932 -0.339156 0.514209 0.229591 0.572025 -0.202228 0.772367 -0.121896 0.236662
7580 -0.0509968 -0.210394 -0.116499 -0.359441 -0.0241387 0.092626 0.346118 -0.108178 -0.430118 0.384248 -0.45197 -0.207474 -0.076065 0.112752 0.085378 0.208909 -0.157568 0.412663 0.127871 0.406321 -0.163623 0.485098 -0.151909 0.094921
7913 -0.0167902 -0.180375 -0.111002 -0.342437 -0.0367746 0.0218089 0.21993 -0.106756 -0.280051 0.29784 -0.308055 -0.167997 -0.0600109 0.0593259 0.0373544 0.166162 -0.0990703 0.224416 0.0630102 0.288591 -0.112438 0.397105 -0.0662952 0.139997
9188 0.345906 0.292853 0.079996 -0.41527 -0.620861 0.934753 0.132112 0.300293 -0.557046 0.899134 -0.906267 0.00387024 0.364083 -0.312783 -0.00425832 -0.1015 -0.743943 0.230471 0.242999 0.432353 0.423432 0.69195 0.055717 0.314771
9553 0.0904555 -0.591496 -0.170176 -0.51656 -0.0421382 0.127314 0.248992 -0.0624655 -0.373171 0.463698 -0.458174 -0.194886 0.0192297 0.0455734 0.0443867 0.100284 -0.206108 0.240102 0.11522 0.248169 -0.134444 0.480085 -0.0138925 0.0401792
4164 -0.095167 -0.041303 -0.0991287 -0.2827 0.0246042 0.162065 0.204677 -0.0649753 -0.351754 0.257583 -0.314316 -0.136843 -0.131382 0.13348 0.0234932 0.150876 -0.0884056 0.251241 0.12101 0.25323 -0.114824 0.424907 -0.0626796 0.157919
8188 -0.0360578 -0.338525 -0.138722 -0.458343 0.014341 0.201597 0.272859 -0.0757341 -0.449952 0.399436 -0.454707 -0.133618 -0.0879304 0.10909 0.0692321 0.217384 -0.147389 0.319106 0.145652 0.298879 -0.179869 0.490755 -0.0988275 0.0733478
8888 0.0659491 -0.282103 -0.2124 -0.564593 -0.217904 0.30385 0.283828 -0.0504096 -0.607597 0.591122 -0.582928 -0.349104 -0.00873217 0.0959648 0.115467 0.146673 -0.216081 0.377674 0.164005 0.414901 -0.0690812 0.608788 -0.10216 0.229963
10152 0.0141964 -0.461122 0.246787 -0.322727 0.0410558 0.399854 0.365279 0.337758 -0.345129 0.329662 -0.331695 0.188871 -0.0307386 -0.00828306 0.153481 0.13499 -0.415315 0.420826 0.116112 0.448197 -0.277922 0.49176 -0.00211395 -0.0298672
10304 0.237003 -0.660214 0.540066 -0.17342 -0.337446 0.429876 0.8711 0.717909 -0.499607 0.983081 -0.61285 0.0732591 -0.0278556 -0.225104 0.0513948 -0.0928806 -0.670516 0.491253 0.531963 0.657325 -0.219344 0.767953 0.443301 -0.146321
0 0.117528 -0.00471474 0.305885 -0.758457 -0.00654148 -1.70693 0.506624 1.2371 -0.532319 1.46328 -1.0566 0.289673 0.117357 -0.336167 0.0280855 -0.645828 -2.97762 2.08922 0.450242 2.54326 -0.211024 1.50449 0.662322 0.249818
10090 0.0798978 -0.49495 0.23428 -0.349573 0.0212345 0.473057 0.361601 0.320323 -0.426384 0.297254 -0.388239 0.187026 -0.0397645 -0.0280934 0.221046 0.178268 -0.448538 0.50876 0.0608532 0.490791 -0.315217 0.553203 -0.0372001 -0.0511862
7531 -0.0681099 -0.164272 -0.0769204 -0.304205 -0.0432533 0.033774 0.332427 -0.114565 -0.36228 0.315546 -0.391305 -0.20127 -0.0242368 0.0625019 0.0527602 0.237294 -0.121766 0.375293 0.0854488 0.393436 -0.175592 0.409771 -0.133151 0.0807248
8644 -0.013537 -0.550573 -0.0950217 -0.650929 -0.0855396 0.127239 0.289795 -0.0727615 -0.341769 0.364645 -0.451539 -0.0272913 -0.089804 0.0227645 0.129568 0.249264 -0.212559 0.305107 0.0422319 0.439097 -0.194439 0.632774 -0.0328066 0.0702793
9105 -0.0539806 -0.0904253 -0.0291985 -1.21884 -0.538016 0.447473 -0.0664478 0.289368 -0.382111 0.157654 -0.984948 -0.030804 -0.124377 0.0728022 0.0559631 -0.31099 -0.441155 0.837899 0.0593235 0.291445 0.130685 0.556722 0.23315 0.13424
2414 -0.0539923 -0.0434747 -0.0987688 -0.276259 0.022137 0.116126 0.199976 -0.0969259 -0.340634 0.308387 -0.382487 -0.147998 -0.114758 0.107912 0.0312947 0.154006 -0.0965357 0.241198 0.113348 0.291555 -0.133448 0.389183 -0.112701 0.13495
4601 -0.0799664 -0.00389976 -0.113653 -0.494395 0.0186775 0.193451 0.417706 -0.155887 -0.653719 0.540981 -0.638417 -0.245315 -0.169981 0.164577 0.113073 0.321437 -0.167731 0.401501 0.178922 0.464187 -0.257773 0.738076 -0.171538 0.176697
5227 -0.0655325 -0.104544 -0.105652 -0.410157 0.00765344 0.18229 0.367515 -0.112386 -0.487198 0.460746 -0.479882 -0.289422 -0.143377 0.114846 0.0610488 0.214003 -0.158088 0.334765 0.16806 0.426701 -0.168428 0.551471 -0.104845 0.184595
962 -0.0139814 -0.152482 0.00241316 -0.287996 -0.00329962 0.175409 0.256685 0.0440926 -0.360764 0.292041 -0.351737 -0.0940529 -0.0643323 0.0492038 0.0842959 0.124705 -0.166629 0.285223 0.0859272 0.324688 -0.154973 0.398661 -0.0763691 0.0776074
3122 -0.139988 -0.0914848 -0.104917 -0.532518 0.0559347 0.344044 0.430563 -0.0993372 -0.752295 0.559145 -0.680671 -0.286038 -0.210945 0.184398 0.0935246 0.264219 -0.267292 0.531336 0.259481 0.584981 -0.308126 0.864393 -0.163845 0.256427
5398 -0.0191857 -0.0857521 -0.0593163 -0.47717 -0.0728034 0.0558311 0.431553 -0.131133 -0.473872 0.551925 -0.525887 -0.289053 -0.0863829 0.0313998 0.0711021 0.252191 -0.16549 0.386292 0.0973497 0.443435 -0.115303 0.578143 -0.0855966 0.0990908
6256 -0.0415967 -0.0407346 -0.0612346 -0.270755 0.0152595 0.117462 0.184207 -0.103207 -0.348539 0.293116 -0.331716 -0.163486 -0.11927 0.108036 0.0280617 0.131444 -0.0766362 0.214174 0.0890928 0.283263 -0.0840634 0.393184 -0.0674242 0.118564
6915 -0.0646814 -0.0728616 -0.10954 -0.416208 -0.0228454 0.227118 0.331253 -0.136189 -0.5504 0.472229 -0.505771 -0.270571 -0.134596 0.113533 0.0877268 0.234767 -0.131824 0.421332 0.192403 0.447082 -0.146303 0.614485 -0.158146 0.199713
9485 0.132428 -0.545964 -0.0271545 -0.640738 -0.186344 0.143959 0.40188 0.0216471 -0.263132 0.480532 -0.403252 -0.303178 -0.0164245 -0.09552 0.0794428 0.14829 -0.193848 0.261953 0.0217702 0.440031 0.00222864 0.455422 0.044361 0.0990192
1285 -0.0110177 0.0483303 0.00924069 -0.270018 -0.04212 0.0774773 0.281781 -0.0499149 -0.31047 0.336416 -0.340758 -0.146113 -0.0665392 0.0298819 0.0778905 0.18198 -0.117121 0.263579 0.0622427 0.299382 -0.0959928 0.404821 -0.0380969 0.0713578
9919 0.256488 -0.0449529 -1.69001 -0.558207 -0.721259 -0.208393 -0.0173792 -0.116997 -0.765925 1.38242 -1.48754 -2.23406 0.364438 0.239925 -0.183577 -0.802667 -0.348879 0.798258 1.10062 1.18518 0.611369 1.24392 0.115233 1.57595
10143 0.2951 0.231445 0.723315 -0.637827 -0.748328 -0.104994 0.971948 0.544034 0.116255 1.289 -0.949667 -0.569655 0.389055 -0.892949 0.239595 0.246616 -0.813582 0.224476 -0.245595 1.00082 0.114457 1.23382 0.729599 -0.252889
5630 -0.128934 0.0471608 -0.100105 -0.27609 0.0788603 0.170163 0.269364 -0.163734 -0.512627 0.36449 -0.440297 -0.15031 -0.184641 0.185886 0.0431392 0.225275 -0.0872688 0.29831 0.181284 0.329725 -0.215749 0.536558 -0.170967 0.145048
6243 -0.209556 0.17333 -0.205663 -0.318784 0.140132 0.28668 0.416924 -0.271953 -0.769712 0.516038 -0.663743 -0.40376 -0.205613 0.303549 0.0543401 0.36899 -0.121953 0.548226 0.305825 0.492866 -0.271372 0.749413 -0.286595 0.269051
6640 -0.00972269 -0.129146 0.0412758 -0.374601 -0.0478067 0.189149 0.306259 0.0256961 -0.358798 0.40508 -0.405541 -0.126329 -0.0749994 0.048442 0.074988 0.181437 -0.171312 0.300452 0.111331 0.345256 -0.129343 0.469507 -0.0586396 0.073031
8982 0.00382217 -0.51402 -0.157362 -0.42677 -0.136159 0.0121441 0.484785 -0.218561 -0.476317 0.38683 -0.586838 -0.296522 0.0400409 0.0289664 0.0721131 0.301674 -0.24095 0.526534 0.0711841 0.534154 -0.232616 0.441128 -0.283396 0.0596024
9153 0.215467 -0.36037 0.0237098 -0.543712 -0.18828 0.201641 0.451375 0.219909 -0.37305 0.648075 -0.50659 -0.256086 0.0428631 -0.0949878 0.132451 0.060717 -0.258578 0.369626 0.129957 0.495232 -0.0367846 0.547008 0.0972961 0.0920914
10232 0.129737 -0.609574 0.431402 -0.657656 -0.30952 0.267232 0.547967 0.243627 -0.180901 0.429286 -0.398769 -0.0695213 -0.0220896 -0.242324 0.120017 0.126636 -0.384826 0.31182 -0.111443 0.535108 -0.016879 0.569439 0.122339 -0.0266079
9378 0.0664727 -0.284447 -0.0664313 -0.434986 -0.0721221 0.0833548 0.254125 -0.0595497 -0.272834 0.342881 -0.345497 -0.236004 -0.0533269 0.0553027 0.0634285 0.118311 -0.105199 0.246728 0.110544 0.328047 -0.0333205 0.399608 -0.0367064 0.113187
9480 0.213231 -0.356759 -0.189731 -0.621394 -0.279575 0.468287 0.0897081 0.0790967 -0.434528 0.543961 -0.463093 -0.445448 0.110524 0.00352953 0.0135555 -0.0753567 -0.278212 0.344674 0.289022 0.401523 0.148232 0.640962 -0.00642343 0.387872
9642 0.0527247 -0.783355 0.104697 -0.593929 -0.0468328 0.326698 0.392464 0.150408 -0.311795 0.423868 -0.415216 -0.0709333 -0.0300543 -0.00507858 0.149923 0.108789 -0.309318 0.345993 0.08194 0.366041 -0.179294 0.597295 0.00919325 0.00132997
6344 0.0766136 -0.387331 -0.0885318 -0.41028 -0.082633 0.146523 0.26182 -0.0180952 -0.301372 0.350583 -0.332761 -0.191891 0.014778 -0.00992772 0.0998613 0.129701 -0.129912 0.230116 0.0985033 0.257785 -0.102531 0.392089 0.00158469 0.0797882
9821 0.157873 -0.506293 -0.0415656 -0.739575 -0.184401 0.139218 0.425715 -0.00287879 -0.365393 0.650725 -0.480511 -0.359813 -0.021592 -0.0618328 0.0992737 0.0943539 -0.17349 0.303754 0.0719697 0.443183 -0.0117163 0.534011 0.0835455 0.171344
9400 -0.0131946 -0.406427 0.243814 -0.289005 0.093676 0.553193 0.271905 0.348381 -0.362269 0.211536 -0.297252 0.22859 -0.075247 0.0119386 0.198973 0.168745 -0.435808 0.430977 0.0786154 0.40925 -0.303175 0.504194 -0.0577438 0.00284342
9479 0.241167 -0.12067 0.104481 -0.445101 -0.271236 0.354689 0.439711 0.114269 -0.449946 0.65721 -0.54892 -0.196653 0.0962548 -0.227408 0.164865 0.247546 -0.247288 0.363038 0.100435 0.364511 -0.0664173 0.417167 0.0219837 -0.124193
9610 0.0312932 -0.606849 -0.0554185 -0.463796 -0.0352072 0.310101 0.361222 0.0638137 -0.479763 0.440733 -0.473873 -0.0161762 -0.0343638 0.0433865 0.090132 0.167118 -0.277963 0.330649 0.194571 0.29209 -0.250586 0.534373 -0.0718738 -0.0170535
9730 0.0990932 -0.300335 0.0288044 -0.469574 -0.134832 0.281234 0.364477 0.149298 -0.390738 0.479458 -0.375922 -0.117365 0.031884 -0.0779007 0.0954982 0.145518 -0.227176 0.342719 0.0649544 0.362225 -0.0940726 0.475679 0.0110997 -0.0234993
1737 -0.0319409 -0.150666 -0.0678884 -0.326469 -0.0276621 0.139522 0.232327 -0.0160771 -0.363188 0.334401 -0.358955 -0.155308 -0.0643937 0.0782902 0.0635186 0.153652 -0.158947 0.280717 0.127745 0.339507 -0.124238 0.460189 -0.0516775 0.114355
2057 -0.00173491 -0.0868868 0.0255265 -0.295303 -0.0116716 0.182901 0.289226 0.0355767 -0.352596 0.320992 -0.350343 -0.081903 -0.0976432 0.0178118 0.0907237 0.167921 -0.187467 0.320386 0.0708631 0.314755 -0.130645 0.436684 -0.0580805 0.0543039
2869 -0.0212233 -0.114588 -0.0903714 -0.38845 -0.0171702 0.166441 0.290025 -0.0692802 -0.400741 0.366357 -0.375267 -0.204444 -0.0948531 0.0713357 0.0656098 0.148784 -0.134579 0.269956 0.131354 0.308806 -0.114596 0.480752 -0.0712782 0.120152
10294 0.410832 -0.688366 0.151884 -0.595348 -0.205759 0.258372 0.543938 0.409938 -0.448139 0.752346 -0.270817 -0.132989 0.0677226 -0.125151 0.13489 0.0387529 -0.266796 0.303366 0.126807 0.308857 -0.095791 0.299714 0.171892 -0.0254718
10303 0.653408 -0.743903 -0.698804 0.462581 -0.112337 -0.264454 1.27104 1.07894 -0.862278 1.90726 -0.602763 0.0294713 0.528004 -0.631836 -0.0412579 -0.341472 -0.913426 0.43099 0.721085 0.504152 -0.0708635 0.761857 0.36422 -0.354779
10310 0.827257 -0.702942 0.469271 -0.194335 -0.510213 0.858852 1.04757 1.47683 -0.694609 1.43417 -0.515832 -0.228992 0.294534 -0.0687187 0.422524 -0.192951 -0.507117 0.60831 0.911488 0.70673 -0.268182 0.495216 0.80523 0.0620261
7152 -0.0246245 -0.274104 -0.0277832 -0.204012 0.0144933 0.0459587 0.222062 -0.0109556 -0.29103 0.207263 -0.315731 -0.0715138 -0.00522245 0.0627378 0.0943107 0.146138 -0.250896 0.393346 0.0634095 0.373736 -0.197234 0.349799 -0.136418 0.0690862
8441 0.0154907 -0.14624 -0.0417322 -0.429196 -0.101797 0.336058 0.431452 0.0705936 -0.509158 0.634549 -0.55606 -0.348818 -0.00858936 0.000578713 0.0781672 0.0939966 -0.299025 0.497965 0.218365 0.560274 -0.0267283 0.6402 -0.0662429 0.218947
9077 0.0436289 -0.361303 0.0190553 -0.379363 -0.139734 0.224315 0.39865 0.0417162 -0.363263 0.475891 -0.523347 -0.216549 -0.0102677 -0.0734792 0.0857915 0.0949003 -0.332894 0.406474 0.123247 0.517718 -0.0975289 0.587829 -0.0423578 0.108844
4049 -0.022442 -0.134663 -0.03737 -0.396589 -0.00678071 0.160742 0.274099 -0.0612799 -0.398318 0.386745 -0.423219 -0.144886 -0.1083 0.102561 0.0876771 0.149889 -0.153844 0.298518 0.119589 0.37567 -0.150814 0.475082 -0.0820705 0.135475
4750 -0.0638836 -0.170145 -0.0276498 -0.432298 -0.00650873 0.223357 0.372118 -0.016221 -0.558528 0.464957 -0.539905 -0.196747 -0.125523 0.114205 0.102447 0.209827 -0.217388 0.407541 0.183246 0.491815 -0.182452 0.676879 -0.122084 0.149989
5906 -0.148109 0.0442225 -0.180157 -0.385947 0.0543177 0.446122 0.291502 -0.153649 -0.715426 0.50425 -0.641513 -0.433751 -0.132167 0.214329 0.0864303 0.264187 -0.193731 0.557924 0.320457 0.57595 -0.161156 0.767036 -0.261176 0.397157
277 0.000423975 -0.137404 -0.00739574 -0.33536 -0.0254227 0.126213 0.269605 -0.0153345 -0.30253 0.355838 -0.323716 -0.144213 -0.0783038 0.0323494 0.0780809 0.122168 -0.113472 0.230253 0.0968497 0.297189 -0.0827201 0.419198 -0.0187551 0.088106
9172 -0.023552 -0.239606 0.0919242 -0.832793 -0.364897 0.443437 0.408737 0.0265609 -0.487614 0.680419 -0.500141 -0.253025 0.0521484 -0.251175 0.131641 0.124706 -0.352039 0.273173 -0.0729594 0.437565 0.133027 0.536464 -0.0742091 -0.0168692
10073 0.337976 -0.500007 -0.0525631 -0.986893 -0.368694 0.149675 0.597448 0.0299475 -0.134924 0.809722 -0.473649 -0.483763 0.0984934 -0.433881 0.134637 0.127341 -0.295921 0.22309 -0.137138 0.664109 0.208283 0.741984 0.197794 0.0955535
7326 -0.0216658 -0.226172 -0.0290295 -0.458768 -0.0122909 0.133876 0.326979 -0.0496616 -0.414115 0.354361 -0.415317 -0.115999 -0.114447 0.087142 0.0614512 0.180112 -0.140998 0.307718 0.0783774 0.374769 -0.182287 0.495337 -0.080126 0.0971259
7376 -0.110594 0.146867 -0.165054 -0.485632 -0.0655971 0.119339 0.437523 -0.183127 -0.530864 0.564905 -0.555862 -0.428235 -0.108862 0.117771 0.0584872 0.267768 -0.0247433 0.392502 0.134049 0.450141 -0.0921618 0.60746 -0.0983787 0.178587
7532 -0.105678 -0.0851258 -0.140239 -0.406218 -0.0207445 0.134017 0.289963 -0.182811 -0.458255 0.389264 -0.488121 -0.276485 -0.122965 0.127772 0.055802 0.196206 -0.0885782 0.318435 0.153109 0.347053 -0.119718 0.540759 -0.12571 0.168496
7824 -0.0433399 0.0480353 -0.0519122 -0.259231 -0.0469797 0.0632603 0.224416 -0.0448088 -0.309343 0.303963 -0.28 -0.186482 -0.0759709 0.0339366 0.0247914 0.09072 -0.0677404 0.185693 0.1019 0.263879 -0.0531547 0.332146 -0.0490382 0.0715682
9457 0.163132 -0.400071 0.0233919 -0.489575 -0.18534 0.186799 0.342264 0.202733 -0.311804 0.548598 -0.389823 -0.206392 0.0265977 -0.0881037 0.112014 0.050813 -0.204667 0.312716 0.138065 0.449882 -0.0425515 0.587748 0.109696 0.0588596
9873 0.142304 -0.233594 0.151578 -0.422432 -0.183241 0.240688 0.494758 0.241902 -0.32519 0.59155 -0.439333 -0.0992003 0.0264991 -0.234441 0.171984 0.16613 -0.353836 0.328074 0.00327907 0.452361 -0.0860396 0.535548 0.0763965 -0.135621
9656 0.155322 -0.369865 -0.00331037 -0.488382 -0.0759507 0.23266 0.341577 0.147361 -0.303434 0.566919 -0.313166 -0.241198 0.0273485 -0.0335838 0.111393 0.052989 -0.111069 0.268697 0.188423 0.329288 -0.0741008 0.466856 0.10934 0.044621
10103 0.447381 -0.812995 0.102969 -0.680418 -0.266036 0.228599 0.434677 0.412641 -0.320686 0.808113 -0.388695 -0.323436 0.088294 -0.255893 0.159653 -0.0433787 -0.329021 0.303641 0.232779 0.561767 0.0387064 0.54391 0.283147 0.147221
10225 0.864862 0.358526 0.186889 0.249399 -0.462127 0.345163 1.41949 1.45977 -0.883555 2.18871 -0.562823 0.0510782 0.434229 -0.655573 -0.177403 -0.385318 -0.606462 0.0953303 0.464734 0.997799 0.187913 0.733351 0.0592354 -0.597842
1909 -0.0629879 -0.0251265 -0.0273121 -0.256063 0.0388107 0.19968 0.247719 -0.0311143 -0.390909 0.305697 -0.365994 -0.120239 -0.0983821 0.101978 0.0525698 0.151287 -0.139812 0.290711 0.136058 0.320634 -0.150301 0.444403 -0.0816225 0.0974625
2465 0.0295911 -0.0862472 -0.00834767 -0.403838 -0.0751095 0.107412 0.342783 -0.0327984 -0.36767 0.431614 -0.426311 -0.156049 -0.0520899 -0.0224416 0.102571 0.218508 -0.167446 0.327234 0.0697002 0.361055 -0.140916 0.487632 -0.0298226 0.0352893
9350 0.147733 -0.446938 0.0159611 -0.420661 -0.10325 0.121795 0.308254 0.12669 -0.264819 0.472709 -0.354524 -0.183126 -0.00827563 -0.0608633 0.0846175 0.0594721 -0.197005 0.262908 0.142166 0.365657 -0.0773928 0.46287 0.0700816 0.0752671
1933 -0.0377554 -0.153042 0.0591899 -0.289798 -0.0128955 0.144105 0.285112 0.0147531 -0.332185 0.271698 -0.339156 -0.0352911 -0.0480859 0.020935 0.0947132 0.154665 -0.187154 0.344034 0.0560653 0.358252 -0.191113 0.385537 -0.0710032 0.0397679
9888 0.17952 -0.663763 0.207228 -0.68844 -0.161597 0.210079 0.448543 0.111014 -0.262458 0.545774 -0.427529 -0.23181 -0.0202401 -0.0695954 0.105411 0.138614 -0.268386 0.32502 0.0804 0.481963 -0.0485829 0.51965 0.0993901 0.0987463
6367 -0.127095 -0.217563 -0.214996 -0.472888 0.0769638 0.204639 0.382376 -0.244688 -0.668482 0.549942 -0.640191 -0.35911 -0.16404 0.215484 0.0443354 0.309327 -0.10865 0.375181 0.242266 0.420296 -0.231754 0.742323 -0.208099 0.211375
8259 -0.147749 0.0381989 -0.240354 -0.560564 0.03975 0.255645 0.292555 -0.27304 -0.657405 0.580337 -0.573151 -0.324806 -0.170238 0.230218 0.0384104 0.296553 -0.0543831 0.371147 0.179815 0.32662 -0.150109 0.620803 -0.139343 0.250173
8387 -0.234962 -0.209178 -0.225946 -0.60068 -0.192279 0.350777 0.494194 -0.172851 -0.573296 0.45695 -0.61153 -0.450333 -0.0298581 0.21855 0.0852925 0.296564 -0.102293 0.675183 0.138629 0.56575 -0.0580499 0.391851 -0.312351 0.256279
7150 -0.0108931 -0.097787 -0.0312312 -0.414537 -0.0652046 0.15704 0.308663 -0.0364353 -0.376747 0.409723 -0.435677 -0.210656 -0.0893477 0.00735088 0.0817971 0.170902 -0.166627 0.299988 0.103375 0.347968 -0.089903 0.471048 -0.0668609 0.0940037
8868 -0.0173556 0.153107 -0.10752 -0.564388 -0.294473 0.375841 0.402988 0.46909 -0.443236 0.699118 -0.477954 -0.566162 0.118764 -0.00546376 -0.00468746 -0.230504 -0.159744 0.430738 0.241558 0.79744 0.155339 0.579141 0.169815 0.446562
9972 0.29538 -0.544214 0.0387866 -0.650796 -0.30697 0.220421 0.471057 0.22719 -0.347234 0.753175 -0.431019 -0.244026 0.0671127 -0.285285 0.101596 -0.00546065 -0.285709 0.300554 0.0824873 0.499422 0.0257339 0.442295 0.16271 0.022763
5308 -0.0254543 -0.114464 -0.0188476 -0.193712 0.0345893 0.145447 0.144562 0.00628296 -0.276925 0.218699 -0.269813 -0.094524 -0.0391448 0.0736368 0.0356888 0.108669 -0.144734 0.220648 0.0820573 0.238892 -0.125519 0.328528 -0.0678605 0.0780205
7018 -0.0170273 -0.19771 -0.0997794 -0.508094 -0.0612845 0.175411 0.373408 -0.058417 -0.450905 0.479879 -0.533236 -0.258287 -0.0715935 0.0811475 0.0851197 0.195431 -0.172648 0.40189 0.132524 0.47943 -0.12904 0.561245 -0.0478026 0.1809
8471 -0.285332 -0.161531 -0.272859 -0.637417 -0.162557 0.0987225 0.51426 -0.395399 -0.6062 0.421144 -0.676433 -0.586744 -0.110797 0.264908 0.0418716 0.326084 -0.0456305 0.669773 0.0847356 0.649981 -0.0319404 0.437878 -0.3449 0.3446
8929 0.0489974 -0.33901 -0.0453072 -0.704137 -0.114717 0.0620641 0.504125 -0.096857 -0.394223 0.484761 -0.490114 -0.129137 -0.0632105 0.0278255 0.121871 0.282347 -0.120716 0.378602 -0.0243287 0.390247 -0.152975 0.525149 -0.0205359 0.0195332
9617 0.124021 -0.692191 -0.170441 -0.634254 -0.0307932 0.232537 0.276207 -0.0164051 -0.382864 0.512608 -0.449225 -0.27032 -0.0145696 0.0846124 0.0659041 0.081441 -0.156464 0.241111 0.21654 0.269157 -0.0963015 0.531418 0.0132702 0.111266
10014 0.284076 -0.597242 -0.064709 -0.690128 -0.213349 0.064111 0.361622 0.0547711 -0.216808 0.661001 -0.396556 -0.535634 0.0247445 -0.049379 0.0196617 -0.0510555 -0.150362 0.150188 0.189162 0.466976 0.114202 0.508475 0.202022 0.299351
1486 -0.0325132 -0.109661 -0.0963111 -0.335847 -0.0366441 0.097654 0.281534 -0.0748608 -0.372321 0.391857 -0.410055 -0.211685 -0.0631533 0.0668103 0.0609518 0.149493 -0.103185 0.284303 0.13894 0.34119 -0.107337 0.475786 -0.0563433 0.142252
1701 -0.0882793 -0.037094 -0.144937 -0.323072 0.000763145 0.117135 0.273103 -0.146546 -0.422359 0.376608 -0.448427 -0.286361 -0.107298 0.148874 0.0341982 0.164624 -0.102924 0.312167 0.147614 0.358056 -0.13077 0.488329 -0.119298 0.176554
3480 -0.0221724 -0.218258 -0.0516363 -0.515528 -0.0294103 0.192266 0.305819 -0.0591668 -0.454027 0.456049 -0.503748 -0.200267 -0.0985808 0.0933197 0.101622 0.185993 -0.138364 0.346939 0.148843 0.391137 -0.158227 0.578395 -0.0723633 0.131814
9261 0.0943374 -0.582709 0.0251854 -0.528051 -0.0829832 0.176529 0.296944 0.0652636 -0.313831 0.413758 -0.386874 -0.160992 -0.0128955 -0.0156981 0.0885182 0.141825 -0.275522 0.337742 0.0296847 0.436248 -0.117963 0.503822 0.045333 0.118218
9520 0.0975126 -0.319646 0.0386059 -0.481444 -0.0972648 0.217442 0.418332 0.180459 -0.379802 0.539195 -0.450824 -0.177414 -0.0059496 -0.0535835 0.0802636 0.0996904 -0.284194 0.377917 0.137163 0.427088 -0.0887505 0.514293 0.0625503 0.059547
1775 -0.0325512 -0.057093 -0.0358693 -0.277208 -0.00827254 0.126043 0.267869 -0.0554069 -0.371146 0.331059 -0.350465 -0.135459 -0.104319 0.0850246 0.0573928 0.18175 -0.142046 0.282793 0.0966634 0.292117 -0.150876 0.44403 -0.0697436 0.0824152
6513 -0.0207688 -0.0970214 -0.0572829 -0.397793 0.00339153 0.227347 0.318427 -0.0845084 -0.508121 0.480896 -0.53162 -0.231052 -0.115953 0.11348 0.0618476 0.191705 -0.175403 0.322346 0.185246 0.408775 -0.153616 0.622366 -0.082007 0.181946
8042 0.0855566 -0.295186 -0.0466748 -0.441782 -0.0928705 0.143631 0.298716 -0.00432779 -0.373335 0.442213 -0.419743 -0.165406 -0.0240793 0.0198321 0.0902429 0.174482 -0.2402 0.333487 0.0906441 0.427748 -0.124799 0.512143 -0.0577557 0.120166
8235 -0.0400771 -0.235487 -0.101282 -0.494186 -0.0438784 0.0625464 0.336753 -0.106087 -0.445422 0.381057 -0.429706 -0.166881 -0.136904 0.115655 0.0698068 0.218108 -0.081042 0.336105 0.0533036 0.397317 -0.187622 0.506609 -0.11619 0.147307
8285 -0.0804955 -0.188739 -0.196474 -0.378015 -0.112672 -0.0177491 0.48511 -0.255874 -0.543851 0.461863 -0.649297 -0.347792 0.0107302 0.037055 0.0870945 0.356326 -0.233469 0.595575 0.072473 0.674386 -0.190512 0.499828 -0.310148 0.156363
2084 -0.0700579 -0.0833024 -0.033156 -0.408134 -0.0191986 0.200033 0.3525 -0.0406709 -0.485304 0.447662 -0.497559 -0.22618 -0.121074 0.0858073 0.0632334 0.224466 -0.205132 0.387204 0.1685 0.445443 -0.16477 0.600005 -0.11226 0.149039
8556 0.0697545 -0.290763 -0.0886146 -0.57332 -0.109904 0.146365 0.387116 -0.0430783 -0.378424 0.516307 -0.461524 -0.24389 -0.00808709 -0.0263257 0.0910171 0.186296 -0.142015 0.347511 0.0580602 0.395146 -0.0752528 0.515097 -0.017367 0.0592763
9674 0.35375 0.185149 -0.293166 -1.00426 -0.385377 1.48956 0.0357813 0.280917 -0.607955 0.820682 -0.905887 0.137884 0.31405 0.0177591 -0.0603246 0.0619883 -0.488248 0.746388 0.158041 -0.397112 0.685699 0.317253 -0.313527 -0.22461
1991 -0.0623829 -0.0479813 -0.0194734 -0.273379 0.0288554 0.212531 0.25609 0.0138757 -0.378039 0.282525 -0.357619 -0.0784831 -0.0936684 0.0919857 0.074851 0.166685 -0.127381 0.26541 0.103634 0.283428 -0.153921 0.414904 -0.0755613 0.0793862
5450 -0.212101 0.763276 -0.236534 -0.195931 0.122477 0.354501 0.524171 -0.47386 -0.953583 0.973741 -1.11559 -0.782966 -0.181956 0.321049 0.0707382 0.400302 -0.155013 0.603403 0.404259 0.619855 -0.171047 0.895051 -0.447265 0.330801
6372 -0.103251 -0.0835013 -0.149093 -0.454842 0.0396771 0.121456 0.336562 -0.171395 -0.558225 0.48591 -0.555301 -0.296207 -0.147776 0.139761 0.0784479 0.260633 -0.116306 0.387447 0.155733 0.4434 -0.177653 0.644795 -0.13653 0.178076
5515 0.0155652 -0.344038 0.0901455 -0.395903 0.061743 0.350532 0.40555 0.149558 -0.503899 0.421301 -0.462448 -0.00558641 -0.11023 0.0565243 0.115984 0.195432 -0.32464 0.454677 0.154727 0.4764 -0.287127 0.593303 -0.0845356 0.0403721
5685 -0.248136 0.114602 -0.105335 -0.247354 0.163669 0.310272 0.320874 -0.186853 -0.720987 0.430298 -0.605296 -0.213136 -0.235169 0.294873 0.0991372 0.31477 -0.185076 0.476154 0.263781 0.496217 -0.288326 0.726648 -0.270435 0.263312
5750 -0.0243701 -0.296546 -0.0116956 -0.468369 -0.0233625 0.152203 0.326934 -0.0377097 -0.3898 0.395309 -0.417277 -0.135805 -0.0864803 0.0738858 0.0778751 0.199974 -0.129821 0.311855 0.0949719 0.368663 -0.156616 0.526481 -0.0690743 0.122145
5191 -0.131176 -0.00952867 -0.139033 -0.322543 0.0880897 0.139426 0.280394 -0.192656 -0.53863 0.373274 -0.478129 -0.186123 -0.205689 0.213929 0.0357847 0.247077 -0.100144 0.319521 0.177154 0.373791 -0.213815 0.580764 -0.154011 0.18805
5700 -0.31764 0.4904 -0.142024 -0.148091 0.143893 0.411513 0.33997 -0.200666 -0.845223 0.557004 -0.72388 -0.43621 -0.257477 0.383994 0.107141 0.294866 -0.192271 0.560881 0.395748 0.538842 -0.253528 0.772832 -0.328892 0.447439
7394 0.0640149 -0.355711 -0.0345769 -0.570863 -0.0856998 0.291365 0.415609 0.0328083 -0.548483 0.601893 -0.605 -0.261631 -0.0346046 0.0139441 0.141073 0.175344 -0.312791 0.464957 0.175948 0.532099 -0.159848 0.676712 -0.046342 0.163483
7721 0.0512237 -0.28481 -0.00197375 -0.35888 -0.0128072 0.0732417 0.230133 -0.0295291 -0.25223 0.328347 -0.300868 -0.148567 -0.0523952 0.0218677 0.0536176 0.116266 -0.17605 0.211296 0.069958 0.25539 -0.0640076 0.372269 -0.00556318 0.0651829
9216 0.144291 -0.320933 -0.228049 -0.364369 -0.399314 0.276915 0.497522 0.236595 -0.505752 0.525415 -0.702557 -0.226009 0.357075 -0.114891 0.154703 0.060976 -0.522176 0.769362 0.106546 0.681677 0.0138162 0.279172 -0.36869 -0.0225719
9934 0.0376654 -0.499939 0.229918 -0.495846 0.0305932 0.579716 0.394716 0.347625 -0.424919 0.354192 -0.364684 0.138645 -0.0435007 0.000307487 0.210252 0.207634 -0.397039 0.517596 0.0632536 0.428771 -0.269246 0.539 -0.0667393 -0.0354907
4060 -0.0570643 -0.0368532 -0.0975021 -0.256744 0.0228355 0.0761516 0.255643 -0.096995 -0.384972 0.334748 -0.392199 -0.180035 -0.0914293 0.130606 0.0588921 0.175463 -0.116736 0.281623 0.137335 0.347301 -0.153577 0.472588 -0.11181 0.148306
4997 -0.182522 0.789708 0.199677 -0.0367557 0.22428 1.15957 0.130823 -0.216463 -1.01194 0.704656 -0.803399 -0.913825 -0.22029 0.349066 0.23595 0.18685 -0.421042 0.650603 0.558621 0.715369 -0.0430326 1.01695 -0.248185 0.771076
7076 0.00143797 -0.29819 -0.110503 -0.506221 -0.0140406 0.144535 0.323 -0.0538796 -0.518089 0.525915 -0.491238 -0.171138 -0.0911494 0.0814316 0.103457 0.208062 -0.238551 0.369956 0.119467 0.414201 -0.188655 0.5892 -0.0660034 0.141985
1221 0.00874779 -0.0808765 0.0200989 -0.274029 -0.0165039 0.127649 0.223223 -0.000304681 -0.254058 0.300467 -0.279159 -0.107822 -0.0386142 0.0120123 0.0768687 0.135575 -0.136491 0.223585 0.0603495 0.262058 -0.121049 0.381158 -0.0344151 0.0578144
3258 -0.313418 0.232421 -0.137053 -0.254593 0.196499 0.353444 0.441522 -0.298056 -0.960291 0.486203 -0.83195 -0.39151 -0.309223 0.353513 0.0700747 0.364271 -0.20635 0.667631 0.383353 0.616983 -0.40347 0.903938 -0.418485 0.423243
3289 -0.016648 -0.0987916 -0.0776151 -0.40186 0.00290631 0.165954 0.261203 -0.112527 -0.410554 0.398378 -0.425406 -0.201353 -0.116354 0.0864803 0.0732552 0.155897 -0.121894 0.311197 0.147817 0.36144 -0.152744 0.53753 -0.0994361 0.167673
9318 0.0584719 -0.448974 -0.0722317 -0.493027 -0.0700742 0.156015 0.291293 -0.0307882 -0.29356 0.404584 -0.349165 -0.150368 0.00108946 -0.0278526 0.0901377 0.157968 -0.160509 0.233306 0.0442929 0.259009 -0.111126 0.41326 -0.0129129 -0.0306228
10094 0.301996 -0.352484 0.0952107 -0.844376 -0.404009 0.29192 0.52317 0.334104 -0.115423 0.75561 -0.418042 -0.319577 0.272582 -0.514348 0.102437 0.0440425 -0.457402 0.34228 -0.171446 0.750746 0.171617 0.689738 0.26 0.0363091
10140 0.345046 -0.195301 0.0543133 -0.519274 -0.618201 0.408269 0.144672 0.759918 -0.346416 0.842014 -0.257285 -0.58242 0.219014 -0.516015 0.263774 -0.480983 -0.561985 -0.0835083 -0.0197391 1.10068 0.0909185 0.996458 0.239299 0.366901
4244 -0.0719106 0.0422074 -0.0949959 -0.310565 -0.00208833 0.114208 0.274508 -0.127132 -0.407566 0.405906 -0.40657 -0.270004 -0.0925109 0.0968337 0.0500227 0.164834 -0.0920908 0.255451 0.137663 0.339536 -0.111459 0.515135 -0.0885317 0.15661
4599 -0.172264 0.0432612 -0.122727 -0.440421 0.0476727 0.258924 0.413397 -0.212267 -0.777469 0.565689 -0.717748 -0.357421 -0.242028 0.216213 0.0745991 0.32071 -0.13896 0.446762 0.249622 0.49703 -0.274602 0.752699 -0.210958 0.261894
8726 0.0802873 0.0323456 -0.103871 -0.425386 -0.112003 -0.0365391 0.319633 -0.0939658 -0.290031 0.497883 -0.358818 -0.356456 -0.0328005 -0.0419301 0.0388599 0.144244 -0.0508394 0.245049 0.0849541 0.329069 -0.0116395 0.462877 -0.0262445 0.11936
9481 0.12947 -0.445873 -0.140618 -0.647672 -0.145026 0.376788 0.265287 0.1324 -0.382057 0.681389 -0.494383 -0.221275 0.144292 -0.102687 0.104216 0.0331182 -0.340336 0.346231 0.119979 0.408669 0.0600829 0.492655 0.0527167 0.101616
9655 0.12602 -0.362225 -0.159651 -0.77795 -0.353501 0.212249 0.374792 0.115433 -0.270361 0.747619 -0.398728 -0.529662 0.0924537 -0.20772 0.0656272 -0.0617013 -0.169292 0.313213 0.0150721 0.518357 0.128532 0.459634 0.147987 0.191518
1080 -0.0937592 -0.0567247 -0.0493659 -0.237922 0.0373019 0.161568 0.198846 -0.074221 -0.356688 0.269339 -0.357108 -0.169247 -0.10923 0.133397 0.0442185 0.141998 -0.111531 0.242913 0.138125 0.252223 -0.146001 0.382489 -0.083044 0.111783
5625 -0.141869 0.319631 -0.129729 -0.341817 0.00967128 0.376915 0.332776 -0.177717 -0.743792 0.677637 -0.715768 -0.460757 -0.20456 0.220852 0.107493 0.232483 -0.234373 0.533704 0.349808 0.562026 -0.132481 0.816498 -0.180941 0.365303
5874 0.0118722 -0.163712 -0.0627743 -0.403442 -0.0590472 0.0876948 0.282112 -0.0839142 -0.386454 0.446711 -0.427907 -0.216728 -0.0553625 0.0495901 0.0559021 0.199158 -0.168532 0.292211 0.12671 0.328664 -0.0881685 0.506451 -0.0697675 0.113631
3512 -0.0875289 -0.0432006 -0.0903931 -0.265928 -0.00678562 0.0516754 0.204912 -0.12377 -0.360942 0.285955 -0.377716 -0.194556 -0.0834232 0.0998603 0.0433517 0.120329 -0.099307 0.23915 0.129778 0.318889 -0.134391 0.432929 -0.0800665 0.138614
5937 -0.18423 0.00249166 -0.0538362 -0.304761 0.141848 0.223444 0.310618 -0.114171 -0.622497 0.391057 -0.521512 -0.11996 -0.201661 0.253694 0.0623426 0.306861 -0.166164 0.410618 0.181748 0.369853 -0.2721 0.634217 -0.202132 0.149321
3110 -0.0186883 -0.0678185 -0.0318788 -0.299939 -0.0160204 0.161856 0.251939 -0.0199269 -0.371981 0.337955 -0.382333 -0.156143 -0.0780611 0.0857782 0.0728467 0.137693 -0.149251 0.288478 0.134041 0.342688 -0.136553 0.478931 -0.0576876 0.135884
6547 -0.187025 0.0103818 -0.102962 -0.358033 0.0644206 0.206772 0.364394 -0.146735 -0.60882 0.429674 -0.537915 -0.208133 -0.189527 0.183511 0.0967127 0.283596 -0.0772428 0.394423 0.174445 0.40617 -0.247915 0.636913 -0.189742 0.158458
1467 -0.059804 0.00108354 -0.0735789 -0.279846 0.0494746 0.126769 0.236427 -0.0908268 -0.406054 0.366905 -0.378552 -0.175424 -0.131741 0.148518 0.0289936 0.163752 -0.114361 0.262731 0.162578 0.313827 -0.134369 0.486864 -0.101565 0.158657
5480 -0.0742068 -0.155887 -0.0437159 -0.389089 0.0189273 0.180899 0.321741 -0.0444141 -0.445129 0.370844 -0.432214 -0.134555 -0.117128 0.130781 0.0649934 0.22897 -0.180351 0.338806 0.116826 0.366976 -0.181637 0.535636 -0.105257 0.112392
5606 -0.0912913 -0.0452079 -0.0493368 -0.274436 0.0356303 0.160363 0.240459 -0.0719161 -0.432522 0.317129 -0.388739 -0.166096 -0.120609 0.118739 0.0810717 0.173788 -0.110323 0.271552 0.137508 0.328357 -0.179404 0.50351 -0.083352 0.132984
6341 -0.230963 -0.0282647 -0.19645 -0.415124 0.130037 0.332288 0.349368 -0.237815 -0.69934 0.518648 -0.562383 -0.283233 -0.220009 0.335959 0.0644364 0.26874 -0.105208 0.428153 0.237408 0.414791 -0.239553 0.645698 -0.231441 0.308899
8894 0.101979 -0.436537 -0.0205833 -0.633613 -0.119697 0.0540836 0.407723 -0.0493401 -0.301145 0.479764 -0.417055 -0.204825 -0.00243 -0.0278306 0.0972822 0.239221 -0.130394 0.335859 0.0256756 0.351687 -0.121163 0.503871 -0.0116996 0.00232524
10269 0.334275 -0.251127 1.29715 0.378418 -0.572854 -1.29941 1.61478 -0.0655414 -0.116616 0.887765 -0.724516 -0.573032 -0.680878 -0.48062 -0.894194 -1.27234 -1.80199 0.641034 0.543981 1.57439 0.0923985 1.2402 0.406369 0.239466
10270 0.096379 -0.769809 0.661058 -0.843291 -0.382783 0.371488 0.756402 0.449848 -0.135936 0.633433 -0.529128 -0.127722 -0.0900703 -0.120435 0.1355 0.0717702 -0.420028 0.309148 0.00859982 0.661399 -0.0180712 0.633503 0.307149 0.0797933
275 -0.0415169 -0.090936 -0.0878218 -0.297761 0.0154963 0.154407 0.221585 -0.0331661 -0.359387 0.348776 -0.374889 -0.156023 -0.0930831 0.092001 0.0687764 0.106949 -0.128136 0.240022 0.119628 0.302408 -0.125062 0.422498 -0.0574541 0.124326
6986 -0.195688 -0.20544 -0.273466 -0.514058 0.0688704 0.318497 0.2911 -0.317655 -0.67399 0.504414 -0.699789 -0.413091 -0.165959 0.249354 0.0917487 0.331083 -0.137064 0.464608 0.275186 0.507501 -0.174518 0.730245 -0.192493 0.350888
7267 -0.135641 -0.136338 -0.0745377 -0.457796 0.0158344 0.127165 0.299254 -0.110211 -0.470544 0.372856 -0.470287 -0.198957 -0.147202 0.120264 0.0478051 0.221032 -0.129845 0.361712 0.129253 0.420242 -0.189574 0.560805 -0.120922 0.192728
3863 -0.0002095 -0.131465 -0.0331643 -0.492654 -0.117985 0.198788 0.14271 -0.0385017 -0.271781 0.175725 -0.379729 0.0084088 -0.057243 0.0738765 0.095689 0.14155 -0.0713896 0.287634 0.0083768 0.0832036 -0.0999926 0.324881 -0.0502957 -0.0352017
5901 -0.198504 -0.11277 -0.14608 -0.35949 0.0594176 0.173777 0.321325 -0.202914 -0.528169 0.338976 -0.48239 -0.195853 -0.164433 0.209424 0.0586663 0.259249 -0.109873 0.422036 0.133195 0.430147 -0.188934 0.520612 -0.19126 0.183795
4364 -0.0691148 -0.079751 -0.0369249 -0.24632 0.00226876 0.171323 0.206715 -0.0381052 -0.343691 0.261801 -0.340793 -0.120253 -0.0954428 0.0920803 0.0623485 0.154245 -0.144067 0.263075 0.125572 0.265156 -0.123756 0.402129 -0.074398 0.0974636
9358 0.0391699 -0.0147314 -0.11231 -0.279523 -0.659199 0.323219 0.262542 0.320567 -0.355863 0.63691 -0.700774 -0.324457 0.519149 -0.543313 -0.0888391 -0.143609 -0.723663 0.659394 0.0896003 1.02583 0.189545 0.273112 -0.0570943 0.0515793
9706 -0.0331133 -1.12267 0.0600074 -0.808768 -0.0971384 0.376122 0.444713 -0.029086 -0.316733 0.39252 -0.432835 -0.174284 -0.0868891 0.0419012 0.0615928 0.126391 -0.293669 0.262142 0.0724135 0.362017 -0.188814 0.577033 -0.0253753 0.0584159
8645 0.0691225 -0.192616 -0.0592969 -0.389805 -0.0424399 0.0542712 0.288464 -0.0679037 -0.293997 0.392001 -0.363983 -0.197776 -0.0567349 -0.00161172 0.0743103 0.144024 -0.0980635 0.227097 0.101826 0.318536 -0.0813366 0.462146 0.00956185 0.0529221
8775 0.0963111 -0.0663668 0.0393148 -0.369757 -0.166523 0.245173 0.418819 0.284587 -0.37803 0.650186 -0.475822 -0.273587 0.0264166 -0.0894363 0.114392 0.0465372 -0.40285 0.455485 0.161768 0.608033 -0.0829587 0.61698 0.0593413 0.210728
10039 0.154218 -0.592276 0.175651 -0.611931 -0.180575 0.163776 0.462878 0.183597 -0.256935 0.53017 -0.382336 -0.261268 -0.0166922 -0.0531052 0.100054 0.0825545 -0.201888 0.250299 0.126468 0.421761 -0.0320409 0.44911 0.137753 0.0804291
8693 0.0278397 -0.317574 0.239328 -0.264882 0.0450283 0.461331 0.231132 0.336978 -0.291658 0.189953 -0.290933 0.222511 -0.0704692 -0.0201632 0.174574 0.16643 -0.349037 0.3717 0.0292882 0.364161 -0.261629 0.46057 -0.014967 -0.0266801
2745 -0.0334565 -0.0489423 -0.0519093 -0.241393 -0.00173429 0.141032 0.233379 -0.0636089 -0.330495 0.31897 -0.344143 -0.147886 -0.0708289 0.074542 0.0491131 0.149831 -0.113293 0.271319 0.106869 0.269586 -0.120274 0.412365 -0.0867905 0.113761
6066 -0.155108 -0.146295 -0.181981 -0.477131 0.0270584 0.313158 0.374717 -0.147889 -0.664273 0.483795 -0.612384 -0.320672 -0.127688 0.202834 0.0979267 0.311816 -0.170364 0.54057 0.244712 0.528531 -0.287995 0.718127 -0.251425 0.217562
8383 -0.0630577 -0.199881 -0.077736 -0.511537 -0.0135974 0.129171 0.364096 -0.0962069 -0.403882 0.399135 -0.420863 -0.118972 -0.0923848 0.099363 0.0623061 0.215348 -0.0965081 0.361404 0.0985632 0.386741 -0.182927 0.497223 -0.0541045 0.106594
1572 -0.0459059 -0.265731 -0.0407313 -0.480791 0.00580085 0.284447 0.339663 -0.00183726 -0.55048 0.48301 -0.535272 -0.176145 -0.0967897 0.116563 0.122318 0.172469 -0.20602 0.43182 0.19743 0.465362 -0.195869 0.682175 -0.0553757 0.164464
3119 -0.105442 -0.160908 -0.113512 -0.333127 0.0178983 0.159917 0.297742 -0.0867848 -0.469748 0.372956 -0.471024 -0.26124 -0.0823312 0.123386 0.0563635 0.201639 -0.151765 0.381687 0.159018 0.407394 -0.149717 0.509319 -0.132078 0.189623
4805 -0.113654 -0.129822 -0.155754 -0.453947 -0.0342868 0.237796 0.42314 -0.177769 -0.711059 0.6046 -0.741627 -0.434788 -0.166241 0.20157 0.07312 0.232935 -0.225901 0.55399 0.268615 0.605093 -0.193137 0.773365 -0.199603 0.300629
2790 -0.0608259 -0.143338 -0.0500287 -0.359035 0.0243949 0.178727 0.228364 -0.0448405 -0.405886 0.359272 -0.42018 -0.154106 -0.0939136 0.0922775 0.0655333 0.160399 -0.170775 0.317756 0.128659 0.366553 -0.151928 0.491005 -0.0920181 0.168874
3561 -0.128033 0.12778 -0.161984 -0.653902 -0.0228055 0.3913 0.516522 -0.189551 -0.876308 0.82981 -0.890457 -0.53814 -0.144408 0.175251 0.14204 0.372493 -0.268435 0.674211 0.29837 0.739833 -0.235923 1.03618 -0.188189 0.349723
6743 -0.112564 -0.10215 -0.0729712 -0.335079 0.0410523 0.259228 0.289861 -0.0564599 -0.537292 0.363538 -0.457089 -0.173662 -0.1648 0.171304 0.0887381 0.205717 -0.146132 0.350229 0.196474 0.385232 -0.194824 0.601398 -0.165981 0.18395
4813 -0.00614183 -0.115698 -0.0138542 -0.37022 -0.043169 0.201356 0.280953 0.00714039 -0.343465 0.401272 -0.397547 -0.153162 -0.0777454 0.0308329 0.0909547 0.170109 -0.182383 0.314018 0.0827385 0.33912 -0.110006 0.492545 -0.0537737 0.0702376
5199 -0.078707 -0.0901883 -0.0233436 -0.461617 0.0570955 0.269455 0.393808 -0.0311585 -0.63821 0.5447 -0.605484 -0.21777 -0.154258 0.152841 0.108833 0.28436 -0.223362 0.500651 0.214012 0.539263 -0.233823 0.744128 -0.130019 0.223837
6796 -0.0464733 -0.210201 -0.129953 -0.49109 -0.0180499 0.132406 0.304356 -0.116942 -0.499326 0.498585 -0.511574 -0.262076 -0.110309 0.104051 0.0830847 0.232191 -0.151471 0.367484 0.145866 0.427345 -0.169627 0.609563 -0.117422 0.183926
9716 0.182143 -0.352808 0.0978448 -0.362937 -0.103624 0.172459 0.279185 0.187458 -0.219778 0.397575 -0.282984 -0.0783507 0.041491 -0.105395 0.112656 0.0885895 -0.176757 0.217803 0.062468 0.306432 -0.0522351 0.357188 0.1015 -0.00987014
10045 -0.0351247 -0.636352 0.00547969 -0.394737 -0.351484 0.0291775 0.380643 0.631903 -0.374137 0.774309 -0.652848 -0.221595 0.0741705 -0.545811 -0.0318713 -0.736944 -0.894966 0.338898 0.428446 0.559413 0.200163 0.924997 0.320613 0.176381
10085 0.30749 -0.901518 0.227942 -0.780643 -0.272788 0.381049 0.517449 0.397924 -0.343718 0.779141 -0.517832 -0.218664 0.028569 -0.192607 0.14198 0.0106871 -0.30143 0.405541 0.207772 0.591994 -0.019325 0.613624 0.226824 0.0581709
963 -0.0242472 -0.0743378 0.0154036 -0.297977 -0.00739456 0.13225 0.309213 -0.0330472 -0.364089 0.307322 -0.356433 -0.0936178 -0.0710567 0.0490338 0.0546028 0.171097 -0.129729 0.261912 0.0734873 0.308446 -0.126379 0.372848 -0.0769621 0.0344485
4404 -0.157517 0.142066 -0.0691083 -0.492594 0.113625 0.33498 0.49166 -0.166381 -0.841315 0.683071 -0.694019 -0.312742 -0.237173 0.219598 0.110217 0.301305 -0.208674 0.531568 0.304696 0.555421 -0.318159 0.893794 -0.191845 0.256245
4925 -0.0199884 -0.229385 -0.106739 -0.392102 -0.0241524 0.160658 0.289539 -0.0379814 -0.43732 0.475754 -0.419393 -0.285905 -0.108146 0.0762008 0.0550652 0.158514 -0.15189 0.316395 0.175775 0.39754 -0.116823 0.556258 -0.0479341 0.160448
286 -0.000136296 -0.12196 -0.0299697 -0.286867 0.0014281 0.11798 0.25712 0.00503577 -0.305204 0.320018 -0.338316 -0.126109 -0.0434117 0.0446739 0.0701339 0.156872 -0.149864 0.244126 0.0908146 0.325235 -0.135826 0.427961 -0.0530582 0.0646931
2340 -0.0745275 -0.13862 -0.0504735 -0.503265 0.0048173 0.245963 0.412936 -0.0333183 -0.61197 0.516617 -0.573933 -0.198493 -0.142733 0.143677 0.104511 0.229057 -0.212656 0.477118 0.1954 0.522671 -0.241343 0.71296 -0.127999 0.158223
4385 -0.032767 -0.133122 -0.0737303 -0.400694 -0.029065 0.167351 0.277665 -0.0742993 -0.482845 0.497676 -0.493808 -0.276856 -0.109335 0.0855275 0.0796946 0.137122 -0.147263 0.326342 0.181384 0.371424 -0.110824 0.573882 -0.061897 0.191136
419 -0.00283102 -0.195117 -0.0482869 -0.359718 -0.0549722 0.0770899 0.241725 -0.0163201 -0.296651 0.318402 -0.314349 -0.15427 -0.0398936 0.0384071 0.0809149 0.151834 -0.120368 0.233952 0.0679609 0.278689 -0.101062 0.365084 -0.0380128 0.0808128
2624 -0.123717 -0.230699 -0.123548 -0.674896 0.0929579 0.382467 0.517326 -0.181636 -0.889247 0.702633 -0.860042 -0.318663 -0.219962 0.231383 0.146548 0.400558 -0.257785 0.611017 0.277416 0.614303 -0.331289 0.967275 -0.218571 0.228427
3079 0.117284 -0.0450799 -0.0976122 -0.543647 -0.151364 -0.110403 0.348923 -0.164739 -0.282837 0.543179 -0.453091 -0.366088 -0.0461241 -0.0469786 0.0587113 0.209216 -0.0347813 0.230207 0.0453164 0.320506 -0.0248591 0.475652 0.0320869 0.0643759
406 -0.0762765 0.0135158 -0.0656261 -0.218882 0.0348465 0.109969 0.256764 -0.0478676 -0.372484 0.324021 -0.337603 -0.105838 -0.088061 0.0913276 0.0591762 0.166481 -0.131177 0.27184 0.105645 0.319293 -0.115969 0.40522 -0.0996865 0.0901875
2864 -0.0928062 -0.151589 -0.0638288 -0.490565 -0.0107754 0.278849 0.261236 -0.0292852 -0.473672 0.314751 -0.477062 -0.0736084 -0.153159 0.179385 0.106749 0.215577 -0.136724 0.427919 0.147044 0.326429 -0.204449 0.558811 -0.106167 0.137552
5681 -0.202992 0.156829 -0.0927874 -0.35466 0.134151 0.468073 0.332181 -0.0771132 -0.81573 0.560568 -0.695206 -0.33432 -0.196507 0.221235 0.0857634 0.23251 -0.254791 0.546859 0.348254 0.560351 -0.254206 0.875264 -0.185579 0.283719
9623 -0.0239848 -0.233146 0.144627 -0.327487 0.0284944 0.320166 0.314778 0.171284 -0.409242 0.294759 -0.369583 0.0865747 -0.0916451 0.0571303 0.124844 0.171796 -0.324529 0.397708 0.0724028 0.373697 -0.245321 0.484555 -0.0940302 0.0223309
9741 0.0734777 -0.543974 0.284903 -0.488682 0.061823 0.674259 0.394716 0.405216 -0.548818 0.382582 -0.429298 0.256866 -0.0504821 0.0179666 0.260513 0.232946 -0.549463 0.611936 0.10179 0.506736 -0.377656 0.640615 -0.0964402 -0.000552269
9946 0.00740113 -0.227772 0.156041 -0.372554 -0.0194938 0.285956 0.330465 0.141155 -0.373128 0.325244 -0.435545 0.0617588 -0.0585308 0.00533956 0.139506 0.213427 -0.329189 0.427383 0.0418254 0.428639 -0.212673 0.520588 -0.0651602 -0.0284783
10021 0.199562 -0.803074 0.109823 -0.555349 -0.00623287 0.59682 0.0921017 0.224853 -0.328266 0.341483 -0.543259 0.107227 0.00496329 -0.062118 0.187016 0.112832 -0.692481 0.435654 0.0743841 0.592026 -0.137057 0.625798 -0.0127151 0.229672
8314 0.0162201 -0.296315 -0.078902 -0.522844 -0.118088 -0.0318369 0.408399 -0.0525562 -0.327425 0.385028 -0.381296 -0.115377 -0.0653952 -0.000333399 0.0973341 0.232822 -0.105132 0.302699 0.0255176 0.400664 -0.140375 0.460409 -0.0102088 0.0525841
9133 0.429171 -0.743395 -0.0568886 -0.643845 -0.268895 0.0640819 0.46961 0.37308 -0.366618 0.913954 -0.566212 -0.486359 0.0700472 -0.273627 0.165666 -0.0891671 -0.391028 0.421027 0.366669 0.693956 0.0521412 0.705364 0.263732 0.171476
10117 0.198597 -0.523169 0.271486 -0.590064 -0.166305 0.202201 0.545357 0.282899 -0.258602 0.575236 -0.391385 -0.051589 0.00698582 -0.092253 0.0862186 0.107057 -0.279919 0.274317 0.0682165 0.427608 -0.0673589 0.460704 0.12903 0.0131557
3983 -0.0499464 -0.0344341 -0.036178 -0.257246 0.00745736 0.153989 0.251336 -0.0516304 -0.342598 0.334807 -0.356079 -0.112417 -0.0784288 0.0576816 0.03266 0.171203 -0.0844275 0.238926 0.0883706 0.290202 -0.137922 0.403034 -0.0945325 0.106236
4652 -0.103938 -0.0385848 -0.162589 -0.677932 -0.088433 0.210178 0.501734 -0.247068 -0.69697 0.741038 -0.802586 -0.533384 -0.162531 0.135237 0.0723794 0.314727 -0.149298 0.546096 0.201345 0.648748 -0.157205 0.868791 -0.114528 0.326451
7323 0.1953 -0.161492 -0.104609 -0.495813 -0.232278 -0.126122 0.341076 -0.0959006 -0.198965 0.538624 -0.37692 -0.415914 0.0795651 -0.129058 0.0693924 0.11299 -0.0318609 0.186564 0.0290531 0.283495 0.0751707 0.340575 0.0617212 0.020625
7569 -0.122564 -0.32977 -0.151824 -0.571595 -0.0271498 0.109121 0.373265 -0.209276 -0.501166 0.410293 -0.53374 -0.277416 -0.181124 0.14764 0.0892651 0.260914 -0.145454 0.374284 0.0815439 0.497258 -0.20758 0.621587 -0.116828 0.238456
8234 -0.352827 0.312772 -0.447133 -0.822394 -0.00314933 0.355637 0.264857 -0.458287 -0.53844 0.534882 -0.657255 -1.10203 -0.197711 0.428479 -0.0720106 0.133031 0.164916 0.699928 0.409848 0.57154 0.211631 0.49728 -0.0964089 0.749334
8426 -0.128292 -0.142582 -0.143313 -0.598542 -0.0522905 0.0281802 0.403586 -0.197651 -0.462925 0.484241 -0.556924 -0.226903 -0.175117 0.118025 0.0595634 0.241615 -0.086306 0.369556 0.057174 0.451911 -0.132858 0.592475 -0.0728509 0.17761
4544 -0.0398589 -0.158274 -0.00102534 -0.338794 0.00883638 0.200397 0.300303 0.0200174 -0.397339 0.343482 -0.391565 -0.0777828 -0.0622417 0.0381828 0.0893545 0.173469 -0.221334 0.338336 0.115592 0.338907 -0.190549 0.474524 -0.0915407 0.0518967
7495 -0.114069 -0.117645 -0.187848 -0.46579 -0.0394296 0.153333 0.344496 -0.189581 -0.53277 0.48978 -0.547565 -0.380379 -0.156205 0.193395 0.0339529 0.215779 -0.0911335 0.371385 0.162164 0.493439 -0.155334 0.618278 -0.115542 0.267504
8708 0.000635275 -0.279162 -0.151001 -0.621476 -0.144677 -0.0087848 0.376055 -0.119734 -0.486372 0.523548 -0.509684 -0.177372 -0.0593873 0.0535654 0.0834018 0.223075 -0.0963385 0.352374 0.0422542 0.426907 -0.19909 0.575443 -0.063586 0.0664006
4333 -0.0150215 -0.13108 -0.0133904 -0.257239 0.0393725 0.0966107 0.234167 -0.0211854 -0.315014 0.299745 -0.312961 -0.044611 -0.0913378 0.090107 0.076081 0.150638 -0.16657 0.24886 0.0827328 0.272752 -0.151655 0.428665 -0.0656552 0.0809445
5108 0.0178864 -0.130374 -0.00712649 -0.416421 -0.0697483 0.146092 0.292633 -0.0480174 -0.404763 0.399332 -0.409843 -0.218307 -0.101395 0.00766194 0.0545752 0.177349 -0.142371 0.324834 0.106921 0.376552 -0.122266 0.527611 -0.0489181 0.111561
6398 0.0470632 -0.0716431 -0.0291917 -0.321981 -0.0717908 0.0880704 0.263373 0.0303062 -0.304265 0.392194 -0.341237 -0.189962 -0.0196918 0.00730441 0.0621566 0.126602 -0.168798 0.252571 0.102079 0.356929 -0.105466 0.443481 -0.00923365 0.112211
6577 -0.0349192 -0.0429885 -0.0586877 -0.427631 -0.0424881 0.0445753 0.350325 -0.165004 -0.387631 0.465726 -0.452376 -0.264561 -0.129815 0.0407997 0.0828166 0.231757 -0.0901769 0.307817 0.0684588 0.386357 -0.142412 0.554811 -0.0563282 0.0899267
7228 -0.0755128 -0.0696175 -0.0531487 -0.477232 -0.0183096 0.178802 0.422007 -0.111608 -0.544537 0.497277 -0.524466 -0.272549 -0.123205 0.0885447 0.0926335 0.318483 -0.15347 0.411165 0.11752 0.44456 -0.176828 0.602021 -0.0948833 0.14279
8967 -0.0254997 -0.504387 -0.244206 -0.669898 -0.074516 0.656457 0.314855 -0.0646907 -0.523725 0.581487 -0.524028 -0.36141 -0.0323735 0.20002 0.0630082 0.0886517 -0.109178 0.281321 0.362641 0.215747 -0.037881 0.524898 -0.0971828 0.305581
7887 0.10854 -0.328612 0.0800372 -0.557269 -0.113978 0.158977 0.410828 0.11498 -0.315107 0.505764 -0.432657 -0.175984 -0.039238 -0.050916 0.129881 0.161738 -0.227147 0.33657 0.0455941 0.414978 -0.0728329 0.483638 0.00601918 0.0589316
8756 0.0231795 -0.325024 -0.0975363 -0.523792 -0.0670165 0.2249 0.295745 -0.107417 -0.442747 0.455893 -0.484861 -0.288395 -0.0874324 0.0852529 0.0690339 0.138677 -0.170231 0.31195 0.179622 0.42508 -0.109349 0.563161 -0.0650972 0.180036
8540 0.0718774 -0.0175084 -0.135549 -0.375113 -0.114321 -0.0299105 0.23054 -0.142244 -0.265652 0.386044 -0.376243 -0.295161 -0.00846745 -0.0269591 0.0702247 0.159312 -0.0791878 0.223937 0.0554977 0.277778 -0.0328577 0.380553 -0.0262004 0.121629
9801 0.252849 -0.614975 -0.105487 -0.88311 -0.177488 0.150137 0.518099 -0.141543 -0.409805 0.708538 -0.589107 -0.215209 0.0310823 -0.180733 0.169519 0.335416 -0.182781 0.225138 0.0367292 0.188612 -0.141458 0.642748 -0.0209944 -0.19633
10192 0.26126 -0.645064 0.147339 -0.612921 -0.337913 0.375222 0.376612 0.383482 -0.147198 0.638181 -0.353163 -0.45778 0.0861273 -0.0254017 0.12057 -0.100659 -0.35552 0.2985 0.221833 0.644235 0.101385 0.515357 0.208434 0.40137
6937 -0.0694546 -0.0959407 -0.0926885 -0.37634 0.0163045 0.147649 0.297613 -0.0897842 -0.445513 0.456913 -0.415148 -0.239616 -0.109321 0.103119 0.048438 0.145015 -0.110572 0.270683 0.172038 0.352462 -0.132752 0.526856 -0.077508 0.158343
6959 -0.173274 0.216741 -0.272192 -0.510224 -0.0193005 0.346099 0.455394 -0.261197 -0.757457 0.782191 -0.756009 -0.67561 -0.148294 0.199073 0.0794808 0.296234 -0.128848 0.630079 0.348031 0.625677 -0.108006 0.742566 -0.164881 0.401991
7000 -0.0188777 -0.322699 0.164425 -0.263939 0.0977029 0.436277 0.262636 0.256488 -0.42569 0.268677 -0.358573 0.126769 -0.102108 0.0542104 0.17719 0.192027 -0.365161 0.396463 0.119929 0.391787 -0.303331 0.514402 -0.0743972 0.0379435
5985 -0.0637358 -0.288425 -0.0662174 -0.431148 0.0117068 0.193426 0.270282 -0.0982213 -0.497522 0.406711 -0.45789 -0.196066 -0.125381 0.125813 0.0596247 0.146458 -0.173767 0.330912 0.180124 0.379254 -0.192527 0.554862 -0.1171 0.176592
7373 -0.0970411 0.116329 -0.030936 -0.281644 -0.0427101 0.423197 0.352487 0.0871485 -0.656281 0.575692 -0.647021 -0.316892 -0.0429952 0.048862 0.0759151 0.115309 -0.362476 0.562694 0.311121 0.608414 -0.096697 0.661225 -0.111357 0.345772
2860 -0.114881 -0.0966405 -0.0803932 -0.225734 0.0659835 0.23091 0.15963 -0.0348723 -0.408543 0.242552 -0.32891 -0.128886 -0.126171 0.153004 0.0431643 0.104617 -0.164885 0.286938 0.160167 0.309841 -0.161056 0.465385 -0.130558 0.178942
2861 -0.257271 0.170192 -0.17246 -0.522343 0.100597 0.362962 0.579896 -0.283522 -0.959377 0.706784 -0.889781 -0.387344 -0.275402 0.270564 0.120219 0.488453 -0.161173 0.641911 0.306126 0.692829 -0.372897 0.949118 -0.324419 0.313031
3145 -0.0684081 -0.202061 -0.0886281 -0.397439 0.0226865 0.175839 0.299084 -0.0904101 -0.43453 0.360056 -0.436508 -0.149138 -0.113818 0.134488 0.0587714 0.193608 -0.130021 0.306619 0.107776 0.330535 -0.195352 0.527064 -0.117609 0.128103
893 0.0417321 -0.0411659 -0.123716 -0.339351 -0.0928255 -0.0421236 0.241159 -0.123829 -0.247894 0.425248 -0.304464 -0.385793 -0.0221577 0.0193121 -0.00713592 0.0381857 -0.0103274 0.139813 0.116697 0.255324 0.0230178 0.344476 0.0203695 0.186542
6895 -0.0241022 -0.0770479 -0.0598661 -0.426111 -0.0477795 0.214453 0.408168 -0.066028 -0.567115 0.511301 -0.547963 -0.231042 -0.131082 0.073256 0.0571549 0.25719 -0.20083 0.46121 0.184705 0.434515 -0.186626 0.609524 -0.106915 0.116612
7305 -0.0413334 -0.00476098 -0.133563 -0.368516 -0.0173633 0.370328 0.212537 -0.00671468 -0.523495 0.52469 -0.553525 -0.390533 -0.125635 0.110262 0.0320571 0.05125 -0.331962 0.422603 0.306846 0.512275 -0.00534619 0.713378 -0.0574529 0.420169
9452 0.157597 -0.327807 -0.120804 -0.529807 -0.132761 0.180516 0.272611 0.00744065 -0.348082 0.548337 -0.428855 -0.313224 0.00657325 -0.0656081 0.0964337 0.120225 -0.136551 0.248558 0.135524 0.344824 0.023155 0.529835 0.0375189 0.132693
9635 0.121548 -0.335647 -0.043466 -0.532799 -0.118227 0.283961 0.372393 0.0889032 -0.421151 0.575403 -0.425415 -0.278334 0.0110297 -0.0430494 0.078861 0.111554 -0.183068 0.341342 0.17581 0.400204 -0.0749195 0.535344 0.0351877 0.0589236
10053 0.147724 -0.562975 -0.0676481 -0.8417 -0.324371 0.22417 0.485461 0.164047 -0.261892 0.724862 -0.431053 -0.481355 0.0490458 -0.172894 0.125779 0.0396403 -0.2258 0.339651 -0.0376295 0.615921 0.109456 0.507274 0.192262 0.117543
7939 -0.0284039 -0.297623 -0.129303 -0.511774 -0.0200399 0.15949 0.313384 -0.139653 -0.422811 0.410746 -0.467658 -0.214496 -0.0976184 0.112559 0.0724911 0.194406 -0.118777 0.337398 0.129716 0.356263 -0.16146 0.521653 -0.101035 0.0962499
9006 0.169863 -0.297485 -0.413191 -0.89095 -0.188469 -0.323211 0.313492 -0.389154 -0.390885 0.678753 -0.862766 -0.243171 0.193838 -0.115768 0.164993 0.492813 -0.377453 0.509232 0.0414018 0.357252 -0.278783 0.785558 -0.188413 -0.113766
9526 0.536588 0.67364 -0.749789 -0.206585 -1.53897 1.38615 0.261171 0.642405 -1.18537 0.695369 -1.28626 -0.292049 0.827642 -0.263241 0.146789 -0.599955 -0.787784 1.59955 0.496482 0.30161 0.525594 -0.730689 -0.887215 -0.173739
2408 0.0879603 -0.212212 0.0180221 -0.389697 -0.03997 0.179583 0.27609 0.0455941 -0.290394 0.379254 -0.350471 -0.128543 -0.0604791 0.0162112 0.0975722 0.11113 -0.227393 0.273124 0.0630176 0.325812 -0.0734776 0.425778 -0.0102139 0.0756623
5220 -0.0189543 -0.178676 -0.0971787 -0.373191 -0.039473 0.14567 0.266863 -0.0661918 -0.379303 0.373326 -0.424554 -0.227041 -0.0889695 0.0832026 0.0596133 0.139907 -0.139342 0.315325 0.14247 0.361855 -0.114582 0.50128 -0.0732814 0.178967
7545 -0.0393093 -0.158185 -0.0868056 -0.479211 -0.0554483 0.189821 0.33336 -0.0969381 -0.501739 0.505485 -0.525776 -0.287802 -0.111064 0.0779875 0.0967561 0.176759 -0.168928 0.377526 0.15797 0.395506 -0.125173 0.575133 -0.0952464 0.194673
1869 -0.0481339 -0.118922 -0.0704269 -0.321401 0.0207477 0.150202 0.252989 -0.0445485 -0.422722 0.3651 -0.393516 -0.192718 -0.0846992 0.0890098 0.054874 0.182333 -0.177417 0.308634 0.128736 0.376521 -0.154213 0.486322 -0.0705092 0.122717
1971 -0.0514987 -0.123745 0.00725462 -0.338818 0.0060926 0.214355 0.292286 0.0185849 -0.384493 0.380839 -0.365913 -0.158439 -0.114036 0.0827357 0.0703641 0.131558 -0.152986 0.276866 0.134074 0.313459 -0.113414 0.441452 -0.0663896 0.132797
4870 -0.101618 -0.106048 -0.102072 -0.432568 -0.00641324 0.22991 0.36856 -0.120485 -0.628117 0.489099 -0.619618 -0.230808 -0.14714 0.163033 0.101947 0.251398 -0.193415 0.468577 0.174743 0.472798 -0.204522 0.678428 -0.173731 0.176523
7573 -0.0383611 -0.208467 -0.0425601 -0.230707 -0.00337657 0.199116 0.148329 0.0152354 -0.288772 0.229889 -0.298605 -0.0880483 -0.0692293 0.102893 0.0623669 0.0850469 -0.157617 0.244945 0.134017 0.289545 -0.100938 0.35559 -0.0717061 0.110527
9423 0.328142 -0.707467 0.00589915 -0.310429 0.0534678 0.164784 0.16035 0.137893 -0.446674 0.682822 -0.903965 -0.0481155 0.0391255 -0.0698564 0.132972 -0.115861 -0.855906 0.352568 0.279129 0.399908 -0.0618508 0.668837 -0.00866016 0.117244
9875 0.155941 -0.850953 -0.110811 -0.666896 -0.0527252 0.381389 0.384905 0.0440435 -0.346238 0.477183 -0.469245 -0.235536 0.0361624 0.0148167 0.0974106 0.0890014 -0.300859 0.318799 0.13981 0.313932 -0.0745143 0.484476 -0.0232324 0.0192242
10213 0.101784 -0.383782 0.189845 -0.218433 -0.0998504 0.226581 0.402662 0.335733 -0.317307 0.439273 -0.335228 0.0318454 -0.02704 -0.0930375 0.0510483 0.0397276 -0.374491 0.331587 0.194455 0.398638 -0.129672 0.430315 0.0649925 7.21364e-05
10276 0.155391 -0.789147 0.819369 -0.252436 -0.134843 -0.0900552 1.14812 0.941127 -0.588724 1.55933 -0.579895 0.0923776 -0.0570806 -0.149144 -0.464796 -0.209224 -0.813173 0.32177 0.535137 0.845958 0.0576862 0.371105 0.340888 0.306264
2551 0.00972811 -0.265477 -0.0440774 -0.420233 -0.0500677 0.155454 0.299806 0.00762109 -0.427613 0.441565 -0.4618 -0.18678 -0.0912234 0.0472323 0.0607381 0.16099 -0.204411 0.336078 0.126925 0.396222 -0.152802 0.539862 -0.0643793 0.108024
3418 -0.0193805 -0.109383 -0.0244473 -0.342799 -0.0220253 0.162375 0.275972 -0.0357732 -0.376518 0.352824 -0.383539 -0.161654 -0.095009 0.072527 0.0878624 0.132131 -0.164164 0.307785 0.112886 0.347023 -0.138255 0.4462 -0.0667715 0.0994144
5678 0.00690668 -0.2225 -0.108315 -0.427502 -0.058859 0.0371054 0.321543 -0.139999 -0.394131 0.438771 -0.448026 -0.233495 -0.0515632 0.0691211 0.0654811 0.252488 -0.134319 0.323417 0.0766912 0.367269 -0.131115 0.516075 -0.0721921 0.120794
5777 -0.0771583 0.0316047 -0.0719567 -0.20698 0.00179063 0.162238 0.22273 -0.00970671 -0.340461 0.270356 -0.331794 -0.0927803 -0.0823903 0.0847081 0.0643273 0.149245 -0.129206 0.287189 0.118432 0.284217 -0.117679 0.38392 -0.0953732 0.0844662
6491 -0.0339569 -0.177936 -0.0714515 -0.455175 -0.0241306 0.160678 0.357694 -0.0524542 -0.445754 0.449254 -0.486866 -0.206766 -0.10636 0.0849652 0.0758157 0.202828 -0.147484 0.335 0.105476 0.425823 -0.138743 0.517856 -0.10611 0.143723
4131 -0.0310215 -0.123608 -0.0337089 -0.382248 -0.0381536 0.146479 0.329735 -0.0487548 -0.461928 0.400815 -0.47325 -0.153768 -0.0913492 0.0563101 0.0830363 0.180853 -0.170478 0.350632 0.123975 0.438966 -0.169415 0.528457 -0.0917126 0.116127
8937 0.115887 -0.504679 -0.11878 -0.460545 -0.052156 0.105346 0.140988 -0.023907 -0.307353 0.321325 -0.328983 -0.176418 -0.00458185 0.0309044 0.0493775 0.0775115 -0.181076 0.182588 0.0905484 0.254031 -0.0776621 0.388945 -0.0620191 0.116338
293 -0.0223714 -0.0724886 -0.0399881 -0.266907 -0.000118525 0.172692 0.221231 0.000515795 -0.339593 0.337215 -0.383677 -0.149513 -0.100116 0.074124 0.0526991 0.104971 -0.160902 0.290541 0.11753 0.33428 -0.113464 0.461787 -0.0712476 0.134658
1932 0.0181359 -0.273369 -0.0146153 -0.753293 -0.0898788 0.272646 0.626264 -0.0478263 -0.739844 0.798464 -0.808642 -0.316672 -0.116852 0.0399634 0.152231 0.36809 -0.303306 0.625177 0.183429 0.68688 -0.220015 0.942068 -0.123713 0.104137
3267 -0.050674 -0.114475 -0.0869409 -0.191431 0.0333 0.116331 0.216012 -0.0399752 -0.316119 0.238166 -0.317866 -0.147879 -0.0682728 0.109249 0.0659636 0.143496 -0.137333 0.287646 0.128602 0.321451 -0.13649 0.379152 -0.0975966 0.109091
6397 -0.0550739 -0.00992696 -0.0774486 -0.365118 0.0239873 0.252473 0.337599 -0.0715904 -0.548399 0.490944 -0.484895 -0.23978 -0.130356 0.128791 0.0678318 0.164993 -0.17274 0.352366 0.180904 0.415255 -0.163815 0.60561 -0.0896638 0.207743
9418 0.0442146 -0.549479 -0.153013 -0.527691 0.00758641 0.299394 0.236223 -0.072744 -0.403399 0.415439 -0.391636 -0.131076 0.0163257 0.0804372 0.111126 0.160664 -0.190925 0.244421 0.210336 0.251364 -0.156479 0.544316 -0.0565608 0.0698175
9844 0.424085 -0.108589 -0.469832 -0.0406616 -0.712762 0.286132 0.221773 0.407938 -0.782179 0.903328 -0.840838 0.0310548 0.949225 -0.463806 -0.127924 -0.441814 -1.17084 0.381315 -0.0430557 0.735389 0.185632 0.113844 -0.271424 0.0216591
2447 0.00101603 -0.0620393 -0.113754 -0.322339 -0.0382116 0.0588285 0.164721 -0.110915 -0.30766 0.301242 -0.375901 -0.191829 -0.0717679 0.0928511 0.0488539 0.106142 -0.067295 0.199331 0.084226 0.209632 -0.0750206 0.358091 -0.0224592 0.098322
2521 -0.0621842 -0.253518 -0.0624048 -0.777251 0.0424798 0.44491 0.575746 -0.121761 -0.890545 0.82868 -0.848711 -0.402633 -0.183337 0.187541 0.163626 0.361768 -0.290231 0.613072 0.291226 0.689505 -0.316037 1.01507 -0.159089 0.270117
6725 -0.0389355 -0.106797 -0.0764452 -0.407242 -0.00739058 0.194012 0.287872 -0.0397979 -0.476873 0.426269 -0.457775 -0.190897 -0.10361 0.107774 0.0953335 0.217109 -0.12267 0.333509 0.158032 0.370321 -0.182551 0.545345 -0.0896984 0.136415
8218 0.000829203 -0.152939 -0.0569787 -0.330527 -0.0642084 0.134186 0.25574 -0.00380947 -0.317517 0.36602 -0.324904 -0.158069 -0.0454061 0.0481474 0.0666251 0.111171 -0.108944 0.238059 0.0648525 0.261497 -0.0910897 0.348695 -0.0521896 0.0961752
9465 0.305676 -0.257474 -0.342951 -0.95522 -0.160754 1.19104 -0.313443 0.0880312 -1.15778 0.76986 -0.54712 -0.361706 0.202459 0.371859 -0.203749 -0.10719 -0.379581 0.19905 0.655993 0.193557 0.411776 0.0735181 -0.567446 0.787473
9492 0.258977 -0.302115 -0.196829 -0.748671 -0.208617 -0.0499197 0.352501 -0.15629 -0.554373 0.774614 -0.426669 -0.260667 0.0483257 -0.0622249 0.117053 0.230533 -0.0699725 0.199873 0.0204627 0.187932 -0.0597686 0.39094 -0.0693664 -0.0351914
7982 0.0528412 -0.343369 -0.102983 -0.471462 -0.0508525 0.100324 0.256646 -0.0779136 -0.331887 0.400844 -0.372078 -0.162208 -0.0403877 0.0199717 0.0746626 0.165297 -0.152499 0.223442 0.105031 0.272179 -0.0732781 0.423203 -0.0277262 0.0918873
8084 -0.152971 -0.0902592 -0.0684639 -0.424867 -0.00885118 0.383384 0.394051 -0.0654096 -0.552844 0.41119 -0.549888 -0.182415 -0.120707 0.158725 0.121052 0.289641 -0.161742 0.512937 0.104363 0.492001 -0.192934 0.557123 -0.200074 0.155381
8303 -0.136863 -0.291428 -0.218853 -0.665292 -0.0767583 0.060508 0.401212 -0.152239 -0.485002 0.402716 -0.512569 -0.201697 -0.101655 0.137643 0.0839737 0.28995 -0.0373421 0.421144 0.0263943 0.486098 -0.192867 0.591355 -0.0709938 0.17582
10221 0.29352 -0.789123 0.101095 -0.611274 -0.335144 0.142308 0.309856 0.374873 -0.139311 0.530727 -0.385126 -0.179583 0.0732164 -0.25421 0.132819 -0.0636605 -0.455602 0.27965 0.0830945 0.588234 -3.05931e-05 0.643881 0.221424 0.113542
10285 0.159886 -0.465188 0.334207 -0.605757 -0.0939027 0.499732 0.570843 0.314242 -0.45537 0.519251 -0.521289 0.15391 0.00229707 -0.177992 0.256597 0.314797 -0.400282 0.533798 -0.0059807 0.505782 -0.266754 0.635344 0.00907288 -0.171639
7482 -0.0220489 -0.216093 -0.0480968 -0.42256 -0.0442419 0.235223 0.312917 -0.0368246 -0.387744 0.342208 -0.362648 -0.124822 -0.0629868 0.0497409 0.0678533 0.148382 -0.126708 0.307609 0.0904042 0.305328 -0.0996554 0.417876 -0.0875039 0.0702675
9561 0.134805 -0.623701 0.158172 -0.670163 -0.138196 0.285788 0.49441 0.151599 -0.330634 0.515707 -0.390826 -0.0418688 0.0277619 -0.161105 0.152185 0.175867 -0.24352 0.272469 -0.0296771 0.441098 -0.108974 0.549998 0.0391199 -0.0627588
667 -0.0289466 -0.364004 -0.00129599 -0.713615 -0.0509752 0.349358 0.540927 0.00314867 -0.702473 0.707888 -0.758791 -0.245239 -0.110319 0.0792405 0.147415 0.328494 -0.319724 0.589569 0.187383 0.638871 -0.284909 0.913511 -0.106071 0.178934
6581 -0.0598753 -0.173123 -0.0308157 -0.365803 0.0125872 0.177563 0.31665 -0.0285835 -0.472674 0.421147 -0.46166 -0.173026 -0.123104 0.106206 0.079551 0.190486 -0.198298 0.344429 0.14273 0.366243 -0.181085 0.532509 -0.0911883 0.14284
7989 0.080521 0.162972 -0.100853 -0.359948 -0.242408 0.504459 0.124647 0.145408 -0.595501 0.660611 -0.616273 -0.478999 -0.0277535 -0.0424933 0.0284611 0.0260246 -0.348861 0.454686 0.282771 0.634764 0.056237 0.716787 -0.0209506 0.402582
354 -0.0130744 -0.0588289 -0.0223982 -0.292504 -0.0328921 0.148991 0.206419 -0.00605595 -0.340425 0.338276 -0.334996 -0.130722 -0.08611 0.0494536 0.0540678 0.137264 -0.119465 0.238509 0.088091 0.289325 -0.100151 0.409698 -0.0196936 0.107376
5875 -0.0844662 -0.0788899 -0.0347173 -0.32135 0.0337493 0.150131 0.272318 -0.0722697 -0.425746 0.41008 -0.404143 -0.136424 -0.0872616 0.0935986 0.0681257 0.198722 -0.172429 0.270927 0.133713 0.332363 -0.17412 0.532537 -0.0745543 0.142542
582 0.0298554 -0.11078 -0.0825953 -0.303044 -0.0687724 0.00960566 0.258554 -0.0784179 -0.231936 0.352874 -0.327412 -0.212484 0.000623517 0.000587068 0.0398888 0.152858 -0.0525957 0.239129 0.0778873 0.277839 -0.0709532 0.341843 -0.0480017 0.068746
8859 -0.0347887 0.274867 -0.145596 -0.168966 -0.698089 0.433701 0.590341 0.461121 -0.573408 0.569686 -0.766045 -0.384297 0.368841 -0.302819 -0.0807012 -0.273437 -0.622677 0.759938 0.234021 0.922384 0.264763 0.234597 -0.191043 0.263805
6123 -0.102724 -0.0447527 -0.115794 -0.289893 -0.0432257 -0.0522846 0.247755 -0.16258 -0.312976 0.247514 -0.347263 -0.200801 -0.0656861 0.0966308 0.0185777 0.201843 -0.0202419 0.272556 0.0262792 0.281204 -0.128999 0.337694 -0.112705 0.0773075
7625 -0.118999 -0.0611627 -0.0603985 -0.464423 -0.00636787 0.273032 0.361475 -0.0819637 -0.608733 0.48437 -0.567317 -0.286307 -0.115418 0.153576 0.0936158 0.275784 -0.162022 0.451819 0.189736 0.474532 -0.163543 0.644426 -0.144528 0.172065
7189 -0.0440525 -0.101497 -0.0400958 -0.287618 -0.00538355 0.179578 0.242547 0.0143408 -0.366492 0.348632 -0.369211 -0.166337 -0.0735576 0.0805144 0.0729486 0.146019 -0.165337 0.28951 0.124352 0.303269 -0.114447 0.402445 -0.0329507 0.095325
8662 0.104178 -0.641928 -0.294519 -0.618514 -0.209072 -0.138372 0.506803 -0.292021 -0.393493 0.53933 -0.607844 -0.442826 0.113757 0.0283075 0.0429583 0.262782 -0.156546 0.475854 0.0756172 0.494273 -0.153191 0.437772 -0.193321 0.0468211
8707 0.0830461 -0.451412 -0.175282 -0.561009 -0.230889 -0.190836 0.659357 -0.199332 -0.418542 0.534829 -0.609661 -0.39039 0.0641888 -0.0582464 0.0805695 0.355555 -0.206232 0.619817 -0.0215001 0.636647 -0.186149 0.455045 -0.221013 -0.0257544
5008 -0.0165294 -0.122433 -0.0379971 -0.346167 -0.0328579 0.113068 0.267917 -0.0338212 -0.29737 0.327658 -0.323501 -0.120543 -0.0659719 0.0297482 0.0807993 0.1766 -0.1016 0.267451 0.0681927 0.270137 -0.0937308 0.375179 -0.0583778 0.0710265
8476 -0.212381 0.166154 -0.312737 -0.462364 -0.368613 0.192662 0.284253 -0.177073 -0.479244 0.473469 -0.838391 -0.587411 0.0374916 0.137562 0.035534 0.20416 -0.164044 0.715936 0.272477 0.657599 0.0769392 0.351464 -0.20179 0.380286
2670 -0.0190765 -0.25738 -0.028148 -0.433322 0.0115773 0.194487 0.371402 -0.0414713 -0.461908 0.401242 -0.467482 -0.150047 -0.102642 0.106956 0.113875 0.225443 -0.200613 0.392775 0.127898 0.427212 -0.186893 0.582793 -0.11151 0.086014
6437 -0.0858166 -0.0999957 -0.113567 -0.353426 -0.0466981 0.0681807 0.309955 -0.119888 -0.40752 0.343151 -0.415324 -0.217066 -0.0574419 0.104632 0.0556198 0.187688 -0.112269 0.358091 0.11327 0.390992 -0.14321 0.451341 -0.115519 0.115873
4536 -0.0710392 0.00393469 -0.0733646 -0.294122 0.0599812 0.142621 0.249147 -0.102237 -0.455951 0.384595 -0.413276 -0.214129 -0.14594 0.15539 0.0473741 0.17337 -0.120176 0.30983 0.153096 0.346813 -0.166761 0.518025 -0.11048 0.181038
5664 -0.022506 -0.224317 -0.137922 -0.398396 -0.0793315 0.00280027 0.358754 -0.155236 -0.435141 0.346165 -0.491483 -0.272936 -0.0474305 0.108399 0.0411613 0.248318 -0.162823 0.416983 0.0961648 0.488667 -0.168141 0.476586 -0.186022 0.160078
5812 0.0515766 -0.208031 -0.00422614 -0.3438 -0.0735397 0.0709838 0.32698 -0.0555012 -0.307287 0.352231 -0.388723 -0.157289 -0.011643 0.00900827 0.0892494 0.164353 -0.159081 0.312173 0.0781518 0.322445 -0.102813 0.357207 -0.0773995 0.0556747
6058 -0.129168 -0.00171325 -0.0828834 -0.477515 -0.020189 0.213905 0.375872 -0.10577 -0.617552 0.51059 -0.62016 -0.199912 -0.137514 0.154394 0.0874324 0.281164 -0.188194 0.443371 0.170315 0.505883 -0.190314 0.694944 -0.133233 0.153868
7364 0.053375 -0.419982 0.233606 -0.270954 0.0439391 0.419348 0.274332 0.345377 -0.306207 0.240149 -0.270739 0.208247 -0.0399004 -0.0431658 0.177987 0.16372 -0.37118 0.414451 0.0296487 0.377563 -0.266921 0.459847 -0.0525733 -0.0802297
5078 0.0348447 -0.212285 0.0328206 -0.419181 -0.0720386 0.205445 0.294413 0.0599665 -0.334302 0.369403 -0.376208 -0.137014 -0.0581305 0.0285668 0.101716 0.13595 -0.148636 0.267659 0.0751905 0.356017 -0.105765 0.472317 -0.0351807 0.0841076
7720 -0.202556 0.0171977 -0.178558 -0.462365 0.024264 0.223384 0.299306 -0.24676 -0.56779 0.442849 -0.619 -0.494613 -0.139747 0.230247 0.0387 0.250332 -0.0672327 0.481707 0.233615 0.553931 -0.102862 0.610104 -0.226362 0.388638
8615 -0.0540727 -0.00733243 -0.130068 -0.498983 -0.0532826 0.244106 0.368031 -0.160757 -0.577001 0.577309 -0.488432 -0.359741 -0.0534323 0.137707 0.066022 0.235044 -0.0843791 0.384186 0.198041 0.393379 -0.116334 0.56563 -0.164325 0.140146
889 -0.0790749 0.028678 -0.16577 -0.273092 -0.0231844 0.0099101 0.239633 -0.144189 -0.370665 0.350538 -0.372379 -0.25378 -0.0671297 0.130051 0.0454029 0.163239 -0.0474069 0.232219 0.129881 0.289966 -0.117132 0.393725 -0.105757 0.124744
3262 -0.182446 0.132885 -0.103225 -0.500943 0.0924575 0.444588 0.431406 -0.204826 -0.894416 0.677961 -0.819077 -0.407315 -0.239382 0.272454 0.130505 0.37637 -0.231157 0.647005 0.33733 0.644559 -0.341423 0.988708 -0.220309 0.315974
4358 -0.0622119 -0.139751 -0.0743626 -0.301386 0.0583169 0.249932 0.230733 -0.0276656 -0.427298 0.321738 -0.414783 -0.0877748 -0.126749 0.130521 0.0790671 0.172299 -0.187775 0.319421 0.143568 0.349681 -0.208494 0.508858 -0.111999 0.113622
3964 -0.0218262 -0.166337 -0.0994947 -0.317951 -0.0386599 0.126053 0.20781 -0.0370597 -0.317238 0.295513 -0.317975 -0.200997 -0.0410225 0.0449996 0.0400052 0.113437 -0.123073 0.237395 0.111984 0.266993 -0.0692188 0.33988 -0.0534446 0.120585
9463 0.293465 -0.676623 -0.020014 -0.746809 -0.144769 0.236034 0.476964 0.0325 -0.397162 0.682252 -0.458091 -0.347152 0.027414 -0.0242961 0.0946548 0.178177 -0.203796 0.30262 0.121708 0.372817 -0.0408971 0.536167 0.040272 0.114904
5956 0.111756 -0.210643 0.121021 -0.354482 -0.124096 0.153975 0.325685 0.148676 -0.128493 0.358668 -0.288652 -0.0300212 0.025983 -0.178626 0.143455 0.142372 -0.217492 0.189701 -0.0339252 0.359621 -0.0474079 0.384904 0.0647208 -0.0715878
10261 0.295291 -0.406557 0.272334 -0.719279 -0.270252 0.365147 0.697902 0.384286 -0.139873 0.666107 -0.459907 0.0446449 0.107449 -0.530197 0.269192 0.282534 -0.538251 0.379645 -0.186141 0.670801 -0.0600519 0.702411 0.153147 -0.240066
8464 -0.0918511 -0.254394 -0.121314 -0.517358 -0.00269687 0.11872 0.367252 -0.134305 -0.425724 0.356375 -0.419185 -0.188635 -0.12335 0.154117 0.0776173 0.240999 -0.0680665 0.341058 0.0529988 0.426658 -0.20353 0.515375 -0.0873203 0.1216
8826 -0.0593073 -0.42859 -0.234867 -0.67104 -0.0572265 0.099904 0.339995 -0.195784 -0.438834 0.459209 -0.509083 -0.20593 -0.113424 0.133402 0.0790974 0.230842 -0.0999125 0.269627 0.0884197 0.378217 -0.156334 0.577547 -0.0723299 0.166535
9675 0.121017 -0.398236 -0.115506 -0.457869 -0.120822 0.168995 0.201095 0.00275817 -0.410197 0.412354 -0.396732 -0.213694 0.0181922 -0.0159923 0.0678749 0.122063 -0.187365 0.243531 0.133943 0.333608 -0.0779811 0.486115 -0.0690798 0.124185
10026 0.243658 -0.331327 -0.0240816 -0.474766 -0.262581 0.0485479 0.271381 0.197785 -0.161801 0.562942 -0.314052 -0.3721 0.0374346 -0.198387 0.063307 -0.0982176 -0.20811 0.160611 0.113067 0.419249 0.115915 0.506913 0.19126 0.159791
10182 0.408885 -0.69 -0.242612 -1.03452 -0.542742 0.0803481 0.619937 0.249883 -0.289686 1.09784 -0.560157 -0.838629 0.200243 -0.422503 0.119363 -0.016752 -0.309139 0.449712 0.0419889 0.785779 0.214835 0.679813 0.269905 0.141605
7066 0.152462 -0.127288 0.111946 -0.269311 -0.127322 0.121948 0.329942 0.171016 -0.218662 0.415849 -0.303199 -0.116839 0.0194807 -0.117806 0.0939024 0.0378522 -0.272241 0.228814 0.0889831 0.353236 -0.0194656 0.397903 0.0772692 0.021144
10286 0.591977 -0.632761 0.0893418 -0.72478 -0.41793 0.0016761 0.509233 0.390303 -0.296954 1.03424 -0.407477 -0.539101 0.0880265 -0.386285 0.0710001 -0.229094 -0.498681 0.188244 0.15508 0.631478 0.223477 0.650379 0.399631 0.235572
10301 0.280619 -0.632337 0.657449 -0.896884 -0.339996 0.403609 0.901498 0.574537 -0.20201 0.837575 -0.450844 -0.024745 -0.00334307 -0.172486 0.134945 0.241116 -0.3968 0.347305 0.0187131 0.597085 -0.0325875 0.5937 0.249831 -0.0527912
178 -0.0580133 -0.134196 -0.0640975 -0.299408 0.0357613 0.138753 0.221957 -0.0838298 -0.356566 0.303022 -0.356902 -0.0848542 -0.0726964 0.0511548 0.0712769 0.182778 -0.141554 0.274499 0.0958959 0.28448 -0.148778 0.441733 -0.0996164 0.0518014
3509 -0.101131 -0.0811719 -0.122787 -0.447931 -0.0019074 0.260364 0.314715 -0.155521 -0.575178 0.373888 -0.560974 -0.204495 -0.12409 0.191857 0.115461 0.217019 -0.138728 0.463975 0.201495 0.40723 -0.230941 0.618638 -0.160417 0.1619
3581 -0.0844286 -0.0563256 -0.126103 -0.344004 0.0149146 0.113071 0.300369 -0.128594 -0.454123 0.362014 -0.434516 -0.203616 -0.122509 0.140788 0.055501 0.202366 -0.100212 0.328223 0.120819 0.35561 -0.173548 0.515234 -0.129159 0.16679
3528 -0.0223656 -0.239506 -0.0344855 -0.356436 -0.00477648 0.246801 0.25585 0.0274238 -0.41688 0.397811 -0.396162 -0.121955 -0.0732043 0.0611015 0.105006 0.100675 -0.192201 0.364095 0.171358 0.403617 -0.155396 0.480513 -0.0540247 0.126294
4669 -0.18642 0.253338 -0.135721 -0.413958 0.0919072 0.412231 0.401932 -0.180602 -0.826462 0.624191 -0.768343 -0.461346 -0.254952 0.272977 0.0856011 0.287538 -0.197385 0.575092 0.363288 0.588185 -0.235403 0.89737 -0.221459 0.363019
6308 -0.0270857 -0.101549 -0.0786757 -0.365038 -0.0300093 0.117319 0.303411 -0.0865295 -0.429919 0.415954 -0.425589 -0.215748 -0.101681 0.0602376 0.0720742 0.182694 -0.148054 0.28392 0.116979 0.356995 -0.129717 0.525429 -0.0930524 0.12292
1196 -0.056629 -0.0948626 -0.000530811 -0.289236 0.00251744 0.20394 0.226683 -0.00812181 -0.343626 0.287968 -0.326064 -0.087039 -0.0861106 0.0764991 0.048182 0.155249 -0.186585 0.285897 0.0863288 0.321266 -0.145272 0.435538 -0.0614838 0.0877981
8170 -0.0287918 -0.391552 -0.0879168 -0.622801 -0.00927381 0.0938807 0.379739 -0.129245 -0.492471 0.467566 -0.505292 -0.183035 -0.142677 0.155279 0.0943262 0.271211 -0.128095 0.391049 0.0523212 0.431188 -0.219716 0.581744 -0.0899149 0.143786
9495 0.165816 -0.514083 -0.244545 -0.687217 -0.276765 0.255417 0.38347 0.135626 -0.532504 0.837301 -0.419491 -0.224522 0.112158 -0.134026 0.179705 -0.0398724 -0.198632 0.361601 0.150119 0.277191 -0.0145505 0.39178 0.00910566 0.0369474
1969 -0.0111163 -0.381837 0.198871 -0.257788 0.0992144 0.539747 0.234286 0.280129 -0.412589 0.199456 -0.325431 0.243785 -0.0857149 0.0687288 0.18394 0.184521 -0.375816 0.435078 0.103795 0.358139 -0.346324 0.516366 -0.0955142 -0.0161096
829 -0.0388201 -0.0501637 -0.0734466 -0.252348 0.00290341 0.120916 0.198045 -0.068999 -0.350681 0.341581 -0.330118 -0.164895 -0.0860142 0.0706856 0.0366382 0.159834 -0.129457 0.231039 0.12449 0.312312 -0.104434 0.435105 -0.0780866 0.12845
3569 -0.0892907 -0.119567 -0.121622 -0.457569 0.0356022 0.127106 0.35988 -0.162779 -0.595364 0.503649 -0.566765 -0.258915 -0.183864 0.170683 0.0736916 0.239096 -0.15424 0.393913 0.190146 0.436493 -0.210207 0.696994 -0.123681 0.193947
10162 0.363116 -0.406437 0.154835 -0.598228 -0.21543 0.159098 0.462129 0.298481 -0.359696 0.793407 -0.416502 -0.210483 0.0425373 -0.21507 0.107423 0.0439819 -0.33316 0.244275 0.127815 0.487155 0.0144269 0.571355 0.202174 0.0242273
9597 0.0412064 -0.28318 -0.0819511 -0.348059 -0.0465628 0.155737 0.139709 0.0118364 -0.390544 0.274278 -0.327305 -0.0770756 0.00227553 0.0774941 0.0455467 0.126136 -0.132095 0.21928 0.0881704 0.244306 -0.0983164 0.369228 -0.104319 0.0536235
9699 0.402256 -0.638842 -0.0709267 -0.662814 -0.2057 0.203266 0.355614 0.208058 -0.447969 0.757612 -0.38667 -0.250885 0.159784 -0.156383 0.0824229 0.062959 -0.246523 0.183374 0.163586 0.358675 0.0161844 0.454122 0.0496877 0.02976
2633 -0.0662086 -0.0868461 -0.0695108 -0.496285 0.00232448 0.204882 0.436272 -0.0824693 -0.578929 0.575449 -0.589457 -0.255228 -0.112483 0.0897434 0.0888341 0.24232 -0.182043 0.426538 0.166726 0.510667 -0.186567 0.680849 -0.121664 0.169448
6749 -0.0619692 -0.0541149 -0.138445 -0.41374 -0.0378312 0.232819 0.317781 -0.072165 -0.529271 0.50475 -0.572816 -0.354075 -0.123861 0.117263 0.05532 0.145301 -0.200274 0.419468 0.200871 0.517791 -0.11362 0.661055 -0.093633 0.26478
7561 -0.0943859 -0.148606 -0.0654696 -0.448091 0.0094771 0.225941 0.305969 -0.0404928 -0.532919 0.450305 -0.499136 -0.215152 -0.118257 0.110291 0.0801857 0.198723 -0.173335 0.38023 0.169903 0.419339 -0.158762 0.591464 -0.0998173 0.160913
3554 -0.009084 -0.104936 0.0855536 -0.257828 -0.0632568 0.176522 0.258734 0.0958008 -0.206057 0.234803 -0.238895 -0.0616228 -0.0332428 -0.00215286 0.0454914 0.103698 -0.14414 0.214789 0.029265 0.270047 -0.0562098 0.323063 -0.0170416 0.0486889
7334 -0.0301308 -0.276392 0.0388912 -0.446586 -0.0371137 0.220938 0.342689 0.0426066 -0.441428 0.41807 -0.479723 -0.136442 -0.0969918 0.0941934 0.101725 0.157672 -0.218894 0.343541 0.138759 0.467931 -0.18387 0.585787 -0.020257 0.153124
9420 0.100424 -0.0761325 -0.0557354 -0.234578 -0.253917 0.693558 0.392339 0.39678 -0.36443 0.61686 -0.527521 -0.381624 0.175798 -0.124933 -0.0515464 -0.13924 -0.658618 0.49259 0.31709 0.638426 0.176109 0.585722 0.0428713 0.274663
1224 -0.0364623 -0.0708433 -0.0367233 -0.419576 -0.0811684 0.132905 0.20217 -0.0442575 -0.308021 0.233085 -0.371061 -0.0686602 -0.0641382 0.057762 0.07348 0.167125 -0.063344 0.285122 0.0430212 0.166564 -0.0883356 0.378308 -0.0634257 0.032971
8911 -0.323215 -1.31462 -1.34757 -0.959418 0.0244944 0.954677 -1.76019 -0.637027 -1.06161 0.295025 -1.83345 0.184788 0.0444292 0.638616 0.128462 0.01235 -1.37219 -0.278967 1.29864 0.48597 -0.235601 2.47532 0.179443 1.71392
9014 0.202553 -0.39769 -0.134205 -1.5522 -0.64119 0.369263 0.54045 -0.0469274 -0.475006 0.450764 -1.03346 -0.149539 -0.0364897 -0.0544182 0.25892 0.347188 -0.00192715 0.85316 -0.155299 0.222661 -0.0330297 0.54629 -0.0574605 -0.281123
2410 -0.0562468 -0.0526312 -0.0331316 -0.272602 0.0567732 0.129996 0.238356 -0.061015 -0.396801 0.315207 -0.397096 -0.140241 -0.133938 0.120029 0.0706015 0.18002 -0.148375 0.296373 0.0999673 0.347949 -0.176964 0.456081 -0.113291 0.132318
6550 -0.0555781 -0.14917 -0.130059 -0.324486 -0.031697 0.0152931 0.30122 -0.148679 -0.312463 0.324951 -0.371954 -0.23403 -0.0555942 0.0751781 0.0480579 0.179747 -0.074492 0.333585 0.0805513 0.353878 -0.132706 0.337338 -0.111569 0.110094
8950 0.0428447 -0.372599 -0.0135316 -0.4993 -0.0449713 0.197234 0.404787 0.0025664 -0.451665 0.520544 -0.464437 -0.144784 -0.0396205 0.00237725 0.0979982 0.188629 -0.203236 0.345816 0.115324 0.380201 -0.174036 0.52365 -0.0777418 0.00352565
10271 -1.09441 -0.111153 1.31087 -0.191126 -0.979767 0.360062 1.16158 0.386538 0.66429 0.863959 -0.952062 -0.352355 -0.145197 -0.43066 0.0193299 -0.421622 -0.992289 0.108904 -0.527923 1.50218 0.555867 1.29958 0.806642 0.750112
10282 0.17495 -0.909312 0.786672 -0.93975 -0.474369 0.0961658 0.761118 0.31002 -0.329533 0.45579 -0.476987 -0.106172 -0.259844 -0.395156 0.0227216 -0.0747272 -0.798307 0.344792 -0.152071 0.905275 -0.0645003 1.08647 0.203872 0.0802421
3516 -0.0579631 -0.0134796 -0.0684893 -0.216952 -0.00939142 0.130383 0.234789 -0.0465404 -0.359007 0.282688 -0.336337 -0.12851 -0.0823594 0.0918885 0.0655579 0.135064 -0.12991 0.285215 0.108877 0.343266 -0.145237 0.399852 -0.112409 0.114739
2195 -0.0811639 -0.0887431 -0.0422424 -0.260037 0.0468438 0.18471 0.219563 -0.0332463 -0.436643 0.296187 -0.362229 -0.0908781 -0.143364 0.137916 0.063819 0.131137 -0.144004 0.253015 0.139697 0.285113 -0.160667 0.464066 -0.099076 0.129033
5142 -0.14175 0.00822573 -0.109105 -0.451083 0.0519055 0.332513 0.403014 -0.082118 -0.671165 0.580425 -0.622917 -0.254891 -0.16705 0.207466 0.0967758 0.260333 -0.182194 0.462285 0.278722 0.468408 -0.244788 0.767297 -0.168627 0.213244
4287 -0.0667683 -0.0726817 -0.122221 -0.366535 0.0154735 0.133749 0.332279 -0.15329 -0.490347 0.4631 -0.498649 -0.261169 -0.123645 0.138207 0.0331618 0.212047 -0.104332 0.358653 0.164219 0.412052 -0.183538 0.581216 -0.127399 0.187022
4417 0.00667468 -0.15129 -0.041242 -0.327666 -0.042262 0.154961 0.218776 -0.00976473 -0.303497 0.326833 -0.33124 -0.126969 -0.0290473 0.0351086 0.0704265 0.13712 -0.14205 0.281216 0.0662459 0.292361 -0.129256 0.373267 -0.0318964 0.0807675
4569 -0.112795 -0.0156108 -0.0625655 -0.299861 0.017626 0.149713 0.294315 -0.100292 -0.453589 0.413427 -0.447769 -0.19907 -0.116077 0.08988 0.0747559 0.212501 -0.161943 0.325891 0.154362 0.390613 -0.188948 0.525619 -0.110479 0.130127
5667 -0.032587 -0.234608 -0.0619002 -0.416532 0.0101808 0.204614 0.295182 -0.0419267 -0.426252 0.342472 -0.395209 -0.143895 -0.0922216 0.0699541 0.0932809 0.18279 -0.165923 0.318452 0.118689 0.353852 -0.143866 0.466884 -0.0881028 0.101132
9050 0.0300019 -0.348188 0.115313 -0.484663 -0.0940391 0.234227 0.421729 0.0352126 -0.401288 0.442309 -0.418453 -0.240689 -0.0574684 -0.0195889 0.080844 0.159465 -0.268758 0.372523 0.0899633 0.490763 -0.0938292 0.634223 0.00927664 0.111937
9988 0.217721 -0.740742 0.109916 -0.622576 -0.0570242 0.33093 0.387077 0.212546 -0.398711 0.550871 -0.439617 -0.117451 -0.00217288 -0.057844 0.143424 0.112261 -0.339067 0.350736 0.131076 0.466199 -0.164504 0.536456 0.0283857 0.0784518
3782 0.0654006 -0.281055 0.0345865 -0.284831 -0.0493879 0.136024 0.223784 0.107572 -0.258167 0.324262 -0.26543 -0.100563 -0.0141879 0.00527624 0.051954 0.0364535 -0.140655 0.207643 0.126611 0.266409 -0.0874779 0.338037 0.0258243 0.0289352
8095 -0.0754535 -0.386171 -0.0651934 -0.269573 0.00614716 0.229248 0.775837 -0.339501 -0.580515 0.591762 -0.951957 -0.181886 -0.109144 -0.236769 0.15707 0.45734 -0.167787 0.484613 0.160212 0.636777 -0.0708439 0.629775 -0.176108 -0.298511
7220 0.0202327 -0.25229 -0.0752881 -0.386761 -0.00196948 0.0933339 0.258524 -0.0882707 -0.306642 0.307587 -0.29607 -0.160101 -0.0504811 0.0545232 0.0343843 0.14598 -0.109049 0.205551 0.0837687 0.233863 -0.116121 0.37312 -0.0643739 0.021264
9311 0.174606 -0.352846 0.0698789 -0.345224 -0.423691 0.0390814 0.656545 0.135326 -0.345062 0.458577 -0.692209 -0.305811 0.194033 -0.195488 0.157235 0.169879 -0.478707 0.750068 0.0752527 0.745927 -0.0927208 0.385757 -0.148041 0.0600566
10023 0.0511451 -0.410207 0.227832 -0.359791 0.0202358 0.447432 0.338208 0.284872 -0.420978 0.297658 -0.37751 0.117786 -0.0282377 0.00472119 0.199238 0.204136 -0.354861 0.441706 0.0731216 0.440728 -0.280035 0.522839 -0.0575188 -0.0334912
3147 0.0108026 -0.110659 -0.079167 -0.501787 -0.0617503 0.131881 0.402366 -0.104399 -0.540218 0.560623 -0.57461 -0.270141 -0.103048 0.0652271 0.119301 0.248147 -0.158647 0.412244 0.130248 0.492157 -0.160669 0.645164 -0.0824444 0.14037
8527 0.136129 -0.4552 0.0233971 -0.66348 -0.266071 0.213787 0.464712 0.131541 -0.418241 0.637 -0.524006 -0.264909 0.00948658 -0.0794203 0.0939643 0.0813439 -0.308409 0.37534 0.141098 0.53061 -0.0521055 0.644477 0.0249634 0.143177
9221 -0.000359252 -0.190874 0.0163951 -0.436117 -0.0538356 0.189118 0.314563 -0.00737982 -0.353628 0.417816 -0.368039 -0.163544 -0.0636363 -0.00478781 0.0374499 0.118534 -0.177188 0.265419 0.0865038 0.329741 -0.0956611 0.462217 -0.0332435 0.109834
2494 0.00756315 -0.153209 -0.0310798 -0.376446 -0.0215369 0.196059 0.314807 -0.0212335 -0.431548 0.403739 -0.427111 -0.149756 -0.0836894 0.0510169 0.0676787 0.175144 -0.15659 0.319541 0.124094 0.342249 -0.136671 0.485982 -0.0755971 0.0886215
3650 -0.0556392 -0.29047 -0.155083 -0.624644 0.0130432 0.217055 0.446973 -0.24245 -0.615669 0.532931 -0.62174 -0.281386 -0.133417 0.114387 0.109045 0.369971 -0.178875 0.445721 0.163476 0.459531 -0.246703 0.712018 -0.197124 0.143089
5030 -0.193498 0.130006 -0.0950365 -0.30285 0.118969 0.366543 0.359595 -0.163327 -0.769044 0.511954 -0.67443 -0.297416 -0.238014 0.241925 0.097632 0.311468 -0.245835 0.595673 0.282753 0.569785 -0.273098 0.795694 -0.207104 0.322482
9785 0.112158 -0.858287 -0.159564 -0.792799 -0.0147286 0.268651 0.392575 -0.0980689 -0.483605 0.589583 -0.540497 -0.222357 -0.0307695 0.0650601 0.0936986 0.240257 -0.21329 0.290046 0.158406 0.28646 -0.199171 0.64816 -0.0503382 0.0735904
9853 0.0677407 -0.223866 0.0567033 -0.312817 -0.0761121 0.194038 0.320108 0.109718 -0.360621 0.411493 -0.386943 -0.122938 -0.00243983 -0.0109441 0.0689071 0.0886379 -0.250223 0.303343 0.108366 0.34813 -0.100274 0.432575 -0.0048034 0.0724356
10115 0.379445 -0.594924 0.139327 -0.722356 -0.335818 0.208918 0.546953 0.349088 -0.259317 0.725391 -0.325971 -0.242759 0.121253 -0.25228 0.150929 0.108189 -0.288608 0.289962 0.000507718 0.463407 0.0175026 0.402778 0.198152 -0.0664728
7246 0.202839 -0.0849074 -0.0439602 -0.443927 -0.221693 -0.15177 0.319549 -0.0155168 -0.163655 0.46185 -0.346868 -0.279636 0.0493489 -0.160551 0.0704781 0.170617 -0.0714743 0.181605 0.000479249 0.27914 0.0359443 0.350134 0.0518359 -0.015378
10110 0.468472 -0.00469055 0.585958 -1.09683 -0.635824 0.0188334 1.15743 0.300695 -0.266127 1.29385 -0.811541 -0.446471 0.224596 -0.746219 0.22085 0.433321 -0.388096 0.276503 -0.111671 0.75591 0.173108 1.02506 0.403419 -0.258874
4265 -0.137596 0.0266166 -0.10904 -0.426431 0.0626016 0.29415 0.334176 -0.131863 -0.668739 0.54589 -0.639451 -0.288285 -0.197605 0.188129 0.0811699 0.253991 -0.204098 0.477946 0.23504 0.485151 -0.250598 0.765469 -0.149514 0.263862
4507 -0.127885 0.0579698 -0.080715 -0.488225 0.0845727 0.313793 0.380104 -0.105561 -0.703753 0.506491 -0.653267 -0.251994 -0.211082 0.212233 0.128992 0.309113 -0.149476 0.512234 0.246782 0.491842 -0.285422 0.792553 -0.164067 0.230408
5705 -0.221843 0.347339 -0.0680859 -0.350765 0.0928962 0.584328 0.381278 -0.171026 -0.799289 0.570537 -0.732414 -0.508003 -0.183845 0.258778 0.146722 0.308351 -0.207156 0.633847 0.320336 0.6041 -0.196366 0.856101 -0.291682 0.37519
6568 -0.0793477 -0.120207 -0.137551 -0.374953 0.0915986 0.277952 0.263846 -0.077533 -0.592307 0.444583 -0.469164 -0.272924 -0.147759 0.205005 0.0654362 0.186687 -0.113763 0.336781 0.267861 0.37015 -0.187707 0.598399 -0.0722567 0.267316
6873 -0.228084 0.413631 -0.273897 -0.132308 0.100154 0.581048 0.165438 -0.23197 -0.891354 0.589821 -0.792394 -0.610165 -0.118041 0.285277 0.0319195 0.210355 -0.268669 0.626192 0.481322 0.494126 -0.110551 0.757971 -0.339807 0.506296
9864 0.0411743 -0.364954 0.186663 -0.532062 -0.156228 0.205986 0.470296 0.159099 -0.279171 0.454546 -0.415939 -0.211867 -0.0676972 0.0684193 0.0459025 0.0478727 -0.177362 0.291005 0.151518 0.377395 -0.0607056 0.512995 0.0753325 0.088289
10075 0.263268 -0.872717 0.407497 -0.879457 -0.180756 0.269306 0.44042 0.15564 -0.211402 0.59327 -0.477034 -0.243855 -0.113478 -0.0331634 0.0169645 -0.0110462 -0.42304 0.266385 0.0935243 0.499493 0.0420341 0.594838 0.204527 0.279909
5161 -0.0370905 -0.0424466 -0.0584861 -0.282685 -0.0255098 0.124218 0.257846 -0.0637421 -0.38205 0.300478 -0.390651 -0.112726 -0.105804 0.0702437 0.0507278 0.153923 -0.15808 0.319315 0.13521 0.327002 -0.164608 0.394437 -0.12013 0.0919545
8060 -0.00978444 -0.449885 -0.125125 -0.63087 -0.031056 0.34823 0.360593 -0.0856919 -0.624713 0.59999 -0.49151 -0.205323 -0.074253 0.150437 0.118787 0.238358 -0.186196 0.339627 0.193345 0.305143 -0.203727 0.652646 -0.153813 0.118064
8486 -0.17155 -0.0556497 -0.226552 -0.66105 -0.0887521 0.186001 0.379496 -0.207948 -0.506742 0.453006 -0.510405 -0.29252 -0.141491 0.202725 0.0684363 0.263418 -0.0195066 0.397838 0.108246 0.431846 -0.128017 0.547478 -0.0884002 0.220539
7925 0.0434731 -0.148252 -0.130748 -0.479013 -0.107847 0.0529048 0.287724 -0.12719 -0.323622 0.452275 -0.358443 -0.369149 -0.0501367 0.046298 0.048902 0.121293 -0.0504657 0.22475 0.116607 0.326631 -0.0178543 0.474799 -0.00572851 0.174523
9092 0.0373408 -0.281194 -0.115455 -0.495391 -0.0931208 0.220965 0.283115 0.0202299 -0.448618 0.589166 -0.489031 -0.334152 -0.0224866 0.0261397 0.0433448 0.0298587 -0.221667 0.328557 0.219424 0.337635 -0.0197656 0.564074 -0.0027724 0.191053
657 -0.0442048 -0.0337716 -0.104204 -0.299898 -0.00423575 0.0307395 0.200869 -0.0993541 -0.349876 0.363158 -0.345191 -0.233739 -0.0476057 0.0825278 0.0539829 0.131568 -0.103361 0.262806 0.131559 0.30035 -0.0819023 0.411295 -0.040468 0.154964
2313 -0.0367792 -0.162616 -0.0597275 -0.466313 -0.0260865 0.201905 0.380638 -0.0841345 -0.561188 0.481043 -0.546597 -0.185087 -0.100502 0.119863 0.0943946 0.241338 -0.194058 0.420944 0.158694 0.443133 -0.205117 0.649398 -0.117597 0.151264
3000 -0.0222072 -0.166122 -0.0115276 -0.446043 -0.013641 0.235 0.34867 -0.0443301 -0.481246 0.475091 -0.529159 -0.175864 -0.112637 0.0741809 0.0879828 0.243451 -0.224322 0.386103 0.122452 0.473375 -0.191567 0.637267 -0.0753209 0.159583
10177 0.138835 -0.344846 0.281556 -0.487197 -0.267045 0.150279 0.467752 0.244936 -0.168737 0.520694 -0.446203 -0.150593 -0.00165858 -0.181398 0.111519 0.0771856 -0.373661 0.26883 0.0336429 0.482584 -0.0333412 0.54767 0.155284 0.0364276
10184 0.21897 -0.856076 0.277216 -0.619382 -0.205116 0.364832 0.439214 0.2919 -0.246318 0.581931 -0.464846 -0.276354 -0.0179717 -0.07118 0.0994096 0.0051458 -0.489088 0.324443 0.139302 0.598908 -0.00206767 0.547873 0.159219 0.221853
10084 0.231746 -0.4779 -0.0802122 -0.756491 -0.296272 0.198473 0.425457 0.0629185 -0.166784 0.620002 -0.473223 -0.364728 0.0058884 -0.289315 0.161785 0.1391 -0.259061 0.234484 -0.0343821 0.548206 0.0945831 0.708148 0.138335 0.0841419
10158 0.30939 -0.461442 0.277423 -0.650617 -0.256049 0.240584 0.598422 0.406578 -0.0248941 0.555161 -0.365944 0.0960618 0.0473456 -0.479749 0.242002 0.152057 -0.645179 0.385009 -0.166455 0.689659 -0.0726873 0.717607 0.23395 -0.169636
7524 -0.0214254 -0.251178 -0.192182 -0.630971 -0.0745172 0.145543 0.365056 -0.0996877 -0.479906 0.557172 -0.502879 -0.366984 -0.0610149 0.107085 0.0619769 0.196994 -0.140849 0.451518 0.191961 0.491804 -0.125753 0.645221 -0.0598826 0.207535
8839 0.203103 -0.331443 -0.097656 -0.603244 -0.198356 -0.134304 0.377488 -0.113009 -0.202538 0.562604 -0.414683 -0.32027 0.0726163 -0.169303 0.0932698 0.204344 -0.0760978 0.211031 -0.0425378 0.244264 0.00464848 0.405208 0.0340508 -0.0616254
9258 0.0564196 -0.383071 -0.0823339 -0.440167 -0.07152 0.123473 0.298405 0.0188466 -0.341067 0.395118 -0.374765 -0.192322 -0.0457512 0.0590632 0.059579 0.10306 -0.133263 0.249509 0.10481 0.355814 -0.0890042 0.50469 0.00735901 0.0897602
2816 0.00208562 -0.175844 0.0104674 -0.355939 -0.0640929 0.105815 0.305381 0.0113843 -0.314853 0.399373 -0.351963 -0.12271 -0.0547686 0.00775906 0.0851464 0.16134 -0.114286 0.244274 0.0551148 0.319604 -0.113623 0.444113 -0.0357059 0.0845432
5493 -0.093553 -0.158515 -0.0478892 -0.338697 0.0325899 0.187225 0.260554 -0.0497455 -0.442864 0.371454 -0.453445 -0.173485 -0.13074 0.133788 0.0614556 0.168265 -0.182986 0.323611 0.131057 0.373689 -0.181395 0.539348 -0.0860909 0.150527
10219 0.312366 -0.417552 0.365411 -0.499067 -0.205861 0.486058 0.323652 0.438048 -0.326507 0.441078 -0.610634 0.13186 0.0927808 -0.264401 0.309564 0.193067 -0.738373 0.678844 -0.0260836 0.59028 -0.102455 0.649479 0.0395139 -0.062276
2434 -0.0656243 -0.0778842 -0.0575568 -0.235007 0.0452882 0.177147 0.196789 -0.042531 -0.371898 0.264035 -0.322388 -0.109665 -0.103897 0.149108 0.0473691 0.142748 -0.122536 0.289507 0.152262 0.271892 -0.133766 0.399391 -0.0878038 0.143379
5204 -0.150745 0.0609061 -0.0899608 -0.415679 0.136951 0.289226 0.38653 -0.156788 -0.773525 0.541612 -0.650927 -0.194329 -0.266699 0.236159 0.12833 0.380325 -0.179833 0.505292 0.24141 0.494005 -0.318693 0.803431 -0.207052 0.224259
253 -0.037121 -0.106923 0.000950933 -0.262361 0.0432436 0.16523 0.222039 -0.0155382 -0.319211 0.272183 -0.311914 -0.107217 -0.0677986 0.0604221 0.0490778 0.123413 -0.134252 0.266077 0.0763279 0.301167 -0.111875 0.37953 -0.069033 0.115326
1824 -0.118104 -0.256708 -0.144561 -0.746859 0.00565503 0.365274 0.599779 -0.125665 -0.890886 0.829411 -0.885734 -0.385815 -0.199083 0.192382 0.146252 0.349314 -0.281337 0.6406 0.288975 0.726381 -0.351491 1.06686 -0.207495 0.289359
2238 -0.0418476 -0.0871936 -0.0425623 -0.295939 -0.0045915 0.221957 0.214711 -0.02454 -0.356498 0.334198 -0.368744 -0.158815 -0.0704339 0.101917 0.0493753 0.0941788 -0.14794 0.268856 0.156959 0.307622 -0.108601 0.438047 -0.0405908 0.174168
2134 -0.0359735 -0.113259 -0.083662 -0.259706 -0.00355537 0.116376 0.230707 -0.0725752 -0.358233 0.311508 -0.358077 -0.128196 -0.0956145 0.0812569 0.0674097 0.130008 -0.140987 0.251695 0.110537 0.274504 -0.122849 0.406996 -0.0941323 0.105882
3198 -0.187807 0.079728 -0.0304244 -0.420996 0.107944 0.512789 0.529386 -0.0286643 -0.890468 0.662423 -0.7975 -0.27187 -0.178743 0.195166 0.180704 0.368839 -0.358713 0.721803 0.283346 0.716701 -0.391924 0.959447 -0.273398 0.268719
6114 -0.117002 -0.117303 -0.109477 -0.411971 0.0216058 0.172076 0.337059 -0.173103 -0.572191 0.457868 -0.555729 -0.227269 -0.140787 0.161431 0.060952 0.277276 -0.142322 0.354512 0.14157 0.414159 -0.202856 0.605862 -0.187355 0.150042
6376 -0.119609 -0.21167 -0.134071 -0.318728 -0.0184891 0.0270917 0.326945 -0.150771 -0.459736 0.306357 -0.496988 -0.206996 -0.0899455 0.135391 0.052282 0.250493 -0.150459 0.462001 0.120558 0.496466 -0.237023 0.507738 -0.207774 0.172214
2516 -0.0487328 -0.251387 -0.120335 -0.364719 0.00641052 0.140166 0.217422 -0.137001 -0.370506 0.337184 -0.369338 -0.174948 -0.1077 0.112648 0.063276 0.136535 -0.121353 0.2506 0.124105 0.256826 -0.147575 0.430703 -0.0985281 0.131548
4984 -0.0434261 0.180304 0.196821 -0.376796 0.0131742 0.458208 0.494686 0.151881 -0.629891 0.69599 -0.651493 -0.209978 -0.151806 0.0183802 0.112585 0.185572 -0.412927 0.550237 0.229457 0.625699 -0.229261 0.87483 -0.0398508 0.175435
5496 -0.0827184 -0.13356 -0.116416 -0.372435 -0.00435653 0.175972 0.279181 -0.0760229 -0.482729 0.374903 -0.433134 -0.153665 -0.0880194 0.149494 0.0628498 0.186654 -0.153068 0.328404 0.177291 0.352955 -0.161441 0.485796 -0.154227 0.127112
6789 -0.0298109 -0.181806 -0.0683501 -0.333288 -0.0501965 0.136236 0.234598 -0.056538 -0.320896 0.307256 -0.355432 -0.135374 -0.0539834 0.038506 0.0734474 0.156286 -0.132778 0.260452 0.0999698 0.265696 -0.111294 0.391544 -0.0696232 0.0710584
9125 0.0918475 -0.33679 -0.0186543 -0.379176 -0.118621 0.134532 0.263468 0.0945601 -0.174169 0.37425 -0.295406 -0.207315 -0.0064476 -0.0351705 0.0644718 0.0486801 -0.108618 0.189479 0.116958 0.325128 -0.0123627 0.395292 0.064132 0.0873955
7151 -0.0245147 -0.0932784 -0.115122 -0.47244 -0.0458556 0.100127 0.37563 -0.129432 -0.493981 0.537164 -0.534563 -0.336845 -0.0950601 0.0687104 0.0587185 0.226691 -0.0925666 0.356348 0.140121 0.401031 -0.126725 0.599645 -0.102492 0.159875
7173 -0.0134381 -0.0633354 -0.0744601 -0.372843 -0.0312765 0.117142 0.329675 -0.0923065 -0.448892 0.454985 -0.458471 -0.217602 -0.084211 0.0769125 0.0591542 0.172428 -0.139392 0.300544 0.144611 0.354021 -0.143201 0.487119 -0.0854185 0.111799
1638 -0.0163758 -0.185925 -0.033733 -0.336051 -0.0449673 0.169488 0.261053 0.00753007 -0.345316 0.318145 -0.352591 -0.107597 -0.0639761 0.0543219 0.0874026 0.153444 -0.155128 0.279728 0.0772884 0.335827 -0.137476 0.407754 -0.0649519 0.0966227
2955 -0.0470138 -0.228001 -0.0984497 -0.503652 -0.0474881 0.178876 0.412709 -0.10688 -0.549666 0.510311 -0.608546 -0.276359 -0.104753 0.121434 0.0775301 0.249914 -0.222417 0.466924 0.16455 0.552958 -0.209592 0.662785 -0.175069 0.17949
3489 -0.197235 0.225089 -0.158981 -0.484797 0.113102 0.26124 0.431433 -0.33619 -0.838751 0.57226 -0.783381 -0.342818 -0.288463 0.279194 0.0848537 0.430863 -0.114978 0.458946 0.243523 0.499594 -0.323093 0.965453 -0.248111 0.273272
3028 0.0369462 -0.317231 0.233741 -0.272713 0.0479985 0.478372 0.242076 0.288526 -0.327568 0.214279 -0.24445 0.249546 -0.028329 0.000746635 0.190752 0.140277 -0.342557 0.370445 0.029215 0.320546 -0.278648 0.419536 -0.0703034 -0.0514531
1050 -0.0418255 -0.0438164 -0.0346051 -0.223622 0.0185817 0.124734 0.198412 -0.0127917 -0.295454 0.255409 -0.291528 -0.106461 -0.0876949 0.0961448 0.0525926 0.113624 -0.145512 0.259866 0.112309 0.284492 -0.102461 0.355818 -0.0542379 0.117142
3607 -0.240107 0.0946174 -0.0888599 -0.42513 0.113705 0.393014 0.450582 -0.17625 -0.809026 0.569163 -0.656645 -0.349189 -0.23112 0.282039 0.0673815 0.285227 -0.159433 0.544694 0.22844 0.528137 -0.244737 0.79367 -0.248075 0.30892
4311 -0.0852666 -0.0650911 -0.0699388 -0.348903 0.0274349 0.241978 0.292593 -0.0724171 -0.514375 0.397471 -0.44681 -0.212476 -0.132522 0.144599 0.0407942 0.192665 -0.141134 0.328708 0.185333 0.36645 -0.138982 0.521093 -0.0884376 0.201109
8965 -0.0319115 -0.505071 -0.20232 -0.577974 0.00348528 0.170678 0.278846 -0.172862 -0.391019 0.413735 -0.420863 -0.158564 -0.0431103 0.120084 0.0455935 0.190341 -0.145411 0.261158 0.136191 0.23525 -0.170312 0.468317 -0.0831243 0.0473023
9735 0.257853 -0.618993 -0.180672 -0.922035 -0.144134 0.0960349 0.225885 -0.220325 -0.286434 0.745981 -0.626463 -0.659978 -0.025628 -0.0281568 0.033171 0.0437026 -0.199775 0.23217 0.202346 0.377564 0.153322 0.69488 0.0942448 0.347461
1440 -0.0536511 -0.2469 -0.0937613 -0.33474 0.0123257 0.111722 0.203899 -0.0603897 -0.320287 0.281455 -0.327141 -0.12287 -0.0755884 0.0949809 0.0549244 0.132316 -0.124004 0.250097 0.116046 0.25265 -0.13909 0.378327 -0.0839097 0.0851371
1832 -0.136549 0.0320006 -0.150526 -0.511173 0.0725662 0.139163 0.46902 -0.255421 -0.724776 0.620245 -0.706496 -0.274094 -0.219079 0.192538 0.123304 0.377553 -0.129449 0.452195 0.151605 0.494661 -0.314549 0.810995 -0.220415 0.140341
2984 -0.0575358 -0.0626152 -0.0360734 -0.333379 -0.012474 0.171873 0.309665 -0.0340277 -0.434489 0.381135 -0.460573 -0.165051 -0.106938 0.0695452 0.0848089 0.198598 -0.186394 0.326571 0.157809 0.386046 -0.190429 0.538434 -0.0798279 0.112654
4924 -0.0609181 -0.0664492 -0.0531072 -0.284372 0.00386672 0.0660973 0.247252 -0.0926172 -0.3418 0.33845 -0.372566 -0.172907 -0.0838127 0.0793179 0.0344647 0.145912 -0.113594 0.235647 0.121642 0.313496 -0.15428 0.411888 -0.106537 0.0880514
4938 -0.00981662 0.021196 -0.0986257 -0.416527 -0.0248861 0.0837957 0.300745 -0.107987 -0.43784 0.502589 -0.481549 -0.290627 -0.101099 0.0589685 0.0750331 0.208606 -0.10907 0.295951 0.118972 0.372244 -0.105812 0.530268 -0.0678706 0.154826
8041 0.140824 -0.215732 -0.0078416 -0.542749 -0.13474 -0.00571749 0.337954 -0.0588327 -0.285279 0.477419 -0.374879 -0.219601 -0.00338541 -0.0593351 0.116136 0.199035 -0.0660833 0.231249 0.0101028 0.304943 -0.0414342 0.446976 0.0484458 -0.00176955
9935 0.459871 -0.173336 0.150095 -1.0292 -0.605264 -0.20776 1.10658 -0.00379628 -0.356807 1.30781 -0.982202 -0.684672 0.244628 -0.655593 0.202936 0.442722 -0.439127 0.675073 -0.251207 0.94152 0.0189478 0.935203 0.112997 -0.286751
1358 -0.0212183 -0.128838 0.0323844 -0.278124 0.00514253 0.231623 0.241871 0.0694042 -0.31403 0.291946 -0.307097 -0.0641546 -0.0568974 0.0269235 0.0789015 0.116773 -0.208866 0.277476 0.0655366 0.306523 -0.152443 0.379803 -0.0550024 0.0615995
