10313 24
1309 -0.151616 -0.141019 -0.213748 0.096829 -0.105394 0.342597 0.267682 0.312774 -0.162253 -0.147749 0.0159917 -0.08717 0.421232 0.0504364 0.0832135 -0.362546 -0.0168184 -0.288672 0.184964 0.337689 0.467174 -0.0995423 0.0730113 0.128847
4997 -0.172905 -0.233657 -0.133462 0.0498074 -0.058014 0.338006 0.385049 0.473737 -0.272299 -0.304276 0.104455 -0.209402 0.706723 0.0578103 0.158904 -0.644512 -0.0202758 -0.678023 0.424652 0.648001 0.971325 -0.248411 0.233579 0.323661
6380 -0.30004 -0.0867153 -0.388788 0.0669882 -0.190342 0.497322 0.278909 0.421444 -0.174619 -0.203357 -0.0159085 -0.182761 0.506094 0.109617 0.129354 -0.498784 -0.0514461 -0.400355 0.219251 0.378427 0.617393 -0.203907 0.0744531 0.164147
1893 -0.227437 -0.0659368 -0.274731 0.0224879 -0.110895 0.366093 0.151399 0.317117 -0.134112 -0.15211 0.0165512 -0.145365 0.351923 0.0753557 0.123874 -0.373535 -0.0604449 -0.316095 0.207475 0.269708 0.45265 -0.175226 0.0703704 0.175728
2661 -0.229642 -0.103261 -0.264404 0.0744452 -0.0942097 0.378841 0.200904 0.333043 -0.156421 -0.134572 0.0308745 -0.140595 0.375045 0.0788553 0.114922 -0.349865 -0.0387191 -0.325168 0.198502 0.290138 0.459793 -0.158824 0.082864 0.152584
6191 -0.272219 -0.156991 -0.331562 0.0670399 -0.15312 0.469392 0.33669 0.437136 -0.195944 -0.209907 0.000930986 -0.153486 0.517605 0.0626174 0.129738 -0.48934 -0.0159758 -0.421875 0.242819 0.437401 0.653391 -0.208864 0.113441 0.216683
7880 -0.309602 -0.0749843 -0.403054 0.103498 -0.215976 0.484843 0.239225 0.412897 -0.11447 -0.152817 -0.0790229 -0.159136 0.45399 0.0873201 0.0948277 -0.418324 -0.0409547 -0.324844 0.157151 0.308567 0.497356 -0.166121 0.04634 0.127118
9919 -0.406579 -1.3341 -0.643278 1.00974 -0.235665 1.27816 1.92504 0.907098 -0.625184 0.104025 0.287695 0.259535 0.613121 -0.0648311 0.220311 -0.317579 0.190866 0.233132 0.156343 1.20858 0.902895 0.822165 0.0836483 0.619704
10058 -0.652529 0.243644 -0.927129 0.15081 -0.623544 0.916575 0.225807 0.684197 -0.145463 -0.235059 -0.514028 -0.55261 0.854576 0.295607 0.223099 -0.928173 -0.294953 -0.273639 0.0937272 0.202414 0.555075 -0.352707 -0.226085 0.100843
5579 -0.305573 -0.0824414 -0.429299 0.170053 -0.259906 0.484882 0.291348 0.398121 -0.0890028 -0.109906 -0.151499 -0.159296 0.41165 0.0870228 0.0477623 -0.363939 -0.0344693 -0.138023 0.0767613 0.22518 0.386995 -0.0849258 -0.0450228 0.0423765
10297 -0.0551186 0.218709 -0.749245 0.470625 -0.742255 0.505782 0.103816 0.654305 -0.6175 -0.0378826 -0.743134 -0.527544 0.832916 0.421398 0.50127 -1.26918 -0.386951 0.116054 0.235908 0.256496 0.158555 0.17555 -0.485677 0.928433
1379 -0.0778661 -0.207777 -0.205396 0.120033 -0.0881412 0.290338 0.385421 0.375142 -0.13195 -0.147807 -0.04528 -0.0498958 0.468053 0.0317843 0.00693222 -0.317038 0.0105106 -0.281397 0.140498 0.414101 0.504684 -0.0244312 0.0566947 0.105048
3386 -0.390519 -0.132148 -0.460841 0.0598551 -0.179483 0.584006 0.276955 0.513813 -0.223124 -0.227277 0.0528352 -0.208397 0.582481 0.120961 0.206068 -0.588143 -0.0814469 -0.515972 0.310446 0.444359 0.734199 -0.263435 0.124786 0.246214
3453 -0.332911 -0.139402 -0.429706 0.0851234 -0.174641 0.554486 0.308312 0.504241 -0.178317 -0.242855 0.0243481 -0.200421 0.580588 0.0911283 0.180972 -0.527844 -0.0550215 -0.472169 0.303417 0.430651 0.718644 -0.213683 0.101853 0.210144
2509 -0.252483 -0.0742408 -0.297028 0.0762468 -0.106746 0.371737 0.200826 0.326175 -0.110347 -0.144802 0.0100805 -0.126131 0.322044 0.0650925 0.134484 -0.342803 -0.0422586 -0.250315 0.176845 0.267014 0.435475 -0.142137 0.0415913 0.126943
2521 -0.458401 -0.194149 -0.545074 0.100331 -0.196447 0.714189 0.397695 0.637857 -0.269455 -0.262845 0.0518532 -0.237373 0.698035 0.124466 0.220563 -0.681157 -0.086872 -0.595968 0.36381 0.548308 0.883401 -0.309605 0.16391 0.288507
3868 -0.293157 -0.0865017 -0.345003 0.0710282 -0.113547 0.432885 0.208834 0.374624 -0.172761 -0.194254 0.0314652 -0.175806 0.422745 0.0879564 0.164909 -0.444103 -0.0521193 -0.360331 0.240651 0.331146 0.544575 -0.211211 0.105963 0.180238
1669 -0.195491 -0.1087 -0.228211 0.0497032 -0.0923293 0.362756 0.175562 0.31497 -0.154157 -0.167003 0.0514278 -0.121412 0.33012 0.0475453 0.124471 -0.382002 -0.0294063 -0.332301 0.236853 0.295458 0.466826 -0.17151 0.0788738 0.191538
1832 -0.395117 -0.138847 -0.451153 0.0777425 -0.194425 0.593487 0.30133 0.515784 -0.201946 -0.231323 0.00937007 -0.227458 0.581225 0.106793 0.214429 -0.569011 -0.0772433 -0.509336 0.341531 0.440692 0.717319 -0.272653 0.112452 0.255459
2108 -0.263866 -0.0963143 -0.303269 0.0645974 -0.100951 0.404972 0.210766 0.35281 -0.150224 -0.178582 0.0385775 -0.147453 0.409402 0.0731318 0.147504 -0.416936 -0.0605779 -0.358349 0.214713 0.299908 0.516912 -0.174233 0.10727 0.170764
5044 -0.239318 -0.102139 -0.28005 0.0582601 -0.102612 0.377522 0.191649 0.329992 -0.136088 -0.166704 0.0248435 -0.162655 0.393552 0.0749508 0.137061 -0.373882 -0.0643027 -0.32511 0.210752 0.329261 0.508376 -0.180509 0.07578 0.169831
9476 -0.402427 -0.136006 -0.466021 0.0683904 -0.177779 0.614308 0.293116 0.475825 -0.164905 -0.169833 0.0620324 -0.168881 0.486555 0.0926023 0.170298 -0.445683 -0.0501243 -0.40815 0.243139 0.382147 0.631138 -0.218852 0.113991 0.189084
9890 -0.44221 -0.143232 -0.561988 0.186985 -0.234625 0.654955 0.342754 0.47792 -0.154361 -0.138589 0.0148738 -0.176866 0.394203 0.101654 0.216678 -0.45047 -0.0761489 -0.264612 0.220392 0.383518 0.542072 -0.153259 0.0560109 0.227884
5274 -0.226726 -0.0659097 -0.274268 0.060793 -0.109745 0.347901 0.190877 0.307224 -0.138864 -0.157156 0.0188249 -0.122335 0.356039 0.0795817 0.124211 -0.365847 -0.0247199 -0.313296 0.21118 0.294554 0.464881 -0.173827 0.0706058 0.141875
7623 -0.318957 -0.138188 -0.352205 0.0816439 -0.117501 0.532892 0.301817 0.464806 -0.169838 -0.201511 0.0516647 -0.159462 0.54483 0.109064 0.154612 -0.501236 -0.0266755 -0.465735 0.314195 0.42695 0.705477 -0.251222 0.124468 0.2255
7915 -0.241798 -0.125796 -0.299192 0.0797495 -0.128465 0.379281 0.246216 0.373008 -0.128154 -0.157405 -0.0134818 -0.138374 0.451905 0.0618564 0.112956 -0.392468 -0.0489297 -0.341841 0.188399 0.333489 0.512275 -0.171554 0.0668512 0.162727
8438 -0.219058 -0.12628 -0.271329 0.0570423 -0.120691 0.393225 0.264583 0.379866 -0.139333 -0.163879 0.00551073 -0.133579 0.422716 0.082988 0.136152 -0.389615 -0.0558972 -0.350577 0.216818 0.339074 0.528656 -0.158247 0.0816041 0.166058
9248 -0.332388 -0.108672 -0.389993 0.0887389 -0.143476 0.493371 0.270348 0.422228 -0.17838 -0.187717 0.0103696 -0.148644 0.460211 0.088858 0.128055 -0.443785 -0.0430035 -0.407523 0.269454 0.351147 0.62282 -0.195816 0.0892341 0.194318
9357 -0.347718 -0.11303 -0.398478 0.0819454 -0.141284 0.49598 0.253053 0.436764 -0.16394 -0.185298 0.0414232 -0.147742 0.46716 0.0860513 0.159537 -0.476499 -0.0610439 -0.402157 0.25999 0.375765 0.597142 -0.225635 0.108809 0.202471
8848 -0.282962 -0.0521222 -0.299635 0.0505235 -0.126959 0.411742 0.196063 0.373425 -0.173153 -0.154683 0.0636639 -0.16444 0.399119 0.0764028 0.16242 -0.425502 -0.0679345 -0.375215 0.246722 0.31233 0.487954 -0.1945 0.0796005 0.169079
9576 -0.337717 -0.103235 -0.40022 0.0710654 -0.130138 0.523002 0.260697 0.417426 -0.168793 -0.218337 0.0559709 -0.167816 0.470601 0.0756296 0.188047 -0.460827 -0.0538524 -0.401622 0.253702 0.34449 0.617462 -0.224093 0.0932754 0.187762
9633 -0.337974 -0.114869 -0.438828 0.0812965 -0.143356 0.527607 0.246598 0.436366 -0.147581 -0.174049 0.0331554 -0.184742 0.436676 0.0706735 0.180514 -0.426489 -0.0809133 -0.360058 0.227924 0.314084 0.539495 -0.173959 0.0865519 0.179892
3346 -0.171443 -0.154953 -0.270105 0.0919414 -0.138839 0.370984 0.277077 0.350517 -0.153291 -0.150096 -0.0246579 -0.121024 0.418177 0.0689847 0.0956245 -0.352288 -0.0399786 -0.283142 0.158277 0.325182 0.469019 -0.0925219 0.0556509 0.105583
7305 -0.296234 -0.10437 -0.359361 0.083596 -0.121473 0.504809 0.26738 0.423125 -0.20423 -0.221675 0.0446735 -0.174629 0.556334 0.0995817 0.166442 -0.56451 -0.0753229 -0.461843 0.307453 0.430852 0.723427 -0.227404 0.137884 0.238849
8230 -0.347059 -0.0898377 -0.41289 0.0669499 -0.143967 0.510158 0.226283 0.440683 -0.170004 -0.224567 0.0454593 -0.189563 0.473475 0.0930729 0.204406 -0.500814 -0.0591107 -0.452478 0.313365 0.376556 0.608165 -0.226123 0.115064 0.224347
4045 -0.258372 -0.0823428 -0.318207 0.0487601 -0.132554 0.445321 0.171969 0.38114 -0.140832 -0.157356 0.0255745 -0.180225 0.412977 0.0818673 0.145469 -0.42507 -0.0677059 -0.37617 0.245485 0.294682 0.492928 -0.214387 0.0697342 0.177492
4390 -0.336823 -0.0977372 -0.404875 0.0523293 -0.146315 0.522821 0.21082 0.458698 -0.174246 -0.20395 0.0921835 -0.188659 0.477811 0.107586 0.221358 -0.527382 -0.0792062 -0.453119 0.295937 0.396032 0.643155 -0.234054 0.114475 0.251281
6959 -0.330907 -0.177305 -0.384628 0.0934858 -0.114791 0.572617 0.346541 0.534988 -0.24319 -0.28254 0.0878018 -0.22914 0.634241 0.0951857 0.206134 -0.623182 -0.077994 -0.572854 0.357227 0.55294 0.851574 -0.252477 0.151574 0.297352
2484 -0.202671 -0.0357297 -0.254419 0.0165874 -0.0999063 0.353257 0.169753 0.293027 -0.121925 -0.132471 0.0350763 -0.125876 0.307714 0.0763679 0.129551 -0.321337 -0.0429116 -0.271329 0.195293 0.240956 0.405609 -0.14874 0.0450548 0.121794
10110 -0.757882 0.235835 -1.01706 0.187854 -0.690932 1.01344 0.297329 0.766114 -0.181159 -0.209458 -0.494793 -0.535526 0.899155 0.247111 0.17253 -0.892307 -0.253367 -0.237598 0.041885 0.217137 0.622044 -0.354453 -0.267738 0.0705681
7329 -0.301055 -0.0864928 -0.344081 0.0516246 -0.140532 0.472292 0.221046 0.38629 -0.177817 -0.179655 0.0635504 -0.161196 0.423639 0.0794335 0.149286 -0.444259 -0.0370618 -0.388423 0.270943 0.358311 0.57762 -0.202986 0.0835656 0.204183
8367 -0.418387 -0.178437 -0.478589 0.128618 -0.17598 0.597432 0.330943 0.505433 -0.146574 -0.177118 0.0511174 -0.142222 0.462687 0.0939479 0.174578 -0.47228 -0.0252925 -0.397822 0.247439 0.442135 0.642326 -0.199421 0.104724 0.196549
9674 -0.294222 -0.186125 -0.431405 0.0555335 -0.105302 0.579266 0.330505 0.473885 -0.171542 -0.181557 0.0696516 -0.0805369 0.442879 -0.00125433 0.241623 -0.470403 -0.0661276 -0.47226 0.194469 0.418891 0.66282 -0.143089 0.139455 0.195839
835 -0.187306 -0.0837809 -0.246413 0.0621609 -0.078538 0.323101 0.188589 0.303635 -0.129018 -0.147468 0.0294058 -0.11368 0.367266 0.0704456 0.123006 -0.330986 -0.0411853 -0.304365 0.200905 0.299786 0.474762 -0.144159 0.0755606 0.170633
9526 -0.111147 -0.0566642 -0.236075 0.0324169 -0.0618267 0.333231 0.289169 0.53376 -0.188266 -0.184448 -0.00414765 -0.110716 0.560636 0.0959239 0.247223 -0.631984 0.0226156 -0.489936 0.198992 0.459202 0.767589 -0.167598 0.158327 0.230304
9735 -0.531756 -0.193196 -0.656667 0.167034 -0.221173 0.743457 0.382994 0.442298 -0.128923 -0.117144 0.0199438 -0.101991 0.385733 0.046374 0.140168 -0.335136 -0.0501617 -0.236774 0.141032 0.291208 0.491451 -0.124022 0.0689308 0.121295
5954 -0.182248 -0.106397 -0.223666 0.0396145 -0.103533 0.338854 0.194876 0.314609 -0.115246 -0.127051 0.00777107 -0.121002 0.342629 0.0479282 0.118082 -0.330867 -0.0366337 -0.298614 0.189107 0.271651 0.432779 -0.134374 0.0816627 0.137224
7373 -0.28745 -0.133191 -0.313975 0.0752698 -0.130434 0.500668 0.291016 0.469601 -0.227591 -0.231744 0.057142 -0.215552 0.581436 0.090536 0.190509 -0.59114 -0.0668176 -0.495949 0.352365 0.482945 0.751985 -0.25465 0.12602 0.285153
9046 -0.238238 -0.195013 -0.3226 0.125957 -0.1543 0.430615 0.329325 0.414463 -0.132481 -0.151624 -0.00981449 -0.113253 0.483571 0.0424912 0.108113 -0.409064 -0.0357642 -0.354983 0.221697 0.389518 0.551771 -0.120152 0.0723143 0.128009
7258 -0.3025 -0.0548053 -0.359065 0.0463546 -0.133321 0.413998 0.193442 0.315741 -0.130808 -0.134692 -0.0115925 -0.135247 0.343191 0.0815884 0.152555 -0.394126 -0.0559533 -0.311643 0.178955 0.243124 0.466519 -0.200194 0.0544833 0.132909
10143 -0.531532 0.190976 -0.780504 0.182283 -0.588056 0.865461 0.261642 0.67183 -0.174106 -0.164024 -0.438313 -0.484026 0.781988 0.263881 0.204937 -0.881496 -0.301971 -0.191251 0.0834857 0.192724 0.447113 -0.225404 -0.200892 0.121161
6250 -0.218718 -0.0858013 -0.280356 0.0735692 -0.106695 0.336719 0.237779 0.321107 -0.14753 -0.16152 0.00218511 -0.107476 0.391975 0.0436522 0.113705 -0.371149 -0.0407849 -0.29427 0.171772 0.284789 0.480689 -0.111143 0.0795151 0.159595
7805 -0.343903 -0.140058 -0.433285 0.075239 -0.152753 0.588503 0.308177 0.501256 -0.203669 -0.228963 0.045327 -0.189506 0.550278 0.0802727 0.198681 -0.563257 -0.0872789 -0.471352 0.284731 0.413828 0.663288 -0.24841 0.099622 0.218593
9481 -0.440662 -0.115993 -0.532723 0.0927175 -0.157375 0.687033 0.305897 0.472643 -0.157428 -0.165042 0.104066 -0.178776 0.41549 0.0831028 0.242352 -0.447588 -0.0646291 -0.388128 0.274467 0.330438 0.567849 -0.207508 0.106685 0.217808
8109 -0.202935 -0.111614 -0.243877 0.0748808 -0.0849257 0.32461 0.213195 0.320119 -0.127407 -0.15767 -0.0173347 -0.101879 0.363462 0.0580344 0.121988 -0.358045 -0.0460213 -0.299056 0.187657 0.282879 0.465912 -0.132094 0.0835168 0.127608
8387 -0.37091 -0.138822 -0.425733 0.1417 -0.201457 0.569053 0.347013 0.496468 -0.146108 -0.176188 -0.0228313 -0.143594 0.50896 0.0858492 0.129659 -0.475123 -0.0180196 -0.399191 0.225638 0.419272 0.681383 -0.177587 0.0967097 0.181263
9263 -0.420575 -0.143785 -0.471622 0.111756 -0.166906 0.622047 0.303638 0.49047 -0.169689 -0.172074 0.0239509 -0.168039 0.465407 0.079937 0.170438 -0.449988 -0.060059 -0.380524 0.257861 0.358259 0.601906 -0.187075 0.0995637 0.205352
8858 -0.260453 -0.139145 -0.355368 0.0919793 -0.158339 0.431926 0.273436 0.384752 -0.165115 -0.174088 -0.000221017 -0.131527 0.434035 0.0783515 0.0933953 -0.373661 -0.0478845 -0.280014 0.185603 0.317861 0.51374 -0.128608 0.0514455 0.155055
10145 -0.586513 -0.108872 -0.74092 0.181142 -0.257362 0.785024 0.266131 0.483546 -0.19282 -0.108791 0.0711292 -0.186536 0.243307 0.0799986 0.257225 -0.389375 -0.071002 -0.207296 0.219131 0.239432 0.409673 -0.185748 0.0154686 0.305059
928 -0.16639 -0.167468 -0.208168 0.100022 -0.0995437 0.292125 0.277819 0.326876 -0.139544 -0.14912 0.0143828 -0.102563 0.42145 0.0611363 0.0789187 -0.358622 -0.0162265 -0.28135 0.212434 0.329388 0.48051 -0.0805022 0.0924937 0.146188
6886 -0.327246 -0.144803 -0.375957 0.082745 -0.124499 0.511657 0.294167 0.450701 -0.188136 -0.220323 0.0603072 -0.205627 0.554211 0.0809851 0.166525 -0.565646 -0.0655341 -0.48673 0.325767 0.440953 0.722801 -0.22194 0.134707 0.249992
7482 -0.225119 -0.0800662 -0.252591 0.0344888 -0.112104 0.376808 0.16118 0.339694 -0.136141 -0.140587 0.0176879 -0.140106 0.368957 0.0832799 0.155604 -0.373353 -0.0658399 -0.319493 0.220472 0.299566 0.491748 -0.200171 0.0741842 0.150415
3571 -0.291675 -0.109895 -0.341615 0.0750587 -0.146851 0.45314 0.271382 0.386613 -0.156244 -0.188849 -0.0152933 -0.161398 0.471136 0.0837128 0.140941 -0.428155 -0.0626617 -0.352785 0.217212 0.340771 0.536814 -0.142911 0.0652153 0.158609
4652 -0.419451 -0.123021 -0.458065 0.0831343 -0.177689 0.630098 0.288317 0.546617 -0.24506 -0.272113 0.0782729 -0.225544 0.582429 0.107246 0.22746 -0.625194 -0.0778992 -0.550993 0.38461 0.46602 0.7992 -0.29224 0.154182 0.274214
5912 -0.304015 -0.126994 -0.335166 0.0786274 -0.117383 0.47377 0.241213 0.420225 -0.180779 -0.218071 0.0608297 -0.163159 0.492227 0.0662778 0.181104 -0.481118 -0.043439 -0.429254 0.26584 0.371011 0.613178 -0.217069 0.13207 0.226749
10027 -0.379964 -0.0605799 -0.443936 0.0542853 -0.187993 0.540126 0.132632 0.349423 -0.158982 -0.114844 0.0711042 -0.184649 0.299927 0.0984202 0.18395 -0.386563 -0.0706119 -0.27673 0.192873 0.203311 0.387839 -0.172475 0.0181394 0.227074
10310 -0.821163 0.0838966 -1.0605 0.555867 -0.442735 0.978878 0.250917 0.466438 -0.180086 0.0807443 -0.0362601 -0.413659 0.143556 0.0592393 0.561716 -0.820549 -0.284659 -0.10795 0.382583 0.161732 0.445315 -0.261486 -0.211426 0.929536
6528 -0.385483 0.129536 -0.358634 -0.0907232 -0.0608457 0.448884 -0.0719908 0.249086 -0.140203 -0.154587 0.163041 -0.236994 0.164392 0.127911 0.305727 -0.40692 -0.139832 -0.398359 0.270792 0.115837 0.398181 -0.369769 0.0918126 0.238548
0 1.56396 -0.8522 -0.737007 0.431795 -0.5515 0.438846 0.117546 1.618 -1.16807 -1.11253 -0.395671 -0.575093 1.40252 0.843678 1.40902 -2.25252 -0.528526 -0.597767 1.74104 0.383773 -0.905488 0.92136 -0.141623 1.21871
1739 -0.202166 -0.0969165 -0.212387 0.0482692 -0.0659601 0.32317 0.176271 0.288919 -0.12957 -0.175384 0.058578 -0.140446 0.346753 0.0531938 0.157406 -0.353052 -0.0516684 -0.315443 0.23626 0.298091 0.48882 -0.152377 0.10634 0.160112
2861 -0.464482 -0.143184 -0.543606 0.0776122 -0.197214 0.709219 0.364718 0.612388 -0.248705 -0.262735 0.0574023 -0.26311 0.649145 0.106123 0.232709 -0.650685 -0.0808709 -0.576516 0.377886 0.541366 0.867881 -0.308083 0.134457 0.280092
7192 -0.335752 -0.151489 -0.395784 0.105481 -0.163391 0.547937 0.279829 0.458643 -0.156976 -0.203553 0.0137555 -0.180056 0.523613 0.0820063 0.170376 -0.498303 -0.0474072 -0.432656 0.241422 0.420003 0.619276 -0.220112 0.113119 0.192901
9906 -0.474868 0.108898 -0.450164 -0.0665453 -0.109192 0.573579 -0.00844531 0.376634 -0.173214 -0.22842 0.177006 -0.272939 0.314472 0.171852 0.325873 -0.541066 -0.16069 -0.50445 0.364223 0.212969 0.559586 -0.406043 0.104641 0.27977
5102 -0.144806 -0.140851 -0.224264 0.0640334 -0.105895 0.318699 0.254712 0.323076 -0.11863 -0.154475 -0.000984181 -0.08417 0.38334 0.0538672 0.092762 -0.330097 -0.040072 -0.305817 0.202293 0.301005 0.466291 -0.123742 0.0620007 0.125923
8157 -0.104072 -0.264016 -0.110884 0.134049 -0.0496389 0.386389 0.514653 0.550873 -0.275845 -0.245851 0.144748 -0.0800165 0.68131 0.117152 0.159547 -0.600674 -0.0206878 -0.578152 0.327276 0.638765 0.88459 -0.129546 0.191157 0.332479
8330 -0.383576 -0.182253 -0.465608 0.110633 -0.214677 0.580196 0.336314 0.494714 -0.129264 -0.190921 -0.0296749 -0.129742 0.491848 0.079583 0.118033 -0.437513 -0.00336109 -0.369299 0.236323 0.417854 0.64258 -0.187939 0.130052 0.153552
4290 -0.190984 -0.108296 -0.231366 0.0612771 -0.0925062 0.319696 0.190198 0.285233 -0.137837 -0.158874 0.0151998 -0.128142 0.372323 0.0569263 0.103654 -0.350193 -0.0398282 -0.298774 0.201296 0.298323 0.44186 -0.15106 0.0625037 0.15466
4507 -0.366604 -0.100573 -0.46017 0.0514624 -0.195039 0.573949 0.256501 0.508268 -0.202949 -0.244301 0.0563586 -0.230575 0.578889 0.120152 0.192523 -0.580981 -0.0922506 -0.474409 0.303275 0.432042 0.693245 -0.265833 0.0979849 0.260572
5191 -0.263409 -0.169524 -0.330644 0.0872248 -0.145256 0.462751 0.33473 0.426673 -0.170805 -0.190835 0.0256441 -0.136016 0.501483 0.0602246 0.130475 -0.458224 -0.0510258 -0.380942 0.262 0.427407 0.624196 -0.154299 0.0858064 0.195111
467 -0.183333 -0.130751 -0.260809 0.09983 -0.130329 0.365687 0.244544 0.340231 -0.142436 -0.147645 -0.0325201 -0.115796 0.376792 0.0678215 0.0733544 -0.334317 -0.0126552 -0.270709 0.183578 0.294823 0.470944 -0.0946884 0.0454162 0.112908
1443 -0.473731 -0.170162 -0.541941 0.0965427 -0.200811 0.714823 0.361457 0.605926 -0.246184 -0.282407 0.0600402 -0.256872 0.636923 0.124244 0.235901 -0.654337 -0.0651532 -0.570519 0.388656 0.532544 0.841913 -0.310471 0.160746 0.276147
2759 -0.244446 -0.0787737 -0.27691 0.067144 -0.127595 0.409319 0.197722 0.340109 -0.132618 -0.154093 0.0307213 -0.121521 0.371114 0.0790936 0.158222 -0.417309 -0.0569812 -0.33289 0.231982 0.316116 0.495823 -0.176695 0.0933623 0.174343
382 -0.224675 -0.0469965 -0.254269 0.0513012 -0.106111 0.337068 0.169745 0.30684 -0.141122 -0.146684 0.0371108 -0.140762 0.320513 0.0804876 0.142196 -0.348427 -0.0407721 -0.289493 0.203728 0.268248 0.428244 -0.16615 0.0904322 0.150697
4669 -0.404369 -0.126282 -0.459836 0.061437 -0.172023 0.62242 0.301744 0.509616 -0.227716 -0.274602 0.0245276 -0.248484 0.617152 0.113886 0.204741 -0.610208 -0.0756454 -0.496545 0.323962 0.45366 0.782182 -0.280501 0.120233 0.2648
5172 -0.375495 -0.081072 -0.45538 0.0617441 -0.194225 0.549461 0.23406 0.450682 -0.189891 -0.186542 0.0130725 -0.207836 0.513069 0.107315 0.199835 -0.510619 -0.0681207 -0.42412 0.267919 0.3721 0.633564 -0.248538 0.0794379 0.188376
8337 -0.370654 0.103458 -0.34248 -0.0959445 -0.0767844 0.433757 -0.0975739 0.282406 -0.139138 -0.187224 0.186126 -0.228642 0.193165 0.131875 0.301601 -0.406168 -0.138153 -0.379352 0.290918 0.138919 0.386196 -0.369665 0.0981042 0.242048
1345 -0.220136 -0.0506769 -0.277041 0.0556886 -0.108436 0.338413 0.161613 0.29562 -0.148556 -0.154342 0.0511721 -0.125856 0.355121 0.0728063 0.116132 -0.373018 -0.042638 -0.292182 0.188325 0.283955 0.462062 -0.149813 0.0907116 0.14521
2089 -0.294129 -0.0530072 -0.348463 0.0214941 -0.104816 0.43644 0.184465 0.375012 -0.136806 -0.186029 0.0320695 -0.154941 0.38199 0.0696505 0.17052 -0.411009 -0.0489224 -0.354446 0.246438 0.31259 0.508957 -0.215654 0.107249 0.182091
9479 -0.38938 -0.147613 -0.44267 0.1259 -0.169824 0.590064 0.328416 0.485892 -0.182337 -0.200422 0.021701 -0.172575 0.482718 0.0665093 0.153064 -0.449808 -0.0546034 -0.399419 0.242544 0.368605 0.628584 -0.195676 0.103178 0.175029
5585 -0.225701 -0.0842427 -0.255209 0.0609223 -0.0969529 0.374699 0.195518 0.323294 -0.13251 -0.158337 0.053754 -0.144033 0.363656 0.079335 0.132552 -0.366751 -0.0408775 -0.363632 0.237261 0.330327 0.497609 -0.180883 0.0964574 0.19605
10022 -0.330238 -0.0899409 -0.40594 0.0772929 -0.164314 0.495508 0.233954 0.428891 -0.14963 -0.186558 0.012015 -0.197496 0.444301 0.0971525 0.192418 -0.489075 -0.076761 -0.384051 0.251052 0.348165 0.573697 -0.22697 0.0747372 0.221968
619 -0.146027 -0.163303 -0.23821 0.0838396 -0.0895316 0.330405 0.288467 0.35198 -0.135141 -0.139446 0.0240535 -0.0833686 0.397127 0.0489951 0.0768029 -0.342929 -0.0280758 -0.317902 0.191206 0.340068 0.513247 -0.0981412 0.0697628 0.133903
3082 -0.208154 -0.146808 -0.26936 0.0860474 -0.0975565 0.33236 0.234971 0.352123 -0.121188 -0.145158 0.0140894 -0.103786 0.416064 0.0498784 0.101249 -0.349481 -0.0387252 -0.311812 0.188682 0.330557 0.486003 -0.109599 0.0869658 0.123119
9344 -0.283397 -0.147151 -0.37499 0.114651 -0.139203 0.491574 0.292276 0.453182 -0.162035 -0.176184 0.0159206 -0.152774 0.481309 0.0903168 0.13403 -0.45209 -0.0675372 -0.356777 0.238142 0.372775 0.558337 -0.157869 0.0742962 0.182354
9608 -0.430437 -0.107158 -0.455031 0.0762525 -0.138244 0.592841 0.237725 0.443561 -0.182938 -0.208401 0.0524303 -0.175302 0.430569 0.0751788 0.173405 -0.472868 -0.0567239 -0.372616 0.270631 0.33384 0.560681 -0.2119 0.109577 0.190595
10227 -0.484298 -0.0437415 -0.569004 0.0851658 -0.184776 0.659012 0.140381 0.449733 -0.226662 -0.17736 0.0832398 -0.22023 0.337326 0.136212 0.288439 -0.524971 -0.102212 -0.373335 0.316861 0.224632 0.484599 -0.233761 0.0575508 0.298589
606 -0.182209 -0.120159 -0.250183 0.0886787 -0.0971968 0.327148 0.239944 0.329173 -0.14853 -0.160036 0.0117142 -0.108603 0.373186 0.0461699 0.114377 -0.353786 -0.0448804 -0.301258 0.18568 0.298062 0.470021 -0.122127 0.0755064 0.150776
4984 -0.328777 -0.17832 -0.373564 0.0691161 -0.12775 0.56935 0.305858 0.507768 -0.244253 -0.254241 0.0657117 -0.182051 0.56333 0.106485 0.204542 -0.564256 -0.0360053 -0.524491 0.347983 0.508366 0.790752 -0.225304 0.165375 0.267454
10302 -0.488018 0.123934 -0.51675 -0.0592407 -0.162913 0.566636 -0.0958715 0.3669 -0.1895 -0.203284 0.130651 -0.263409 0.225611 0.151967 0.328053 -0.484906 -0.156582 -0.3749 0.315227 0.122332 0.375288 -0.357987 0.0352361 0.296089
2962 -0.159434 -0.116693 -0.195841 0.0618673 -0.0948941 0.305392 0.209949 0.315642 -0.12732 -0.122466 -0.0279137 -0.117219 0.373444 0.0598745 0.0949566 -0.350165 -0.00712338 -0.272368 0.190474 0.295747 0.474354 -0.116605 0.0709088 0.144782
7895 -0.340713 -0.161202 -0.410756 0.087294 -0.175007 0.561406 0.305644 0.511637 -0.204422 -0.215847 0.0310225 -0.199809 0.544056 0.0996167 0.192352 -0.543358 -0.0520167 -0.451377 0.293719 0.448188 0.683497 -0.229117 0.117895 0.217832
10045 -0.485932 -0.196746 -0.64009 0.150648 -0.201099 0.767484 0.332233 0.518586 -0.30079 -0.158093 0.109026 -0.166323 0.34185 0.121537 0.31671 -0.499882 -0.11304 -0.240226 0.281288 0.316343 0.365866 -0.0677518 0.0325842 0.398372
5887 -0.212258 -0.0448126 -0.282222 0.049195 -0.112074 0.338131 0.177053 0.322345 -0.124022 -0.129827 0.0301284 -0.137163 0.338742 0.0792777 0.117095 -0.360711 -0.0377452 -0.325753 0.220605 0.28412 0.448242 -0.172746 0.0946346 0.151426
8775 -0.370548 -0.123499 -0.404957 0.0380081 -0.146951 0.563269 0.232877 0.498746 -0.203138 -0.223465 0.0726111 -0.231218 0.539652 0.121792 0.233692 -0.578553 -0.0833186 -0.510788 0.339193 0.411456 0.694471 -0.256987 0.124743 0.315053
10038 -0.4861 -0.0284007 -0.541918 0.0579334 -0.220517 0.605222 0.169501 0.456919 -0.167345 -0.189633 0.0537108 -0.210884 0.377658 0.124261 0.240148 -0.532657 -0.118922 -0.373359 0.269962 0.282743 0.52872 -0.243243 0.0534411 0.24978
3314 -0.257462 -0.0911155 -0.293338 0.0494873 -0.121688 0.406258 0.195259 0.335619 -0.165076 -0.159279 0.0641645 -0.133436 0.362359 0.0855128 0.144694 -0.398325 -0.0630695 -0.328859 0.250477 0.313882 0.508109 -0.201548 0.0991836 0.178737
5450 -0.385737 -0.0818625 -0.419209 0.0801801 -0.216872 0.586702 0.286737 0.510572 -0.236785 -0.262867 -0.0730104 -0.273155 0.709352 0.104415 0.157228 -0.661194 -0.0629809 -0.465591 0.291522 0.437858 0.789706 -0.268315 0.0792148 0.199837
6977 -0.299934 -0.18134 -0.365329 0.11292 -0.133796 0.497383 0.357489 0.469634 -0.175731 -0.226954 0.0276736 -0.171986 0.547569 0.0626336 0.164042 -0.499711 -0.04554 -0.43127 0.305417 0.454256 0.718447 -0.215156 0.108317 0.203255
857 -0.17986 -0.0930793 -0.201317 0.0323465 -0.0920571 0.341559 0.198435 0.27757 -0.148585 -0.171883 0.0687886 -0.122845 0.361858 0.0668211 0.134255 -0.333079 -0.0291691 -0.307387 0.215367 0.312563 0.47513 -0.165573 0.083016 0.181543
3008 -0.168086 -0.139715 -0.259527 0.107999 -0.14294 0.337716 0.286126 0.3387 -0.115959 -0.125134 -0.0392899 -0.121468 0.440671 0.0408619 0.0587829 -0.365682 -0.0293654 -0.265884 0.169328 0.344196 0.479795 -0.0839759 0.0443244 0.106686
6821 -0.223958 -0.11151 -0.288415 0.0944564 -0.116112 0.420403 0.267723 0.40319 -0.172702 -0.167106 -0.00622749 -0.147108 0.463883 0.090853 0.141023 -0.439908 -0.0534494 -0.354408 0.222357 0.345992 0.543146 -0.178261 0.0867657 0.187585
7720 -0.306622 -0.146752 -0.354651 0.0772308 -0.155624 0.51495 0.316584 0.462027 -0.186201 -0.189511 0.0466449 -0.168512 0.524652 0.072537 0.134713 -0.463491 -0.0240554 -0.444732 0.249787 0.414672 0.660173 -0.207185 0.119199 0.20364
8154 -0.293149 -0.103394 -0.358467 0.0426462 -0.125661 0.475258 0.239086 0.42174 -0.180565 -0.182868 0.046281 -0.190723 0.453626 0.0768332 0.184154 -0.467973 -0.0633968 -0.398644 0.253052 0.346118 0.594337 -0.239626 0.114837 0.195369
6615 -0.352017 -0.0607137 -0.412534 0.0803325 -0.19298 0.540352 0.21765 0.446604 -0.162657 -0.218465 0.0101009 -0.214869 0.497684 0.125417 0.16828 -0.535096 -0.0645662 -0.3958 0.277219 0.348599 0.627121 -0.23691 0.0659026 0.188276
6654 -0.274239 -0.109314 -0.351042 0.0718461 -0.149311 0.445563 0.249162 0.40888 -0.180839 -0.189481 0.0556623 -0.146885 0.44244 0.0800551 0.166582 -0.417281 -0.0613796 -0.382601 0.229962 0.342497 0.558377 -0.191253 0.0902859 0.196281
8135 -0.205662 -0.0620754 -0.215253 0.0163929 -0.0982857 0.32907 0.159196 0.27796 -0.0992026 -0.1324 0.0381631 -0.115737 0.322609 0.0463602 0.121965 -0.325655 -0.0472005 -0.311434 0.209875 0.272838 0.405208 -0.176606 0.0523859 0.150834
8406 -0.432176 -0.157223 -0.528777 0.124872 -0.242099 0.626143 0.33933 0.484057 -0.121999 -0.169973 -0.056171 -0.158615 0.509213 0.077763 0.124739 -0.455019 -0.0162022 -0.317027 0.178361 0.385838 0.579392 -0.187931 0.106896 0.113658
8886 -0.210183 -0.115272 -0.266896 0.0687235 -0.0920983 0.398453 0.237552 0.36933 -0.140079 -0.155577 0.0405697 -0.149464 0.406949 0.0841276 0.143691 -0.376588 -0.0480843 -0.362502 0.244797 0.311152 0.530789 -0.169658 0.0850813 0.18672
8967 -0.35945 -0.165375 -0.370456 0.0771787 -0.12999 0.539235 0.325813 0.464032 -0.1946 -0.192167 0.0786396 -0.123356 0.49278 0.073035 0.142756 -0.475551 -0.00964764 -0.445944 0.269647 0.421811 0.711896 -0.209274 0.134234 0.225346
9844 -0.245434 -0.137384 -0.409851 0.101183 -0.221287 0.546644 0.275991 0.528064 -0.23775 -0.157055 0.0359055 -0.189782 0.389464 0.102212 0.281883 -0.570784 -0.0868574 -0.319085 0.281052 0.373487 0.499994 -0.0603899 0.0598867 0.330144
3145 -0.226111 -0.0960683 -0.302394 0.0880341 -0.107104 0.373922 0.237754 0.373704 -0.125678 -0.148193 0.0339052 -0.140579 0.409082 0.0674127 0.130025 -0.368319 -0.0316591 -0.320063 0.224043 0.341799 0.519037 -0.168293 0.0748544 0.174267
3700 -0.361821 -0.116592 -0.391933 0.0628604 -0.137126 0.539631 0.239835 0.469105 -0.180042 -0.202443 0.0565024 -0.18959 0.482248 0.115764 0.193309 -0.518459 -0.088409 -0.445242 0.27982 0.371029 0.649048 -0.254538 0.099274 0.220778
6159 -0.353394 -0.0985528 -0.466369 0.102394 -0.206098 0.571904 0.273526 0.470814 -0.162101 -0.200984 -0.0255221 -0.193424 0.524993 0.0839659 0.154993 -0.509082 -0.0584439 -0.368386 0.229018 0.381965 0.576133 -0.191866 0.070231 0.154793
1793 -0.276541 -0.0613787 -0.296525 0.0610174 -0.129381 0.40646 0.206913 0.368632 -0.162805 -0.161155 0.0454344 -0.152605 0.400759 0.0959735 0.162093 -0.413846 -0.0390237 -0.367404 0.245274 0.315595 0.524201 -0.213552 0.108571 0.184225
5705 -0.273766 -0.182597 -0.302918 0.0772886 -0.0921101 0.489416 0.303449 0.436973 -0.236835 -0.239627 0.0468048 -0.188957 0.57638 0.108972 0.212733 -0.576312 -0.0474594 -0.561311 0.37782 0.529623 0.826633 -0.266295 0.159896 0.29824
7625 -0.345561 -0.127391 -0.422435 0.093101 -0.156775 0.559442 0.280014 0.493893 -0.188905 -0.215307 0.0294846 -0.195132 0.515169 0.123546 0.192128 -0.524744 -0.0592813 -0.470783 0.299103 0.41268 0.659651 -0.256825 0.0965711 0.244902
8625 -0.254996 -0.0874985 -0.276412 0.0622432 -0.0999648 0.373491 0.200597 0.325668 -0.134628 -0.163065 0.00515917 -0.154635 0.374119 0.0914758 0.144992 -0.385877 -0.0507564 -0.320342 0.218131 0.28054 0.494821 -0.175629 0.0759077 0.151295
9423 -0.409004 -0.0851009 -0.505114 0.0802197 -0.165124 0.617448 0.20818 0.442165 -0.217088 -0.227611 0.135376 -0.228936 0.455855 0.0945629 0.284718 -0.535733 -0.0697975 -0.474292 0.361842 0.371461 0.61387 -0.249887 0.127055 0.276958
9690 -0.467977 0.0956587 -0.483482 -0.0889296 -0.148649 0.601526 -0.0103063 0.419636 -0.16885 -0.212783 0.173044 -0.295504 0.34022 0.185886 0.317713 -0.539301 -0.152854 -0.501741 0.372656 0.236589 0.537772 -0.400256 0.138791 0.312195
5316 -0.316129 -0.0907134 -0.365878 0.0660098 -0.143113 0.439451 0.203903 0.352083 -0.172182 -0.170932 0.06003 -0.148439 0.388125 0.0940805 0.179443 -0.432202 -0.0701122 -0.362415 0.254205 0.295534 0.501841 -0.183232 0.0924464 0.177702
8770 -0.308041 -0.100385 -0.387551 0.0804826 -0.151295 0.495743 0.258329 0.442346 -0.176489 -0.171694 0.0125025 -0.150329 0.464738 0.0758798 0.165901 -0.48107 -0.0716947 -0.408841 0.246117 0.362277 0.599599 -0.217207 0.103253 0.207406
5048 -0.256524 -0.155983 -0.354632 0.0816807 -0.139725 0.469145 0.294917 0.400328 -0.191438 -0.211873 0.0235519 -0.142867 0.490479 0.0984921 0.14431 -0.46841 -0.0495087 -0.404929 0.280599 0.401438 0.61495 -0.196519 0.129736 0.195239
5520 -0.251784 -0.118384 -0.283778 0.0459926 -0.0996491 0.409858 0.215335 0.343935 -0.159375 -0.182329 0.0410828 -0.127883 0.388555 0.053855 0.134222 -0.403088 -0.0499839 -0.371248 0.219622 0.355425 0.523671 -0.183556 0.0856864 0.176865
7132 -0.373862 -0.140544 -0.41895 0.0852286 -0.163835 0.55743 0.269065 0.483667 -0.186728 -0.201257 0.0477243 -0.215059 0.504541 0.104173 0.215863 -0.542337 -0.0540649 -0.454911 0.287411 0.429678 0.684383 -0.243676 0.123927 0.239145
9777 -0.384577 -0.110804 -0.429838 0.0774169 -0.171976 0.545899 0.257447 0.432844 -0.151307 -0.198471 0.0491129 -0.165853 0.422658 0.0917483 0.171663 -0.459238 -0.0866177 -0.404638 0.275982 0.342944 0.601433 -0.214677 0.0928663 0.213303
10137 -0.525361 -0.175267 -0.644745 0.190556 -0.264285 0.789124 0.403778 0.546979 -0.171694 -0.123025 0.0583366 -0.171422 0.422181 0.126216 0.180847 -0.449897 -0.0680308 -0.202498 0.19222 0.294709 0.496424 -0.122795 0.0281892 0.230415
10146 -0.479322 0.189531 -0.705595 0.180999 -0.558817 0.728237 0.224255 0.642569 -0.0782903 -0.215193 -0.501871 -0.494876 0.85384 0.293713 0.2333 -0.911967 -0.277193 -0.186034 0.0646764 0.21374 0.473574 -0.282458 -0.247815 0.0155072
2800 -0.289235 -0.104568 -0.346242 0.0659153 -0.149669 0.487599 0.223954 0.384038 -0.171324 -0.196453 0.0308992 -0.15682 0.445074 0.0639019 0.139065 -0.469597 -0.068658 -0.357416 0.260505 0.33922 0.586915 -0.190331 0.107272 0.197352
4056 -0.283871 -0.0965471 -0.380486 0.108818 -0.176393 0.470417 0.257444 0.415768 -0.150311 -0.18521 -0.0258833 -0.171329 0.473333 0.0932943 0.106424 -0.45173 -0.0469915 -0.347625 0.216227 0.372046 0.577061 -0.162471 0.0632614 0.176812
4256 -0.377691 -0.172254 -0.448717 0.11769 -0.181521 0.590196 0.352402 0.508523 -0.199598 -0.212832 0.0183357 -0.193028 0.564871 0.0844974 0.191221 -0.560291 -0.0377958 -0.484869 0.289212 0.47188 0.75229 -0.244084 0.143775 0.250097
10112 -0.277675 -0.066019 -0.356665 0.0623373 -0.128409 0.425834 0.148076 0.311098 -0.141629 -0.136464 0.045286 -0.137211 0.264242 0.0664245 0.166381 -0.330961 -0.0553697 -0.229209 0.211231 0.200981 0.346635 -0.140443 0.0498774 0.203019
10293 -0.355867 0.0159087 -0.448639 -0.0149819 -0.12064 0.539859 0.0513714 0.41971 -0.161798 -0.222123 0.0922616 -0.229107 0.359962 0.159837 0.281366 -0.539668 -0.122356 -0.437787 0.321126 0.228381 0.474924 -0.30386 0.104682 0.242723
10311 -0.47857 0.0797946 -0.428463 -0.0671663 -0.122648 0.605244 -0.00529216 0.368332 -0.176042 -0.2059 0.168766 -0.277083 0.325165 0.136259 0.374198 -0.555672 -0.179555 -0.500464 0.369816 0.25507 0.535185 -0.385747 0.10273 0.342059
3300 -0.171074 -0.142739 -0.242313 0.0822875 -0.107036 0.352659 0.259651 0.314491 -0.150558 -0.141215 0.0148245 -0.129172 0.429758 0.064321 0.0857987 -0.355798 -0.0130889 -0.293538 0.187349 0.328605 0.486194 -0.120371 0.064493 0.165771
3607 -0.368529 -0.105158 -0.429126 0.0719182 -0.151108 0.598968 0.254975 0.505345 -0.19718 -0.255868 0.0503897 -0.228984 0.561663 0.126599 0.208421 -0.556626 -0.0687786 -0.52825 0.354761 0.439887 0.70515 -0.267781 0.152442 0.243193
3733 -0.252534 -0.0870421 -0.300561 0.0356527 -0.0971028 0.369778 0.198574 0.324698 -0.119313 -0.130364 0.0197295 -0.123814 0.372132 0.0624971 0.11807 -0.366356 -0.0568951 -0.319696 0.198892 0.298973 0.465287 -0.158948 0.0877825 0.147011
5023 -0.230844 -0.109309 -0.311415 0.0675608 -0.137517 0.436964 0.234222 0.383374 -0.175304 -0.198443 0.0400824 -0.141263 0.453133 0.0648058 0.133781 -0.440647 -0.0583044 -0.400471 0.235289 0.383823 0.578875 -0.168759 0.103155 0.172022
8310 -0.331119 -0.160119 -0.388524 0.125733 -0.144602 0.557347 0.323967 0.461764 -0.168804 -0.193808 0.0667655 -0.151123 0.52851 0.073051 0.157542 -0.481636 -0.0477343 -0.455717 0.261997 0.428187 0.70461 -0.199334 0.108633 0.190693
8888 -0.390285 -0.130108 -0.459221 0.0888021 -0.148215 0.579179 0.326301 0.4861 -0.189027 -0.193795 0.0115571 -0.153783 0.504151 0.104932 0.145624 -0.474299 -0.0350156 -0.430328 0.253107 0.415433 0.648589 -0.240303 0.097396 0.207198
7116 -0.295841 -0.102568 -0.31646 0.0429645 -0.13575 0.46719 0.230234 0.392979 -0.12965 -0.170958 0.0354013 -0.171495 0.440924 0.0672341 0.143212 -0.449237 -0.0507844 -0.376702 0.235544 0.335659 0.53024 -0.200572 0.0851807 0.169405
8695 -0.475781 0.0809903 -0.426547 -0.0979492 -0.129072 0.5546 -0.0133013 0.33156 -0.142657 -0.188751 0.17591 -0.236237 0.246517 0.132802 0.324113 -0.506728 -0.133674 -0.486851 0.318613 0.194608 0.512666 -0.393242 0.117759 0.274313
3047 -0.188689 -0.0905687 -0.257876 0.0467927 -0.081304 0.334513 0.195996 0.292946 -0.142247 -0.143437 0.0114105 -0.143927 0.351886 0.0460058 0.117106 -0.363815 -0.023996 -0.290574 0.200557 0.310746 0.467416 -0.161923 0.0582067 0.156779
6881 -0.338009 -0.105582 -0.424737 0.091734 -0.17596 0.552965 0.28684 0.480232 -0.163977 -0.205415 0.0378234 -0.176162 0.537287 0.121767 0.188416 -0.518889 -0.0685448 -0.451878 0.30104 0.408155 0.666832 -0.247312 0.095436 0.219048
8099 -0.378645 -0.0924501 -0.408717 0.0688414 -0.172313 0.589865 0.239517 0.461471 -0.198759 -0.197678 0.0433428 -0.200444 0.491368 0.100924 0.20056 -0.536646 -0.064464 -0.433981 0.2978 0.385204 0.637626 -0.254796 0.112976 0.227494
5610 -0.252624 -0.135812 -0.320997 0.0816563 -0.106626 0.420709 0.269426 0.372964 -0.16102 -0.142987 -0.000350642 -0.123906 0.412178 0.0729702 0.128868 -0.3764 -0.0304951 -0.303703 0.21951 0.355391 0.534532 -0.138742 0.0593007 0.153173
5883 -0.298614 -0.0613675 -0.332535 0.0282685 -0.119815 0.467223 0.193897 0.413002 -0.18369 -0.200166 0.0527523 -0.187348 0.431676 0.113326 0.165126 -0.475508 -0.0830951 -0.421965 0.27353 0.340448 0.570986 -0.247349 0.0893809 0.219601
7324 -0.427666 -0.0914517 -0.484674 0.0633746 -0.172234 0.625398 0.280531 0.515924 -0.182649 -0.218553 0.051218 -0.205989 0.541836 0.118352 0.222269 -0.560328 -0.0635014 -0.494068 0.303493 0.434664 0.710495 -0.286193 0.138146 0.258916
1467 -0.21704 -0.130458 -0.246351 0.100544 -0.122359 0.355835 0.245749 0.355083 -0.113837 -0.160561 0.00465488 -0.0946575 0.423757 0.0531654 0.0879092 -0.37386 -0.00571494 -0.285224 0.180605 0.316547 0.487034 -0.111514 0.0941717 0.124445
5924 -0.322022 -0.169106 -0.390332 0.0793321 -0.14067 0.520508 0.292025 0.47032 -0.168186 -0.226359 0.0393477 -0.183241 0.512592 0.0928083 0.145756 -0.502674 -0.0554973 -0.438748 0.284783 0.417272 0.675592 -0.188345 0.100783 0.197448
8115 -0.329656 -0.0594638 -0.420116 0.0727803 -0.173272 0.523926 0.242332 0.393713 -0.111506 -0.154399 -0.0287274 -0.16458 0.439644 0.101146 0.120005 -0.428268 -0.0679212 -0.320853 0.177796 0.285222 0.498513 -0.188368 0.0302104 0.14016
874 -0.185494 -0.0715291 -0.196561 0.016054 -0.0836352 0.293412 0.165343 0.288379 -0.13096 -0.158807 0.0525744 -0.122469 0.33943 0.0729977 0.130264 -0.371172 -0.0576438 -0.32712 0.236128 0.301957 0.485384 -0.187462 0.117157 0.171758
5221 -0.384462 -0.0834146 -0.434675 0.0576527 -0.156202 0.561855 0.232378 0.478347 -0.189375 -0.20207 0.0444656 -0.20043 0.505683 0.0920342 0.217696 -0.530091 -0.0734268 -0.446923 0.301437 0.393103 0.644907 -0.223454 0.122913 0.222181
8284 -0.288719 -0.0957271 -0.369262 0.0354286 -0.143047 0.478096 0.236754 0.390453 -0.15219 -0.162961 0.0388771 -0.162339 0.414634 0.0980011 0.1657 -0.432632 -0.0444147 -0.402344 0.263417 0.326875 0.543292 -0.206794 0.0980701 0.176291
8730 -0.333476 -0.0660245 -0.422098 0.00201397 -0.124282 0.532254 0.167245 0.446497 -0.192486 -0.232099 0.0807194 -0.237552 0.412801 0.127052 0.249139 -0.530541 -0.0879483 -0.467176 0.306686 0.35666 0.604827 -0.257578 0.108902 0.24384
9458 -0.3249 -0.116262 -0.383665 0.0765411 -0.163727 0.507666 0.280032 0.433829 -0.15723 -0.170209 0.00324498 -0.142511 0.458635 0.0671207 0.158326 -0.419024 -0.0363781 -0.376596 0.225336 0.353401 0.583272 -0.20104 0.076713 0.165031
2856 -0.222877 -0.0915984 -0.262504 0.0316658 -0.0795836 0.370119 0.180551 0.308762 -0.115694 -0.163693 0.0383603 -0.121094 0.342878 0.0644916 0.125127 -0.364665 -0.048249 -0.326724 0.216816 0.304525 0.498208 -0.180774 0.112519 0.164487
3419 -0.287619 -0.123335 -0.332522 0.0905998 -0.122819 0.437126 0.26383 0.408524 -0.166315 -0.169536 -0.00198798 -0.121378 0.46067 0.059094 0.13175 -0.424709 -0.0378915 -0.326626 0.231927 0.363796 0.549715 -0.180451 0.102385 0.189447
5163 -0.32761 -0.156596 -0.419533 0.106038 -0.151396 0.530309 0.315015 0.484683 -0.198663 -0.20132 0.0167965 -0.18586 0.556171 0.103078 0.169884 -0.523529 -0.0693909 -0.427962 0.299612 0.445941 0.707852 -0.200153 0.135898 0.212669
4307 -0.245032 -0.0687999 -0.256783 0.0295643 -0.110175 0.361707 0.181905 0.300848 -0.116877 -0.15792 0.0259079 -0.140322 0.364887 0.0609211 0.160371 -0.366993 -0.0458081 -0.337209 0.242004 0.290612 0.476208 -0.168152 0.0784352 0.190632
7124 -0.276463 -0.123306 -0.364272 0.0998721 -0.143385 0.45874 0.266092 0.401378 -0.14452 -0.174094 0.0108712 -0.149216 0.473494 0.062703 0.156675 -0.427966 -0.063558 -0.35408 0.252694 0.354647 0.560648 -0.154307 0.0695784 0.188032
6254 -0.266975 -0.105394 -0.336319 0.043424 -0.113337 0.452652 0.219015 0.369286 -0.156789 -0.151107 0.0184408 -0.150898 0.419946 0.0782665 0.160942 -0.393095 -0.0684427 -0.332219 0.229919 0.351021 0.523568 -0.180617 0.103501 0.166312
7806 -0.23659 -0.090906 -0.299873 0.0562212 -0.1581 0.477424 0.276524 0.495178 -0.265222 -0.284063 0.0534419 -0.240704 0.603221 0.117186 0.271186 -0.678038 -0.0743663 -0.518063 0.364502 0.465235 0.749134 -0.241359 0.126473 0.331867
9238 -0.31411 -0.105761 -0.359818 0.0490845 -0.147423 0.463855 0.245637 0.390265 -0.14739 -0.184013 0.052846 -0.178576 0.419978 0.088181 0.164001 -0.443622 -0.044925 -0.372302 0.266435 0.341862 0.569203 -0.211881 0.0998728 0.189187
8614 -0.219941 -0.118646 -0.297013 0.0859428 -0.117841 0.358413 0.231732 0.317345 -0.121038 -0.154585 0.0379625 -0.127526 0.380469 0.0644075 0.113438 -0.328073 -0.0329613 -0.304728 0.193417 0.321571 0.446917 -0.134338 0.0789853 0.126664
9049 -0.322746 -0.138454 -0.386882 0.106558 -0.159836 0.497176 0.274561 0.392149 -0.157185 -0.134667 0.0315242 -0.115241 0.392856 0.0626443 0.124538 -0.380449 -0.0413608 -0.324155 0.197648 0.307509 0.492748 -0.147707 0.0791519 0.155489
9997 -0.0859097 0.257376 -0.50314 0.0533572 -0.436056 0.375884 0.262925 0.557589 -0.305515 -0.226167 -0.461548 -0.414668 0.758924 0.204697 0.260131 -1.01769 -0.26087 -0.191815 0.0455288 0.334217 0.524398 -0.105152 -0.219575 0.305231
412 -0.151839 -0.112671 -0.223875 0.0614747 -0.0820916 0.305429 0.220925 0.301769 -0.117089 -0.131437 0.0257532 -0.123323 0.365617 0.0476313 0.0894401 -0.330545 -0.0214369 -0.293562 0.209749 0.276235 0.45218 -0.116013 0.0902469 0.138896
3056 -0.384228 -0.160528 -0.446771 0.102456 -0.145005 0.594826 0.277006 0.510971 -0.182915 -0.22863 0.0682901 -0.20125 0.560387 0.0996029 0.212344 -0.562299 -0.0581299 -0.496878 0.320408 0.44355 0.734746 -0.259098 0.148657 0.260178
4287 -0.289442 -0.15047 -0.348091 0.0714475 -0.117601 0.466564 0.277096 0.426469 -0.19584 -0.197966 0.0310018 -0.160553 0.483869 0.103414 0.151551 -0.471324 -0.0638462 -0.393244 0.285274 0.377226 0.619594 -0.173061 0.110364 0.228485
8605 -0.400745 -0.113916 -0.464671 0.0648569 -0.196132 0.580079 0.258348 0.466449 -0.171498 -0.186749 -0.00550628 -0.190032 0.474427 0.0968099 0.149374 -0.506649 -0.0787175 -0.402866 0.242345 0.358313 0.611622 -0.236212 0.0664515 0.168514
1706 -0.276557 -0.0601484 -0.300473 0.0355941 -0.0974939 0.417672 0.175839 0.350128 -0.152679 -0.156755 0.0505113 -0.171373 0.337314 0.0894421 0.154231 -0.367147 -0.0724876 -0.317758 0.213702 0.260295 0.477834 -0.18873 0.0860539 0.152422
2622 -0.376748 -0.113501 -0.474902 0.0558713 -0.167364 0.629512 0.290327 0.534597 -0.213691 -0.234608 0.0450411 -0.229111 0.574671 0.126474 0.220596 -0.583316 -0.0987296 -0.519789 0.34863 0.451957 0.729797 -0.284937 0.128138 0.272191
9198 -0.364723 -0.0649241 -0.429567 0.0690451 -0.157919 0.560997 0.201839 0.41839 -0.163033 -0.184085 0.0622162 -0.19659 0.429788 0.0897968 0.189442 -0.464746 -0.0639923 -0.390089 0.279091 0.330959 0.560748 -0.244822 0.0827419 0.208184
2680 -0.253438 -0.0506843 -0.270451 0.023194 -0.100827 0.361014 0.161503 0.312928 -0.146778 -0.168952 0.0478682 -0.148433 0.374819 0.0738231 0.140807 -0.391318 -0.0427348 -0.345651 0.218507 0.289419 0.488971 -0.202502 0.0977999 0.200045
4803 -0.308139 -0.124741 -0.376038 0.0793929 -0.127014 0.482405 0.2672 0.411317 -0.163888 -0.21636 0.0282543 -0.186201 0.472239 0.0858635 0.153755 -0.479219 -0.0354439 -0.433408 0.272281 0.397637 0.636991 -0.217279 0.102211 0.188431
4807 -0.271311 -0.141065 -0.307103 0.07129 -0.140485 0.461432 0.296081 0.408851 -0.168769 -0.18863 0.0287119 -0.12831 0.480624 0.0610657 0.146211 -0.444461 -0.0361672 -0.370127 0.236887 0.382871 0.605211 -0.168356 0.120002 0.20051
6541 -0.172299 -0.120789 -0.232342 0.0595847 -0.0894627 0.312554 0.206245 0.323847 -0.124948 -0.141667 0.0135986 -0.127162 0.395038 0.0759688 0.110551 -0.336578 -0.00782202 -0.324579 0.177704 0.33434 0.479772 -0.140972 0.0772164 0.153514
9188 -0.132226 -0.129115 -0.232031 0.0633286 -0.115487 0.349896 0.323767 0.467782 -0.246059 -0.217036 0.0601067 -0.212737 0.573031 0.0811412 0.257563 -0.672949 -0.0443544 -0.54138 0.308353 0.510036 0.747134 -0.203301 0.116588 0.334494
1598 -0.240446 -0.0874036 -0.279538 0.0311761 -0.0917924 0.369749 0.173401 0.325669 -0.151462 -0.13313 0.0391162 -0.11425 0.342907 0.0642545 0.135121 -0.36547 -0.039569 -0.313716 0.234027 0.284954 0.49313 -0.177412 0.0879946 0.189776
3526 -0.449855 -0.133735 -0.514811 0.0860026 -0.167747 0.665202 0.273749 0.557502 -0.213819 -0.261851 0.0703761 -0.224172 0.565484 0.120467 0.247621 -0.622917 -0.0924202 -0.523792 0.374149 0.456611 0.79496 -0.302458 0.120193 0.269686
6175 -0.338089 -0.171975 -0.433385 0.0670222 -0.144812 0.573897 0.312942 0.482537 -0.194335 -0.228722 0.0557122 -0.172692 0.571592 0.0954649 0.184567 -0.513174 -0.0493052 -0.463313 0.314777 0.477247 0.728394 -0.251059 0.130357 0.254658
4347 -0.221661 -0.0721411 -0.23568 0.0333692 -0.107576 0.358239 0.176052 0.306222 -0.11222 -0.122692 0.0449321 -0.130635 0.327576 0.0786882 0.140988 -0.350085 -0.0455513 -0.313433 0.183338 0.265145 0.453194 -0.146832 0.0735108 0.151355
6807 -0.321542 -0.138325 -0.369802 0.0754738 -0.142115 0.515089 0.246957 0.402398 -0.184074 -0.176896 0.0484825 -0.17238 0.454862 0.100395 0.163141 -0.459656 -0.0694839 -0.387106 0.287164 0.367014 0.602205 -0.197232 0.10891 0.216151
7426 -0.306074 -0.207109 -0.400663 0.112278 -0.137404 0.502132 0.369316 0.481155 -0.175122 -0.186844 -0.0106624 -0.141276 0.551607 0.0739671 0.0923803 -0.448467 -0.0283354 -0.391017 0.226075 0.451704 0.652362 -0.119754 0.0927657 0.194731
4866 -0.232977 -0.0624765 -0.244266 0.0455615 -0.0833355 0.356098 0.15481 0.281577 -0.13797 -0.141377 0.0419239 -0.156902 0.328038 0.0779764 0.159009 -0.341942 -0.0647932 -0.322347 0.217307 0.243503 0.432728 -0.193851 0.0895281 0.170384
5959 -0.336442 -0.112116 -0.380543 0.0660817 -0.158797 0.534095 0.243865 0.455634 -0.172742 -0.213314 0.0462065 -0.201208 0.530059 0.0795883 0.187457 -0.546809 -0.0516078 -0.482915 0.318514 0.417287 0.691947 -0.249857 0.127322 0.231802
6113 -0.322944 -0.0855097 -0.370307 0.0391005 -0.141427 0.495299 0.237786 0.39397 -0.172152 -0.198407 0.0556299 -0.187252 0.466217 0.0878533 0.191602 -0.477644 -0.058965 -0.392285 0.256563 0.354404 0.605399 -0.221843 0.119185 0.218232
3472 -0.262394 -0.0332786 -0.2716 0.0268097 -0.0951357 0.342854 0.124244 0.298219 -0.144708 -0.146235 0.0407041 -0.144614 0.311121 0.0835845 0.16408 -0.368349 -0.0444102 -0.311167 0.196002 0.261852 0.442492 -0.213604 0.0815112 0.163835
6566 -0.391941 -0.138212 -0.448775 0.0932903 -0.135219 0.586633 0.3513 0.517788 -0.196205 -0.228458 0.0460901 -0.198532 0.561829 0.0942525 0.199649 -0.567765 -0.0732702 -0.497968 0.326763 0.496744 0.756664 -0.246667 0.152999 0.236599
6856 -0.266449 -0.13118 -0.360732 0.105868 -0.130886 0.472526 0.265038 0.420594 -0.155531 -0.184359 0.0260089 -0.160809 0.491136 0.0644843 0.148592 -0.430905 -0.0362767 -0.365784 0.229359 0.369553 0.583696 -0.154941 0.0877191 0.188561
5862 -0.247448 -0.101888 -0.283774 0.0742152 -0.0905984 0.428963 0.224296 0.386892 -0.136788 -0.174573 0.0452722 -0.15522 0.41114 0.0911507 0.166389 -0.399093 -0.0541129 -0.348558 0.261052 0.337785 0.549976 -0.184725 0.0929472 0.171535
8245 -0.33851 -0.138019 -0.401885 0.0502362 -0.160765 0.499428 0.240443 0.44157 -0.18983 -0.216754 0.0352128 -0.160192 0.499012 0.106208 0.167528 -0.500954 -0.0508186 -0.449027 0.269659 0.414743 0.655203 -0.230753 0.105542 0.20401
8476 -0.274052 -0.210472 -0.332255 0.0850955 -0.127862 0.469962 0.328164 0.479155 -0.169368 -0.188602 0.00358018 -0.113318 0.536882 0.0770355 0.142746 -0.514113 0.0192456 -0.4288 0.27991 0.512822 0.708392 -0.20056 0.154814 0.206839
8751 -0.392561 -0.0967374 -0.461177 0.0621366 -0.140117 0.557701 0.210742 0.429252 -0.198291 -0.214714 0.0902116 -0.226223 0.439554 0.110435 0.226783 -0.506016 -0.0895911 -0.425825 0.305234 0.355431 0.617779 -0.243942 0.0877599 0.227685
9345 -0.412291 -0.139114 -0.484181 0.103161 -0.221594 0.619358 0.298906 0.501196 -0.156808 -0.197967 -0.0147638 -0.167989 0.496962 0.109922 0.135376 -0.483462 -0.051485 -0.383421 0.254952 0.360374 0.611941 -0.22804 0.073074 0.185818
3807 -0.247294 -0.118488 -0.272413 0.0553724 -0.113965 0.367927 0.210514 0.31471 -0.153845 -0.175405 0.031371 -0.12834 0.380687 0.0621248 0.156865 -0.368873 -0.0256568 -0.321779 0.224927 0.316047 0.477037 -0.150738 0.0964605 0.168013
8911 -0.287948 -0.443358 -0.909778 0.158849 0.00170173 0.927889 0.32128 0.432153 -0.110623 -0.099905 0.21752 -0.110312 0.37899 -0.00372446 0.296302 -0.41885 -0.00674675 -0.552471 0.135265 0.50129 0.578816 -0.0781937 0.158095 0.108291
10044 -0.513829 -0.164444 -0.610745 0.106457 -0.223644 0.73429 0.338451 0.539158 -0.150672 -0.133343 0.0112336 -0.157529 0.413822 0.0543551 0.200345 -0.445861 -0.0642786 -0.31208 0.180441 0.36862 0.582352 -0.198539 0.0596214 0.168903
4755 -0.21788 -0.139782 -0.257943 0.0640019 -0.0977601 0.363738 0.238224 0.36311 -0.148553 -0.14722 0.0253354 -0.112339 0.426353 0.0519846 0.103559 -0.390439 -0.0137125 -0.317524 0.203361 0.338936 0.494344 -0.143973 0.0773932 0.178055
5747 -0.358778 -0.131255 -0.401536 0.0783369 -0.136322 0.562777 0.290832 0.479538 -0.175247 -0.227707 0.0387061 -0.179336 0.52662 0.0800461 0.169881 -0.511833 -0.0399369 -0.465251 0.293287 0.423269 0.698461 -0.256149 0.138352 0.239381
6317 -0.306818 -0.158362 -0.372358 0.0829003 -0.123121 0.488648 0.296229 0.444508 -0.207776 -0.24595 0.0371865 -0.203636 0.537058 0.0756651 0.193754 -0.538796 -0.031314 -0.501889 0.309349 0.458691 0.744537 -0.215228 0.155642 0.234835
6386 -0.326059 -0.0942481 -0.394714 0.100799 -0.200802 0.560359 0.284223 0.486879 -0.161859 -0.213255 -0.035584 -0.210457 0.56251 0.117288 0.149645 -0.546289 -0.0698028 -0.447323 0.242509 0.422345 0.667052 -0.240179 0.068282 0.199001
6689 -0.29323 -0.103471 -0.383064 0.0683508 -0.117082 0.49523 0.259938 0.424502 -0.213311 -0.238284 0.0604031 -0.187599 0.512802 0.0793592 0.173844 -0.541191 -0.0562219 -0.466847 0.294174 0.441514 0.700476 -0.235437 0.11771 0.220115
6878 -0.25405 -0.0674911 -0.299455 0.0275081 -0.13181 0.431132 0.178364 0.348743 -0.158107 -0.17235 0.0590691 -0.148018 0.422397 0.0885435 0.170258 -0.416677 -0.0761319 -0.390433 0.234641 0.324976 0.561392 -0.212674 0.117505 0.178583
1592 -0.226968 -0.0681922 -0.296554 0.0570526 -0.128348 0.39034 0.162058 0.32858 -0.109971 -0.132764 0.0253967 -0.127083 0.334695 0.0683931 0.133538 -0.341904 -0.0422534 -0.284192 0.186135 0.278319 0.439308 -0.173085 0.0821595 0.161464
7899 -0.31312 -0.0621943 -0.371401 0.0690835 -0.143048 0.486173 0.225941 0.386707 -0.158167 -0.185628 0.00904861 -0.158888 0.448082 0.0846034 0.169163 -0.453224 -0.0545194 -0.38388 0.237943 0.334878 0.542489 -0.195121 0.100135 0.185411
6268 -0.27093 -0.0716844 -0.277056 0.0361398 -0.120328 0.419854 0.195712 0.345546 -0.136393 -0.185374 0.0457443 -0.148542 0.417798 0.0744552 0.150293 -0.420625 -0.06328 -0.362073 0.231244 0.313723 0.497066 -0.179669 0.0886493 0.171957
9800 -0.426995 -0.135554 -0.480034 0.1041 -0.170933 0.595377 0.271431 0.442343 -0.153352 -0.184845 0.0369804 -0.166884 0.42442 0.0617816 0.144369 -0.429057 -0.0579394 -0.361672 0.232468 0.352103 0.562117 -0.18637 0.0888897 0.174637
9815 -0.419269 -0.0837199 -0.478876 0.0722557 -0.178639 0.577727 0.239639 0.45542 -0.186999 -0.199952 0.0747579 -0.189073 0.443877 0.0892021 0.223885 -0.504938 -0.062241 -0.392155 0.281881 0.333748 0.578362 -0.246714 0.0996879 0.241859
9889 -0.671083 -0.129834 -0.724993 0.120538 -0.251679 0.879114 0.260898 0.491952 -0.168207 -0.0861469 0.132486 -0.19634 0.299447 0.127501 0.272498 -0.415623 -0.154979 -0.283852 0.215978 0.256991 0.520284 -0.205124 0.0715233 0.257056
10271 -0.332793 -0.2726 -0.66084 0.160541 -0.401554 0.625046 0.301328 0.612238 -0.350309 -0.328373 -0.0436903 -0.197377 0.313794 0.0407288 0.424285 -0.816807 -0.282856 -0.173259 0.489873 0.383624 0.0672191 0.270459 -0.0717936 0.560425
2431 -0.17309 -0.102217 -0.223291 0.0517917 -0.0952158 0.332119 0.229024 0.318277 -0.112488 -0.128886 0.0175562 -0.126443 0.376194 0.0398021 0.105014 -0.350433 -0.00796024 -0.272314 0.189853 0.328833 0.46686 -0.136879 0.0896159 0.144599
5686 -0.335534 -0.13491 -0.392893 0.0629565 -0.141668 0.565747 0.271137 0.477287 -0.21503 -0.254873 0.0612655 -0.202497 0.531893 0.117623 0.211261 -0.570673 -0.0498305 -0.478551 0.322724 0.438175 0.715484 -0.267677 0.147228 0.244943
7989 -0.202457 -0.14432 -0.241608 0.0637903 -0.107273 0.430872 0.322501 0.446465 -0.228758 -0.226029 0.0844044 -0.16184 0.576783 0.0748825 0.204826 -0.563892 -0.0604759 -0.51735 0.337132 0.506958 0.744226 -0.214069 0.164478 0.271703
10086 -0.296771 -0.0559853 -0.347099 0.0391131 -0.148065 0.474608 0.1811 0.382516 -0.16193 -0.176501 0.0528912 -0.159795 0.381351 0.0784767 0.171018 -0.448596 -0.0801697 -0.340265 0.229376 0.294265 0.505523 -0.183998 0.0881016 0.194429
10109 -0.496047 -0.148425 -0.602962 0.128743 -0.216592 0.698857 0.28961 0.456711 -0.199471 -0.177974 0.0600569 -0.144257 0.356828 0.114153 0.19084 -0.442965 -0.0914663 -0.275597 0.221685 0.309221 0.463217 -0.110425 0.0620813 0.272839
10272 -0.832068 -0.0908671 -0.841613 0.146024 -0.413676 0.937095 0.184327 0.496141 -0.169289 -0.0520556 0.0260898 -0.264374 0.233929 0.169253 0.360544 -0.555581 -0.254544 -0.149312 0.16447 0.178582 0.382711 -0.113163 -0.0396064 0.416917
9823 -0.375764 -0.109136 -0.473458 0.0607951 -0.171791 0.565379 0.20694 0.428702 -0.192008 -0.198811 0.0752711 -0.193783 0.417523 0.0804663 0.21753 -0.490438 -0.0613455 -0.36417 0.281237 0.33816 0.526615 -0.224649 0.100163 0.219847
10171 -0.488844 -0.0425879 -0.544523 0.0338024 -0.210152 0.637133 0.182637 0.459924 -0.177564 -0.167304 0.0984571 -0.202245 0.382257 0.105877 0.227684 -0.501467 -0.104253 -0.395744 0.293161 0.293495 0.586095 -0.295383 0.108322 0.26499
10269 -0.315776 -0.274556 -0.578563 0.215269 -0.355924 0.561204 0.187883 0.503392 -0.500748 -0.163365 -0.0545406 -0.235063 0.359289 0.29919 0.466064 -0.69513 -0.200738 -0.115081 0.423478 0.3757 0.220821 0.235964 0.00778094 0.777682
6376 -0.297608 -0.107717 -0.364155 0.0715208 -0.120688 0.480633 0.238085 0.394039 -0.15943 -0.175258 0.0607555 -0.163976 0.420207 0.0815063 0.147975 -0.454078 -0.0428139 -0.372199 0.24677 0.350112 0.576336 -0.208872 0.112838 0.21081
6860 -0.337656 -0.173328 -0.383706 0.0897211 -0.15937 0.568169 0.301069 0.485015 -0.20418 -0.188274 0.0492246 -0.181789 0.525742 0.104775 0.17798 -0.527659 -0.0487043 -0.442075 0.267787 0.40451 0.667319 -0.213796 0.128049 0.20981
7457 -0.327087 -0.145153 -0.380488 0.103589 -0.149179 0.522335 0.259947 0.451399 -0.152644 -0.173891 0.0228464 -0.15689 0.485142 0.0819943 0.148349 -0.468189 -0.0495554 -0.396423 0.270353 0.366296 0.615111 -0.207868 0.08601 0.213122
6738 -0.276517 -0.118593 -0.28702 0.0646077 -0.108867 0.414677 0.257124 0.375555 -0.151079 -0.182719 0.0492257 -0.153019 0.453874 0.0877801 0.16401 -0.42463 -0.0575293 -0.368 0.247639 0.349376 0.540551 -0.181144 0.0940062 0.17594
7533 -0.35186 -0.11917 -0.413216 0.0647278 -0.170322 0.554267 0.286292 0.475856 -0.213632 -0.232693 0.0367751 -0.206988 0.561126 0.0967583 0.198192 -0.520637 -0.0542361 -0.470738 0.31942 0.424833 0.711354 -0.224728 0.147985 0.239881
9981 -0.323832 -0.101273 -0.380961 0.0289134 -0.124214 0.515158 0.194522 0.402919 -0.143183 -0.177586 0.0443832 -0.170117 0.398352 0.0880192 0.171684 -0.450186 -0.0681864 -0.374893 0.276145 0.302614 0.54714 -0.226619 0.0966137 0.221568
8480 -0.277298 -0.0766731 -0.345761 0.0632027 -0.129974 0.464067 0.207506 0.382361 -0.13067 -0.169283 0.0562005 -0.142112 0.392193 0.0827837 0.153826 -0.388979 -0.0638676 -0.360471 0.245992 0.310871 0.502384 -0.199445 0.0928167 0.173813
9723 -0.434309 -0.14907 -0.5107 0.106419 -0.156034 0.60736 0.254327 0.439785 -0.178579 -0.180194 0.0733027 -0.177078 0.4399 0.0702853 0.155264 -0.439256 -0.0574855 -0.380449 0.224288 0.362621 0.582837 -0.202294 0.0794985 0.212043
6309 -0.253463 -0.0787803 -0.340883 0.0563217 -0.138116 0.415048 0.242919 0.363231 -0.149997 -0.155834 -0.00238565 -0.145589 0.412372 0.0622127 0.127666 -0.382523 -0.0582614 -0.307811 0.195963 0.300304 0.522151 -0.169347 0.0670965 0.167031
8270 -0.260413 -0.270753 -0.217524 0.307048 -0.28489 0.599609 0.648592 0.648959 -0.284757 -0.0899824 0.153102 0.0229002 0.460394 0.196834 -0.0745122 -0.396528 0.0687955 -0.421363 0.249212 0.54951 0.674441 -0.16287 0.032422 0.194715
8579 -0.480973 -0.13511 -0.569524 0.142646 -0.286136 0.663448 0.333905 0.536397 -0.107951 -0.169739 -0.058458 -0.160849 0.502057 0.113331 0.142886 -0.467442 -0.0274715 -0.337279 0.164411 0.388738 0.596363 -0.229004 0.092599 0.128623
664 -0.216469 -0.0779559 -0.255799 0.0653797 -0.089648 0.367968 0.179793 0.322453 -0.109023 -0.137785 0.00754862 -0.129831 0.351877 0.0680501 0.135297 -0.363917 -0.020934 -0.282942 0.199335 0.28032 0.442211 -0.125959 0.0899317 0.158172
6105 -0.360485 -0.130405 -0.403232 0.0708698 -0.158065 0.531101 0.284208 0.466468 -0.186403 -0.208023 0.0437263 -0.186793 0.482848 0.0842551 0.161966 -0.494002 -0.0711466 -0.424758 0.285689 0.389615 0.624956 -0.235029 0.0985454 0.202964
573 -0.145437 -0.140438 -0.202275 0.0628612 -0.0513861 0.282397 0.235837 0.330253 -0.156846 -0.163614 0.0326744 -0.105267 0.379521 0.0422219 0.0988122 -0.35316 -0.0279055 -0.343629 0.205303 0.337289 0.498699 -0.134082 0.098189 0.160176
1932 -0.475683 -0.102478 -0.577196 0.0898207 -0.223714 0.759358 0.289098 0.602931 -0.251188 -0.257499 0.0567447 -0.273017 0.617477 0.154982 0.260085 -0.662338 -0.117607 -0.550893 0.376029 0.473408 0.764141 -0.32338 0.135441 0.290785
9394 -0.406454 0.0992805 -0.385923 -0.097855 -0.0748822 0.476781 -0.100345 0.26984 -0.113958 -0.187052 0.183214 -0.24591 0.158426 0.140736 0.303936 -0.411206 -0.141802 -0.414076 0.299757 0.131823 0.393977 -0.380152 0.116022 0.261305
6523 -0.269754 -0.0676177 -0.319565 0.063876 -0.10666 0.406367 0.168176 0.353402 -0.134851 -0.158575 0.040929 -0.151575 0.377062 0.0613475 0.156693 -0.3794 -0.0373839 -0.326341 0.221205 0.277066 0.476487 -0.179065 0.0967071 0.185869
9601 -0.397837 -0.139396 -0.412885 0.0911095 -0.134154 0.528644 0.27541 0.435602 -0.150815 -0.209406 0.038595 -0.183608 0.484128 0.105439 0.144864 -0.450143 -0.0616013 -0.379208 0.267919 0.339029 0.583171 -0.210967 0.110853 0.20094
7866 -0.290575 -0.0944409 -0.319505 0.0325629 -0.109708 0.400682 0.198567 0.337292 -0.129575 -0.162329 0.0497417 -0.134104 0.382603 0.0937023 0.13268 -0.378352 -0.0667263 -0.355943 0.213989 0.288127 0.487004 -0.169339 0.0967411 0.167694
8433 -0.37051 -0.10034 -0.416211 0.0570175 -0.138532 0.518675 0.232462 0.449905 -0.168701 -0.22 0.0571935 -0.191525 0.463051 0.0779421 0.205979 -0.50092 -0.0817819 -0.447466 0.305501 0.364308 0.614068 -0.232023 0.129543 0.208657
9658 -0.21262 -0.0369914 -0.256057 0.0258577 -0.093043 0.331272 0.136117 0.279331 -0.104024 -0.127593 0.0363066 -0.12436 0.315564 0.083822 0.144994 -0.34476 -0.0318042 -0.259948 0.198951 0.24643 0.418746 -0.163515 0.0552694 0.134464
9749 -0.379725 -0.149814 -0.470551 0.105902 -0.159183 0.603931 0.282163 0.45218 -0.149181 -0.161107 0.0546064 -0.179332 0.444387 0.0688946 0.187179 -0.441251 -0.0464086 -0.369141 0.244861 0.357711 0.573598 -0.167858 0.0952477 0.191336
3240 -0.314165 -0.116139 -0.383861 0.0733972 -0.15552 0.527518 0.274654 0.46481 -0.217753 -0.236499 0.0262017 -0.197057 0.517627 0.0914251 0.200365 -0.527683 -0.067546 -0.450197 0.304733 0.438856 0.678818 -0.214177 0.120571 0.259468
8859 -0.148648 -0.149169 -0.222667 0.0687156 -0.10171 0.430922 0.305227 0.510981 -0.264118 -0.229724 0.0336859 -0.175648 0.523873 0.109837 0.307896 -0.645382 -0.0538647 -0.49947 0.35822 0.529272 0.725067 -0.131376 0.129863 0.368185
9975 -0.291026 -0.0607131 -0.304233 0.0635395 -0.11544 0.415109 0.178906 0.330039 -0.130035 -0.145578 0.0155606 -0.159095 0.358843 0.0619318 0.126696 -0.393408 -0.0736733 -0.319529 0.186788 0.257421 0.434451 -0.19128 0.0451354 0.181261
967 -0.240839 -0.070133 -0.290284 0.04393 -0.109469 0.370915 0.216229 0.329106 -0.150731 -0.14497 0.0340562 -0.136144 0.375415 0.0747553 0.119551 -0.338202 -0.0430657 -0.306329 0.173077 0.278032 0.451175 -0.126669 0.0735202 0.160592
4167 -0.15221 -0.107045 -0.201817 0.0540089 -0.0710158 0.31718 0.226017 0.308246 -0.145549 -0.168014 0.0359769 -0.0854203 0.358309 0.0680723 0.114668 -0.357017 -0.0290873 -0.300926 0.19035 0.331665 0.458041 -0.104175 0.106647 0.168403
5386 -0.372018 -0.172178 -0.439572 0.107685 -0.146889 0.577741 0.326133 0.499135 -0.216622 -0.213183 0.0619232 -0.188671 0.567491 0.0841632 0.193774 -0.543635 -0.0436417 -0.460423 0.327499 0.472355 0.703382 -0.202147 0.106788 0.252448
4573 -0.384182 -0.090665 -0.430356 0.059447 -0.161258 0.551978 0.243013 0.457382 -0.188515 -0.232614 0.074811 -0.177927 0.466746 0.0967457 0.192723 -0.531928 -0.088226 -0.445938 0.319399 0.381214 0.657927 -0.233268 0.100036 0.226391
4839 -0.298446 -0.16711 -0.30522 0.0833625 -0.112289 0.493914 0.351682 0.532103 -0.248474 -0.282867 0.0876514 -0.2037 0.693847 0.117025 0.183772 -0.649397 -0.0482545 -0.598796 0.414361 0.602627 0.914172 -0.289578 0.156866 0.296061
5750 -0.269674 -0.114848 -0.307524 0.0672494 -0.115045 0.436905 0.245859 0.388874 -0.13431 -0.185435 0.0412726 -0.132452 0.447636 0.0736013 0.152647 -0.450821 -0.0337348 -0.382032 0.229967 0.336699 0.562473 -0.167027 0.110805 0.162349
8521 -0.21719 -0.0965023 -0.274994 0.0889767 -0.121107 0.373238 0.242791 0.35443 -0.132739 -0.15259 0.0138963 -0.148341 0.416279 0.0845873 0.118727 -0.388084 -0.0254589 -0.360588 0.231178 0.343194 0.536158 -0.130161 0.0845353 0.157631
10225 -0.355486 -0.089623 -0.529531 0.102905 -0.444799 0.515854 0.100362 0.544303 -0.638387 -0.0838935 -0.248907 -0.196957 0.494256 0.18707 0.289259 -0.728492 -0.154573 -0.18137 0.459845 0.275424 0.242825 0.0908621 -0.205417 0.779063
10247 -0.717293 -0.0914786 -0.803173 0.212383 -0.239526 0.883313 0.255195 0.445744 -0.107498 -0.0785929 0.0832543 -0.243524 0.283027 0.0289243 0.30941 -0.453638 -0.14136 -0.268166 0.243453 0.208961 0.44431 -0.237726 -0.0323474 0.372489
421 -0.232875 -0.0796155 -0.276542 0.0593119 -0.110176 0.380164 0.153779 0.305421 -0.127951 -0.170387 0.0498329 -0.115902 0.359558 0.0703537 0.152298 -0.352963 -0.0482829 -0.327512 0.220726 0.270206 0.440098 -0.154569 0.0847431 0.17477
5587 -0.26821 -0.101659 -0.310349 0.0298193 -0.112994 0.416085 0.221999 0.35464 -0.150483 -0.155908 0.0381411 -0.162968 0.396559 0.0805669 0.145428 -0.404858 -0.0467562 -0.368782 0.257016 0.329498 0.554124 -0.2032 0.115088 0.211816
5886 -0.389094 -0.120785 -0.444728 0.0475261 -0.170489 0.616256 0.280357 0.478601 -0.186139 -0.252721 0.0553 -0.207056 0.549148 0.094073 0.210247 -0.558041 -0.0731269 -0.491005 0.332825 0.440384 0.687399 -0.255381 0.110285 0.27184
759 -0.181048 -0.118623 -0.236143 0.0743009 -0.101495 0.31558 0.224907 0.330583 -0.122683 -0.130523 -0.0231056 -0.0955132 0.378872 0.0392362 0.0894608 -0.349835 -0.0201167 -0.276594 0.150357 0.286334 0.433684 -0.0953386 0.0758906 0.136486
2146 -0.153681 -0.192325 -0.260992 0.133068 -0.11911 0.349325 0.310723 0.390522 -0.146044 -0.153842 -0.0731865 -0.0885757 0.466994 0.0171352 0.0516114 -0.349273 -0.00629832 -0.288587 0.15385 0.377372 0.477292 -0.0485523 0.0564105 0.131634
5062 -0.317586 -0.0656289 -0.362992 0.0479071 -0.155109 0.448756 0.218168 0.370587 -0.151571 -0.145153 -0.0233291 -0.154957 0.404986 0.0735089 0.145782 -0.414312 -0.065069 -0.302458 0.19647 0.25823 0.462981 -0.206469 0.0308468 0.150379
809 -0.172347 -0.11763 -0.206885 0.0409505 -0.0732456 0.293794 0.19745 0.263125 -0.134261 -0.120614 0.0414788 -0.108758 0.331123 0.0720363 0.123947 -0.332041 -0.0402779 -0.311496 0.217156 0.281963 0.448703 -0.145613 0.101051 0.157399
5304 -0.290161 -0.112177 -0.312396 0.0723867 -0.11413 0.45111 0.269805 0.417436 -0.178781 -0.197825 0.054169 -0.172514 0.476432 0.0963729 0.167035 -0.470649 -0.0507641 -0.412091 0.263983 0.357466 0.601558 -0.178662 0.109563 0.216139
8360 -0.396088 -0.0899026 -0.421393 0.0410494 -0.150117 0.554146 0.206924 0.435113 -0.159525 -0.174386 0.0961941 -0.182908 0.422131 0.0853108 0.209085 -0.44491 -0.0714718 -0.429447 0.284547 0.327122 0.611142 -0.237445 0.0848878 0.201771
8349 -0.379381 -0.133494 -0.42091 0.0944771 -0.144163 0.554991 0.266459 0.436885 -0.175405 -0.176212 0.062223 -0.157735 0.469279 0.107748 0.16438 -0.475743 -0.0711523 -0.392462 0.238731 0.355997 0.598789 -0.208022 0.12111 0.20432
10200 -0.422752 0.00908669 -0.487788 -0.00140401 -0.136543 0.586306 0.1112 0.408067 -0.145349 -0.22053 0.113909 -0.24805 0.35898 0.113996 0.24425 -0.518074 -0.118091 -0.433309 0.313282 0.267323 0.524851 -0.318958 0.0759599 0.244061
3184 -0.163415 -0.114945 -0.211864 0.0543902 -0.103957 0.29256 0.256535 0.332389 -0.14133 -0.137209 -0.0107554 -0.125485 0.381239 0.0452249 0.103595 -0.351865 -0.0181638 -0.278665 0.203334 0.339498 0.456449 -0.117984 0.0952352 0.125314
3561 -0.411583 -0.14413 -0.503216 0.0719794 -0.184603 0.687597 0.326165 0.593536 -0.229687 -0.299567 0.0729186 -0.254628 0.662207 0.125064 0.250842 -0.647513 -0.0674206 -0.577898 0.391204 0.541206 0.871586 -0.313876 0.172665 0.299782
5370 -0.320839 -0.10152 -0.374735 0.051981 -0.1208 0.476317 0.242734 0.40961 -0.153597 -0.198749 0.0333458 -0.180105 0.434412 0.0827063 0.161796 -0.451023 -0.0409758 -0.403279 0.272048 0.342299 0.58829 -0.204778 0.0797018 0.187575
1487 -0.27155 -0.0765241 -0.314612 0.0752182 -0.102468 0.425976 0.216376 0.355895 -0.13803 -0.162739 0.029347 -0.127589 0.386778 0.0789794 0.121066 -0.397479 -0.0381682 -0.334349 0.223656 0.311101 0.497615 -0.17844 0.0998359 0.150628
5505 -0.293476 -0.117618 -0.36178 0.0872919 -0.119185 0.476164 0.240373 0.409781 -0.150818 -0.19428 0.010256 -0.152695 0.426547 0.0895832 0.147308 -0.444234 -0.038193 -0.362822 0.257177 0.374319 0.581558 -0.165788 0.0982376 0.204614
6721 -0.245643 -0.0952534 -0.306555 0.0455689 -0.135552 0.421777 0.225705 0.381783 -0.154276 -0.161365 0.0256922 -0.133031 0.454112 0.0749321 0.124041 -0.427734 -0.0365698 -0.354656 0.221195 0.343937 0.520866 -0.191004 0.101788 0.148965
8768 -0.460632 -0.176126 -0.519039 0.0984232 -0.239625 0.636939 0.297195 0.505627 -0.140646 -0.196419 -0.025984 -0.146141 0.495214 0.104622 0.115113 -0.462114 -0.00276153 -0.390021 0.207612 0.418436 0.666103 -0.227124 0.115356 0.1494
8809 -0.318858 -0.0804142 -0.337833 0.0315906 -0.123848 0.484057 0.187507 0.360522 -0.162043 -0.15459 0.0602786 -0.163481 0.386212 0.0869178 0.182698 -0.428082 -0.0906675 -0.342498 0.250791 0.265134 0.47822 -0.219436 0.0946197 0.207588
3979 -0.237219 -0.083797 -0.287393 0.0384421 -0.129599 0.391399 0.206835 0.340578 -0.127358 -0.176952 0.0341568 -0.139712 0.400398 0.0830475 0.122844 -0.379101 -0.0532535 -0.323691 0.211943 0.311606 0.522656 -0.165048 0.0840631 0.164855
4313 -0.304294 -0.0665852 -0.385841 0.0533738 -0.154887 0.492911 0.246361 0.429688 -0.186953 -0.192913 0.0360249 -0.18367 0.487753 0.101601 0.195564 -0.508058 -0.0680113 -0.401816 0.267527 0.380561 0.599246 -0.240876 0.116391 0.197166
4805 -0.415112 -0.130973 -0.4824 0.0849696 -0.170418 0.65672 0.299574 0.524479 -0.239579 -0.265585 0.0373626 -0.216525 0.602637 0.139017 0.236318 -0.607208 -0.06286 -0.526186 0.348277 0.477126 0.815989 -0.299152 0.121857 0.276507
4242 -0.208092 -0.0925352 -0.243723 0.0623566 -0.0715317 0.321599 0.182816 0.292182 -0.12556 -0.118329 0.0251647 -0.111693 0.337398 0.0456157 0.135331 -0.335771 -0.0267112 -0.30644 0.19912 0.295622 0.43092 -0.160408 0.0777572 0.14159
8513 -0.391741 -0.118316 -0.446294 0.0860153 -0.169267 0.581232 0.277396 0.483629 -0.182613 -0.215147 0.0410475 -0.165078 0.48629 0.0772458 0.169446 -0.483462 -0.0590268 -0.412796 0.271615 0.384138 0.632925 -0.21107 0.102397 0.219708
8622 -0.34791 -0.133688 -0.431205 0.0541449 -0.115647 0.566203 0.232398 0.440486 -0.171178 -0.213096 0.0973538 -0.167832 0.455844 0.0973594 0.1934 -0.458609 -0.0492251 -0.444129 0.292203 0.358128 0.611532 -0.228312 0.110202 0.227949
8907 -0.408997 0.12893 -0.401976 -0.0850544 -0.0848336 0.500547 -0.126076 0.288795 -0.149943 -0.164419 0.159635 -0.247928 0.191046 0.152645 0.304541 -0.431894 -0.169869 -0.426613 0.294705 0.12493 0.415616 -0.364156 0.095037 0.249902
859 -0.259887 -0.0742357 -0.287723 0.0373521 -0.0994998 0.375591 0.180544 0.327382 -0.130242 -0.159965 0.0337677 -0.122553 0.363821 0.0625501 0.131445 -0.367396 -0.0493413 -0.328568 0.218271 0.289593 0.459447 -0.178105 0.0954936 0.184563
8423 -0.410155 -0.152102 -0.486118 0.135384 -0.195855 0.584475 0.321038 0.451907 -0.136423 -0.158772 0.0167408 -0.163458 0.479945 0.0707928 0.155715 -0.440237 -0.0223302 -0.375072 0.214732 0.402782 0.612811 -0.205803 0.107678 0.133514
8460 -0.34398 -0.11717 -0.445817 0.121984 -0.189573 0.553608 0.315401 0.471317 -0.136647 -0.185791 -0.0329541 -0.169025 0.531905 0.0948423 0.138332 -0.455483 -0.0500897 -0.385958 0.235643 0.380997 0.590906 -0.185142 0.0654424 0.137874
10031 -0.453068 0.0830081 -0.437409 -0.0739254 -0.13235 0.571644 -0.0259793 0.358017 -0.159364 -0.229045 0.175928 -0.269659 0.318372 0.158329 0.288119 -0.51292 -0.140595 -0.484685 0.323413 0.220751 0.519618 -0.373374 0.103993 0.274582
3681 -0.312164 -0.0970664 -0.366359 0.0464461 -0.137387 0.487784 0.243519 0.430547 -0.178824 -0.217176 0.0498539 -0.172148 0.504017 0.101942 0.174059 -0.489214 -0.0824362 -0.41476 0.294415 0.373702 0.640048 -0.232477 0.100865 0.203743
6842 -0.235233 -0.072089 -0.304396 0.0669969 -0.123047 0.393658 0.206021 0.334456 -0.137978 -0.170264 0.00244258 -0.162821 0.371045 0.0846899 0.127046 -0.367257 -0.0662729 -0.299392 0.20516 0.272677 0.473511 -0.165292 0.0869374 0.149433
9465 -0.260628 -0.292636 -0.314312 0.142483 -0.0782736 0.51182 0.469404 0.410922 -0.175113 -0.122958 0.06772 -0.0582254 0.521061 -0.00244752 0.107109 -0.390517 0.0164552 -0.403443 0.214331 0.465285 0.75602 -0.102294 0.171698 0.190817
9517 -0.434679 -0.145336 -0.447669 0.100329 -0.149894 0.623457 0.315854 0.47048 -0.143477 -0.173686 0.0701038 -0.148379 0.461971 0.0821493 0.170923 -0.480054 -0.062401 -0.407516 0.267779 0.375292 0.636575 -0.217119 0.114719 0.217286
9706 -0.440424 -0.116491 -0.480948 0.0590102 -0.173633 0.555619 0.193771 0.429723 -0.168777 -0.185393 0.0897272 -0.203855 0.391652 0.0913859 0.219292 -0.457469 -0.0627784 -0.408774 0.257686 0.291075 0.544894 -0.255886 0.0992063 0.212338
9518 -0.349821 -0.123296 -0.42337 0.088701 -0.163162 0.524491 0.28958 0.449562 -0.177244 -0.20695 0.0556051 -0.162477 0.462125 0.087095 0.197269 -0.492599 -0.0514778 -0.419457 0.267733 0.376033 0.587808 -0.220131 0.0767808 0.199728
9895 -0.456917 -0.0526718 -0.449467 0.0271961 -0.166805 0.573776 0.161576 0.416495 -0.173109 -0.194767 0.0904166 -0.213876 0.351992 0.131629 0.248846 -0.472785 -0.118611 -0.409276 0.292426 0.306145 0.587458 -0.300826 0.124658 0.236379
10162 -0.401089 -0.101862 -0.438717 0.0657208 -0.199775 0.565555 0.233405 0.436795 -0.16606 -0.185319 0.0175202 -0.16224 0.427882 0.0956892 0.186476 -0.485733 -0.0962053 -0.374889 0.234002 0.333716 0.579828 -0.212045 0.0857436 0.19019
3358 -0.265962 -0.0529305 -0.315398 0.081138 -0.173892 0.382058 0.21121 0.325128 -0.116547 -0.0937667 -0.069515 -0.128069 0.34581 0.0476747 0.0645931 -0.321426 -0.0592742 -0.202757 0.125423 0.224946 0.360597 -0.120918 -0.00873236 0.100512
9436 -0.370232 -0.12333 -0.425055 0.0676832 -0.161681 0.555739 0.248361 0.458434 -0.180597 -0.17222 0.0480938 -0.162108 0.435933 0.0915051 0.178824 -0.45205 -0.0601153 -0.387922 0.259776 0.354451 0.578904 -0.242929 0.0737093 0.217816
9710 -0.424785 -0.0405909 -0.485153 0.00943626 -0.165134 0.584237 0.182084 0.458384 -0.169571 -0.19184 0.0679467 -0.204788 0.416126 0.13088 0.255128 -0.512782 -0.0953298 -0.419601 0.323145 0.314696 0.561918 -0.268253 0.0907267 0.25031
2951 -0.213421 -0.108614 -0.241292 0.0388047 -0.0761284 0.35222 0.192935 0.302975 -0.151432 -0.123975 0.054773 -0.0999408 0.341821 0.0718332 0.141153 -0.345917 -0.0157365 -0.293649 0.214787 0.299988 0.471026 -0.113791 0.0871901 0.145776
3198 -0.408794 -0.1533 -0.448551 0.0865201 -0.164465 0.62865 0.330057 0.544579 -0.258696 -0.299907 0.0661578 -0.251685 0.650345 0.104232 0.247806 -0.678517 -0.0715359 -0.571711 0.377443 0.520584 0.852717 -0.313005 0.178041 0.310393
3907 -0.307814 -0.0830429 -0.342586 0.0656365 -0.140562 0.442821 0.252287 0.390696 -0.17618 -0.204606 0.0514757 -0.147797 0.459584 0.0761441 0.145425 -0.467189 -0.0422227 -0.415672 0.271031 0.367511 0.598123 -0.223654 0.107451 0.202588
4148 -0.211994 -0.083708 -0.247127 0.0231281 -0.0898494 0.370569 0.182223 0.355215 -0.142713 -0.155312 0.0299871 -0.135051 0.379956 0.0738344 0.146633 -0.390725 -0.0247979 -0.343763 0.238661 0.318005 0.520368 -0.179896 0.109824 0.156372
6634 -0.482161 -0.16105 -0.582845 0.13371 -0.187111 0.688345 0.351494 0.499537 -0.156271 -0.177765 0.00442919 -0.152719 0.498167 0.103938 0.175611 -0.464405 -0.0834108 -0.402323 0.214085 0.357306 0.658086 -0.185643 0.0822521 0.18403
336 -0.195022 -0.0962958 -0.24374 0.0443948 -0.0939303 0.341482 0.201923 0.331657 -0.141419 -0.150536 0.0315287 -0.109292 0.365114 0.0562982 0.0889142 -0.332626 -0.0181948 -0.304385 0.200822 0.296999 0.474752 -0.123765 0.0765284 0.139811
2241 -0.462363 -0.134581 -0.539224 0.0715838 -0.213452 0.692465 0.312514 0.581008 -0.244197 -0.276709 0.0802088 -0.263817 0.623446 0.132342 0.277367 -0.648203 -0.0938743 -0.575043 0.377374 0.490613 0.832778 -0.313799 0.152372 0.296104
9293 -0.206299 -0.130333 -0.298604 0.0524068 -0.103755 0.373072 0.239632 0.39152 -0.150564 -0.161366 0.0134962 -0.13092 0.430795 0.0669354 0.134653 -0.411807 -0.0518107 -0.33298 0.248263 0.347041 0.557353 -0.154072 0.104387 0.186997
978 -0.232646 -0.0853669 -0.275134 0.0573827 -0.0847033 0.353255 0.167145 0.303622 -0.133543 -0.143024 0.0207637 -0.107567 0.322412 0.0636331 0.138464 -0.356201 -0.0481745 -0.284015 0.186074 0.259902 0.438191 -0.170029 0.0798121 0.134452
2999 -0.463664 -0.131819 -0.548078 0.0946665 -0.227673 0.7127 0.332765 0.619317 -0.24763 -0.292632 0.0485822 -0.242492 0.649564 0.120552 0.228944 -0.678548 -0.0894539 -0.55522 0.337161 0.50464 0.801011 -0.315259 0.122543 0.285709
6752 -0.263156 -0.0515669 -0.277667 0.0236468 -0.122136 0.380871 0.134256 0.339463 -0.12639 -0.139193 0.0666745 -0.164875 0.337127 0.0907762 0.173107 -0.385986 -0.0776402 -0.325257 0.246376 0.28119 0.462493 -0.218532 0.0887211 0.190842
846 -0.218515 -0.0902584 -0.259623 0.0583738 -0.08942 0.369202 0.150611 0.294556 -0.116115 -0.135609 0.0276695 -0.128711 0.340441 0.0716374 0.127728 -0.382051 -0.0473468 -0.305317 0.231429 0.257271 0.445427 -0.175565 0.0690629 0.150298
10298 -0.811857 -0.157554 -0.987078 0.161335 -0.305364 1.16444 0.270619 0.602058 -0.304138 -0.148378 0.35302 -0.233111 0.0365565 0.077557 0.544263 -0.504371 -0.199631 -0.189552 0.351755 0.253092 0.317416 -0.169383 0.0713747 0.550063
8871 -0.397245 0.104844 -0.359637 -0.0922103 -0.0638698 0.448999 -0.0789999 0.29386 -0.143013 -0.166007 0.162792 -0.254482 0.181687 0.134286 0.318355 -0.422789 -0.131558 -0.402388 0.282301 0.119253 0.391442 -0.362166 0.0835693 0.259451
2717 -0.185839 -0.161958 -0.254964 0.0985893 -0.129574 0.383466 0.270108 0.400655 -0.166583 -0.160911 0.00946788 -0.129284 0.467157 0.0433779 0.106215 -0.413534 -0.0314771 -0.354563 0.204872 0.367607 0.555328 -0.138301 0.0901674 0.157571
3339 -0.36285 -0.15176 -0.397569 0.0890375 -0.19227 0.566542 0.322922 0.519654 -0.221121 -0.260408 0.0333863 -0.255897 0.659222 0.136464 0.192406 -0.60594 -0.0696647 -0.539743 0.326355 0.501025 0.822039 -0.2943 0.141445 0.281335
8546 -0.256301 -0.0530421 -0.318637 0.0610705 -0.179963 0.375845 0.18624 0.314979 -0.0762049 -0.130624 -0.0660459 -0.163943 0.35025 0.0908869 0.0874579 -0.323607 -0.0680659 -0.203109 0.130782 0.202521 0.347331 -0.130646 0.0158818 0.101422
10216 -0.435974 0.162273 -0.428208 -0.123749 -0.0756317 0.537925 -0.0928069 0.337607 -0.151628 -0.219009 0.188126 -0.275953 0.253914 0.178239 0.358396 -0.522143 -0.155089 -0.49495 0.374103 0.170775 0.49118 -0.445419 0.114822 0.299475
7544 -0.202936 -0.0408901 -0.209929 0.043571 -0.0800236 0.295877 0.146413 0.287255 -0.131 -0.163278 0.0140299 -0.136649 0.339892 0.0594678 0.121291 -0.340046 -0.0657419 -0.288454 0.215168 0.266822 0.432417 -0.159721 0.0848094 0.14994
8958 -0.471102 -0.0461744 -0.524314 0.0362265 -0.183736 0.643487 0.187492 0.463125 -0.191848 -0.228298 0.110268 -0.234594 0.442072 0.114204 0.258376 -0.554901 -0.0982978 -0.44802 0.323859 0.326454 0.63931 -0.286058 0.116501 0.274426
9756 -0.294097 -0.106784 -0.337992 0.0685359 -0.132272 0.43523 0.212817 0.309747 -0.133257 -0.140834 0.0416562 -0.12554 0.321556 0.0758938 0.147911 -0.325517 -0.0607293 -0.276049 0.192939 0.267117 0.437923 -0.142868 0.0621998 0.16072
3456 -0.247343 -0.0808871 -0.264129 0.0381426 -0.0938294 0.352827 0.186241 0.29927 -0.108792 -0.153862 0.0301086 -0.11888 0.331834 0.0627938 0.139845 -0.35651 -0.0330365 -0.316521 0.202665 0.265114 0.438508 -0.177768 0.0816099 0.139363
6141 -0.415092 -0.104511 -0.51091 0.0983172 -0.225611 0.66663 0.319696 0.555886 -0.253978 -0.260769 -0.00846668 -0.261065 0.692097 0.152207 0.202706 -0.654557 -0.117678 -0.59186 0.367415 0.522455 0.861039 -0.336565 0.131715 0.263232
6816 -0.374551 -0.102017 -0.448661 0.0433911 -0.142848 0.595596 0.223971 0.484947 -0.202544 -0.198584 0.0511585 -0.211278 0.509654 0.121784 0.204534 -0.517537 -0.0845288 -0.443117 0.298356 0.38918 0.624066 -0.26284 0.129897 0.237715
10081 -0.401392 -0.171535 -0.519071 0.150017 -0.161803 0.601062 0.325269 0.439427 -0.158913 -0.134326 0.00846452 -0.149213 0.399772 0.0603467 0.148365 -0.418784 -0.0700899 -0.276202 0.202297 0.344994 0.512246 -0.0998828 0.0653431 0.187982
10248 -0.692615 -0.0842343 -0.708419 0.172765 -0.255119 0.879053 0.23303 0.421662 -0.0905943 -0.0725428 0.0457762 -0.246432 0.334595 0.0531209 0.311523 -0.477135 -0.167008 -0.272801 0.239396 0.209762 0.459044 -0.196561 -0.0352327 0.340226
5794 -0.237437 -0.158003 -0.298219 0.0969714 -0.142025 0.460229 0.320636 0.423608 -0.19784 -0.203946 0.0161187 -0.134461 0.505177 0.0850161 0.108796 -0.44468 -0.0320845 -0.391208 0.24982 0.398298 0.616536 -0.127634 0.0891399 0.183808
7507 -0.355778 -0.05754 -0.475208 0.073284 -0.205023 0.529817 0.202098 0.416393 -0.1221 -0.161562 -0.0668526 -0.182274 0.421903 0.112479 0.120916 -0.456273 -0.0874163 -0.28597 0.178048 0.254394 0.475892 -0.181234 0.0157686 0.13388
5994 -0.21955 -0.0777236 -0.248128 0.0175093 -0.077289 0.37963 0.161096 0.333661 -0.150871 -0.18401 0.0508153 -0.131875 0.349016 0.0664426 0.165357 -0.374532 -0.0330837 -0.377263 0.246396 0.305162 0.507051 -0.186517 0.118004 0.16975
7916 -0.219641 -0.07546 -0.227756 0.0364397 -0.0897544 0.354741 0.194676 0.324405 -0.140926 -0.151856 0.0264863 -0.126315 0.37952 0.0791564 0.142293 -0.373973 -0.0602497 -0.316172 0.202516 0.313381 0.460084 -0.154479 0.0941369 0.160564
8095 -0.419767 -0.0846715 -0.50535 0.139353 -0.237217 0.553339 0.344139 0.567194 -0.152753 -0.259974 -0.107151 -0.208698 0.664704 0.159682 0.074453 -0.552578 -0.059588 -0.434902 0.206672 0.432533 0.724907 -0.287198 0.0663767 0.17132
8643 -0.380021 -0.0688857 -0.494904 0.0898574 -0.248512 0.600586 0.272858 0.4718 -0.138941 -0.161799 -0.108107 -0.233309 0.551583 0.119525 0.134415 -0.489351 -0.0928517 -0.349172 0.154031 0.333346 0.560316 -0.227089 0.0372593 0.111314
9358 -0.29821 -0.125742 -0.401305 0.141092 -0.161385 0.526826 0.290648 0.458995 -0.230237 -0.136873 0.0610739 -0.170999 0.478585 0.11629 0.264289 -0.61627 -0.0657802 -0.405381 0.295273 0.433673 0.595786 -0.0979697 0.064298 0.30559
9502 -0.28311 -0.135803 -0.374417 0.103016 -0.144969 0.455926 0.292831 0.380712 -0.13629 -0.157296 0.000145435 -0.136018 0.452039 0.050689 0.106686 -0.39911 -0.0236935 -0.346864 0.209885 0.336196 0.528362 -0.164878 0.0817456 0.16253
9682 -0.310113 -0.0955389 -0.353847 0.0916991 -0.134172 0.472932 0.220253 0.389734 -0.176329 -0.188352 0.0117753 -0.142385 0.445354 0.0699929 0.13838 -0.450759 -0.0454571 -0.346836 0.228139 0.328197 0.52818 -0.185717 0.0875599 0.173787
9685 -0.535736 -0.153224 -0.576418 0.127899 -0.196262 0.727543 0.326097 0.525889 -0.132236 -0.148837 0.0379862 -0.115498 0.388105 0.0423835 0.221457 -0.384185 -0.0652153 -0.328489 0.144175 0.286497 0.541513 -0.16961 0.0901123 0.163325
7948 -0.291537 -0.125362 -0.334154 0.0606493 -0.148141 0.436525 0.257894 0.407459 -0.155753 -0.161299 0.0122266 -0.13243 0.473283 0.0668686 0.11886 -0.453622 -0.0592833 -0.36182 0.224174 0.383584 0.591196 -0.171628 0.10539 0.161887
8329 -0.440564 -0.110293 -0.505504 0.127271 -0.214969 0.617534 0.267421 0.462117 -0.10382 -0.173448 -0.0673299 -0.175915 0.487302 0.102234 0.112871 -0.470305 -0.043117 -0.324543 0.185413 0.354019 0.566073 -0.191904 0.0800899 0.108793
8644 -0.333791 -0.0852948 -0.368941 0.0787941 -0.157161 0.48423 0.229388 0.400665 -0.163043 -0.190237 0.0638598 -0.177276 0.408133 0.0828476 0.17951 -0.464567 -0.0721737 -0.372088 0.258145 0.356976 0.561399 -0.197939 0.0811223 0.17492
9105 -0.405508 -0.133947 -0.545753 0.0432823 -0.161915 0.639182 0.247952 0.544874 -0.182445 -0.187268 0.0469532 -0.174105 0.45595 0.0853949 0.260854 -0.523878 -0.0724446 -0.40119 0.236824 0.367118 0.620417 -0.187435 0.109269 0.243768
9174 -0.318222 -0.0769193 -0.357843 0.0777543 -0.123957 0.486801 0.196979 0.368638 -0.146588 -0.172761 0.0583409 -0.167402 0.391714 0.0930095 0.149558 -0.404931 -0.0367602 -0.347409 0.217763 0.321216 0.512503 -0.182253 0.0637198 0.196565
10108 -0.466392 -0.064341 -0.548167 0.037785 -0.19352 0.64377 0.145606 0.452801 -0.156184 -0.178025 0.0867791 -0.198682 0.326282 0.137431 0.275497 -0.46675 -0.120225 -0.373496 0.283935 0.218142 0.456135 -0.232611 0.0694527 0.233916
10299 -0.741217 -0.046465 -0.778737 0.123222 -0.232011 0.996737 0.218939 0.507253 -0.183213 -0.141588 0.237871 -0.264006 0.178322 0.224338 0.354342 -0.516243 -0.180847 -0.27482 0.273111 0.154485 0.392849 -0.262136 0.0451304 0.346623
4687 -0.266768 -0.148686 -0.316444 0.0670621 -0.143314 0.402512 0.271496 0.395056 -0.175826 -0.180694 0.0202976 -0.145285 0.460175 0.0652365 0.122372 -0.401148 -0.0141386 -0.375592 0.233875 0.360164 0.586055 -0.15986 0.09781 0.188612
5469 -0.318084 -0.117722 -0.391522 0.0893997 -0.144814 0.479796 0.284651 0.44755 -0.183666 -0.195899 -0.0145541 -0.157932 0.497934 0.0992988 0.156528 -0.469361 -0.0546925 -0.371504 0.256875 0.40422 0.60057 -0.199007 0.0842618 0.164982
9386 -0.440027 0.129148 -0.420886 -0.101868 -0.0762987 0.503585 -0.0846702 0.290153 -0.13081 -0.194704 0.197332 -0.262679 0.211971 0.152998 0.314822 -0.474793 -0.16954 -0.425833 0.299056 0.122634 0.411372 -0.379943 0.1009 0.250898
1604 -0.2246 -0.075878 -0.262136 0.0607521 -0.124148 0.351801 0.20894 0.328935 -0.11282 -0.155429 0.0271924 -0.135026 0.388401 0.0661038 0.114625 -0.372393 -0.0263834 -0.318001 0.209396 0.29865 0.447499 -0.15245 0.0631969 0.164488
9212 -0.305996 -0.154586 -0.394268 0.138498 -0.185521 0.5374 0.330602 0.473527 -0.17069 -0.174805 -0.00693583 -0.154138 0.486846 0.0702484 0.123141 -0.433566 -0.0494205 -0.325885 0.22989 0.406229 0.609963 -0.153034 0.0673685 0.188281
10064 -0.557078 -0.0593768 -0.691809 0.12486 -0.242118 0.764965 0.194296 0.469384 -0.153429 -0.152278 0.0364684 -0.179345 0.325952 0.101844 0.224733 -0.441272 -0.0979807 -0.291011 0.220714 0.230445 0.458665 -0.202532 0.0330059 0.246632
2165 -0.17511 -0.138916 -0.208609 0.0315989 -0.0854653 0.322753 0.202085 0.325162 -0.152758 -0.146776 0.0390855 -0.132169 0.404071 0.0734823 0.116594 -0.385079 -0.028148 -0.358812 0.250328 0.344106 0.507932 -0.140591 0.0940918 0.186109
6185 -0.267894 -0.111224 -0.299138 0.0629971 -0.0990284 0.384374 0.188106 0.349725 -0.143929 -0.158158 0.0450158 -0.141623 0.393028 0.0758265 0.158431 -0.392628 -0.0524714 -0.356367 0.232366 0.310778 0.509679 -0.193479 0.101892 0.201229
5263 -0.24951 -0.0959976 -0.251438 0.0361752 -0.105061 0.364904 0.17829 0.291111 -0.128173 -0.147777 0.0494244 -0.104562 0.312382 0.0761026 0.131909 -0.359223 -0.0492382 -0.296134 0.186952 0.261346 0.427184 -0.142224 0.0841907 0.163275
6753 -0.338922 -0.15599 -0.42612 0.0846495 -0.146044 0.558291 0.295794 0.492168 -0.205549 -0.20418 0.0692684 -0.160336 0.532911 0.112596 0.203222 -0.543544 -0.0788348 -0.441014 0.290122 0.431593 0.695464 -0.241771 0.102001 0.239745
8241 -0.320943 -0.165321 -0.400136 0.0997972 -0.153125 0.534542 0.328679 0.491154 -0.175934 -0.197638 0.0138201 -0.163887 0.52001 0.0640915 0.151539 -0.504877 -0.0374575 -0.431017 0.27549 0.439045 0.670167 -0.196299 0.124888 0.215247
4642 -0.247143 -0.0887952 -0.287767 0.0389276 -0.108926 0.377897 0.1924 0.335066 -0.155706 -0.145622 0.033263 -0.122487 0.348126 0.0804477 0.12269 -0.360724 -0.0622653 -0.323071 0.203891 0.307055 0.497855 -0.153782 0.0770927 0.183871
5285 -0.409661 -0.0682303 -0.474661 0.0791746 -0.171985 0.578863 0.242026 0.475022 -0.1884 -0.203605 0.0165987 -0.209722 0.512495 0.110764 0.212544 -0.528248 -0.0796324 -0.454273 0.28861 0.348607 0.619506 -0.257465 0.114546 0.209411
6373 -0.284255 -0.149783 -0.307211 0.0578062 -0.0981668 0.461272 0.298618 0.442316 -0.198667 -0.232017 0.0499744 -0.17608 0.573332 0.0974071 0.153983 -0.554876 -0.0249318 -0.492599 0.313393 0.481002 0.747996 -0.234169 0.144284 0.263491
254 -0.228371 -0.0394311 -0.279415 0.00752464 -0.118261 0.36113 0.131586 0.321667 -0.133879 -0.168467 0.0627272 -0.145688 0.331493 0.0792239 0.140475 -0.359164 -0.0763864 -0.319683 0.228459 0.275864 0.434275 -0.172629 0.0633302 0.178053
3407 -0.424949 -0.132851 -0.518364 0.0957263 -0.206485 0.703942 0.31847 0.553714 -0.221819 -0.280146 0.0460339 -0.236942 0.609182 0.121208 0.236647 -0.636728 -0.106778 -0.551249 0.380936 0.49952 0.802662 -0.279347 0.125954 0.275345
9541 -0.402746 -0.11566 -0.464219 0.0744843 -0.190951 0.564402 0.283626 0.4445 -0.170114 -0.181816 0.0318819 -0.169861 0.474698 0.0887334 0.159802 -0.439986 -0.0623055 -0.383282 0.221513 0.363588 0.601352 -0.22466 0.0731959 0.176805
9527 -0.351963 -0.101633 -0.396457 0.0400781 -0.145953 0.503156 0.200662 0.408632 -0.139263 -0.194472 0.0519064 -0.18338 0.390928 0.0788925 0.174468 -0.427424 -0.0504298 -0.379988 0.261437 0.300954 0.549024 -0.242927 0.0936887 0.197633
9748 -0.328447 -0.0779702 -0.374546 0.0609792 -0.127465 0.489884 0.152079 0.411922 -0.189839 -0.159037 0.0569617 -0.17699 0.384704 0.083392 0.185349 -0.460351 -0.0681039 -0.378046 0.275378 0.314757 0.514434 -0.226888 0.0632583 0.217092
10030 -0.394109 -0.0771555 -0.453988 0.0400879 -0.176069 0.565936 0.171987 0.424761 -0.160388 -0.193322 0.0353219 -0.195163 0.409498 0.0932209 0.190313 -0.479337 -0.0990562 -0.390447 0.250243 0.319436 0.54208 -0.247276 0.102528 0.209232
9695 -0.337669 -0.120263 -0.407408 0.106238 -0.139064 0.535591 0.28724 0.424527 -0.163519 -0.162384 0.0474977 -0.1644 0.461447 0.0827885 0.139264 -0.442208 -0.0462625 -0.363304 0.2597 0.35995 0.570896 -0.202101 0.109081 0.211551
10103 -0.410465 -0.0835726 -0.507089 0.0840357 -0.189493 0.589512 0.191003 0.424403 -0.157349 -0.169095 0.0363715 -0.213627 0.393928 0.0865971 0.226277 -0.479363 -0.105402 -0.360415 0.268648 0.27854 0.500295 -0.223398 0.0843701 0.243562
10291 -0.628949 -0.142279 -0.835941 0.239772 -0.295684 0.867149 0.357649 0.516369 -0.180528 -0.0904095 0.0916731 -0.17066 0.279646 0.0565887 0.239729 -0.381561 -0.0783373 -0.16495 0.169338 0.244914 0.407647 -0.147209 -0.017859 0.284461
9438 -0.46714 0.0989999 -0.404531 -0.0897554 -0.119228 0.541376 -0.0619764 0.317292 -0.140548 -0.183496 0.15579 -0.249315 0.248071 0.13341 0.314644 -0.478806 -0.127139 -0.425364 0.325966 0.181986 0.470033 -0.388816 0.106304 0.247744
6481 -0.152247 -0.191499 -0.249516 0.127482 -0.153631 0.356754 0.370369 0.400043 -0.156927 -0.139454 -0.064557 -0.0778079 0.484476 0.0226754 0.0342169 -0.368385 0.00194876 -0.288772 0.168192 0.370332 0.518239 -0.0282003 0.0466279 0.13304
6764 -0.383466 -0.108347 -0.44954 0.0984361 -0.147557 0.543424 0.302733 0.476842 -0.1736 -0.21267 0.0363545 -0.215026 0.548525 0.0828599 0.202013 -0.524176 -0.0813982 -0.458483 0.306152 0.396952 0.66189 -0.253309 0.0943597 0.234695
7648 -0.34293 -0.159521 -0.416114 0.0793093 -0.148931 0.532721 0.27638 0.476392 -0.169102 -0.20424 0.0155435 -0.144385 0.481988 0.0761457 0.158367 -0.505242 -0.0427392 -0.427137 0.235671 0.429635 0.645446 -0.205269 0.134672 0.175265
118 -0.145744 -0.134114 -0.202523 0.107039 -0.0939847 0.30521 0.249946 0.301241 -0.112458 -0.126647 5.44386e-05 -0.0953992 0.358307 0.0592399 0.0836774 -0.310623 -0.000447263 -0.268216 0.16565 0.313596 0.446578 -0.0849305 0.0497184 0.141164
2786 -0.479912 -0.109458 -0.552071 0.0612496 -0.209988 0.737302 0.300306 0.574755 -0.230189 -0.282109 0.0575491 -0.247202 0.652752 0.126984 0.259766 -0.672559 -0.10458 -0.568026 0.407538 0.5066 0.851633 -0.344495 0.125466 0.30123
4018 -0.332007 -0.104438 -0.433321 0.0770094 -0.169526 0.545521 0.231727 0.434732 -0.191718 -0.221843 0.0561268 -0.222855 0.490217 0.102725 0.20756 -0.503457 -0.0631569 -0.425314 0.265748 0.373651 0.647752 -0.240492 0.117593 0.225015
3858 -0.450616 -0.142382 -0.497117 0.0636255 -0.199333 0.684033 0.282891 0.586001 -0.223722 -0.292745 0.0813317 -0.247252 0.633337 0.123026 0.259689 -0.649035 -0.0819328 -0.583421 0.403101 0.489248 0.812625 -0.3391 0.150012 0.278336
4183 -0.383709 -0.0841465 -0.458186 0.0700408 -0.181667 0.572137 0.265249 0.47543 -0.200017 -0.219989 -0.00893545 -0.217627 0.536316 0.0931313 0.186135 -0.540839 -0.0554255 -0.417883 0.271931 0.384256 0.652609 -0.263541 0.0966574 0.222306
6074 -0.316019 -0.153108 -0.390231 0.0749782 -0.15423 0.535063 0.308818 0.508465 -0.22405 -0.218687 0.0488923 -0.161409 0.593439 0.0739042 0.162545 -0.574005 -0.0552816 -0.502841 0.332646 0.506098 0.74202 -0.224505 0.125774 0.25909
2958 -0.203389 -0.092771 -0.267861 0.0566967 -0.0754114 0.383187 0.182052 0.333354 -0.142395 -0.176735 0.062593 -0.144897 0.378484 0.0783247 0.156882 -0.377123 -0.0314272 -0.365858 0.249623 0.343916 0.51228 -0.156943 0.120781 0.192616
4000 -0.219951 -0.175903 -0.295681 0.114666 -0.113123 0.426352 0.321915 0.425141 -0.175838 -0.167929 0.00967127 -0.146119 0.506641 0.0801412 0.109704 -0.428648 -0.00399758 -0.37792 0.234539 0.416567 0.592217 -0.122103 0.104079 0.164769
9216 -0.298993 -0.164027 -0.368936 0.104767 -0.127964 0.48999 0.275524 0.498546 -0.177125 -0.203452 -0.00153992 -0.140684 0.486087 0.0959105 0.160994 -0.530137 -0.0631686 -0.432264 0.313803 0.452411 0.641076 -0.199532 0.165609 0.204949
6193 -0.232718 -0.0535323 -0.288278 0.0569864 -0.126982 0.362908 0.177808 0.275516 -0.110698 -0.104484 -0.0303842 -0.128831 0.354372 0.0817137 0.0874553 -0.322342 -0.0614496 -0.258395 0.149128 0.240451 0.398512 -0.137074 0.0525069 0.120939
5647 -0.25562 -0.10318 -0.298507 0.0573268 -0.107951 0.400609 0.1848 0.33266 -0.123345 -0.162905 0.0506175 -0.131348 0.393196 0.0906425 0.155128 -0.3791 -0.054243 -0.350525 0.220639 0.32699 0.487561 -0.18544 0.0965041 0.164159
6015 -0.36355 -0.0558676 -0.433485 0.0242983 -0.149547 0.563711 0.183963 0.413175 -0.16342 -0.22022 0.0965277 -0.198001 0.425151 0.0925192 0.204602 -0.478567 -0.0649114 -0.412341 0.300292 0.330556 0.571833 -0.264783 0.107814 0.214065
8471 -0.341231 -0.139471 -0.407189 0.107315 -0.183609 0.548883 0.311399 0.466657 -0.167924 -0.190746 0.00190223 -0.161916 0.53828 0.0984745 0.130463 -0.49366 -0.0219508 -0.3948 0.236383 0.444825 0.661237 -0.2147 0.103137 0.176153
4823 -0.220858 -0.113487 -0.276985 0.0566784 -0.120777 0.38473 0.20021 0.31771 -0.114159 -0.157188 0.00390096 -0.118176 0.365858 0.0645514 0.113518 -0.356938 -0.0338728 -0.316453 0.19262 0.283969 0.491043 -0.140865 0.094468 0.146531
7098 -0.231142 -0.16745 -0.251748 0.0955762 -0.120523 0.454243 0.312717 0.470481 -0.2706 -0.247963 0.0956597 -0.191227 0.581153 0.0896148 0.232224 -0.581674 -0.0746613 -0.521738 0.353717 0.525017 0.752233 -0.224737 0.146865 0.309157
7399 -0.248117 -0.0640423 -0.295277 0.0395251 -0.110745 0.392105 0.190726 0.312016 -0.134724 -0.138544 0.0311968 -0.116926 0.374535 0.0511632 0.144956 -0.388227 -0.050397 -0.321994 0.203501 0.282826 0.442442 -0.150681 0.0799997 0.165788
7808 -0.23963 -0.0883785 -0.292086 0.0540544 -0.115978 0.403886 0.228279 0.375177 -0.143298 -0.165876 0.00908249 -0.139612 0.400597 0.0564414 0.121157 -0.38148 -0.0256126 -0.333042 0.200481 0.302245 0.510051 -0.19013 0.102041 0.158751
8216 -0.328252 -0.0865016 -0.366828 0.0690281 -0.135267 0.438988 0.203728 0.369834 -0.112327 -0.13587 0.00608491 -0.150591 0.361149 0.0623972 0.143839 -0.36531 -0.0485347 -0.313087 0.184718 0.289704 0.491148 -0.163277 0.0643044 0.153244
1352 -0.337096 -0.0693231 -0.378699 0.0631021 -0.127403 0.501862 0.20177 0.415227 -0.164112 -0.192076 0.053456 -0.206679 0.453608 0.10814 0.167532 -0.485933 -0.0781341 -0.422199 0.272271 0.364354 0.616522 -0.213333 0.114823 0.218063
4744 -0.196884 -0.0993461 -0.237002 0.0441457 -0.0883855 0.357332 0.207432 0.331777 -0.138512 -0.164009 0.00335255 -0.128501 0.39072 0.0709332 0.0952602 -0.371872 -0.0366388 -0.289349 0.209977 0.292077 0.479354 -0.130317 0.0723851 0.14603
5278 -0.328133 -0.104446 -0.393258 0.0706302 -0.151066 0.513992 0.234806 0.441909 -0.169633 -0.227758 0.0414414 -0.201972 0.479923 0.0991619 0.165804 -0.5223 -0.0545292 -0.457585 0.284409 0.388725 0.665829 -0.223935 0.132054 0.229836
6052 -0.284459 -0.165845 -0.366557 0.0904131 -0.135103 0.463842 0.300755 0.44314 -0.163882 -0.195351 0.0142999 -0.141021 0.514595 0.0746398 0.146523 -0.461846 -0.0280075 -0.399114 0.243976 0.428097 0.611245 -0.197406 0.116726 0.211763
7723 -0.276212 -0.0984055 -0.336518 0.0713874 -0.124513 0.422153 0.218274 0.3777 -0.165552 -0.149868 0.0452647 -0.164843 0.423705 0.0940673 0.142665 -0.406563 -0.0454397 -0.353384 0.237239 0.355452 0.535259 -0.191143 0.0692114 0.189712
9508 -0.351559 -0.126532 -0.411963 0.0935228 -0.141047 0.542767 0.267325 0.421088 -0.193262 -0.179542 0.0409716 -0.151328 0.447053 0.0848913 0.173661 -0.451713 -0.0658859 -0.35649 0.264546 0.379078 0.564157 -0.182376 0.109917 0.216738
10098 -0.485688 -0.135114 -0.572039 0.110033 -0.211923 0.678267 0.258444 0.452735 -0.181241 -0.128182 0.0239063 -0.181836 0.400199 0.0854895 0.203721 -0.452484 -0.0976106 -0.289613 0.234485 0.339373 0.532802 -0.190124 0.0239559 0.236965
6336 -0.239955 -0.0993957 -0.281898 0.0540933 -0.0983842 0.399834 0.193933 0.34965 -0.132013 -0.159155 0.0188481 -0.154116 0.367862 0.0757358 0.130861 -0.413267 -0.0704153 -0.357836 0.218723 0.289289 0.509101 -0.202037 0.0664496 0.155058
9417 -0.4375 0.119702 -0.383576 -0.0955766 -0.0982939 0.466152 -0.0977647 0.287766 -0.148973 -0.190984 0.160915 -0.245421 0.186184 0.159513 0.304697 -0.410381 -0.156298 -0.371741 0.272033 0.147838 0.415145 -0.374604 0.0989736 0.25837
7871 -0.262631 -0.0571882 -0.298456 0.0405799 -0.128895 0.401506 0.195126 0.329237 -0.126582 -0.177135 0.0369343 -0.146848 0.377786 0.0767017 0.119091 -0.367461 -0.0497945 -0.331312 0.237345 0.285361 0.483551 -0.207837 0.0716008 0.157171
9225 -0.490115 -0.0310038 -0.530095 0.0231321 -0.18109 0.603983 0.123927 0.420657 -0.148111 -0.192674 0.083224 -0.202016 0.35098 0.104238 0.241306 -0.48236 -0.100013 -0.385862 0.250289 0.263372 0.511396 -0.268842 0.0964953 0.198633
6220 -0.31168 -0.0712647 -0.361754 0.058942 -0.131185 0.426842 0.194515 0.336404 -0.150601 -0.154926 0.0233561 -0.176282 0.369482 0.0862782 0.132336 -0.385067 -0.0714028 -0.328666 0.220317 0.265949 0.478767 -0.172962 0.0614466 0.158239
6513 -0.296954 -0.103925 -0.344047 0.0877911 -0.136719 0.506448 0.274947 0.419513 -0.171697 -0.193281 0.0586663 -0.162401 0.483306 0.106017 0.157006 -0.481655 -0.0508199 -0.425814 0.283184 0.408229 0.623901 -0.221408 0.106061 0.21108
6932 -0.3597 -0.133752 -0.400976 0.0550882 -0.172658 0.582323 0.279413 0.517013 -0.189613 -0.249669 0.0390564 -0.201813 0.550944 0.0953771 0.227062 -0.586383 -0.0489949 -0.520562 0.344255 0.462098 0.719242 -0.248031 0.156333 0.246211
9298 -0.283252 -0.127906 -0.352274 0.0711439 -0.127872 0.427814 0.194313 0.356047 -0.139578 -0.13147 -0.00529647 -0.146549 0.318559 0.0601701 0.153715 -0.326192 -0.0342302 -0.222972 0.163282 0.267694 0.369332 -0.12822 0.0388341 0.185513
8439 -0.256165 -0.139942 -0.303322 0.0864001 -0.140467 0.403847 0.241118 0.378091 -0.166719 -0.147353 0.00634418 -0.118584 0.434055 0.0586095 0.106205 -0.403507 -0.0328425 -0.32777 0.233222 0.364023 0.548335 -0.14186 0.0884637 0.15145
8868 -0.220537 -0.124363 -0.303799 0.10558 -0.151861 0.508796 0.306983 0.459817 -0.256584 -0.177263 0.0390513 -0.177423 0.557487 0.0858858 0.211174 -0.556194 -0.0920365 -0.434361 0.315203 0.492063 0.667286 -0.180716 0.115234 0.259514
9724 -0.350819 0.0314921 -0.41248 -0.024895 -0.113993 0.514274 0.0329977 0.343013 -0.161123 -0.20926 0.120368 -0.219662 0.323903 0.142522 0.278521 -0.447653 -0.123651 -0.391525 0.279858 0.239324 0.47984 -0.318442 0.0868388 0.241218
9449 -0.366108 -0.0216232 -0.438365 0.0372561 -0.170516 0.54159 0.136747 0.378981 -0.156969 -0.159033 0.0715847 -0.187919 0.353581 0.124151 0.228505 -0.471209 -0.079532 -0.341809 0.241964 0.280216 0.510184 -0.247037 0.0853342 0.228391
9879 -0.478855 -0.103374 -0.623178 0.165468 -0.277639 0.71673 0.32418 0.483753 -0.14788 -0.14858 -0.0364581 -0.214953 0.472211 0.125752 0.113967 -0.447903 -0.0712344 -0.260256 0.146049 0.284632 0.48748 -0.154269 0.00396394 0.151099
5005 -0.286729 -0.0837231 -0.308374 0.0582241 -0.10766 0.449584 0.199145 0.362491 -0.1525 -0.174736 0.0262911 -0.149315 0.430904 0.0924794 0.165038 -0.437079 -0.0399448 -0.361204 0.261156 0.322019 0.568731 -0.185605 0.10922 0.175197
2507 -0.328906 -0.084842 -0.391834 0.0899894 -0.131803 0.512702 0.228805 0.384171 -0.170033 -0.169477 0.030168 -0.16079 0.433575 0.0710781 0.183168 -0.424769 -0.0400442 -0.349864 0.236745 0.327931 0.551727 -0.19345 0.0788785 0.207895
8443 -0.265238 -0.0683539 -0.324542 0.0535787 -0.120451 0.443933 0.201214 0.369429 -0.161406 -0.158413 0.0378002 -0.178373 0.415454 0.0769066 0.160061 -0.409268 -0.0714772 -0.331416 0.225479 0.319013 0.527098 -0.171698 0.0663301 0.165188
10140 -0.494583 -0.248992 -0.516715 0.19076 -0.235623 0.785311 0.37535 0.520745 -0.252041 -0.0517993 0.220456 -0.211068 0.308669 0.130845 0.306537 -0.462664 -0.140479 -0.21401 0.233825 0.336815 0.439903 -0.066476 0.0745556 0.420257
7460 -0.215637 -0.0797061 -0.257601 0.0326322 -0.118364 0.352612 0.177471 0.291927 -0.117709 -0.140974 0.0234718 -0.130505 0.340106 0.0577204 0.148128 -0.340108 -0.0450854 -0.31556 0.202476 0.253563 0.425237 -0.18112 0.0956774 0.140817
9872 -0.414202 -0.0715383 -0.489882 0.0344874 -0.170596 0.597631 0.219963 0.463139 -0.175046 -0.167618 0.110681 -0.191068 0.401139 0.0965036 0.235614 -0.521398 -0.0777322 -0.38729 0.267389 0.299066 0.512435 -0.221203 0.102855 0.240145
5813 -0.231909 -0.126726 -0.276865 0.0612743 -0.112523 0.41362 0.240626 0.377361 -0.158197 -0.161957 0.0298508 -0.147144 0.435041 0.0637925 0.118151 -0.390543 -0.0468157 -0.352457 0.211292 0.353649 0.549737 -0.137102 0.106649 0.174934
6734 -0.337715 -0.0826984 -0.445925 0.122755 -0.194951 0.534972 0.2792 0.450624 -0.15013 -0.177643 -0.0431081 -0.215251 0.547466 0.101524 0.134395 -0.481449 -0.0541853 -0.366233 0.210131 0.373286 0.600877 -0.187836 0.037387 0.165869
2069 -0.221863 -0.117156 -0.253919 0.0550454 -0.127609 0.377287 0.215876 0.329124 -0.118726 -0.143193 0.00405365 -0.11986 0.376855 0.0521936 0.112037 -0.3586 -0.0367751 -0.337537 0.182146 0.305267 0.470821 -0.140563 0.0659042 0.144623
5443 -0.380696 -0.187651 -0.434993 0.121782 -0.151797 0.575657 0.304391 0.454548 -0.208296 -0.218238 0.0482039 -0.164432 0.535676 0.0964789 0.177236 -0.499171 -0.0570716 -0.440256 0.295989 0.409845 0.680981 -0.215629 0.10188 0.222845
5916 -0.269125 -0.109156 -0.279125 0.046067 -0.116757 0.41798 0.209755 0.373704 -0.171878 -0.180129 0.0640091 -0.166088 0.409454 0.0914665 0.180837 -0.448331 -0.0572757 -0.412572 0.269537 0.348265 0.581433 -0.19794 0.09125 0.199397
9797 -0.293393 -0.0906614 -0.336662 0.079447 -0.138008 0.461475 0.205599 0.351999 -0.143736 -0.148004 0.0575632 -0.173113 0.399437 0.0934764 0.171763 -0.415522 -0.0577994 -0.359268 0.224539 0.331377 0.503777 -0.205906 0.0777741 0.192939
9737 -0.288925 -0.0354716 -0.350002 0.0207263 -0.116298 0.455669 0.127043 0.384147 -0.137195 -0.197283 0.0417074 -0.198051 0.406001 0.103905 0.206879 -0.471209 -0.0671702 -0.376929 0.26912 0.305661 0.49875 -0.234557 0.0600015 0.20019
