10313 24
4354 0.0184595 0.0347886 -0.0303639 0.0110905 -0.147449 0.102327 -0.0291679 -0.12738 0.0605844 0.0721487 0.179484 0.112974 -0.132346 -0.178288 -0.0218134 -0.0759215 -0.0435371 -0.0449503 -0.200036 0.194855 0.0553737 -0.00881846 0.187341 0.110323
9465 0.296647 0.248467 -0.0507732 0.00939114 -0.557514 0.42528 -0.125646 -0.266849 0.0470147 0.346936 0.463266 0.357855 -0.304313 -0.454374 -0.0256537 -0.179065 -0.0372946 -0.22471 -0.569163 0.554561 0.0688729 0.0380179 0.487886 0.327147
9518 0.118432 0.139734 -0.020193 -0.0134301 -0.32824 0.255008 -0.0600067 -0.216922 0.033859 0.194466 0.310901 0.269897 -0.170795 -0.345557 0.0301296 -0.120761 -0.0403302 -0.119108 -0.395999 0.336783 0.0521588 0.00558644 0.305492 0.244956
7255 0.0401078 0.0383916 -0.0192577 0.0191632 -0.102845 0.0938191 -0.0454948 -0.0924245 0.024357 0.0600904 0.142386 0.077785 -0.0885405 -0.146676 0.00532981 -0.0647968 -0.057926 -0.0497283 -0.170559 0.148716 0.0345957 -0.00090145 0.14027 0.0886259
7373 0.275095 0.305563 -0.0320505 0.00803701 -0.623216 0.556053 -0.160916 -0.350841 0.0447644 0.478247 0.643677 0.563113 -0.342213 -0.696338 0.0426092 -0.242233 0.00925376 -0.26486 -0.813122 0.753083 0.0957125 0.0218961 0.58294 0.5172
9181 0.0706481 0.123289 -0.0235657 -0.0136394 -0.162607 0.148612 -0.0374215 -0.183919 0.0730988 0.101972 0.196761 0.146559 -0.159208 -0.236664 0.00641888 -0.0873629 -0.0418597 -0.0483657 -0.255067 0.220072 0.0784585 -0.0141427 0.186138 0.12596
5823 0.0351671 0.0276507 -0.0401257 -0.0203295 -0.11333 0.0822242 -0.0440467 -0.0954378 0.070329 0.0681836 0.111955 0.100946 -0.083647 -0.130718 -0.0114777 -0.05969 -0.0368745 -0.0368141 -0.131736 0.157523 0.0217927 -0.00625187 0.146557 0.06436
8775 0.269801 0.318559 -0.0426319 0.00589366 -0.58866 0.580685 -0.120769 -0.299806 0.0101305 0.482975 0.592133 0.554013 -0.294269 -0.670669 0.0858625 -0.229987 0.0384709 -0.257157 -0.712173 0.658887 0.093706 0.027538 0.510437 0.513625
10213 0.0879989 0.0873442 -0.0130942 -0.0212779 -0.17878 0.149461 -0.0399135 -0.0728327 0.0177372 0.117493 0.185044 0.146726 -0.106887 -0.182572 0.00351537 -0.0859781 -0.000335734 -0.0692135 -0.215516 0.194727 0.0464801 0.011031 0.144464 0.163745
6891 0.0356624 0.0630076 -0.00426804 -0.00955495 -0.114612 0.0886789 -0.0472526 -0.0945689 0.042863 0.0847805 0.121829 0.0628526 -0.0523371 -0.10582 -0.020913 -0.048756 -0.0354618 -0.024694 -0.146983 0.118733 0.0379017 -0.00773216 0.128235 0.0606881
8270 0.363999 0.409364 -0.0870384 0.0249804 -0.780675 0.529956 -0.272126 -0.61497 0.281317 0.29439 0.47246 0.388091 -0.3962 -0.619333 -0.155172 -0.321689 -0.256364 -0.208907 -0.663317 0.522683 0.227056 0.0752527 0.554202 0.169277
9006 0.260557 0.548838 -0.120891 -0.0232591 -0.482291 0.549271 -0.0969498 -0.451956 0.132716 0.315806 0.404689 0.359881 -0.330244 -0.739529 0.0296874 -0.199014 -0.191031 -0.0578453 -0.61941 0.440887 0.208985 -0.111473 0.439827 0.285609
9308 0.0363777 0.0467908 -0.0231348 0.00111451 -0.111607 0.0835074 -0.0105738 -0.096183 0.0167921 0.0904713 0.117763 0.103855 -0.0673857 -0.140813 0.000219283 -0.0431307 -0.0310856 -0.061566 -0.179042 0.151658 0.0486579 -0.0161342 0.139278 0.0854877
9562 0.142798 0.171676 -0.0615294 -0.00483473 -0.368503 0.332718 -0.0966422 -0.231408 0.0468412 0.242976 0.365633 0.320577 -0.232176 -0.386763 0.0028418 -0.170589 -0.00280261 -0.149354 -0.475545 0.418068 0.0626444 0.00845582 0.356093 0.295248
9755 0.195236 0.218661 -0.039276 -0.0022653 -0.447254 0.344749 -0.0971958 -0.245949 0.087274 0.238591 0.392401 0.302535 -0.235056 -0.443331 0.0248759 -0.16348 -0.0099319 -0.184485 -0.467136 0.447764 0.0591418 0.0342194 0.385215 0.298605
2824 0.0549491 0.0644765 -0.0291097 0.0129276 -0.173245 0.131905 -0.0205273 -0.0921199 0.0358608 0.114332 0.169294 0.13886 -0.0929772 -0.171577 -0.0123969 -0.0592665 -0.00441197 -0.067567 -0.18883 0.175761 0.0482407 0.00524512 0.141223 0.121102
4490 0.261461 0.285931 -0.0608743 -0.0256747 -0.594598 0.541602 -0.153905 -0.323062 0.0618086 0.410254 0.597016 0.497744 -0.327956 -0.680631 0.0229763 -0.237447 -0.0110267 -0.243689 -0.752807 0.694758 0.0866027 0.0143261 0.540491 0.486397
4698 0.0829253 0.094645 -0.0341028 -0.0039856 -0.221571 0.174389 -0.0715068 -0.132675 0.0514341 0.153992 0.234045 0.162033 -0.134192 -0.221148 0.0209308 -0.098642 -0.00827165 -0.0971117 -0.247998 0.25447 0.0433239 0.00609991 0.19092 0.181807
8293 0.0663582 0.113353 -0.0439132 -0.00595438 -0.228618 0.190279 -0.0636646 -0.184535 0.0567503 0.137843 0.259402 0.181103 -0.151018 -0.276318 -0.0182924 -0.115186 -0.0343687 -0.0829208 -0.290479 0.303235 0.0513462 0.00926243 0.24623 0.177754
8387 0.243545 0.257057 -0.0420278 0.0147572 -0.537017 0.427108 -0.137718 -0.284397 0.0613359 0.345635 0.504436 0.393887 -0.275947 -0.522669 0.0263774 -0.190268 -0.0337138 -0.195101 -0.582522 0.576121 0.115008 0.0480149 0.492468 0.390595
4820 0.163167 0.187859 -0.0555718 -0.0157522 -0.364654 0.35875 -0.0677456 -0.259474 0.0394374 0.247836 0.392141 0.345008 -0.22996 -0.419682 0.0186565 -0.174218 -0.0250074 -0.139312 -0.46684 0.413225 0.109779 0.00450655 0.369602 0.28357
9198 0.155416 0.157045 -0.0389472 0.00402617 -0.367618 0.324677 -0.0665379 -0.215019 0.025513 0.263607 0.373199 0.328167 -0.224336 -0.392694 0.0304814 -0.135443 0.00486364 -0.164915 -0.438052 0.427014 0.0545053 0.00667476 0.358276 0.291596
9659 0.112198 0.130406 -0.049831 -0.0267085 -0.24416 0.199692 -0.0862806 -0.164991 0.0704308 0.146915 0.256324 0.190044 -0.126429 -0.27522 -0.0180499 -0.123115 -0.0167902 -0.0901431 -0.317088 0.303398 0.0437958 0.0328918 0.248718 0.196458
2183 0.0596311 0.0727786 -0.0165237 -0.0194689 -0.135362 0.121005 -0.0169265 -0.0740397 0.0152221 0.0782721 0.140921 0.0945191 -0.0533141 -0.123233 -0.0056793 -0.0442928 -0.0138719 -0.0678421 -0.139065 0.135446 0.0280522 0.0131324 0.112026 0.122526
2443 0.236476 0.25527 -0.0255985 -0.0239516 -0.519389 0.459849 -0.109671 -0.28079 0.0268535 0.368807 0.513002 0.479106 -0.26229 -0.583634 0.0726051 -0.193477 0.0240156 -0.210859 -0.639076 0.580114 0.0866302 0.0322855 0.47726 0.425252
5066 0.0706596 0.12695 -0.0101259 0.00356662 -0.254318 0.220761 -0.0680066 -0.182136 0.033951 0.194102 0.282727 0.245929 -0.146446 -0.287746 0.0191272 -0.108877 -0.00556852 -0.114243 -0.372663 0.333634 0.0712374 0.0025008 0.258309 0.220377
4065 0.165088 0.212814 -0.0359205 -0.0147015 -0.373839 0.339584 -0.107802 -0.215705 0.0197171 0.289618 0.383189 0.33285 -0.216148 -0.445346 0.0324431 -0.172772 0.0108967 -0.160594 -0.481573 0.465906 0.0897844 0.00950945 0.35989 0.32735
6873 0.242837 0.217222 -0.0556812 -0.0114791 -0.520264 0.497328 -0.124763 -0.340884 0.00458808 0.446334 0.553389 0.517604 -0.320983 -0.604566 0.0355326 -0.248613 0.013521 -0.263281 -0.729198 0.657452 0.103636 0.0251281 0.543138 0.488302
6943 0.186633 0.206339 -0.00563023 0.0133912 -0.393901 0.368651 -0.0907627 -0.222805 0.00400074 0.324598 0.403468 0.406469 -0.219044 -0.471226 0.0531769 -0.149746 0.0236044 -0.182064 -0.55054 0.521536 0.0790186 0.0364322 0.382541 0.390305
3141 0.0688823 0.0661419 -0.00668772 -0.0195508 -0.18906 0.171653 -0.0346686 -0.108313 -0.0171063 0.163604 0.210197 0.19276 -0.112871 -0.21067 0.00261888 -0.0801929 0.0261676 -0.10046 -0.229648 0.220368 0.0149006 0.0320458 0.170675 0.187655
4836 0.225296 0.245401 -0.0169265 -0.026158 -0.436934 0.408704 -0.0856696 -0.22173 -0.0023233 0.342035 0.447289 0.417617 -0.212736 -0.477747 0.0608718 -0.174218 0.0424915 -0.182488 -0.565235 0.51129 0.0494873 0.0313196 0.378392 0.405859
5688 0.138232 0.14947 -0.0488768 -0.0136618 -0.393204 0.324175 -0.0989681 -0.246625 0.0312036 0.252844 0.404301 0.337624 -0.20383 -0.401593 0.00909406 -0.16936 -0.0122611 -0.183229 -0.495689 0.43781 0.0586685 0.00720297 0.367134 0.310758
9798 0.158789 0.173883 -0.0595143 0.00714022 -0.34953 0.263584 -0.0741881 -0.206969 0.0411979 0.19076 0.33624 0.244821 -0.169681 -0.369626 0.0106042 -0.143368 -0.00906019 -0.13676 -0.392521 0.369036 0.054113 0.0110887 0.315673 0.258145
9901 0.109185 0.138619 -0.0173683 -0.00169713 -0.270638 0.225579 -0.0639362 -0.113738 0.0184865 0.199796 0.255275 0.245542 -0.137711 -0.313774 0.0348034 -0.110071 0.00545654 -0.143241 -0.326088 0.332913 0.0473394 0.033539 0.258386 0.225613
10045 0.503126 0.51296 -0.0422271 -0.0963677 -0.674559 0.484194 -0.17295 -0.0300895 -0.0154758 0.361947 0.482879 0.364703 -0.191955 -0.584944 0.0613463 -0.185378 0.173622 -0.263696 -0.538993 0.547753 -0.0711185 0.0774055 0.388916 0.349552
7897 0.040213 0.0318562 -0.0387591 0.00575529 -0.11121 0.115413 -0.0523891 -0.0719862 0.0348781 0.0723831 0.11141 0.107456 -0.0632935 -0.141154 -0.0111602 -0.0771437 -0.0367468 -0.0415451 -0.165694 0.139437 0.0176328 0.00272812 0.114099 0.0706233
8868 0.319707 0.328922 -0.0329424 -0.0150527 -0.621988 0.514028 -0.140528 -0.285522 0.0482602 0.410003 0.530768 0.477233 -0.317992 -0.588156 0.0337285 -0.222141 0.0234179 -0.242358 -0.691472 0.630122 0.078248 0.0328447 0.484753 0.456195
9004 0.0344468 0.0675442 -0.0472686 0.0167951 -0.167969 0.147484 -0.0491538 -0.13679 0.0513623 0.0942997 0.155527 0.122359 -0.102812 -0.203322 -0.0151065 -0.0813724 -0.0393625 -0.065427 -0.234718 0.194821 0.0450006 -0.0089904 0.17917 0.118736
8871 0.128674 0.131285 0.0171272 -0.00112555 -0.123497 0.20724 0.0113603 0.059027 -0.115741 0.160706 0.105225 0.174853 0.0329118 -0.179375 0.0884451 0.0236029 0.154988 -0.079483 -0.173849 0.144459 -0.00945717 0.0134514 0.012271 0.205343
0 0.735258 0.959687 0.0635874 -0.14728 -1.45115 1.62809 -0.298872 0.0549684 -0.539711 1.38712 1.45812 1.79805 -0.180287 -2.07322 0.571914 -0.118458 0.956167 -0.879898 -1.7576 1.69537 -0.113325 -0.0294495 0.616596 1.86555
4799 0.0433695 0.0427697 -0.00938353 -0.0180605 -0.104525 0.131223 -0.00819023 -0.0792187 0.000930892 0.0808519 0.12286 0.0989664 -0.0519945 -0.123787 0.0198479 -0.0590502 -0.00440176 -0.0370009 -0.171595 0.150284 0.0173558 0.0268774 0.114998 0.101613
6950 0.240671 0.261285 -0.0516465 -0.00695213 -0.495629 0.491341 -0.116307 -0.278897 0.00546249 0.385154 0.495818 0.467925 -0.271407 -0.576705 0.0461155 -0.186886 0.0270729 -0.207703 -0.638295 0.601002 0.0718467 0.028535 0.441165 0.439852
9424 0.194937 0.261304 -0.0492287 -0.0103264 -0.456482 0.387389 -0.0872041 -0.294535 0.0574404 0.322217 0.444277 0.381643 -0.255007 -0.503607 0.0281944 -0.206438 -0.00351208 -0.199768 -0.577506 0.529777 0.0747568 0.018812 0.437727 0.371429
9300 0.182643 0.186515 0.0231091 -0.0165237 -0.158132 0.252466 -0.00575217 0.0676981 -0.128676 0.241679 0.14976 0.257261 0.0194148 -0.240372 0.112611 -0.00116892 0.186963 -0.115357 -0.240039 0.206302 -0.0461679 0.00358353 0.0554066 0.289207
9616 0.0889566 0.0988618 0.0435198 -0.00918473 -0.0886485 0.125412 -0.0117104 0.0961756 -0.113916 0.131127 0.0700579 0.122315 0.0361055 -0.101361 0.0721575 0.0164691 0.126648 -0.0682527 -0.102443 0.094146 -0.0295605 -0.00412756 -0.034188 0.140283
4557 0.0380639 0.0742747 -0.0369339 0.0185114 -0.157552 0.120713 -0.0571353 -0.128845 0.0533977 0.0841235 0.150971 0.136684 -0.0848085 -0.159025 -0.0149022 -0.0861476 -0.0214714 -0.0581146 -0.213282 0.198075 0.0423127 0.000367829 0.147791 0.135489
4672 0.270108 0.262176 -0.0509711 0.00583721 -0.544792 0.467109 -0.125127 -0.26101 0.0034638 0.38231 0.544307 0.477051 -0.248479 -0.569271 0.0650977 -0.182746 0.0528165 -0.218539 -0.627077 0.598559 0.0534328 0.0449362 0.452974 0.445911
6000 0.0492749 0.0626147 -0.0333374 -0.0082063 -0.142906 0.108457 -0.0504044 -0.0955253 0.0523695 0.0800886 0.160711 0.117265 -0.0907037 -0.181252 -0.0188881 -0.0770058 -0.0196276 -0.0401711 -0.20278 0.193618 0.0527712 -0.00825982 0.154552 0.123266
9404 0.0297683 0.0484513 -0.0118974 0.0147775 -0.158248 0.10815 -0.0345162 -0.125403 0.0243201 0.0716139 0.129778 0.120339 -0.0937688 -0.147445 -0.0122024 -0.0595092 -0.050105 -0.0661643 -0.167208 0.156876 0.024427 0.00181105 0.141837 0.0954468
9495 0.264549 0.238828 -0.0280353 0.0126481 -0.499206 0.389137 -0.139682 -0.229918 0.0528265 0.304841 0.456619 0.379929 -0.209509 -0.469296 0.0202224 -0.188826 0.00114249 -0.190917 -0.559837 0.541565 0.0466254 0.0234756 0.394297 0.371699
10109 0.326157 0.34683 -0.0896721 -0.0582009 -0.559128 0.389339 -0.13996 -0.2337 0.0896236 0.276055 0.460283 0.321297 -0.277243 -0.54095 -0.00765982 -0.204413 -0.0195576 -0.221395 -0.50645 0.514899 0.00817318 0.0322345 0.441418 0.300591
10223 0.0546434 0.0983696 -0.0466459 -0.0230625 -0.152844 0.10095 -0.0250103 -0.074982 0.0450196 0.0917588 0.159365 0.0764847 -0.0659517 -0.150678 -0.00768774 -0.065448 -0.0312284 -0.0762249 -0.152042 0.149458 0.0133691 -0.0109607 0.137467 0.0803779
10235 0.309232 0.337368 -0.0613911 -0.0778159 -0.515176 0.307014 -0.177909 -0.152159 0.124675 0.174213 0.374953 0.183387 -0.173866 -0.419531 -0.0109248 -0.158519 -0.00970787 -0.187348 -0.381389 0.439745 0.0163021 0.0273765 0.38474 0.144759
10297 0.287462 1.64023 -0.187595 -0.217022 -0.23366 1.04293 0.110257 -0.473672 -0.107119 0.585967 0.232446 0.420439 -0.293994 -1.59306 0.531628 -0.0191963 -0.229254 0.0845602 -0.725643 0.244891 0.46853 -0.57271 0.188023 0.128278
5553 0.0598844 0.104702 -0.0489731 0.00398344 -0.218483 0.180974 -0.0578856 -0.159614 0.0473998 0.139619 0.240487 0.173786 -0.140474 -0.249256 0.0139831 -0.109442 -0.0654971 -0.0929931 -0.310023 0.272104 0.0487905 0.00394856 0.254898 0.163617
7565 0.200719 0.224648 -0.0281975 -0.0147598 -0.452347 0.382009 -0.114568 -0.217435 0.000122698 0.324146 0.43129 0.405106 -0.2507 -0.496836 0.0299474 -0.16802 0.00426085 -0.178339 -0.556369 0.502759 0.0794227 0.0206657 0.400882 0.371476
8259 0.196056 0.267407 -0.0418151 0.00774151 -0.491238 0.439966 -0.0973547 -0.304597 0.0518744 0.339516 0.499431 0.425231 -0.293372 -0.558605 0.0171798 -0.184502 0.00302962 -0.192081 -0.640434 0.557491 0.0979819 0.0331162 0.466482 0.412013
505 0.035517 0.0571289 -0.0421696 -0.0114018 -0.144162 0.124421 -0.0323099 -0.113072 0.0402613 0.0822314 0.138753 0.124059 -0.112989 -0.174027 -0.0112576 -0.0857555 -0.032855 -0.063442 -0.192255 0.169525 0.0248913 -0.00918155 0.141774 0.110327
5049 0.0973225 0.124926 -0.030561 0.0105951 -0.245493 0.22297 -0.043282 -0.136549 0.0420111 0.192295 0.263892 0.234213 -0.157506 -0.297315 0.0152515 -0.117401 0.0157694 -0.114967 -0.349165 0.28656 0.0628502 -0.00124259 0.235656 0.210409
9423 0.401611 0.415317 -0.0576014 -0.00872718 -0.678558 0.558388 -0.1344 -0.218943 0.00173603 0.442401 0.585905 0.519238 -0.301837 -0.680858 0.0849445 -0.200377 0.0679245 -0.280791 -0.740019 0.675369 0.0597918 0.067788 0.524683 0.500734
7380 0.0557926 0.0300438 -0.00949761 0.0169252 -0.103835 0.104251 -0.0222002 -0.0449409 0.000407188 0.0760528 0.10834 0.10351 -0.0411263 -0.125976 -0.000799196 -0.0393512 0.0271258 -0.0530113 -0.119896 0.127153 0.0217078 -0.00791395 0.105739 0.0854306
7806 0.301322 0.327626 -0.0442849 -0.0109545 -0.604171 0.542025 -0.158709 -0.325673 0.0558363 0.439147 0.589674 0.532212 -0.326737 -0.665753 0.0430813 -0.245922 0.0375385 -0.265839 -0.742234 0.710302 0.110794 0.0598727 0.559459 0.507522
8995 0.108599 0.0903244 -0.0447978 0.0121345 -0.268492 0.222113 -0.0840882 -0.173147 0.0577227 0.181601 0.269069 0.196758 -0.142907 -0.258225 0.0154753 -0.116806 -0.0202931 -0.0940811 -0.31095 0.309737 0.0327356 0.0154931 0.261126 0.197223
800 0.033874 0.0413595 -0.00583868 0.0130599 -0.121823 0.0958737 -0.0256433 -0.0996535 0.0141503 0.0611159 0.133663 0.122448 -0.0855918 -0.154464 0.00563071 -0.0366823 -0.0210484 -0.026845 -0.171358 0.158843 0.0249312 -0.0079434 0.127381 0.085219
4845 0.0483273 0.090907 -0.0386671 0.00386939 -0.206413 0.176183 -0.0453263 -0.141523 0.0477489 0.129444 0.233538 0.168807 -0.119323 -0.204696 0.00546646 -0.109496 -0.0350387 -0.0764954 -0.252906 0.261573 0.0400185 0.0147368 0.226197 0.138856
5916 0.102319 0.113132 -0.0261287 -0.00690159 -0.194337 0.178852 -0.0492857 -0.123158 0.0437771 0.143289 0.217947 0.196149 -0.107983 -0.241358 0.00128151 -0.0813139 -0.0191847 -0.11122 -0.277286 0.247783 0.0328244 0.0231468 0.191162 0.17093
2598 0.0944372 0.0684122 -0.00260421 0.0102276 -0.220396 0.203317 -0.0473543 -0.151907 0.0467466 0.156767 0.21751 0.171406 -0.109785 -0.228104 0.0186406 -0.110031 0.00278188 -0.0903017 -0.287782 0.266668 0.0549386 0.000370546 0.222793 0.196874
3281 0.0739633 0.0988774 -0.0397474 -0.00272272 -0.217497 0.195006 -0.0603921 -0.137049 0.0202846 0.174239 0.255264 0.202915 -0.145965 -0.278916 0.0254997 -0.0922649 0.000820483 -0.0851251 -0.320969 0.271717 0.0328069 0.00231643 0.23445 0.191708
5658 0.101403 0.0983231 0.0571799 -0.000237815 -0.0943344 0.157416 -0.0163765 0.0771797 -0.129951 0.148357 0.074452 0.152774 0.0464652 -0.118945 0.0677431 0.0102575 0.170046 -0.0957957 -0.102866 0.118261 -0.0434131 0.00338983 0.00183412 0.17318
587 0.0228535 0.0692001 -0.0070793 -0.00656859 -0.110933 0.123565 -0.0266736 -0.127436 0.0465177 0.100571 0.151837 0.116251 -0.095034 -0.139245 -0.0139859 -0.0846465 -0.0461646 -0.0632738 -0.165053 0.134417 0.0299706 -0.0174192 0.141531 0.0864941
5731 0.103319 0.107278 -0.0307739 0.0186576 -0.322531 0.268345 -0.070877 -0.205962 0.0245622 0.23257 0.305352 0.265603 -0.177224 -0.318795 0.00904372 -0.116868 -0.00701222 -0.141482 -0.376728 0.355572 0.0650101 0.0110416 0.299212 0.256931
9969 0.358559 0.397732 -0.0364563 -0.0432267 -0.499665 0.439181 -0.117856 -0.117615 -0.0217926 0.342818 0.411728 0.38965 -0.180531 -0.54094 0.0920279 -0.133748 0.147705 -0.237672 -0.523143 0.511766 -0.00452745 0.0500585 0.341169 0.426134
6219 0.0988872 0.0761673 -0.0249492 0.00294819 -0.207114 0.193999 -0.0487291 -0.116116 0.0311762 0.13979 0.227285 0.180265 -0.130425 -0.239954 0.0225064 -0.0694498 0.0196902 -0.106183 -0.274032 0.23628 0.0345785 0.00538987 0.192678 0.148884
8248 0.126842 0.13679 -0.0127945 -0.00275782 -0.319511 0.293539 -0.094148 -0.214562 0.0547016 0.202498 0.343064 0.282399 -0.173094 -0.343083 0.0186495 -0.139288 -0.000342786 -0.132037 -0.426677 0.374228 0.0423482 0.0101581 0.325787 0.274271
8662 0.184535 0.20724 -0.0288313 -0.0111564 -0.378514 0.303728 -0.0964449 -0.248288 0.0833589 0.220412 0.378137 0.288391 -0.211596 -0.402749 0.0135709 -0.139549 -0.0574506 -0.138619 -0.465424 0.397937 0.0855466 0.0285489 0.366484 0.264782
5727 0.0868165 0.0871016 -0.0317218 0.0128553 -0.153016 0.160656 -0.0210147 -0.0860512 0.0137388 0.111912 0.189905 0.16799 -0.0691821 -0.173213 -0.00184312 -0.0843305 0.022894 -0.0737198 -0.199183 0.220759 0.021363 0.0159849 0.172012 0.142625
7417 0.284803 0.285083 -0.054431 -0.00464664 -0.596467 0.526354 -0.142658 -0.290747 0.0510308 0.411881 0.535934 0.476837 -0.28038 -0.601134 0.0526639 -0.21366 0.0279604 -0.266185 -0.701594 0.641877 0.0941634 0.0262075 0.519007 0.485343
2052 0.0520347 0.0660823 -0.0420626 0.00291719 -0.15056 0.106126 -0.0442776 -0.085854 0.0204569 0.0692178 0.145058 0.0887559 -0.0837224 -0.14191 0.00672878 -0.0798952 -0.0166757 -0.0340388 -0.170962 0.138923 0.0409894 -0.00983242 0.123199 0.0772121
2318 0.0501162 0.0641628 -0.0120777 -0.0101458 -0.157477 0.120272 -0.0364719 -0.0802188 0.00201548 0.120499 0.168835 0.140431 -0.0978478 -0.156543 0.00791539 -0.0499667 0.0135796 -0.0645583 -0.22114 0.200004 0.0142044 0.00033588 0.141804 0.139156
4674 0.0584612 0.0728935 -0.0526046 -0.0144924 -0.231872 0.167843 -0.040134 -0.151532 0.0379519 0.136355 0.233871 0.157713 -0.124518 -0.241057 0.00294712 -0.0916099 -0.0172475 -0.0996277 -0.264977 0.237832 0.0333302 0.0118033 0.236423 0.143569
9139 0.0983131 0.0758137 -0.0265387 -0.00684251 -0.186843 0.141762 -0.0683289 -0.100391 0.028568 0.151378 0.193526 0.180797 -0.116991 -0.211864 0.0239757 -0.0991411 0.00416243 -0.0914499 -0.242747 0.240328 0.0304156 -0.0015842 0.200742 0.173908
10068 0.359319 0.408132 0.0321308 -0.0177473 -0.455352 0.524117 -0.0396621 0.0215396 -0.208165 0.475512 0.389293 0.490356 -0.0953595 -0.520959 0.153978 -0.0637963 0.268034 -0.259214 -0.526825 0.512564 -0.0201155 0.0224947 0.235184 0.523625
6752 0.0690413 0.0724698 -0.0189882 0.0168598 -0.161076 0.159212 -0.0358159 -0.0812609 0.000636967 0.123102 0.175784 0.156811 -0.114236 -0.169202 -0.00985864 -0.0852255 -0.0140365 -0.0731422 -0.217203 0.185728 0.016048 -0.0011774 0.17743 0.136798
9889 0.31326 0.309361 -0.0589058 -0.0469128 -0.485589 0.3944 -0.135566 -0.182616 0.0273399 0.30092 0.404275 0.330549 -0.246536 -0.530443 0.0367794 -0.17131 0.0277819 -0.191014 -0.475562 0.482869 0.0201153 0.0587051 0.38505 0.336272
10271 0.448782 0.681987 -0.0831584 -0.0984388 -0.590674 0.554121 -0.216475 -0.0360477 -0.00350428 0.298023 0.480901 0.442996 -0.106026 -0.644666 0.130376 -0.220089 0.147721 -0.173207 -0.604861 0.400081 -0.107331 -0.0308264 0.342743 0.356278
1647 0.0450061 0.0200638 -0.0281904 -0.0121404 -0.117275 0.0941245 -0.0268859 -0.0974057 0.0575662 0.075081 0.123155 0.108671 -0.108788 -0.145976 -0.00101118 -0.0697648 -0.0386362 -0.0307307 -0.168944 0.151974 0.022137 0.0232663 0.139245 0.0677892
2999 0.317964 0.349983 -0.0581527 -0.0117032 -0.677553 0.604907 -0.127152 -0.337911 0.00270539 0.529229 0.667804 0.59905 -0.321976 -0.758376 0.0913608 -0.233736 0.0405162 -0.277504 -0.812122 0.759127 0.0925747 0.0237398 0.597229 0.577009
3682 0.0372287 0.0524273 -0.0112122 -0.00079205 -0.141267 0.144478 -0.0562197 -0.0998227 0.044524 0.0757215 0.152395 0.137244 -0.125554 -0.155254 -0.0131788 -0.0689088 -0.0490313 -0.0633798 -0.221138 0.172294 0.0220477 0.0178465 0.169702 0.131677
109 0.0294488 0.0300388 -0.0158406 0.0140222 -0.107629 0.0891929 -0.0180308 -0.092275 0.0232049 0.0937327 0.126254 0.10052 -0.0506297 -0.139111 -0.0128254 -0.0365156 -0.0021523 -0.0475119 -0.151976 0.139994 0.00738088 0.0140357 0.116814 0.0791685
667 0.228425 0.2434 -0.047049 -0.0116955 -0.501201 0.431274 -0.0960275 -0.24477 0.00431989 0.342548 0.514016 0.42717 -0.265018 -0.539839 0.0529529 -0.180017 0.0446143 -0.230181 -0.632797 0.574774 0.054215 0.0304456 0.440537 0.432857
7340 0.0343652 0.113538 -0.0262113 -0.00218931 -0.163902 0.133387 -0.0303656 -0.13533 0.0179718 0.110204 0.132696 0.147462 -0.0937869 -0.197452 0.0102581 -0.0690277 -0.0513515 -0.0448229 -0.185602 0.187646 0.065766 -0.0282674 0.165863 0.114377
4784 0.046516 0.0333293 -0.0114702 -0.00755959 -0.150308 0.0886689 -0.0212949 -0.117886 0.0647171 0.0749181 0.159171 0.103633 -0.104218 -0.139117 -0.0110423 -0.0645721 -0.0457052 -0.055601 -0.175881 0.176851 0.058708 -0.0024857 0.15427 0.109352
7922 0.346257 0.316222 -0.0536614 -0.0198228 -0.626365 0.44508 -0.139193 -0.275055 0.116989 0.339725 0.514515 0.389068 -0.297514 -0.51714 -0.0328649 -0.234191 -0.0197011 -0.211095 -0.589847 0.583143 0.0411784 0.0516711 0.511809 0.383084
9358 0.318459 0.432013 -0.0407848 -0.0323067 -0.583164 0.48668 -0.117832 -0.279657 0.0564452 0.347405 0.470985 0.402633 -0.254877 -0.596571 0.071031 -0.212218 -0.0359521 -0.205748 -0.621013 0.531464 0.111089 0.0266292 0.460668 0.353503
63 0.0205495 0.0363381 -0.0137688 0.00019084 -0.0843741 0.0653182 -0.0377578 -0.0607431 0.0101495 0.0738883 0.118462 0.067549 -0.0693338 -0.121692 -0.00562856 -0.0607284 -0.0225411 -0.0404154 -0.142072 0.0929511 0.0226359 -0.00778404 0.111168 0.0648386
8157 0.337073 0.290903 -0.062514 0.0139136 -0.698328 0.557719 -0.166574 -0.430709 0.116043 0.431373 0.649339 0.517234 -0.427201 -0.642654 -0.0502282 -0.328875 -0.103659 -0.239189 -0.747797 0.703085 0.129053 0.078688 0.644756 0.461555
8449 0.122735 0.101441 -0.0182518 0.00391223 -0.245145 0.219113 -0.0794444 -0.155885 0.0470031 0.181232 0.270969 0.222368 -0.147689 -0.262627 0.00699409 -0.114386 -0.0182891 -0.117911 -0.301759 0.312648 0.0504517 0.00171234 0.267606 0.193936
3903 0.0284495 0.0706525 -0.0194749 0.0174624 -0.0945496 0.0996466 -0.0424996 -0.111272 0.0578786 0.0368684 0.114869 0.072346 -0.0828738 -0.14517 -0.0171132 -0.0776619 -0.0809116 -0.0416989 -0.142547 0.104266 0.0491213 0.000657058 0.126681 0.0736466
9919 1.09474 0.494239 -0.62283 -0.315417 -2.3136 0.0533746 -1.15986 -0.859833 1.52859 -0.408484 1.44308 -0.502457 -1.06902 -0.89839 -0.902645 -1.16547 -0.83915 -0.494762 -0.88628 1.37776 -0.239067 0.420853 1.88834 -0.494306
10143 0.226959 0.991581 -0.271525 -0.103325 -0.664796 0.788123 -0.0999841 -0.771462 0.340926 0.271009 0.484479 0.359419 -0.624585 -1.15415 0.0534287 -0.381891 -0.573263 0.0584639 -0.847105 0.393365 0.435545 -0.301869 0.597853 0.0448203
7880 0.042328 0.110933 -0.0367677 0.00893594 -0.165349 0.141296 -0.0639525 -0.169984 0.0562639 0.0767973 0.163206 0.121278 -0.115649 -0.196063 -0.0066392 -0.104766 -0.0587843 -0.0601344 -0.213163 0.164718 0.0559197 -0.0144956 0.160398 0.0969197
8132 0.0610642 0.048684 -0.00524626 -0.0101673 -0.11686 0.0885831 -0.0358235 -0.0745431 0.0301446 0.0751453 0.134401 0.0895805 -0.0720765 -0.127805 -0.00493927 -0.0812664 -0.0348589 -0.0492125 -0.169493 0.154213 0.0122591 0.00423033 0.143615 0.108774
10085 0.179203 0.231528 -0.0149678 -0.0211597 -0.357645 0.327625 -0.0824885 -0.142613 0.00048551 0.291138 0.368189 0.314943 -0.14931 -0.381722 0.0492056 -0.118255 0.0390801 -0.17113 -0.443827 0.386884 0.0327763 0.0117676 0.280381 0.304377
10269 0.421085 0.494899 -0.0765508 -0.117447 -0.585337 0.580537 -0.0613249 -0.0536679 -0.0962727 0.336123 0.458823 0.399054 -0.155332 -0.720376 0.143274 -0.164891 0.1326 -0.290961 -0.524779 0.513182 0.0291523 0.00727458 0.38252 0.469929
8931 0.0645565 0.0668462 -0.028347 -0.0210604 -0.173557 0.156704 -0.0212051 -0.0909957 0.0159855 0.114014 0.172108 0.121504 -0.109404 -0.192593 0.00879192 -0.0877927 -0.0115272 -0.0620795 -0.194019 0.205947 0.0507155 0.0108884 0.151807 0.117997
10244 0.134337 0.176097 0.024818 -0.0167099 -0.207773 0.236738 -0.0149279 0.00463722 -0.068174 0.208035 0.224094 0.256213 -0.0575459 -0.245788 0.0716072 -0.0323209 0.122557 -0.141997 -0.277159 0.263052 -0.00563522 -0.000740921 0.139778 0.256492
8732 0.0655465 0.0459927 -0.0465072 0.00758428 -0.181447 0.116518 -0.0525443 -0.124591 0.0424203 0.0929317 0.16998 0.112769 -0.120553 -0.191782 -0.00509053 -0.0952669 -0.0415767 -0.045538 -0.18902 0.192041 0.046954 -0.000273625 0.19268 0.100984
9420 0.306767 0.381814 -0.0572672 0.0126023 -0.598308 0.549964 -0.13309 -0.284138 -0.000308556 0.420231 0.544614 0.487975 -0.293133 -0.587799 0.0664989 -0.210581 0.0478872 -0.230662 -0.67943 0.599004 0.0747909 0.0517536 0.486222 0.447823
9543 0.124992 0.212451 -0.0589977 -0.00429828 -0.334925 0.332555 -0.0633904 -0.237004 0.0736782 0.243621 0.348144 0.313043 -0.223551 -0.402341 0.00556693 -0.138348 -0.0451915 -0.116481 -0.432208 0.390572 0.0976867 -0.0200927 0.352001 0.25221
7088 0.0246778 0.102686 -0.0304603 -0.00159727 -0.104264 0.111079 -0.049707 -0.146582 0.080743 0.061507 0.0974753 0.0554997 -0.102228 -0.186194 -0.0089301 -0.0715825 -0.102257 -0.0100005 -0.148635 0.134292 0.0728804 -0.0201773 0.145707 0.0323981
9997 0.0346461 0.684898 -0.142729 0.0178872 -0.347637 0.751865 -0.0326619 -0.600351 0.0200333 0.346749 0.389345 0.53733 -0.432904 -0.924519 0.114133 -0.20706 -0.384612 0.100433 -0.722025 0.28552 0.401653 -0.277765 0.308201 0.214573
8310 0.225914 0.259517 -0.0138624 -0.0203947 -0.486345 0.426318 -0.0957861 -0.257575 0.00737227 0.393516 0.465134 0.460049 -0.250617 -0.511722 0.036876 -0.200814 0.0425931 -0.201252 -0.586109 0.581822 0.0702972 0.0254112 0.445023 0.447838
8579 0.13057 0.137236 -0.0413728 -0.00290588 -0.375358 0.252066 -0.0963338 -0.207302 0.102736 0.185871 0.354344 0.254989 -0.192869 -0.350637 -0.00982423 -0.143949 -0.0693066 -0.131043 -0.405275 0.367308 0.0870067 0.0079466 0.365365 0.211417
9226 0.107038 0.119707 -0.0178106 0.00469579 -0.287453 0.256434 -0.069026 -0.201249 0.0316447 0.22653 0.328334 0.26674 -0.171012 -0.337577 0.0346585 -0.151194 0.00979936 -0.143023 -0.385315 0.354134 0.0699443 0.0034164 0.303486 0.229746
2403 0.10114 0.099088 -0.033025 -0.0141095 -0.231534 0.20126 -0.0381617 -0.123617 0.00497056 0.153309 0.259996 0.222188 -0.12618 -0.24549 0.0246641 -0.0873466 0.000606422 -0.0931807 -0.302808 0.263161 0.0587691 -0.00475393 0.214328 0.197829
8917 0.145035 0.225732 -0.0709464 0.00108695 -0.382214 0.38088 -0.11628 -0.211829 0.0263122 0.259287 0.414078 0.372833 -0.191449 -0.463683 0.0307759 -0.130023 -0.0177082 -0.15352 -0.485446 0.435622 0.0725515 -0.0174113 0.310409 0.333573
9607 0.20899 0.30136 -0.0792544 -0.0173419 -0.511446 0.442033 -0.137428 -0.29226 0.071655 0.312918 0.488807 0.384794 -0.276761 -0.526314 0.0133683 -0.226263 -0.0538975 -0.20103 -0.576787 0.549624 0.0979939 0.000278903 0.436738 0.340793
4066 0.0855925 0.104192 -0.0253771 -0.00901198 -0.211284 0.200739 -0.0600772 -0.12141 -0.000436765 0.200553 0.252573 0.212956 -0.130254 -0.251159 0.0397474 -0.0890718 0.0170322 -0.100945 -0.327484 0.266679 0.0357726 0.00659701 0.23269 0.233653
6066 0.266232 0.279387 -0.0299866 0.00665535 -0.542269 0.474556 -0.104033 -0.247345 0.026311 0.404113 0.508148 0.488366 -0.272756 -0.554955 0.0434959 -0.203916 0.0649353 -0.234584 -0.628661 0.611404 0.0732636 0.0491711 0.449438 0.454381
7432 0.0628485 0.0604247 -0.00896532 0.00385338 -0.113571 0.104564 -0.0295566 -0.067724 0.0294635 0.10222 0.127896 0.130512 -0.0696589 -0.162213 0.0129614 -0.076668 0.000399516 -0.0504214 -0.180781 0.159348 0.00601918 0.015117 0.136933 0.101468
7428 0.0455451 0.0588417 -0.0334547 -0.0108578 -0.171873 0.130276 -0.0540494 -0.128977 0.035471 0.0828125 0.188855 0.102436 -0.120311 -0.15993 0.00809923 -0.0743833 -0.034145 -0.0714425 -0.198738 0.190257 0.0317609 0.0257109 0.177476 0.111592
9040 0.173007 0.218438 -0.03707 0.008498 -0.379488 0.345692 -0.0958622 -0.227582 0.0596956 0.271862 0.363792 0.316106 -0.226062 -0.419756 0.0296414 -0.15911 -0.0516128 -0.14481 -0.48144 0.447432 0.102383 -0.00666011 0.351344 0.276212
10306 0.334298 0.384698 0.0220772 -0.0578925 -0.467533 0.538581 -0.063722 0.0277888 -0.187354 0.434995 0.405762 0.459334 -0.0830555 -0.521693 0.192476 -0.0521552 0.289528 -0.269136 -0.526255 0.466345 -0.049387 0.0403027 0.207844 0.474326
1427 0.00405577 0.0253846 -0.0350785 -0.00446857 -0.109612 0.0703272 -0.016759 -0.0925524 0.0511059 0.0733738 0.117508 0.0934774 -0.0699248 -0.111011 -0.0248788 -0.0438482 -0.0546313 -0.0339857 -0.137118 0.138406 0.05841 -0.00566012 0.115532 0.0859458
2091 0.0860856 0.12377 -0.0639515 -0.00193359 -0.263695 0.190164 -0.0552849 -0.188228 0.0990207 0.145958 0.297884 0.202922 -0.166747 -0.276761 -0.0227036 -0.116973 -0.0503885 -0.111805 -0.316265 0.302684 0.0583792 0.0268526 0.309312 0.182717
776 0.0535701 0.0440181 -0.033054 -0.0137616 -0.172405 0.128022 -0.0190911 -0.106122 0.0293207 0.101292 0.146084 0.136324 -0.112244 -0.162823 0.0109067 -0.0736925 0.000526239 -0.0593613 -0.201265 0.177927 0.0239281 -0.00101043 0.148529 0.116501
981 0.0488993 0.0490688 -0.0434157 -0.00574253 -0.164122 0.130597 -0.0517721 -0.0969699 0.031441 0.0969028 0.165431 0.105417 -0.0966672 -0.176076 -0.0180416 -0.08655 -0.0461206 -0.037782 -0.180828 0.186594 0.0215597 0.0240354 0.173174 0.0914064
94 0.0443185 0.0462493 -0.0126352 0.0085094 -0.117593 0.0822642 -0.0218891 -0.0941593 0.0384971 0.0851704 0.12869 0.115353 -0.0906638 -0.107904 -0.00559456 -0.0478237 -0.0238581 -0.0370664 -0.155435 0.131711 0.0106976 0.0233736 0.159003 0.0815408
176 0.117975 0.151788 -0.0190572 -0.0147896 -0.311171 0.28577 -0.0502583 -0.162754 0.0056568 0.221144 0.29416 0.28443 -0.158551 -0.357249 0.030535 -0.104013 0.0146133 -0.150686 -0.389498 0.376817 0.0513216 -0.00344008 0.284189 0.286958
2938 0.0723958 0.0630857 -0.0280602 0.00538635 -0.14505 0.129668 -0.0370003 -0.10482 0.0273224 0.126391 0.158698 0.156382 -0.107775 -0.164215 0.00561257 -0.0873039 -0.00951839 -0.0731521 -0.202257 0.210921 0.0466774 -0.010857 0.148394 0.127135
7838 0.0749687 0.0455471 0.0131766 0.000766436 -0.1123 0.138362 -0.0172401 -0.0519123 -0.0120747 0.136182 0.120821 0.161538 -0.0763284 -0.157982 0.0161973 -0.0466969 0.0488352 -0.0584698 -0.177231 0.17844 0.0111901 0.0102934 0.127499 0.156885
9188 0.255167 0.297325 -0.0553849 0.0432563 -0.585329 0.544031 -0.150421 -0.34677 0.0600671 0.42516 0.59299 0.521467 -0.371406 -0.620108 0.0586877 -0.252374 -0.0686069 -0.205908 -0.74355 0.649265 0.139589 0.0479701 0.522068 0.450386
8358 0.115259 0.139233 -0.046443 0.00352995 -0.276545 0.24712 -0.0863675 -0.199808 0.0616722 0.202947 0.285449 0.26779 -0.169262 -0.33283 0.0149449 -0.137012 -0.0255448 -0.136396 -0.384818 0.337345 0.0590047 -0.00623533 0.284492 0.232887
9315 0.105791 0.111423 -0.0365285 -0.00193633 -0.269179 0.227678 -0.0470737 -0.181903 0.0535964 0.199012 0.306813 0.221623 -0.180256 -0.319889 0.0268037 -0.128915 -0.0184558 -0.0983584 -0.348958 0.342919 0.054588 0.0314234 0.293747 0.23027
8737 0.112615 0.117527 -0.0210109 -0.0136305 -0.222599 0.172922 -0.0607782 -0.104242 0.0391055 0.139292 0.234158 0.196555 -0.103865 -0.237838 0.019874 -0.0751864 -0.00466128 -0.0921648 -0.260748 0.264133 0.0224269 0.00704773 0.204988 0.150235
9995 0.286636 0.279735 -0.0626534 -0.0459631 -0.505271 0.313 -0.177276 -0.224621 0.149004 0.178452 0.38164 0.207294 -0.232589 -0.41798 -0.0496717 -0.213221 -0.0716351 -0.141286 -0.437097 0.451177 0.00933074 0.0498458 0.424857 0.213904
5249 0.0547798 0.0304823 -0.00391225 0.00736968 -0.123329 0.110352 -0.0236068 -0.0749757 0.0405123 0.061967 0.137364 0.114402 -0.0702896 -0.123425 6.40642e-07 -0.046417 -0.0358803 -0.0663534 -0.16453 0.131862 0.0436089 0.0180392 0.122111 0.0921344
5365 0.0280118 0.0453614 -0.0285136 -0.00319578 -0.123782 0.133993 -0.0143823 -0.0847041 0.0315058 0.0793662 0.150664 0.125872 -0.0846953 -0.164609 -0.0135617 -0.0492546 0.00620855 -0.0569484 -0.181676 0.196818 0.0230633 0.0157276 0.164575 0.134686
9255 0.135506 0.151369 -0.0154959 -0.0139002 -0.292689 0.232327 -0.0665535 -0.116645 0.00840167 0.215705 0.255273 0.247979 -0.14225 -0.292058 0.0211282 -0.106548 0.0404225 -0.124306 -0.331531 0.303311 0.0164113 0.0259723 0.223185 0.219239
10063 0.343461 0.378518 -0.0227828 -0.0418297 -0.549647 0.437087 -0.161593 -0.120754 0.00209099 0.341796 0.448833 0.382875 -0.215414 -0.506247 0.0643545 -0.184135 0.0624709 -0.228025 -0.523899 0.510397 -0.02029 0.0478539 0.377995 0.355598
10272 0.402091 0.588634 0.012594 -0.0470312 -0.537252 0.574128 -0.105435 -0.039126 -0.122503 0.457336 0.464298 0.487081 -0.162295 -0.806887 0.161089 -0.146457 0.135366 -0.208627 -0.600242 0.490374 0.00913428 0.00423078 0.260516 0.463327
7809 0.0754461 0.0959609 -0.0207075 0.00627125 -0.238268 0.20818 -0.0496252 -0.17261 0.0273618 0.12842 0.235819 0.185646 -0.156392 -0.251303 -0.00924241 -0.112818 -0.0238894 -0.0986078 -0.300007 0.274253 0.0353792 0.011762 0.223106 0.18653
10053 0.182788 0.193858 -0.0505574 -0.0107303 -0.430626 0.339561 -0.0868701 -0.226443 0.0818644 0.248429 0.392813 0.313218 -0.231531 -0.406695 -0.00334438 -0.195589 -0.0231585 -0.162539 -0.465861 0.431173 0.049099 0.0329031 0.406623 0.268759
10124 0.287611 0.301715 -0.0350448 -0.0292436 -0.440166 0.417264 -0.130446 -0.129794 -0.0287171 0.331434 0.427631 0.384081 -0.157905 -0.467442 0.0659194 -0.133035 0.0920149 -0.191168 -0.469925 0.482273 0.0165443 0.036146 0.329855 0.372501
678 0.0467358 0.0484522 0.00149297 -0.0158928 -0.10605 0.0844851 -0.0445587 -0.0542095 0.0151523 0.0813353 0.0913742 0.0955223 -0.0633151 -0.131145 -0.0156392 -0.0433075 -0.0196391 -0.0625451 -0.157727 0.128321 0.0167604 -0.00594708 0.0927162 0.0809086
704 0.0394298 0.0232585 -0.0387039 -0.0136342 -0.122074 0.100576 -0.0339471 -0.0844042 0.0425202 0.0851388 0.113783 0.0871289 -0.0673401 -0.148202 -0.0098375 -0.0409536 -0.0171382 -0.0614799 -0.143702 0.135753 0.0503559 0.0206266 0.149697 0.0931805
8381 0.182903 0.238599 -0.0468721 0.0102388 -0.436971 0.35146 -0.105354 -0.219606 0.0723019 0.274488 0.414263 0.339556 -0.207612 -0.475189 0.0239466 -0.175863 -0.010541 -0.153806 -0.494139 0.462891 0.0862844 0.0151346 0.379419 0.334449
9821 0.124436 0.181231 -0.0439177 -0.0107246 -0.265695 0.265399 -0.0573895 -0.15687 0.0139665 0.189841 0.279909 0.22157 -0.15615 -0.346654 0.0220415 -0.128412 0.0028531 -0.103742 -0.355564 0.331276 0.0609266 0.0159982 0.244182 0.213277
10219 0.381627 0.432031 0.0376123 -0.028402 -0.524094 0.616503 -0.0955773 0.0192724 -0.219938 0.524874 0.472154 0.583604 -0.105678 -0.649065 0.199606 -0.0907768 0.286152 -0.312596 -0.634127 0.588205 -0.0378129 0.0551397 0.306347 0.598321
3311 0.0389166 0.0536741 -0.00231621 -0.00075417 -0.0880122 0.0939231 -0.0383961 -0.0943871 0.0335988 0.104871 0.127956 0.0952699 -0.0796437 -0.126635 0.0250849 -0.0337627 -0.0355679 -0.0376089 -0.155919 0.122531 0.0217876 0.0045641 0.101047 0.117676
5259 0.287586 0.278877 -0.0331976 -0.024017 -0.605118 0.552197 -0.12053 -0.311986 -0.0035014 0.472365 0.585283 0.56719 -0.304349 -0.664426 0.073356 -0.203388 0.0692274 -0.285626 -0.754757 0.683039 0.103326 0.0234797 0.505928 0.559964
7761 0.0853289 0.0821699 -0.0424727 0.0140647 -0.184413 0.160142 -0.0690188 -0.165212 0.0590357 0.106859 0.180443 0.13502 -0.118225 -0.21402 -0.00689515 -0.100668 -0.0653139 -0.0708971 -0.228984 0.212406 0.0738786 0.0091914 0.228779 0.122525
1782 0.0166627 0.0471882 -0.0341632 -0.0156562 -0.10393 0.0660191 -0.0132481 -0.0921105 0.0126456 0.0639234 0.110977 0.113444 -0.0674398 -0.138321 0.0136368 -0.0618454 -0.0447563 -0.0592874 -0.139205 0.121324 0.0441265 0.00101466 0.145854 0.0997916
3561 0.440234 0.462119 -0.0787107 -0.00689413 -0.856612 0.779616 -0.202405 -0.44166 0.0508427 0.61842 0.852651 0.742104 -0.454618 -0.955336 0.0936481 -0.344965 0.0393739 -0.37838 -1.04281 0.979144 0.117984 0.0607901 0.758127 0.731049
5976 0.167384 0.181631 -0.0387725 -0.0047517 -0.387033 0.371648 -0.0853633 -0.186893 -0.0220573 0.338843 0.408865 0.376426 -0.184077 -0.424719 0.0507439 -0.145921 0.0535232 -0.191372 -0.495389 0.484789 0.0642391 0.0344866 0.367992 0.398114
9961 0.248913 0.27653 -0.0372147 -0.0315617 -0.445709 0.433159 -0.0885344 -0.155309 -0.0171536 0.359254 0.391673 0.383534 -0.157168 -0.481987 0.0674658 -0.143319 0.097813 -0.205571 -0.494287 0.487917 0.0493903 0.0330552 0.31998 0.373751
10033 0.199735 0.213382 -0.0328156 -0.0162176 -0.343561 0.263203 -0.100028 -0.145321 0.0506384 0.207199 0.296746 0.246143 -0.153813 -0.353203 0.0343055 -0.121667 0.00234685 -0.134197 -0.377437 0.344658 0.0204902 0.00956221 0.305899 0.223076
10146 0.148195 0.858946 -0.296371 -0.0274187 -0.538482 0.622761 -0.0985432 -0.861499 0.395049 0.227104 0.421117 0.325038 -0.639777 -0.989666 -0.000253944 -0.41873 -0.652899 0.117994 -0.825691 0.372463 0.508157 -0.277216 0.665108 0.0625189
8092 0.189547 0.226141 -0.041589 -0.0162591 -0.453044 0.381239 -0.105921 -0.272491 0.0792843 0.306165 0.465205 0.379461 -0.264195 -0.50485 0.00129383 -0.197217 -0.0235103 -0.176864 -0.568058 0.551776 0.0873192 0.0445213 0.430106 0.350838
9504 0.186911 0.315832 -0.0691956 0.00181927 -0.433001 0.451456 -0.0850385 -0.327317 0.0550115 0.330124 0.443009 0.398976 -0.285656 -0.556344 0.0229756 -0.206493 -0.0910576 -0.154951 -0.564355 0.457599 0.139285 -0.0246776 0.385559 0.343479
9844 0.27719 0.309163 -0.0250824 0.00419381 -0.510718 0.465548 -0.104813 -0.24036 -0.0271067 0.36129 0.482858 0.449867 -0.217946 -0.530308 0.060208 -0.126453 0.0384589 -0.176431 -0.570681 0.512443 0.101935 0.029708 0.435966 0.436651
7189 0.0604315 0.0698151 -0.0295054 -0.0102973 -0.167236 0.101748 -0.0534042 -0.07242 0.0246347 0.0930641 0.145726 0.0960748 -0.067155 -0.143836 0.00161064 -0.0664201 0.00709398 -0.052169 -0.170065 0.154083 0.0291898 0.0264706 0.159193 0.126022
8741 0.12625 0.185408 -0.0433855 0.000915643 -0.343912 0.291801 -0.0665211 -0.238492 0.0325672 0.259231 0.337202 0.288298 -0.199656 -0.394665 0.00940941 -0.125609 -0.0136774 -0.12325 -0.454151 0.41603 0.0789651 0.00699787 0.328238 0.256261
9212 0.106954 0.141722 -0.0176976 -0.00734595 -0.245758 0.230922 -0.0619166 -0.130702 0.0206709 0.180929 0.236796 0.220802 -0.14579 -0.264985 0.0264877 -0.10473 -0.0155361 -0.0886656 -0.310881 0.269243 0.0173714 0.01698 0.240975 0.189341
9790 0.0756534 0.0962329 -0.00247619 -0.015002 -0.185418 0.182996 -0.0425229 -0.10866 0.024872 0.149825 0.220894 0.189204 -0.0996392 -0.211062 0.0128264 -0.0828774 -0.00802015 -0.0917005 -0.259317 0.235686 0.0439791 0.0129392 0.176804 0.154921
10140 0.605042 0.57287 -0.135804 -0.0991183 -0.833769 0.403963 -0.263208 -0.162632 0.222028 0.232783 0.532393 0.171007 -0.324126 -0.602245 -0.0622231 -0.326762 -0.0134809 -0.260093 -0.501741 0.593996 -0.0739151 0.0672375 0.54899 0.132069
9398 0.194209 0.207402 0.00181678 0.0101026 -0.363955 0.351611 -0.0807032 -0.146637 0.0094157 0.278386 0.369672 0.337235 -0.177863 -0.400985 0.034973 -0.145425 0.0645661 -0.18441 -0.442483 0.439175 0.0324723 0.0378669 0.323415 0.361363
2848 0.0342888 0.0621082 -0.0343316 -0.00128825 -0.114194 0.0692509 -0.0175782 -0.120159 0.0652935 0.0545225 0.139624 0.0981835 -0.0939773 -0.140706 -0.0176304 -0.0836392 -0.0692966 -0.0462657 -0.153121 0.119915 0.0404562 -0.0205128 0.119299 0.0644717
2954 0.0574602 0.0632628 -0.00691946 0.0146493 -0.175381 0.152407 -0.0174501 -0.075701 0.0171804 0.130592 0.180853 0.161905 -0.0916163 -0.212025 0.00880704 -0.0493825 0.00939359 -0.0926285 -0.238552 0.211117 0.0292719 -0.00175402 0.143302 0.174376
7720 0.237934 0.285728 -0.0450121 0.0109004 -0.512936 0.500085 -0.0983547 -0.253115 0.026848 0.420821 0.517321 0.482643 -0.257932 -0.599997 0.072247 -0.210929 0.0212592 -0.223371 -0.641288 0.615484 0.0876067 0.0439396 0.464286 0.471617
5634 0.107343 0.126107 -0.0458484 0.0021843 -0.270111 0.261007 -0.0545338 -0.192938 0.0583753 0.194933 0.289719 0.254595 -0.156039 -0.307662 -0.0064577 -0.115368 -0.0369496 -0.109315 -0.388221 0.355249 0.0748943 0.0238368 0.28058 0.233086
5927 0.2282 0.231899 -0.0164332 -0.0227321 -0.433914 0.413865 -0.0993847 -0.21322 0.00097821 0.339837 0.4525 0.416143 -0.219582 -0.513579 0.0573102 -0.158791 0.0295096 -0.231647 -0.58693 0.562176 0.06605 0.0456147 0.416935 0.409277
6115 0.111515 0.129516 -0.0286433 -0.0137778 -0.271304 0.228724 -0.071478 -0.170087 0.0371727 0.195812 0.311843 0.239365 -0.161079 -0.30249 -0.00249661 -0.130132 -0.0216967 -0.112506 -0.365671 0.36768 0.0363784 0.00836756 0.287348 0.246145
9660 0.105221 0.118776 0.0408258 0.00410926 -0.0766789 0.145306 0.0110745 0.0739407 -0.118797 0.126386 0.0497265 0.119609 0.0588244 -0.0831248 0.0807403 0.0140777 0.135617 -0.0861721 -0.0836521 0.115552 -0.0179043 -0.00341981 -0.0281609 0.158482
8876 0.120865 0.109924 0.0251663 0.00881734 -0.0946708 0.156039 -0.00289601 0.0781983 -0.102231 0.155308 0.0667728 0.140522 0.0529045 -0.126951 0.0941719 0.039763 0.139172 -0.0693544 -0.104505 0.10452 -0.0411836 0.0149901 -0.00515885 0.173889
5499 0.0619415 0.0494264 -0.016482 -0.00833547 -0.165505 0.118838 -0.0473935 -0.123602 0.0414066 0.103106 0.183392 0.143924 -0.111996 -0.189108 0.00807188 -0.0870906 -0.0677779 -0.0630636 -0.213449 0.178623 0.0385942 -0.0119804 0.1805 0.118835
6959 0.373195 0.388947 -0.0508658 -0.0270762 -0.729034 0.649774 -0.149885 -0.392545 0.0520396 0.53967 0.697256 0.639048 -0.390587 -0.796522 0.0818036 -0.262341 0.0328098 -0.302403 -0.880461 0.846906 0.126488 0.034572 0.656866 0.601069
7176 0.11243 0.143622 -0.0169475 -0.0121215 -0.304021 0.304463 -0.057246 -0.216467 0.0251431 0.227536 0.33718 0.304393 -0.17028 -0.344447 0.0394539 -0.126278 0.00588619 -0.136028 -0.406634 0.376941 0.0531697 0.0310191 0.329782 0.280842
1665 0.0713193 0.0729058 -0.0401905 -0.00378651 -0.193828 0.149647 -0.0454847 -0.111155 0.0363777 0.10049 0.196042 0.150283 -0.113374 -0.18921 0.0114662 -0.0771909 -0.0406312 -0.0803386 -0.247757 0.196811 0.0194398 0.0209726 0.182867 0.143891
1681 0.280205 0.311037 -0.0515571 -0.023108 -0.589642 0.579887 -0.126689 -0.301502 -0.0058949 0.444403 0.618431 0.538455 -0.327149 -0.670214 0.0813438 -0.248402 0.0594832 -0.25756 -0.740373 0.730996 0.0968088 0.0320344 0.540215 0.551793
2296 0.0533127 0.0582912 -0.0212476 0.0101957 -0.134325 0.100829 -0.0349985 -0.106052 0.0239225 0.0798374 0.140012 0.0871176 -0.0691839 -0.149897 0.0104391 -0.0559407 -0.0439489 -0.0595971 -0.153625 0.143614 0.0186499 0.0226631 0.134204 0.0675306
1751 0.0114901 0.0204442 -0.0179641 -0.0155378 -0.109025 0.0635113 -0.0154189 -0.0932792 0.0284016 0.0529608 0.0932436 0.098091 -0.076474 -0.115418 0.0066061 -0.0484151 -0.0141803 -0.01875 -0.115432 0.103779 0.0332549 0.000425826 0.116249 0.0788709
1832 0.159046 0.244397 -0.0567365 -0.0264049 -0.433011 0.403343 -0.094086 -0.30004 0.0634577 0.292325 0.44962 0.37081 -0.302804 -0.541784 0.0206435 -0.181922 -0.0627791 -0.16417 -0.568315 0.514985 0.130248 0.00668018 0.440227 0.351549
7115 0.0465548 0.0424259 -0.0397077 0.00613135 -0.146594 0.100159 -0.0490165 -0.123711 0.0215951 0.0651558 0.16187 0.127786 -0.0802127 -0.134839 -0.0213833 -0.090002 -0.0218889 -0.0754026 -0.172769 0.148719 0.0344308 0.0254156 0.133849 0.100979
9824 0.289828 0.362861 -0.0228678 -0.0194556 -0.532665 0.485886 -0.10422 -0.175821 -0.0174828 0.400479 0.470747 0.449588 -0.1869 -0.568257 0.0734826 -0.138333 0.084537 -0.236973 -0.569731 0.556992 0.0385304 0.000100098 0.413371 0.456311
10141 0.216443 0.236871 -0.0331778 -0.00784214 -0.379145 0.293033 -0.1086 -0.211603 0.0731886 0.22431 0.350523 0.252629 -0.205199 -0.400538 0.0144413 -0.139094 -0.0123841 -0.149544 -0.423723 0.40565 0.0296038 0.0017118 0.363795 0.229471
4986 0.0741045 0.0373005 -0.0144221 -0.00949359 -0.146238 0.10641 -0.0566136 -0.104429 0.0347392 0.119636 0.156219 0.141095 -0.0697618 -0.165629 0.0222555 -0.0596343 0.0135293 -0.0924384 -0.195418 0.200917 0.0276143 0.0258352 0.14597 0.113965
7794 0.179633 0.205397 -0.0312524 -0.0244083 -0.354694 0.339233 -0.0633359 -0.160556 -0.012629 0.302642 0.385433 0.359871 -0.172581 -0.433082 0.0268449 -0.125166 0.0141297 -0.152144 -0.454232 0.454725 0.059525 0.00158552 0.341191 0.34479
7895 0.213071 0.289016 -0.0478063 -0.0143564 -0.54606 0.485567 -0.111067 -0.357842 0.0546299 0.405248 0.517984 0.488362 -0.304435 -0.594859 0.0327657 -0.218626 -0.0537399 -0.21552 -0.681604 0.584887 0.141794 0.0112822 0.510936 0.415715
7026 0.0742446 0.0499616 -0.00941636 -0.0171191 -0.219078 0.152647 -0.0395788 -0.164021 0.0427782 0.126721 0.202472 0.185406 -0.149223 -0.215907 0.0130037 -0.0860299 -0.0264444 -0.100495 -0.276217 0.277466 0.0572691 0.030082 0.213437 0.175739
7098 0.31162 0.353106 -0.00609747 0.0103322 -0.583135 0.617978 -0.128608 -0.276014 -0.0341978 0.516946 0.576572 0.584548 -0.277066 -0.685604 0.104083 -0.2152 0.0868511 -0.258855 -0.74031 0.702822 0.0865943 0.0120911 0.489927 0.562561
7633 0.274716 0.298985 -0.0315286 -0.0135271 -0.580426 0.520299 -0.114951 -0.333382 0.0385266 0.41518 0.551418 0.505707 -0.326026 -0.614047 0.055786 -0.218176 -0.0150275 -0.26506 -0.686958 0.651468 0.0727519 0.0574019 0.521496 0.485091
9695 0.150493 0.178088 -0.0418329 -0.00560564 -0.349817 0.299358 -0.0644633 -0.222701 0.0776052 0.245089 0.351745 0.297409 -0.19284 -0.374373 0.01199 -0.171378 -0.0606203 -0.135379 -0.422951 0.376288 0.0707508 0.0223153 0.315018 0.242146
9935 0.121931 0.866823 -0.359325 -0.0358113 -0.696925 0.811612 -0.124132 -1.13223 0.523272 0.299338 0.63036 0.429453 -0.85451 -1.28615 -0.048084 -0.503483 -0.826516 0.109077 -1.06692 0.590592 0.586365 -0.315791 0.869265 0.101899
3993 0.0835693 0.103538 -0.0369737 -0.00365008 -0.219498 0.211226 -0.0556683 -0.145548 0.0307434 0.167432 0.237552 0.196097 -0.132972 -0.2466 0.0168935 -0.106468 0.014717 -0.110632 -0.320892 0.286131 0.0284108 0.0268827 0.241907 0.196067
7702 0.198075 0.266659 -0.0450511 -0.0174968 -0.464747 0.425488 -0.100168 -0.268876 0.0516219 0.328004 0.46524 0.416557 -0.260645 -0.51619 0.0417931 -0.199094 -0.0153193 -0.20706 -0.612548 0.540584 0.0892566 0.0382405 0.474593 0.382524
8118 0.202128 0.233192 -0.011174 -0.00782564 -0.46653 0.423963 -0.0871682 -0.246126 0.00114113 0.368922 0.459062 0.445798 -0.253362 -0.510732 0.0769544 -0.17113 0.0262675 -0.193933 -0.564402 0.554339 0.0894224 0.0269686 0.386401 0.411417
5140 0.0409166 0.035723 -0.041936 -0.00399605 -0.130776 0.0996946 -0.0345276 -0.0916034 0.0391924 0.0523225 0.12974 0.0975641 -0.0806213 -0.108062 -0.0216089 -0.0744312 -0.014658 -0.0350266 -0.154356 0.150755 0.0384734 0.0230986 0.123097 0.0777366
6532 0.0384776 0.0621193 -0.0461532 0.00583651 -0.185758 0.151645 -0.0649201 -0.124139 0.0255652 0.126499 0.193371 0.139619 -0.122069 -0.18807 -0.0214386 -0.0816909 -0.0413549 -0.0593227 -0.209534 0.202796 0.021601 0.00300805 0.197746 0.123078
684 0.020231 0.0232776 -0.00168834 0.00626295 -0.112598 0.0644143 -0.0197703 -0.097873 0.0127666 0.0773912 0.12735 0.0915638 -0.0861359 -0.131231 -0.0119469 -0.076513 -0.0297878 -0.0692176 -0.16367 0.136606 0.00358433 0.0104896 0.12152 0.0790964
3339 0.374767 0.441167 -0.0581135 -0.0133923 -0.781085 0.732324 -0.177987 -0.422531 0.0540217 0.569766 0.751721 0.668582 -0.437663 -0.842243 0.0701807 -0.324813 0.0401829 -0.337181 -0.936238 0.918973 0.127133 0.036473 0.686279 0.65394
4548 0.148776 0.161139 -0.0441816 0.00421615 -0.39878 0.349741 -0.0748126 -0.242324 0.0320916 0.287488 0.410656 0.334311 -0.216872 -0.408119 0.0112459 -0.17405 -0.00621473 -0.163547 -0.497701 0.48572 0.0621408 0.0388387 0.370903 0.339335
5405 0.087162 0.13899 -0.0392181 -0.00101337 -0.26053 0.216592 -0.0680655 -0.161424 0.0550539 0.163821 0.268027 0.233493 -0.152365 -0.317374 0.0230181 -0.12985 -0.0113481 -0.0975108 -0.322304 0.328615 0.0417675 -0.0111887 0.245953 0.216954
9999 0.139486 0.17288 -0.0360268 -0.00667426 -0.294456 0.22359 -0.102434 -0.167979 0.0631173 0.147865 0.276575 0.189323 -0.145438 -0.281906 0.00909583 -0.129797 -0.00416826 -0.114602 -0.31649 0.318901 0.0461003 -0.0013685 0.281743 0.175891
4936 0.0383915 0.0530211 -0.0322992 -0.0215713 -0.130995 0.0799018 -0.0157217 -0.109959 0.0274073 0.07989 0.125076 0.0934257 -0.0812523 -0.121333 -0.0202442 -0.0560115 -0.0287635 -0.0530489 -0.13924 0.149485 0.0419078 -0.014597 0.122878 0.0877563
7999 0.224579 0.223832 -0.0140396 -0.00982988 -0.433586 0.370006 -0.118938 -0.262705 0.0973801 0.27792 0.419149 0.349963 -0.281119 -0.434578 0.0122747 -0.168932 -0.0408462 -0.168478 -0.536077 0.472542 0.0726677 0.0436775 0.408971 0.32855
8051 0.149914 0.139186 -0.023282 0.00939316 -0.351684 0.312479 -0.0692296 -0.194077 0.014809 0.251108 0.386925 0.324965 -0.18301 -0.402196 0.0335105 -0.131672 0.016556 -0.17959 -0.435317 0.434731 0.0640025 0.0119088 0.337677 0.341389
641 0.0381286 0.0479045 -0.0528632 -0.0170127 -0.148132 0.0939437 -0.031725 -0.137458 0.0648858 0.0664479 0.124438 0.0882424 -0.0981941 -0.137235 -0.015127 -0.0742103 -0.0728217 -0.059045 -0.190753 0.136295 0.0252425 0.0186414 0.141106 0.0505731
4997 0.306618 0.292717 -0.0802331 0.0136671 -0.68812 0.608578 -0.137032 -0.44438 0.0693093 0.477041 0.707908 0.572826 -0.395041 -0.72809 -0.000825917 -0.304588 -0.0503384 -0.29428 -0.85832 0.81633 0.12766 0.0334141 0.662223 0.585948
5585 0.0308454 0.0371639 -0.0122967 0.0162931 -0.140008 0.124999 -0.0505435 -0.0660146 0.0184579 0.113903 0.128744 0.124113 -0.0646055 -0.152847 -0.00967884 -0.055879 0.00234985 -0.0427282 -0.152952 0.182238 0.0293458 -0.00684361 0.135319 0.107059
7204 0.0407339 0.0219306 -0.0253626 -0.0111678 -0.100604 0.0790848 -0.0161747 -0.0868725 0.0269784 0.0785542 0.125809 0.0851857 -0.062514 -0.100953 0.00300577 -0.0471663 -0.0156611 -0.0676608 -0.136987 0.14446 0.00681272 0.0258586 0.125248 0.103282
9481 0.347509 0.334105 -0.0134411 -0.0108151 -0.532368 0.465252 -0.114348 -0.170664 -0.00490168 0.387274 0.467324 0.392232 -0.193675 -0.539667 0.0796084 -0.159037 0.110685 -0.255604 -0.543835 0.582708 0.00407254 0.0303938 0.408897 0.403136
9591 0.0596546 0.0842854 -0.0466956 -0.0040278 -0.193871 0.166983 -0.0434801 -0.147916 0.0555219 0.137844 0.203232 0.162881 -0.120608 -0.208817 0.0117399 -0.0917489 -0.02218 -0.0786609 -0.233 0.19973 0.0309299 0.0236584 0.185749 0.117835
10192 0.401935 0.41293 -0.0762415 -0.0623201 -0.619014 0.408457 -0.172384 -0.170955 0.0977672 0.266648 0.467603 0.252535 -0.247764 -0.548591 0.0233039 -0.193066 0.0186491 -0.187811 -0.483508 0.517515 0.00930907 0.0279988 0.438943 0.268296
8226 0.0558823 0.0983881 -0.0188644 0.0021646 -0.178289 0.168475 -0.0316006 -0.112383 0.0379637 0.109954 0.154411 0.149797 -0.11333 -0.213999 0.0219777 -0.0535138 -0.0281688 -0.0819673 -0.224523 0.22219 0.0238764 0.013331 0.145935 0.126049
8810 0.126684 0.366098 -0.0961781 0.024851 -0.412686 0.488411 -0.0678753 -0.518251 0.135638 0.306078 0.416397 0.400209 -0.429926 -0.658612 0.0416432 -0.253401 -0.248283 -0.0879209 -0.6665 0.479607 0.219622 -0.076154 0.471831 0.284276
8814 0.184514 0.167969 -0.0179782 0.0089649 -0.370623 0.303653 -0.0963774 -0.225503 0.0657218 0.262893 0.382275 0.299877 -0.208322 -0.429335 0.0342776 -0.163917 -0.0303164 -0.173325 -0.4852 0.440897 0.0557694 0.00534969 0.367037 0.303552
1917 0.0481123 0.0420577 -0.0389627 -0.0137075 -0.137964 0.118501 -0.050721 -0.104312 0.0196992 0.106597 0.167399 0.113682 -0.0972944 -0.135042 0.0125927 -0.0592014 -0.0209303 -0.0737817 -0.168741 0.178163 0.0243221 0.0173121 0.153342 0.115344
9105 0.336939 0.387744 -0.0227474 0.0120626 -0.569582 0.591166 -0.0985086 -0.214286 -0.0998913 0.465197 0.520666 0.534449 -0.236812 -0.637409 0.10412 -0.144617 0.121016 -0.252898 -0.668136 0.614141 0.0582726 0.0344625 0.399274 0.512902
9936 0.144846 0.186761 -0.021769 -0.00135467 -0.357826 0.303714 -0.0779245 -0.171331 0.022341 0.238365 0.350862 0.324477 -0.170936 -0.390717 0.0388808 -0.152445 0.023386 -0.168926 -0.438366 0.395248 0.0764371 0.0300658 0.301896 0.284004
6377 0.0538735 0.0444746 -0.020227 0.0078468 -0.150394 0.123592 -0.028015 -0.112945 0.0599744 0.110135 0.179999 0.146592 -0.111174 -0.177966 0.00897161 -0.0936101 -0.0485745 -0.0812761 -0.210723 0.207988 0.0313862 0.018253 0.160809 0.136961
8452 0.145181 0.142371 -0.00559382 -0.0199673 -0.319343 0.310991 -0.0732888 -0.16242 -0.00015331 0.241786 0.320817 0.309768 -0.160117 -0.379489 0.0257259 -0.101121 0.00993028 -0.130489 -0.410073 0.382094 0.0480132 -0.00552831 0.284718 0.282284
8649 0.117528 0.151323 -0.0372745 0.00691448 -0.274314 0.227241 -0.0487105 -0.164832 0.0486201 0.207463 0.291523 0.243494 -0.170438 -0.304849 0.0266685 -0.123544 -0.00576394 -0.123313 -0.377233 0.341134 0.0522795 0.0189641 0.276075 0.224947
9033 0.088888 0.0859498 -0.0324379 0.0234283 -0.251652 0.240675 -0.0814971 -0.166161 0.0440989 0.196749 0.283209 0.255368 -0.179579 -0.286066 -0.0106889 -0.103515 -0.0392958 -0.132952 -0.377114 0.348757 0.0684125 -0.00270947 0.278591 0.245642
9203 0.215127 0.27519 -0.070211 -0.00354461 -0.524233 0.441523 -0.143072 -0.280293 0.051351 0.341082 0.477097 0.394022 -0.292792 -0.533341 0.0356815 -0.2229 -0.029457 -0.21949 -0.593237 0.560105 0.0917202 0.0200775 0.46986 0.371679
9480 0.276251 0.265342 -0.040547 0.0182901 -0.554154 0.433104 -0.129909 -0.28494 0.0361743 0.37952 0.497744 0.414609 -0.266963 -0.548673 0.0390828 -0.203011 0.0200714 -0.201321 -0.607133 0.562504 0.0547248 0.061424 0.464652 0.399672
4628 0.0161297 0.0581619 -0.0275573 0.00834402 -0.118687 0.0840387 -0.043865 -0.116049 0.0563286 0.0831479 0.131511 0.0758034 -0.0898538 -0.136956 -0.00373363 -0.0732772 -0.0376729 -0.0528295 -0.191256 0.155237 0.065205 0.00441526 0.172699 0.0749357
4932 0.245568 0.269571 -0.025452 -0.031925 -0.547583 0.488731 -0.107386 -0.257665 0.0340791 0.411526 0.560193 0.492581 -0.286254 -0.584456 0.0359586 -0.218267 0.0161023 -0.254923 -0.6519 0.645668 0.0673837 0.0375239 0.486619 0.44973
7730 0.188681 0.22262 -0.0241553 -0.0022032 -0.404959 0.375526 -0.0859918 -0.231692 0.0531737 0.300492 0.398368 0.361197 -0.220468 -0.445216 0.0347086 -0.170759 -0.020049 -0.189484 -0.543448 0.468436 0.0942542 0.0199402 0.40717 0.3455
8748 0.0243026 0.0479965 -0.0242407 0.00707583 -0.135785 0.0874282 -0.0146462 -0.0704969 0.0161178 0.0971431 0.118724 0.0991106 -0.0565567 -0.146985 -0.00087117 -0.0708572 -0.00418306 -0.0346269 -0.155853 0.153965 0.0300687 -0.0105693 0.112858 0.0968983
8911 0.732831 0.563116 -0.122422 -0.0493118 -0.894519 0.57397 -0.337989 -0.296945 0.132957 0.275028 0.618 0.263901 -0.296318 -0.577745 -0.00590057 -0.141094 0.0211612 -0.237243 -0.540915 0.668898 0.00493617 0.213686 0.491482 0.395148
9729 0.143384 0.127708 0.0511853 -8.7289e-05 -0.131807 0.18781 -0.0281482 0.0602541 -0.117108 0.203156 0.133524 0.203202 -0.00246243 -0.168618 0.0766713 -0.0118818 0.137088 -0.103815 -0.189851 0.170824 -0.0280312 0.00254026 0.0389097 0.206112
3499 0.00399197 0.0396553 -0.00544524 0.0131811 -0.117243 0.0994181 -0.0265441 -0.114487 0.0373824 0.0677174 0.119322 0.0939171 -0.104967 -0.128314 0.00500948 -0.0528372 -0.0399669 -0.0463224 -0.148674 0.15186 0.0559863 -0.0010883 0.126827 0.090323
6086 0.238948 0.245465 -0.06 0.012732 -0.478534 0.426245 -0.110086 -0.271568 0.0528486 0.334743 0.509705 0.429978 -0.260229 -0.527287 0.051918 -0.18765 0.000142793 -0.236248 -0.621328 0.578779 0.0791326 0.0483149 0.465654 0.398679
5882 0.0641335 0.0553857 -0.0402359 -0.00990699 -0.185052 0.159803 -0.0584289 -0.108698 0.0343809 0.113307 0.189076 0.150413 -0.0944758 -0.194978 0.00145602 -0.10675 -0.0247732 -0.0771095 -0.225767 0.245349 0.0314085 0.0140638 0.187678 0.145637
6141 0.435581 0.549471 -0.0588316 -0.0131972 -0.846257 0.837219 -0.181344 -0.420759 0.00496731 0.670548 0.778867 0.740502 -0.409461 -0.973766 0.0999043 -0.311872 0.0667898 -0.353135 -1.0273 0.927626 0.146276 0.00881296 0.681481 0.703608
6629 0.0546745 0.0591228 -0.0376726 -0.00319573 -0.186079 0.1463 -0.0339353 -0.132213 0.0386867 0.0940083 0.200538 0.119516 -0.0958909 -0.183257 -0.0228139 -0.0944947 -0.044442 -0.0506485 -0.216338 0.223842 0.0218309 0.00945635 0.192704 0.13709
5197 0.0236777 0.0322379 -0.0327534 -0.0109067 -0.127102 0.0945522 -0.0177312 -0.0772917 0.0190146 0.0885518 0.107866 0.0896944 -0.0763254 -0.136429 -0.0165079 -0.07294 -0.0456367 -0.0239314 -0.161717 0.155098 0.0212136 -0.00999795 0.144154 0.087919
8859 0.340682 0.402805 -0.0568505 -0.00547759 -0.636913 0.575513 -0.135494 -0.288853 0.0824041 0.411478 0.581679 0.459976 -0.309838 -0.652881 0.0645724 -0.227488 -0.0397802 -0.214615 -0.71028 0.636908 0.13028 0.00989266 0.558047 0.458244
6581 0.0879042 0.109929 -0.0614108 0.010673 -0.258243 0.211271 -0.0864279 -0.211726 0.0562424 0.172815 0.270545 0.214061 -0.158154 -0.299343 -0.0218761 -0.118877 -0.0753326 -0.0804926 -0.306261 0.289582 0.0766828 -0.00893754 0.270624 0.182536
6586 0.0637769 0.0577289 -0.0474332 0.000486174 -0.20193 0.172078 -0.0385639 -0.167656 0.0651029 0.126594 0.206507 0.168365 -0.123615 -0.219431 0.00060396 -0.080895 -0.0629417 -0.0880346 -0.234549 0.216585 0.0697039 0.0229038 0.195615 0.123492
7892 0.0413404 0.0506359 -0.0323544 -0.00643248 -0.141319 0.140553 -0.0371082 -0.0697285 0.0265395 0.102047 0.172665 0.136058 -0.0996562 -0.167706 0.0130497 -0.0809975 -0.00807217 -0.081746 -0.185429 0.177506 0.0267108 0.0228738 0.156889 0.129113
967 0.0520414 0.0635605 -0.0251664 0.00517652 -0.118614 0.0852166 -0.021623 -0.0701624 0.0279933 0.0704895 0.127707 0.106143 -0.0489917 -0.135282 0.0139216 -0.0388991 -0.00722034 -0.0652644 -0.158413 0.13321 0.0320135 0.00734394 0.127933 0.0782454
1226 0.246344 0.300841 -0.039879 -0.0208142 -0.567761 0.501059 -0.145619 -0.278191 0.0114291 0.40998 0.558668 0.52025 -0.287969 -0.620034 0.0653131 -0.206323 0.04552 -0.244463 -0.693244 0.652021 0.0995312 0.0337076 0.489521 0.499537
1417 0.140695 0.154191 -0.0117186 0.00836691 -0.275563 0.286852 -0.0827613 -0.169991 0.0324675 0.230889 0.318193 0.27429 -0.163482 -0.338855 0.0434215 -0.132584 -0.00489538 -0.127005 -0.377212 0.351826 0.0678797 0.00342376 0.283206 0.260481
6031 0.100068 0.0861018 -0.0360827 0.0106878 -0.227549 0.19752 -0.0373705 -0.129972 0.0254594 0.18284 0.222859 0.206893 -0.118118 -0.239747 0.0261081 -0.0896025 -0.0164371 -0.101035 -0.314866 0.274315 0.0371457 0.00638322 0.236147 0.188908
10098 0.255307 0.298479 -0.0406965 -0.0528794 -0.449346 0.347172 -0.111079 -0.172962 0.0279916 0.28517 0.397023 0.322462 -0.183161 -0.473313 0.0255307 -0.171214 0.0540914 -0.197679 -0.462853 0.470008 0.00928921 0.0133679 0.367733 0.285746
10227 0.335945 0.366863 0.013036 -0.0444191 -0.496829 0.464095 -0.0923259 -0.0307143 -0.128404 0.387809 0.435757 0.429445 -0.106823 -0.538435 0.130434 -0.119497 0.180742 -0.251333 -0.543051 0.505414 -0.0356494 0.0571844 0.29487 0.45902
5080 0.092461 0.0837164 -0.030553 -0.0210666 -0.20117 0.193074 -0.0321603 -0.122315 0.0281769 0.181198 0.215331 0.197973 -0.137816 -0.238124 0.031467 -0.0746648 -0.0071827 -0.0962869 -0.298283 0.292596 0.051554 0.00822364 0.204295 0.205074
6728 0.232804 0.288349 -0.034684 0.00429691 -0.548146 0.515205 -0.100426 -0.302759 0.0138458 0.406427 0.535369 0.500967 -0.282255 -0.589048 0.0503908 -0.207629 0.0351608 -0.248833 -0.678846 0.639236 0.102694 0.0418022 0.495068 0.504853
8114 0.0596197 0.0846015 -0.0116067 0.000241713 -0.149312 0.159717 -0.0264771 -0.0765111 0.0248438 0.113457 0.175532 0.167392 -0.0861029 -0.18024 0.0370232 -0.0595757 0.00679612 -0.0564123 -0.203979 0.182804 0.0330601 -0.014155 0.169912 0.166317
5652 0.0906017 0.080734 -0.0187419 -0.00605161 -0.207285 0.154316 -0.0643476 -0.0824577 0.0191985 0.145244 0.192054 0.155086 -0.0944607 -0.199165 0.0265683 -0.0795644 0.0294152 -0.105576 -0.240027 0.221653 0.0405335 0.0103732 0.181633 0.151124
7166 0.0923823 0.0983585 -0.008394 -0.00861212 -0.246632 0.19973 -0.0637287 -0.182071 0.0189685 0.18044 0.253935 0.228086 -0.130675 -0.279272 -0.00274956 -0.111773 -0.0246012 -0.104509 -0.315704 0.282026 0.0355068 0.0206816 0.237785 0.215289
8425 0.257386 0.278427 0.00275543 0.0053252 -0.464896 0.451085 -0.0840039 -0.15228 -0.0192912 0.37189 0.456279 0.453902 -0.209946 -0.529063 0.0710446 -0.156658 0.102794 -0.213316 -0.576777 0.555409 0.0390208 0.047494 0.375491 0.458673
7532 0.0327744 0.0737314 -0.0176652 0.00886305 -0.14018 0.138004 -0.0476613 -0.120854 0.0461422 0.117226 0.148067 0.13669 -0.0884007 -0.151611 0.0134981 -0.0755955 -0.0213141 -0.0672804 -0.20021 0.174186 0.0591231 0.00537371 0.154761 0.115758
7155 0.0395439 0.0379419 -0.03665 -0.0136359 -0.135869 0.0957877 -0.0240381 -0.101954 0.0490529 0.0746781 0.13774 0.101108 -0.101058 -0.169318 -0.0212698 -0.0904221 -0.00707568 -0.082988 -0.192351 0.172869 0.0381419 0.0141585 0.169244 0.103243
8872 0.124877 0.181711 -0.0469893 0.00868777 -0.29996 0.28759 -0.0816821 -0.164191 0.0228036 0.202366 0.287434 0.273624 -0.143875 -0.325877 0.0479381 -0.132491 0.00370536 -0.12253 -0.348289 0.343581 0.070204 -3.16382e-05 0.274102 0.243367
7116 0.0808042 0.0888706 -0.00776279 0.00513036 -0.204365 0.156468 -0.0624776 -0.132977 0.0558185 0.114185 0.191193 0.150058 -0.115634 -0.220553 -0.0174853 -0.0683781 -0.044726 -0.0877613 -0.236703 0.240924 0.0535551 -0.0132465 0.200595 0.160497
8362 0.192564 0.255835 -0.0339501 0.0100998 -0.392635 0.353064 -0.0955632 -0.264529 0.0768186 0.293712 0.388713 0.339049 -0.211854 -0.465703 0.0358193 -0.181964 -0.0375623 -0.155602 -0.492445 0.453769 0.108829 -0.015776 0.358482 0.314097
8477 0.12596 0.222562 -0.0424888 -0.00798929 -0.361212 0.297107 -0.0805157 -0.25251 0.062272 0.242136 0.373803 0.292944 -0.234816 -0.405747 -0.00463972 -0.144997 -0.0573014 -0.1351 -0.468613 0.417363 0.110354 -0.0055743 0.358439 0.270973
5549 0.0730573 0.0556382 -0.024132 -0.020247 -0.102205 0.0900671 -0.0396075 -0.0450713 0.0171515 0.0652543 0.109785 0.0827231 -0.0588587 -0.117031 0.000777699 -0.0594049 0.0340153 -0.044026 -0.123332 0.130933 -0.00458097 0.0110612 0.0934264 0.0860922
6371 0.219054 0.26701 -0.0559309 -0.016624 -0.463789 0.474852 -0.0828649 -0.260221 0.0213694 0.358755 0.488589 0.425924 -0.241914 -0.537367 0.0548144 -0.191996 0.0424085 -0.212996 -0.628522 0.587616 0.0774719 0.0103203 0.451178 0.428646
8815 0.125539 0.186072 -0.040009 -0.0107566 -0.320351 0.314046 -0.076415 -0.195789 0.0405088 0.225319 0.315785 0.315619 -0.19338 -0.387534 0.0583113 -0.127783 -0.0192775 -0.137265 -0.437352 0.342724 0.0937387 -0.0237274 0.284135 0.284724
4617 0.124498 0.0976306 0.0319589 -0.00666951 -0.0914492 0.162755 -0.00514041 0.100585 -0.124056 0.137169 0.0709915 0.146548 0.05097 -0.122024 0.103517 0.0290253 0.154523 -0.0694841 -0.080817 0.106242 -0.0243141 -0.00407901 -0.00436524 0.146649
8800 0.0917175 0.150956 -0.0205613 0.0103916 -0.23745 0.202079 -0.0434215 -0.18005 0.0569801 0.140534 0.23794 0.178994 -0.152523 -0.286045 0.0042224 -0.114786 -0.0155248 -0.069055 -0.295915 0.270457 0.0672331 0.00886332 0.245004 0.156925
9220 0.186874 0.22469 -0.0226406 -0.00803868 -0.434129 0.362462 -0.0951653 -0.245968 0.0377869 0.315394 0.441782 0.355662 -0.249282 -0.487168 0.0248411 -0.172809 0.0107409 -0.187543 -0.500584 0.4805 0.0793374 0.0258356 0.383794 0.360215
9434 0.189254 0.175447 -0.0359645 -0.00192659 -0.377887 0.322646 -0.102892 -0.186786 0.0164142 0.264133 0.349226 0.32356 -0.176574 -0.38711 0.0439658 -0.121618 0.0418252 -0.161831 -0.448369 0.418542 0.0596517 0.0255975 0.324529 0.3238
1461 0.0465309 0.0342174 -0.0325036 0.00563218 -0.12625 0.11803 -0.0414788 -0.112191 0.0399565 0.0730384 0.135175 0.116911 -0.06538 -0.132733 0.0117655 -0.0600984 -0.00441812 -0.0747405 -0.18449 0.155902 0.0240095 0.00701564 0.140926 0.119605
2936 0.0323604 0.0410003 -0.0409737 0.00969598 -0.120989 0.115241 -0.0258839 -0.125576 0.0382653 0.0821671 0.146055 0.11926 -0.102997 -0.168564 0.0061002 -0.0540241 -0.0387949 -0.0464826 -0.184743 0.160755 0.016805 -0.015498 0.153295 0.0998933
9074 0.0602412 0.145338 -0.0802082 -0.0110347 -0.223712 0.215527 -0.0416013 -0.232668 0.0910791 0.141171 0.222152 0.169527 -0.215803 -0.295611 -0.0186533 -0.152441 -0.115147 -0.0687904 -0.327567 0.234538 0.118489 -0.0284795 0.260341 0.117991
9313 0.111964 0.128407 -0.0534931 -0.0171402 -0.272093 0.207411 -0.0753701 -0.157598 0.0681406 0.163475 0.244807 0.197489 -0.158427 -0.265443 0.01458 -0.136272 -0.00985366 -0.0931079 -0.292955 0.286828 0.02736 0.0326087 0.235087 0.181998
3112 0.0309532 0.0223133 -0.0280813 -0.014109 -0.107811 0.0778302 -0.0230774 -0.112414 0.0485015 0.0649068 0.131308 0.0870901 -0.066996 -0.112301 0.0117272 -0.0410035 -0.0472516 -0.0491745 -0.158059 0.153504 0.0439886 -0.000336451 0.139299 0.0965376
4984 0.327726 0.373006 -0.0463595 -0.00347974 -0.661835 0.632684 -0.159002 -0.348255 0.00413068 0.505131 0.659636 0.629134 -0.329326 -0.746176 0.0940261 -0.240644 0.0521796 -0.330667 -0.831047 0.791944 0.0967105 0.0221037 0.595145 0.589373
9249 0.0991837 0.116063 -0.0326326 -0.00884592 -0.229454 0.171719 -0.0544745 -0.144372 0.0453364 0.151782 0.208837 0.164113 -0.124589 -0.251252 0.0109921 -0.110198 0.000440828 -0.0920831 -0.245946 0.238614 0.0524167 -0.00606823 0.227337 0.147438
3457 0.0886745 0.070546 -0.0295867 -0.0117041 -0.198933 0.177398 -0.0582988 -0.157163 0.0314275 0.14853 0.227645 0.178943 -0.12998 -0.215594 -0.0105074 -0.0951 -0.0350423 -0.103923 -0.30309 0.260859 0.0442895 0.0297804 0.219387 0.161086
7989 0.267841 0.316001 -0.0549077 -0.0138826 -0.564747 0.53291 -0.138571 -0.302057 0.00767491 0.434729 0.582975 0.542536 -0.326796 -0.64935 0.045405 -0.230958 0.028662 -0.244339 -0.730151 0.662791 0.0863551 0.0475606 0.53531 0.513244
8951 0.0707079 0.0769202 -0.0420935 0.0170861 -0.214892 0.196138 -0.0596193 -0.146192 0.036481 0.122163 0.248801 0.195659 -0.126692 -0.230118 0.00322099 -0.10169 -0.0351609 -0.073051 -0.282199 0.279268 0.0629176 0.0302142 0.234984 0.184774
1495 0.0783392 0.0513775 -0.0129079 -0.011108 -0.180206 0.109574 -0.0629727 -0.10195 0.0202915 0.105839 0.164611 0.149662 -0.0845692 -0.181799 0.00984177 -0.054277 -0.00613544 -0.0596887 -0.192809 0.188924 0.00649685 0.0150557 0.183479 0.148134
1982 0.0280026 0.0331729 -0.00869029 -0.00194794 -0.141258 0.119379 -0.036053 -0.0784302 0.0308163 0.0772564 0.121072 0.112216 -0.0733762 -0.140638 0.0055159 -0.0478342 -0.00871453 -0.0822652 -0.167405 0.155683 0.0337461 0.00479796 0.131353 0.130468
2013 0.0547032 0.0579445 -0.0264676 -0.000231734 -0.163894 0.157888 -0.0360612 -0.128414 0.0298574 0.126187 0.188293 0.140773 -0.108844 -0.221814 0.0249538 -0.101116 -0.0153343 -0.0881764 -0.239383 0.234181 0.0379263 0.0159567 0.168607 0.13203
5193 0.0623974 0.075578 0.00835393 0.0174415 -0.136185 0.144434 -0.0450855 -0.0691685 -0.00716652 0.100051 0.142864 0.119866 -0.0861631 -0.168557 0.00945809 -0.049785 -0.00488453 -0.0467045 -0.164921 0.153953 0.0136444 0.0244114 0.143462 0.124902
8084 0.252978 0.323961 -0.0121021 0.0100636 -0.513034 0.538838 -0.110411 -0.280746 -0.0169632 0.427669 0.511306 0.509071 -0.253324 -0.607027 0.0769784 -0.201653 0.0404665 -0.217898 -0.673496 0.600711 0.105382 -0.0096486 0.442781 0.452712
8273 0.038417 0.096422 -0.0416207 -0.0106407 -0.179616 0.180359 -0.0323996 -0.171058 0.0504666 0.1316 0.195375 0.155014 -0.135546 -0.242819 -0.000936138 -0.0854995 -0.0815267 -0.0717831 -0.25652 0.205514 0.0635225 -0.0209211 0.224928 0.127072
1963 0.0283297 0.05111 -0.0216528 0.0137278 -0.134085 0.0873856 -0.0232739 -0.08692 0.0205935 0.0944372 0.147891 0.12161 -0.0863816 -0.149925 -0.00457419 -0.0569396 -0.0160694 -0.030068 -0.173117 0.149179 0.0236786 0.0175821 0.132199 0.0921087
3702 0.215386 0.277827 -0.016182 -0.019262 -0.500035 0.483043 -0.100348 -0.244652 -0.00148241 0.39716 0.498004 0.467338 -0.265115 -0.552309 0.076841 -0.162772 0.0665735 -0.222853 -0.624307 0.583441 0.0693517 0.0269518 0.432077 0.459568
5705 0.276488 0.292676 -0.0665262 0.0063956 -0.574464 0.558354 -0.124685 -0.353933 0.0201929 0.428804 0.614911 0.539553 -0.3455 -0.679204 0.0404371 -0.262663 0.011001 -0.257669 -0.747655 0.710862 0.123982 0.0193053 0.550182 0.508443
6970 0.104103 0.103677 -0.00332632 -0.00524617 -0.248657 0.184219 -0.061348 -0.129461 0.0215367 0.153354 0.245519 0.198483 -0.0992656 -0.240191 0.0269848 -0.0724795 0.0259487 -0.114667 -0.272778 0.268596 0.0312182 0.00821467 0.196015 0.197732
7622 0.14653 0.15872 -0.0121879 -0.0165161 -0.277097 0.269906 -0.0699976 -0.15738 0.018642 0.218611 0.286903 0.23871 -0.140566 -0.306689 0.0227204 -0.107933 0.0206391 -0.107964 -0.354124 0.346852 0.0509734 0.00752466 0.251148 0.238126
9674 0.263392 0.311785 -0.0703589 0.0261047 -0.540251 0.542297 -0.152254 -0.282032 -0.0242016 0.345572 0.465989 0.442936 -0.265389 -0.548035 0.0249586 -0.129264 0.0241341 -0.222277 -0.545138 0.548582 0.08727 0.0175256 0.372301 0.419403
2614 0.0493154 0.0317194 -0.0110898 -0.0136387 -0.12706 0.0848919 -0.0489753 -0.0611665 0.0395326 0.0683338 0.129839 0.0768832 -0.0655718 -0.108257 0.0119108 -0.0735696 -0.0286127 -0.0283432 -0.159773 0.123545 0.0362298 -0.013557 0.111449 0.0955621
6243 0.246112 0.263755 -0.0396336 0.0111013 -0.552416 0.486748 -0.112187 -0.30129 0.041508 0.403018 0.530791 0.484683 -0.307381 -0.596995 0.0562742 -0.211944 -0.00186208 -0.259377 -0.691687 0.618282 0.0733492 0.0296649 0.476386 0.490055
6368 0.111967 0.110994 -0.016124 -0.0244727 -0.209788 0.197191 -0.0682786 -0.101103 0.0176747 0.140619 0.217797 0.167646 -0.100422 -0.215123 0.0187751 -0.0996528 0.0220154 -0.111144 -0.248906 0.256669 0.0162661 0.0172476 0.18872 0.176062
9247 0.0869112 0.0648413 -0.0354908 -0.00973278 -0.190103 0.144993 -0.0374011 -0.0938254 0.014823 0.139583 0.196462 0.149893 -0.100259 -0.200775 0.0191075 -0.0913654 -1.44473e-06 -0.0731465 -0.24941 0.226798 0.0132217 0.0356335 0.180947 0.166862
9871 0.216135 0.246442 -0.0341382 -0.0365757 -0.419492 0.356877 -0.107314 -0.184383 0.0453845 0.279904 0.397145 0.327838 -0.217776 -0.451813 0.0426932 -0.172991 0.00721549 -0.166584 -0.495834 0.483176 0.0350704 0.0512765 0.357678 0.307062
10004 0.202754 0.242844 -0.0325219 -0.00876446 -0.410036 0.314407 -0.0924221 -0.204458 0.0524582 0.262254 0.377487 0.288596 -0.228849 -0.454772 0.00601241 -0.16693 -0.0280801 -0.183155 -0.457086 0.429651 0.0671682 0.039062 0.393664 0.276067
3214 0.127658 0.136339 -0.036567 0.0153541 -0.323403 0.31176 -0.0633704 -0.208224 0.0446753 0.221283 0.326044 0.309574 -0.188291 -0.375769 0.0358214 -0.130675 0.0117038 -0.138944 -0.402162 0.370759 0.0542427 -0.00755065 0.328208 0.263579
9324 0.117905 0.11092 -0.0422768 0.0132112 -0.28071 0.21754 -0.0732283 -0.161509 0.0454826 0.150254 0.263639 0.227417 -0.139966 -0.297788 0.0211808 -0.0988536 -0.034982 -0.128781 -0.336255 0.299098 0.0705162 0.0262361 0.246556 0.199173
3891 0.0522835 0.0641677 -0.0155267 -0.00904975 -0.112246 0.110285 -0.0415409 -0.103786 0.0335205 0.0987567 0.144273 0.129413 -0.0843066 -0.139564 0.0266648 -0.0515959 -0.0019052 -0.0711027 -0.175605 0.155663 0.0266347 0.00718197 0.137168 0.113257
6567 0.0959187 0.114 -0.00247697 -0.00954023 -0.222785 0.2121 -0.0538833 -0.137688 0.000995143 0.197806 0.252846 0.215031 -0.109484 -0.279649 0.0233667 -0.0905608 -0.00527061 -0.0986114 -0.30947 0.272194 0.0518786 0.0183344 0.237323 0.200899
5687 0.0458472 0.0437151 -0.0275295 0.0158798 -0.0945048 0.109127 -0.00946976 -0.0446966 0.00219968 0.0908792 0.108735 0.11813 -0.0721057 -0.121382 0.0290582 -0.0622943 0.0143122 -0.0388999 -0.155809 0.117827 0.00558372 0.000624598 0.0901949 0.0794889
7351 0.0704573 0.118383 -0.037861 0.0125395 -0.251334 0.207645 -0.069386 -0.186761 0.0545305 0.166923 0.268747 0.193489 -0.162005 -0.24892 -0.00783828 -0.112103 -0.0143539 -0.113949 -0.290918 0.300025 0.0646557 0.0234793 0.2338 0.192362
8600 0.179201 0.176346 -0.033765 0.0124995 -0.393285 0.357465 -0.107418 -0.185377 0.0266375 0.292394 0.397025 0.356479 -0.213291 -0.422976 0.0301651 -0.166557 0.00901377 -0.164053 -0.501184 0.469928 0.0664754 0.0040142 0.337471 0.344885
2535 0.075311 0.0844045 -0.0235105 0.0150512 -0.208581 0.193905 -0.0566551 -0.108146 0.0385982 0.147809 0.22716 0.192504 -0.111912 -0.215522 -0.00496193 -0.10387 -0.0233206 -0.0940647 -0.274742 0.267902 0.0504552 0.00247791 0.212022 0.183409
6035 0.231369 0.217919 -0.0535766 -0.0109123 -0.480847 0.46141 -0.129435 -0.274333 0.0294563 0.377374 0.519084 0.453598 -0.282446 -0.562396 0.0239803 -0.187272 -0.00486088 -0.244711 -0.619872 0.583453 0.0760096 0.00985479 0.475749 0.457052
8548 0.0867167 0.0589556 -0.0330217 0.00647446 -0.19837 0.136207 -0.0455154 -0.159673 0.0438299 0.0920283 0.183868 0.126442 -0.108839 -0.215198 8.08792e-06 -0.0834699 -0.0442799 -0.0749693 -0.22331 0.24381 0.0495798 -0.00298445 0.207402 0.121542
6152 0.000826514 0.0073679 -0.0475942 0.0194192 -0.0888379 0.0647391 -0.0518607 -0.136475 0.0586095 0.0425339 0.13118 0.0629519 -0.0911577 -0.140984 -0.0104053 -0.0572709 -0.08135 -0.0302744 -0.159984 0.150663 0.0632358 -0.00143452 0.14187 0.0677954
8967 0.274065 0.298702 -0.0607373 0.00302414 -0.587549 0.493464 -0.136657 -0.333669 0.0583484 0.386424 0.540973 0.44398 -0.326355 -0.577179 0.0164731 -0.21471 -0.033687 -0.193094 -0.667999 0.633591 0.105512 0.0131653 0.509163 0.417252
9653 0.223296 0.319576 -0.0489127 -0.0276036 -0.441543 0.497703 -0.0875832 -0.28431 0.0223714 0.3764 0.430158 0.436202 -0.266916 -0.571576 0.0676831 -0.154139 -0.0165394 -0.187394 -0.583993 0.512085 0.11063 -0.0271618 0.370829 0.371345
8375 0.125184 0.107825 0.0534863 -0.0264065 -0.0784206 0.148804 -0.00662205 0.0932359 -0.120409 0.151432 0.0816816 0.158228 0.0274203 -0.097502 0.0639269 0.028973 0.160214 -0.0866682 -0.103573 0.115804 -0.0226027 0.00130698 -0.0160055 0.145929
9322 0.0598352 0.064755 -0.0393943 0.0119139 -0.190018 0.144185 -0.0706714 -0.169084 0.0655552 0.116821 0.201021 0.147689 -0.116155 -0.220267 0.0154272 -0.0914765 -0.0244032 -0.0801354 -0.254605 0.247075 0.0646323 0.0254676 0.229961 0.168379
9657 0.082986 0.104338 -0.0128045 0.00768329 -0.223129 0.199678 -0.0639909 -0.159375 0.00855307 0.161444 0.241619 0.220815 -0.135475 -0.246343 0.0269309 -0.075766 -0.00361573 -0.0742538 -0.31039 0.263569 0.0567495 0.0193083 0.19154 0.196251
3244 0.0536013 0.0585827 -0.0453773 0.0132912 -0.15736 0.122541 -0.0288526 -0.111383 0.0576203 0.101754 0.187056 0.142098 -0.099975 -0.174048 -0.00738785 -0.0870164 -0.0165305 -0.0824349 -0.229369 0.19364 0.050287 0.0163548 0.191933 0.12063
3262 0.358102 0.415151 -0.0756213 -0.0209743 -0.744455 0.680159 -0.185742 -0.420912 0.066605 0.55745 0.773293 0.668649 -0.415176 -0.843323 0.0682444 -0.314562 0.0169817 -0.320486 -0.922785 0.882177 0.141402 0.0156799 0.674184 0.637041
5148 0.0614734 0.10489 0.00112581 -0.0175629 -0.168408 0.163275 -0.0483562 -0.116998 0.0327499 0.106282 0.165568 0.153063 -0.105243 -0.19242 -0.00154196 -0.0617144 0.00977919 -0.0732799 -0.212188 0.179744 0.0254385 -0.00648662 0.147378 0.124721
8549 0.0721277 0.102336 0.000341987 -0.00223801 -0.129854 0.102984 -0.0411817 -0.0806272 -0.002201 0.0857074 0.122912 0.0899318 -0.0775148 -0.145332 -2.26156e-05 -0.0453108 -0.010631 -0.0258746 -0.157162 0.143019 0.0402862 -0.00500162 0.0860254 0.0832191
10167 0.383835 0.437387 0.0115321 -0.0427734 -0.532288 0.510344 -0.0864962 -0.0766661 -0.0878005 0.41915 0.480303 0.499336 -0.18167 -0.652956 0.111567 -0.143777 0.176079 -0.234408 -0.583202 0.540469 -0.0170211 0.0486838 0.35675 0.488106
7808 0.0407794 0.0332152 -0.0349012 0.0180066 -0.133623 0.108657 -0.0495408 -0.0892033 0.047381 0.0901878 0.130508 0.101708 -0.0815595 -0.148209 -0.0184875 -0.0398197 -0.0339084 -0.0323551 -0.162436 0.162919 0.0281064 0.0120129 0.136363 0.090304
8523 0.0726577 0.0772685 -0.0388197 -0.0176547 -0.224208 0.152526 -0.075745 -0.12391 0.0316738 0.146949 0.240893 0.181442 -0.120389 -0.213506 0.00548843 -0.10509 -0.00667809 -0.0851535 -0.280714 0.251156 0.0300045 0.0350124 0.210236 0.169203
9121 0.108731 0.13733 -0.0352841 -0.0164451 -0.271296 0.274845 -0.0450212 -0.180238 0.00917087 0.21308 0.304241 0.26954 -0.17886 -0.306564 0.0133823 -0.133131 -0.000675117 -0.11447 -0.362101 0.346278 0.0597268 0.0062172 0.258904 0.238013
9492 0.101228 0.147403 -0.0657713 0.0137215 -0.259165 0.219855 -0.0737738 -0.209856 0.0822657 0.154723 0.246731 0.203466 -0.166045 -0.322164 0.00150574 -0.149071 -0.0862563 -0.0547446 -0.325976 0.280995 0.105054 -0.0250596 0.239643 0.168728
60 0.0626642 0.036966 0.00439569 -0.0013468 -0.105608 0.0898966 -0.0343584 -0.0576893 0.0270146 0.0728349 0.111862 0.112417 -0.0589337 -0.141422 -0.00173441 -0.0403809 0.015662 -0.0683235 -0.138681 0.147453 0.0132381 0.0172456 0.101608 0.107292
4265 0.194496 0.17951 -0.0250726 -0.00545881 -0.408636 0.386615 -0.0739769 -0.207817 -0.0010436 0.313482 0.405341 0.365958 -0.22015 -0.438766 0.0260653 -0.175602 0.0363701 -0.205476 -0.52015 0.496485 0.0675392 0.0233898 0.404818 0.360874
4413 0.0932734 0.100606 -0.00935275 -0.00378127 -0.222516 0.195172 -0.0460962 -0.11351 0.0115595 0.139526 0.245212 0.192681 -0.128094 -0.230592 0.0176194 -0.0959439 -0.0174747 -0.107549 -0.274421 0.277906 0.0529205 -2.3505e-06 0.237973 0.203337
4945 0.076221 0.0873515 -0.0237898 -0.000375884 -0.200551 0.172409 -0.0338967 -0.153663 0.042291 0.159412 0.21296 0.16418 -0.131997 -0.224801 0.00280492 -0.100359 -0.000768548 -0.0921967 -0.268252 0.246362 0.042427 0.0176196 0.211044 0.179757
5722 0.0829475 0.0869235 -0.0210772 0.00120875 -0.196223 0.178212 -0.0293097 -0.138529 -0.00708118 0.156595 0.229184 0.197017 -0.110785 -0.254397 0.0167825 -0.0979927 0.0088217 -0.088572 -0.281351 0.252654 0.039089 0.0137578 0.19062 0.212172
7335 0.0771809 0.0831783 -0.0122151 0.00664135 -0.186116 0.142568 -0.0339376 -0.0979022 0.0379606 0.133714 0.194228 0.134127 -0.11069 -0.160918 -0.00499078 -0.0805799 0.0175332 -0.095926 -0.194668 0.2089 0.0125458 0.000185071 0.149389 0.155497
8172 0.0576158 0.0948293 -0.02544 -0.0134969 -0.194553 0.166707 -0.0487352 -0.150311 0.0615005 0.106744 0.197071 0.152971 -0.135394 -0.243703 -0.00667147 -0.0904132 -0.0348721 -0.0834675 -0.264641 0.239286 0.0714653 0.0153741 0.217361 0.144962
1110 0.0494874 0.0699655 -0.00436125 -0.0073407 -0.164658 0.176564 -0.0577803 -0.102142 0.0408532 0.119113 0.187925 0.163068 -0.0875355 -0.211064 0.0302323 -0.0713708 -0.000502367 -0.0738369 -0.24254 0.225326 0.0240611 0.0181745 0.195933 0.154234
8396 0.231464 0.247227 -0.0347796 0.0119375 -0.47354 0.422017 -0.126961 -0.235979 0.0415589 0.324787 0.455618 0.358646 -0.204792 -0.509715 0.0126611 -0.180158 -0.0210324 -0.20501 -0.551697 0.528824 0.0774395 0.026475 0.435646 0.390867
8460 0.102538 0.163218 -0.0375255 0.00801792 -0.317155 0.266619 -0.0597855 -0.238933 0.070766 0.210514 0.322629 0.281812 -0.193293 -0.372493 0.0145322 -0.126442 -0.0636012 -0.119832 -0.409123 0.378408 0.0787953 -0.00332804 0.337204 0.262152
23 0.0379924 0.0535564 -0.00593687 -0.00381665 -0.137547 0.101639 -0.0498138 -0.0990838 0.046997 0.0834738 0.145334 0.113249 -0.0668363 -0.14918 -0.0138286 -0.0590315 -0.017419 -0.0349525 -0.145383 0.137966 0.0254705 -0.0037603 0.14904 0.0790593
3407 0.264632 0.334476 -0.0597312 -0.0152394 -0.63188 0.548446 -0.145089 -0.344766 0.045484 0.456307 0.607393 0.541726 -0.356183 -0.685327 0.0644197 -0.229385 -0.00465186 -0.267615 -0.795757 0.727344 0.110583 0.0399977 0.569834 0.522284
4329 0.206234 0.211502 -0.0297316 0.00121808 -0.435247 0.408542 -0.109863 -0.229126 0.0157185 0.336812 0.433336 0.396992 -0.228722 -0.46514 0.0463501 -0.173672 0.0475775 -0.189598 -0.566501 0.534966 0.077665 0.0351745 0.39369 0.410908
4593 0.0615943 0.0818587 -0.0339467 0.0136252 -0.192189 0.154354 -0.0219395 -0.119015 0.021125 0.121418 0.19799 0.164022 -0.115574 -0.207525 0.0188903 -0.0569169 0.0139595 -0.0724562 -0.243872 0.197901 0.0476215 0.0169586 0.153492 0.142211
7661 0.169982 0.215933 -0.0372816 -0.00264388 -0.390348 0.356679 -0.101488 -0.210601 0.0277744 0.307016 0.401691 0.384391 -0.228309 -0.461098 0.0417808 -0.167258 0.0256998 -0.164945 -0.515204 0.455137 0.0645299 0.0362608 0.34439 0.357667
6997 0.0651964 0.0582153 -0.0309135 -0.0228561 -0.0946769 0.0844343 -0.0149804 -0.0792553 0.0101198 0.0616513 0.119033 0.0880444 -0.080524 -0.106804 -0.0163586 -0.0605384 -0.0185842 -0.0267276 -0.146146 0.126317 0.0354712 -0.00897145 0.109855 0.0984406
7412 0.127349 0.196224 -0.0351563 0.00937728 -0.379405 0.340466 -0.0828844 -0.303303 0.0741126 0.238699 0.42176 0.310948 -0.259986 -0.444773 -0.00451202 -0.198521 -0.0541718 -0.155819 -0.517933 0.451536 0.112214 -0.00761789 0.417837 0.308912
6762 0.0559118 0.0631849 -0.0412165 -0.0183218 -0.140946 0.114354 -0.0440465 -0.120051 0.0767272 0.0617295 0.152668 0.107997 -0.117047 -0.164977 0.00319123 -0.0637248 -0.0338033 -0.0624571 -0.159032 0.148633 0.0435825 -0.0166121 0.184681 0.0870602
9268 0.192626 0.187319 0.0480576 -0.0103282 -0.205892 0.275007 -0.0104672 0.0586355 -0.0993671 0.226021 0.19862 0.254892 -0.0175625 -0.266222 0.106918 -0.0109253 0.15475 -0.11821 -0.21801 0.239842 -0.0289273 -0.000317696 0.0773381 0.286164
7016 0.0707283 0.0689592 -0.0157326 0.00842193 -0.223459 0.199839 -0.0495273 -0.185107 0.0396989 0.119415 0.233559 0.170926 -0.148818 -0.253348 -0.014154 -0.118994 -0.0528263 -0.101642 -0.300584 0.271434 0.0309998 0.0139491 0.240316 0.176135
7515 0.198288 0.237489 -0.0285972 0.0100245 -0.412916 0.40242 -0.0748135 -0.252194 0.0388756 0.328528 0.447012 0.3753 -0.252503 -0.485678 0.0523093 -0.190137 -0.00905228 -0.176483 -0.549209 0.493541 0.0770955 0.0374119 0.383634 0.381939
4011 0.0353595 0.0732933 -0.0241285 0.00762988 -0.170843 0.110706 -0.0477343 -0.103602 0.0440146 0.0877944 0.173528 0.123345 -0.126038 -0.173651 0.00810458 -0.0987504 -0.0402562 -0.0558141 -0.198004 0.193843 0.0352929 0.0247029 0.15458 0.0981936
4884 0.0794929 0.0801017 -0.0193214 -0.0178318 -0.154378 0.139365 -0.0294398 -0.105788 0.0308923 0.102348 0.18543 0.132144 -0.110765 -0.197531 0.0317553 -0.0539512 0.0170143 -0.063648 -0.227476 0.184282 0.0381418 -0.00942006 0.173304 0.142999
6122 0.245413 0.281911 -0.0329914 -0.0121344 -0.526416 0.474278 -0.131758 -0.241864 0.0333707 0.364887 0.509971 0.436359 -0.281813 -0.541258 0.0530739 -0.175816 0.0156054 -0.229952 -0.631911 0.576761 0.0965986 0.0285578 0.453621 0.427745
6231 0.0637111 0.0314533 -0.00739674 -0.00201008 -0.13403 0.105931 -0.0150862 -0.0622305 0.0218253 0.0619245 0.130036 0.106587 -0.0533311 -0.109744 0.00411878 -0.0697458 0.00231442 -0.0535371 -0.126265 0.14747 -0.00627394 0.00490407 0.109817 0.0852711
8666 0.0759812 0.090978 -0.0267404 -0.00824846 -0.235459 0.208231 -0.0647691 -0.125078 0.0115977 0.177916 0.225469 0.202822 -0.109349 -0.25741 0.03506 -0.114063 -0.0269068 -0.0785259 -0.29185 0.255504 0.0254039 0.0218843 0.213411 0.186562
6956 0.133268 0.102843 -0.00473288 -0.0248737 -0.299118 0.267602 -0.076112 -0.167209 0.0329511 0.209623 0.325549 0.275617 -0.176177 -0.302746 0.0382465 -0.110426 0.0248261 -0.141028 -0.352468 0.369081 0.0273766 0.029224 0.299195 0.266863
8312 0.0863592 0.0894573 -0.0367555 0.00812964 -0.238593 0.205599 -0.0797226 -0.154299 0.0304508 0.138285 0.230863 0.200746 -0.132048 -0.275755 -0.0011423 -0.12777 -0.0445498 -0.114858 -0.308899 0.28483 0.0599157 0.0167217 0.253788 0.180067
8545 0.0835743 0.0818131 -0.00761156 -0.00211437 -0.209974 0.166791 -0.0473765 -0.121474 0.0450538 0.128704 0.214525 0.176741 -0.121412 -0.212956 -0.0171551 -0.0797056 -0.0194916 -0.0918492 -0.25762 0.240913 0.0492892 -0.00166481 0.188893 0.157622
9923 0.26389 0.302802 -0.0558492 -0.00331169 -0.519057 0.404389 -0.13208 -0.246231 0.0920082 0.27546 0.460339 0.347525 -0.267626 -0.517826 0.00896611 -0.169873 -0.0107505 -0.177414 -0.526793 0.496747 0.0295183 0.00876828 0.398956 0.340376
10016 0.257034 0.257103 -0.0438424 -0.0415058 -0.407562 0.33105 -0.110642 -0.150215 0.0198216 0.264777 0.391235 0.287591 -0.179793 -0.458887 0.0466942 -0.144513 0.0326922 -0.190552 -0.426913 0.446229 0.0414655 0.0355173 0.302594 0.303229
8239 0.126297 0.0937612 -0.00815228 -0.0212802 -0.228103 0.201842 -0.075226 -0.12158 0.0177503 0.143595 0.247526 0.180171 -0.101449 -0.253064 0.0270192 -0.107298 0.00677843 -0.109208 -0.277496 0.273618 0.0140336 0.0242873 0.210229 0.170393
8923 0.15031 0.174086 -0.0250758 -0.0160554 -0.26811 0.265416 -0.0646911 -0.155927 0.0258468 0.205342 0.258203 0.24921 -0.153518 -0.290817 0.00512346 -0.112171 -0.0115589 -0.0997464 -0.342327 0.325021 0.0409812 0.0303991 0.244489 0.215322
4591 0.0285425 0.0513035 -0.00847041 -0.00913872 -0.139643 0.116631 -0.053487 -0.109567 0.0479722 0.0906644 0.153722 0.11788 -0.108789 -0.164323 -0.00667838 -0.0661143 -0.0151458 -0.0519972 -0.167148 0.173322 0.0464049 0.00107072 0.157378 0.0903529
7637 0.169496 0.237814 -0.0588102 0.0153598 -0.420488 0.422084 -0.102434 -0.309753 0.0750381 0.33291 0.425021 0.385579 -0.250705 -0.523343 0.035572 -0.175324 -0.0301811 -0.185579 -0.578312 0.494305 0.114562 -0.0154014 0.412541 0.340892
1411 0.00630875 0.034427 -0.0361444 -0.00319029 -0.123186 0.0856662 -0.0294523 -0.112992 0.026271 0.0355778 0.102071 0.0791455 -0.0744364 -0.0906639 0.00343242 -0.0662085 -0.0272034 -0.0240241 -0.117205 0.117974 0.00856072 -0.00488224 0.149238 0.059323
4251 0.0199266 0.0415407 -0.029242 -0.0131002 -0.140954 0.115314 -0.0124417 -0.0914744 0.00536889 0.0972477 0.171372 0.13518 -0.11488 -0.161369 -0.002512 -0.0503943 -0.00895041 -0.0431573 -0.196479 0.167785 0.0539781 0.00607916 0.150536 0.128951
5214 0.0870962 0.0902269 -0.0134018 -0.0119445 -0.176289 0.194786 -0.0524181 -0.117739 0.00434045 0.150011 0.220809 0.16846 -0.102302 -0.215387 0.00955703 -0.0652447 -0.0159239 -0.0727454 -0.253992 0.229589 0.0356409 0.0210551 0.19512 0.179849
9361 0.0719816 0.0590864 -0.0244722 0.00375314 -0.190491 0.184277 -0.0331785 -0.136589 0.0317459 0.131754 0.220909 0.184224 -0.142019 -0.234157 0.0112019 -0.0995068 -0.0396486 -0.0820832 -0.260278 0.244305 0.0499225 -0.00295572 0.211819 0.19066
814 0.0334555 0.0418196 -0.0178924 0.0139632 -0.131789 0.0937017 -0.0489374 -0.0765933 0.0456029 0.077282 0.119065 0.105438 -0.0703119 -0.106502 -0.0191261 -0.0733065 -0.0030252 -0.0373095 -0.147461 0.128486 0.0308877 0.00187186 0.116488 0.0931828
2084 0.0976609 0.0898743 -0.0190465 -0.0135647 -0.261566 0.200137 -0.0706772 -0.142121 0.0269575 0.185393 0.234504 0.214784 -0.135233 -0.268233 -0.0074646 -0.113516 -0.00941514 -0.105656 -0.297128 0.288816 0.0517631 0.0259941 0.245552 0.199657
4524 0.108096 0.10839 -0.0159485 -0.0016841 -0.279647 0.265976 -0.0574129 -0.186688 0.0590147 0.19848 0.313706 0.24781 -0.153403 -0.316207 0.0157967 -0.143116 -0.0231995 -0.106242 -0.361306 0.360912 0.0387142 0.00447984 0.299412 0.252428
8641 0.0535199 0.071509 -0.0251787 0.0103619 -0.127454 0.107447 -0.0487016 -0.11005 0.0459962 0.091797 0.124346 0.123022 -0.0727748 -0.141402 -0.010332 -0.0778727 -0.0491389 -0.0445682 -0.161315 0.134055 0.033215 -0.0136316 0.137097 0.0818127
9542 0.134558 0.148257 -0.0164616 -0.00562967 -0.367159 0.296735 -0.0770714 -0.192747 0.0510786 0.237419 0.341131 0.27557 -0.179127 -0.339786 0.0198119 -0.154373 0.00253501 -0.158356 -0.4281 0.395837 0.0491902 0.0303684 0.30898 0.278109
4973 0.0229874 0.0593992 -0.0444762 -0.00728655 -0.0897464 0.0763709 -0.00596562 -0.0918773 0.0533524 0.0515829 0.0904795 0.0886015 -0.0846006 -0.129883 -0.0105339 -0.0447488 -0.0641779 -0.0201591 -0.140177 0.120891 0.0300452 -0.000626545 0.101332 0.0589659
7474 0.0941093 0.174196 -0.0489838 0.00920309 -0.259958 0.284724 -0.0570654 -0.260681 0.0640588 0.198061 0.297412 0.244826 -0.227612 -0.36995 0.0149486 -0.150784 -0.0712015 -0.0838331 -0.367799 0.31639 0.0989912 -0.0196167 0.305956 0.189271
8597 0.0347968 0.0546917 -0.042216 -0.0127937 -0.126281 0.099133 -0.0543575 -0.118261 0.06038 0.0844465 0.151992 0.0914449 -0.123283 -0.157081 0.004337 -0.0874385 -0.063613 -0.0423119 -0.192245 0.145231 0.024377 -0.00786385 0.17372 0.0850579
8881 0.145765 0.171875 -0.0508591 0.00379055 -0.349759 0.282255 -0.0985231 -0.17657 0.037147 0.220121 0.297672 0.230499 -0.148448 -0.326205 0.0140781 -0.10371 -0.0252051 -0.124699 -0.39685 0.373378 0.0648991 0.0075215 0.296021 0.228744
1137 0.0322803 0.0489629 -0.00905601 -0.0153773 -0.120702 0.0943489 -0.046094 -0.0729739 0.0259413 0.096133 0.140099 0.117231 -0.0793365 -0.124678 -0.0145384 -0.0458536 -0.0097235 -0.0328003 -0.170928 0.151195 0.00767457 -0.012415 0.103946 0.103529
5409 0.152197 0.183443 -0.0288372 -0.0285828 -0.348775 0.29479 -0.10519 -0.198966 0.0308595 0.232155 0.364535 0.289515 -0.182415 -0.377981 0.0269523 -0.124065 0.0175694 -0.173329 -0.443572 0.409021 0.0685899 0.0178915 0.349655 0.27979
6753 0.287875 0.278705 -0.031857 0.0106412 -0.584414 0.508575 -0.117135 -0.286989 0.0369073 0.412748 0.560445 0.510446 -0.273767 -0.633833 0.0345374 -0.20801 0.0321965 -0.267369 -0.697877 0.639398 0.0838536 0.052291 0.517293 0.468152
9346 0.0831799 0.0671781 -0.0145566 -0.0200258 -0.188423 0.150158 -0.0397759 -0.118356 0.0515333 0.122543 0.173078 0.164419 -0.0996763 -0.194172 -0.00709598 -0.0894303 -0.0123898 -0.0702312 -0.231385 0.196697 0.0295389 0.0258835 0.1638 0.134506
10249 0.346608 0.350923 -0.0733515 -0.0458692 -0.54523 0.387267 -0.16465 -0.141512 0.0771715 0.224527 0.398362 0.254256 -0.176462 -0.458996 0.0505711 -0.170612 0.0332987 -0.21624 -0.432093 0.473004 0.00575204 0.0288577 0.381836 0.258903
218 0.0229008 0.0457401 -0.0349557 0.0160371 -0.14511 0.102392 -0.0540669 -0.0862332 0.0125491 0.0832093 0.120593 0.104363 -0.0577167 -0.136842 0.0116421 -0.0589235 -0.0216313 -0.0463342 -0.167601 0.159746 0.0121408 0.0186422 0.136524 0.117067
2358 0.241453 0.281834 -0.0313976 0.00325654 -0.532733 0.484456 -0.114773 -0.301474 0.0262138 0.394978 0.528277 0.492027 -0.269481 -0.598004 0.0429707 -0.203767 -0.00863505 -0.238608 -0.677476 0.623058 0.0853993 0.0116456 0.493914 0.456313
2371 0.0433417 0.0484429 0.00195571 0.0118611 -0.100592 0.108706 -0.0349885 -0.0691796 0.0139763 0.0735808 0.102437 0.0897754 -0.0808234 -0.103055 0.0213895 -0.0360968 0.0200985 -0.0341686 -0.151705 0.152378 0.0297338 0.00440013 0.137054 0.0958878
7526 0.0936035 0.108464 -0.0506091 0.000669317 -0.276294 0.244761 -0.0484101 -0.187498 0.0628848 0.178418 0.275503 0.227907 -0.185567 -0.303306 0.0281988 -0.107597 -0.0158694 -0.109612 -0.363035 0.306773 0.0477757 0.0278647 0.285256 0.240961
8350 0.0562311 0.0615113 -0.0147035 0.0150193 -0.128161 0.109648 -0.0194642 -0.0865918 0.0347429 0.0735961 0.117903 0.117003 -0.0931872 -0.168454 0.00755557 -0.0599531 -0.00907751 -0.0715917 -0.187225 0.162058 0.00748144 -0.012369 0.146543 0.118245
6108 0.123525 0.158048 -0.0366401 -0.0169923 -0.31841 0.294064 -0.0874117 -0.21366 0.0204601 0.261917 0.363056 0.32779 -0.207552 -0.354305 0.0217227 -0.121343 0.00659981 -0.130749 -0.448091 0.385869 0.0532231 0.0277035 0.329274 0.31686
9494 0.136945 0.180866 -0.0598866 -0.0174579 -0.344353 0.294794 -0.0891253 -0.227498 0.0584304 0.207474 0.338333 0.266225 -0.190033 -0.372758 0.0173257 -0.145064 -0.0660853 -0.113615 -0.397763 0.346845 0.0799698 -0.0104379 0.327631 0.224657
9001 0.136836 0.106284 0.0292097 -0.00729204 -0.111364 0.150591 0.0181247 0.115431 -0.12706 0.175903 0.0859061 0.143196 0.0438831 -0.127029 0.0950993 0.0388971 0.144414 -0.0818267 -0.103609 0.145075 -0.0589016 0.0311099 -0.0163481 0.185266
2420 0.0366325 0.0664127 -2.51826e-05 0.00983872 -0.148624 0.105774 -0.0499894 -0.0813602 0.0276115 0.0812509 0.130984 0.117886 -0.0736336 -0.154117 0.00688558 -0.0463218 0.00184168 -0.056519 -0.176166 0.185683 0.0142308 0.00398532 0.127256 0.118841
8525 0.248158 0.315128 -0.02862 0.0150913 -0.540694 0.537154 -0.10302 -0.255567 0.0135456 0.408042 0.490012 0.503076 -0.244807 -0.600601 0.0658411 -0.188498 0.0331217 -0.215813 -0.66101 0.580554 0.10557 0.0294939 0.467473 0.458668
8888 0.251885 0.288122 -0.0137227 -0.0220845 -0.504946 0.458954 -0.125213 -0.246365 0.00320424 0.389288 0.526829 0.459289 -0.263655 -0.564509 0.0435093 -0.192682 0.0478325 -0.227845 -0.627078 0.606069 0.0894073 0.0178072 0.461411 0.442431
9873 0.259742 0.255596 -0.000562735 -0.0200097 -0.410243 0.456343 -0.0648664 -0.0772314 -0.0910999 0.370853 0.395092 0.427304 -0.146782 -0.449589 0.0909703 -0.112314 0.170457 -0.204716 -0.517848 0.483244 0.033999 0.0204886 0.272941 0.460124
10081 0.195348 0.184526 -0.0490212 -0.0295054 -0.347458 0.26624 -0.0933407 -0.166845 0.0442168 0.201962 0.323543 0.223296 -0.174906 -0.342537 -0.00984486 -0.133882 -0.0157312 -0.147198 -0.346765 0.370014 0.0217373 0.00546657 0.321183 0.195208
10225 0.208915 0.537762 -0.0479631 -0.127214 -0.402626 0.544348 -0.0535571 -0.196642 -0.0634734 0.435963 0.401635 0.387746 -0.131732 -0.734861 0.270816 -0.149427 0.054388 -0.272902 -0.551755 0.437109 0.0799076 -0.0711549 0.280437 0.421433
3713 0.138057 0.132372 -0.01435 -0.0161644 -0.299342 0.263742 -0.0812241 -0.180677 0.0400403 0.219764 0.332758 0.252122 -0.171914 -0.331979 0.0345488 -0.14461 -0.0235903 -0.10473 -0.410358 0.340634 0.0780322 -0.00884568 0.299443 0.241953
4584 0.127055 0.166628 -0.0351475 0.00523257 -0.330148 0.275905 -0.0549661 -0.164397 0.0273581 0.24662 0.328575 0.278152 -0.170438 -0.373206 0.0215401 -0.116595 0.018592 -0.135091 -0.407985 0.381579 0.0586412 0.00644101 0.31873 0.273888
7112 0.326463 0.374284 -0.0465672 -0.0303872 -0.666822 0.557497 -0.158191 -0.356717 0.075922 0.41747 0.609606 0.504789 -0.352962 -0.699933 0.0404069 -0.246484 -0.0109449 -0.263877 -0.760852 0.722019 0.108341 0.0177883 0.560137 0.487799
2530 0.0507955 0.0345228 -0.0075534 -0.0149724 -0.12353 0.0822676 -0.0517536 -0.0915811 0.0391535 0.0587529 0.101992 0.106257 -0.0670886 -0.0970698 0.00502463 -0.0645696 -0.00675673 -0.0358529 -0.14032 0.129074 0.0170522 0.0249477 0.121927 0.0812333
3323 0.21447 0.199229 -0.0256183 -0.022431 -0.452774 0.380456 -0.115798 -0.226554 0.0476131 0.325701 0.465741 0.377932 -0.259994 -0.501999 0.0346002 -0.186755 0.0161279 -0.19526 -0.574128 0.525154 0.0623628 0.0384414 0.411409 0.387814
3535 0.0719878 0.0458576 -0.00782692 0.011135 -0.193352 0.12554 -0.0324612 -0.0961123 0.00272208 0.113059 0.181838 0.158481 -0.0985225 -0.195946 0.00532392 -0.0531891 0.0180992 -0.0644918 -0.236882 0.229676 0.0231452 0.0222729 0.180636 0.155634
5912 0.0807265 0.101089 -0.0533734 -0.017593 -0.259857 0.248928 -0.0753815 -0.169586 0.0396808 0.185741 0.279501 0.228696 -0.181855 -0.310069 0.00783025 -0.13742 -0.045412 -0.104135 -0.346415 0.313329 0.059664 0.0157218 0.268716 0.203643
6380 0.10647 0.126653 -0.0618394 0.00879585 -0.347651 0.302743 -0.0991037 -0.234034 0.0569196 0.211445 0.357658 0.28461 -0.224961 -0.389814 -0.016088 -0.165409 -0.0374999 -0.16523 -0.456906 0.406172 0.0692117 0.0111403 0.373629 0.261655
6614 0.140832 0.157757 -0.042298 0.00061243 -0.380747 0.307377 -0.0890589 -0.250784 0.0450948 0.25463 0.363439 0.333959 -0.205682 -0.405388 0.0182795 -0.148326 -0.0325347 -0.150433 -0.482111 0.428941 0.0671793 0.0205508 0.359184 0.295159
3521 0.0211787 0.0398881 -0.0148346 0.0126322 -0.110127 0.0873392 -0.0299075 -0.104197 0.0379209 0.0768065 0.11659 0.0947761 -0.0887145 -0.136911 -0.0177493 -0.0626169 -0.0137472 -0.0506407 -0.13727 0.159699 0.0377351 0.0253519 0.124428 0.089072
7076 0.142291 0.141903 -0.0358814 -0.0155282 -0.35413 0.320461 -0.0929153 -0.21082 0.0507243 0.259072 0.352845 0.31393 -0.213516 -0.405551 -0.0047058 -0.142151 -0.028203 -0.175227 -0.446063 0.438991 0.0829741 0.0181837 0.339881 0.297123
5930 0.0366181 0.0469769 0.00646289 -0.00728223 -0.103459 0.07626 -0.039603 -0.0676507 0.00154799 0.0538325 0.100081 0.0786247 -0.0498039 -0.093246 0.00680908 -0.0563082 -0.022229 -0.0330201 -0.117126 0.0931739 0.0342265 0.00662321 0.0926919 0.0722509
7504 0.0906295 0.104765 -0.0433019 -0.00350859 -0.278393 0.252709 -0.0686762 -0.150674 0.0434285 0.209488 0.295106 0.265762 -0.154986 -0.292803 0.00683055 -0.107138 -0.00742377 -0.121449 -0.369965 0.352657 0.0452948 0.0215241 0.261726 0.246754
8160 0.0248606 0.0877803 -0.0727775 0.00439733 -0.172655 0.133451 -0.0605436 -0.202091 0.0955541 0.0966626 0.162898 0.112292 -0.179249 -0.223622 -0.0262297 -0.112076 -0.140062 -0.0248066 -0.244411 0.199737 0.0883886 -0.0104233 0.223024 0.0647225
2193 0.0681718 0.070802 -0.0150516 -0.012965 -0.133426 0.0876848 -0.048114 -0.0581735 0.0147164 0.102013 0.140626 0.125849 -0.0798301 -0.138038 0.0197309 -0.0692933 -0.0170761 -0.0498951 -0.146523 0.160842 0.034071 0.0251055 0.117449 0.121358
6474 0.158307 0.172811 -0.0332329 0.00244746 -0.37008 0.36401 -0.065389 -0.195875 0.0159858 0.293292 0.411592 0.369737 -0.186202 -0.428204 0.0564148 -0.136248 0.00450308 -0.183285 -0.470177 0.483434 0.0505527 0.0416342 0.364156 0.355574
4478 0.0820263 0.0708206 -0.032957 0.0119913 -0.158613 0.141786 -0.0372871 -0.0950281 0.00325115 0.13286 0.184297 0.1651 -0.111305 -0.201337 0.0163126 -0.0869198 -0.00452558 -0.0888827 -0.219385 0.211283 0.0134715 -0.00929847 0.158872 0.158798
8751 0.169896 0.194482 -0.0320189 -0.0113465 -0.333062 0.348311 -0.0741134 -0.127532 -0.0473481 0.310314 0.329263 0.344789 -0.160929 -0.406422 0.0498412 -0.122165 0.0687356 -0.18413 -0.439719 0.395268 0.0416424 0.0202947 0.297279 0.331535
9658 0.0564064 0.0581605 -0.00674995 0.00178958 -0.0957207 0.118177 -0.0356401 -0.0764449 0.0365777 0.0656517 0.105593 0.0905942 -0.0685781 -0.141365 -0.0118878 -0.0478815 -0.017377 -0.0383503 -0.144723 0.139536 0.0296694 0.00987223 0.123058 0.109554
9749 0.172347 0.204573 -0.0501668 -0.00757256 -0.354391 0.317274 -0.101555 -0.17187 0.0422217 0.249149 0.34047 0.28899 -0.207169 -0.409176 0.027603 -0.137395 0.00380517 -0.146993 -0.444748 0.39632 0.0520005 0.035246 0.339964 0.294258
10087 0.159047 0.173262 -0.00329007 0.0016578 -0.360535 0.291564 -0.0751739 -0.112531 0.00506848 0.235059 0.337553 0.294541 -0.14766 -0.355294 0.0224363 -0.115815 0.0594771 -0.153643 -0.39498 0.391297 0.0110597 0.0401903 0.305474 0.293778
8461 0.0917889 0.110413 0.00581223 -0.0097161 -0.212125 0.191007 -0.0649046 -0.078552 0.0229348 0.168633 0.195947 0.201765 -0.114707 -0.226112 0.0329358 -0.0643548 0.0167132 -0.104619 -0.244061 0.238309 0.0152742 0.033022 0.197027 0.19029
9843 0.187742 0.216063 -0.0103629 0.00608741 -0.350845 0.344594 -0.0711116 -0.166634 -0.0370071 0.31417 0.377104 0.363376 -0.181459 -0.434257 0.0523811 -0.116725 0.0527871 -0.171787 -0.469191 0.404828 0.0589059 -0.00222083 0.294203 0.330149
8006 0.0440135 0.0495579 -0.000238947 -0.0146362 -0.104216 0.135473 -0.0422987 -0.0799084 0.000787057 0.0832966 0.144961 0.13342 -0.0837875 -0.145425 0.0269291 -0.055871 0.000150005 -0.0571618 -0.154941 0.135906 0.0486777 0.0119679 0.138747 0.134203
8659 0.0660711 0.0739382 -0.0306087 -0.0104189 -0.159106 0.11455 -0.0417125 -0.156121 0.0713996 0.0949097 0.199594 0.118593 -0.107268 -0.194166 -0.0384227 -0.102134 -0.0544426 -0.0790262 -0.229503 0.196822 0.0354333 0.0105945 0.177263 0.103011
8873 0.086995 0.0919035 -0.0254627 0.0097425 -0.223743 0.177102 -0.0402136 -0.14847 0.0349589 0.143656 0.228006 0.207562 -0.139474 -0.263307 -0.00988709 -0.118645 -0.0137632 -0.0968047 -0.293243 0.253377 0.0694304 0.0108856 0.236706 0.164101
9076 0.0414064 0.361748 -0.131898 -0.0268523 -0.303518 0.408415 -0.0633386 -0.490643 0.194931 0.172242 0.342347 0.271775 -0.365218 -0.585833 0.0100661 -0.234355 -0.322427 0.0283459 -0.51907 0.305334 0.276247 -0.130859 0.401437 0.103218
