10313 24
1670 0.0016754 0.0271743 0.0100914 0.028218 -0.0574469 -0.0499459 0.0709058 -0.121767 0.147467 -0.0204153 0.0980623 -0.00477711 0.177105 -0.0244083 0.158622 0.0111147 0.152387 0.0458191 -0.0566121 0.139356 -0.0796041 0.0382389 0.110603 0.00984469
1876 -5.95632e-05 0.128538 0.0750175 0.276404 -0.38888 -0.214054 0.345395 -0.526947 0.642077 -0.129983 0.445254 -0.0885278 0.81468 -0.115769 0.761843 0.0994397 0.78275 0.165403 -0.353802 0.725531 -0.341927 0.327201 0.657898 0.0899209
4219 0.0230722 0.0427275 0.0164714 0.0887257 -0.150677 -0.105823 0.172078 -0.258741 0.306003 -0.0734842 0.21579 -0.0361066 0.401244 -0.0882072 0.375727 0.0254901 0.387083 0.057927 -0.154435 0.377075 -0.144813 0.129272 0.301486 0.0455101
7784 0.0625821 0.0572711 -0.0286145 0.0284798 -0.0636988 0.00804095 0.0834382 -0.0668786 0.0953717 -0.0257522 0.0785811 -0.0228275 0.150183 -0.0473262 0.143113 -0.0432044 0.178278 -0.00354178 -0.0584092 0.136817 -0.0622667 0.0621607 0.10351 -0.00631639
9100 0.000409654 0.0559936 0.041738 0.12247 -0.162686 -0.101435 0.155671 -0.265382 0.294196 -0.0457112 0.217772 -0.0426151 0.385632 -0.0722665 0.364857 0.0431326 0.369815 0.072652 -0.147729 0.369331 -0.161599 0.117176 0.281712 0.0618679
9297 0.0429076 0.105854 0.0125641 0.209311 -0.294453 -0.097635 0.26022 -0.378945 0.437676 -0.103606 0.330918 -0.0623327 0.58105 -0.106241 0.519569 0.0243666 0.579825 0.0817881 -0.225664 0.519072 -0.24689 0.205827 0.452205 0.0770325
9275 -0.118397 -0.027142 0.107231 0.189233 -0.0786993 -0.164635 0.012088 -0.124535 0.127738 -0.0674044 0.0382892 -0.0287583 0.0890787 0.0794091 0.129093 0.162151 0.0715441 0.0709908 -0.0288949 0.0927418 -0.0125974 0.0882025 0.102325 0.0755773
0 -0.388198 0.107386 0.399733 0.804118 -0.732164 -0.752442 0.341957 -1.3248 2.13538 -0.957736 0.902008 -0.472306 1.21928 0.510574 1.68842 1.54613 1.46234 0.819171 -0.876759 1.37957 -0.581862 1.44654 2.29284 1.1088
7327 0.0501142 0.0399139 -0.0372107 0.0118666 -0.0823987 -0.014296 0.0873923 -0.0987074 0.127242 -0.0244787 0.124397 -0.0250445 0.22156 -0.047975 0.190207 -0.0161134 0.210981 0.0334689 -0.0875963 0.175458 -0.0934008 0.0512752 0.146032 -0.00421246
8471 0.042355 0.163754 0.0237016 0.254565 -0.36775 -0.130374 0.299306 -0.474362 0.541258 -0.113566 0.3875 -0.107586 0.72321 -0.13652 0.658835 0.0550571 0.688622 0.147728 -0.310356 0.662431 -0.300121 0.266919 0.550313 0.0838437
8936 0.018161 0.0655428 -0.00403193 0.0965473 -0.125362 -0.028945 0.11035 -0.179639 0.205862 -0.0260135 0.162428 -0.0431879 0.280117 -0.0596683 0.248943 0.0148757 0.307891 0.0508965 -0.109012 0.259634 -0.114754 0.104694 0.209168 0.0147451
209 0.0136856 0.0312456 0.00810588 0.0668965 -0.0817999 -0.0193441 0.0572307 -0.084982 0.125176 -0.026839 0.0728675 -0.00113059 0.147353 -0.0306417 0.148003 -0.00679532 0.143597 0.0112663 -0.055585 0.124346 -0.0479117 0.0443361 0.109727 0.00964936
9674 0.0732334 0.154908 0.0380111 0.284687 -0.402768 -0.127814 0.266519 -0.410997 0.459861 -0.0653203 0.445387 -0.115681 0.69905 -0.0805022 0.637094 -0.0928157 0.624285 0.146221 -0.247412 0.613674 -0.301733 0.249124 0.437448 0.0145719
9699 0.0375384 0.0763792 0.0146399 0.165558 -0.225233 -0.108514 0.183964 -0.266012 0.314536 -0.0621533 0.232835 -0.0464155 0.404628 -0.0602112 0.375771 0.0280917 0.407416 0.0683631 -0.199264 0.408477 -0.197816 0.161009 0.353353 0.0463242
9010 0.0401792 0.0564408 -0.00278723 0.051945 -0.127785 -0.0326555 0.154024 -0.226953 0.270618 -0.0291797 0.16596 -0.0445107 0.35254 -0.0798303 0.292818 -0.00563736 0.337434 0.0420103 -0.112604 0.326434 -0.121895 0.0832142 0.265454 0.0286469
9997 0.27327 0.384759 -0.0428427 0.326651 -0.676702 0.154489 0.000688582 -0.214442 0.352896 -0.327073 0.440421 -0.310155 0.501603 0.0420652 0.604683 -0.149154 0.765025 0.456939 -0.443635 0.448982 -0.408157 0.658187 0.707656 0.213442
10004 0.081914 0.124851 0.00253373 0.151835 -0.256298 -0.0736521 0.197094 -0.328043 0.368309 -0.0576767 0.286234 -0.0186154 0.559487 -0.0884435 0.446268 -0.0272539 0.503199 0.020756 -0.18986 0.450914 -0.227955 0.170669 0.377957 0.0112833
3906 0.028403 0.0510558 -0.027321 0.0150727 -0.0344477 -0.0198719 0.0349989 -0.0908894 0.112606 0.00572841 0.0570513 0.000193226 0.143596 -0.0162086 0.113672 -0.012896 0.135422 0.0251884 -0.067185 0.133849 -0.0505839 0.0225869 0.104565 -0.00431703
5068 0.0190776 0.111384 0.0454423 0.221545 -0.279238 -0.16171 0.29228 -0.41841 0.52925 -0.103129 0.379912 -0.080899 0.663474 -0.127758 0.612472 0.0552412 0.66333 0.138338 -0.264183 0.615356 -0.300225 0.251888 0.535842 0.0810427
5768 0.0166603 0.0852314 0.0550635 0.192506 -0.258936 -0.145527 0.279339 -0.394642 0.478563 -0.0948956 0.341385 -0.0712144 0.639514 -0.105783 0.569697 0.0496704 0.59418 0.111497 -0.257912 0.577852 -0.253648 0.235501 0.482749 0.0740019
8026 -0.0143571 0.0488123 0.028674 0.0977462 -0.126455 -0.0704281 0.110772 -0.200273 0.221692 -0.0388342 0.154683 -0.027245 0.277964 -0.0383963 0.27931 0.0545021 0.282539 0.0552892 -0.102784 0.26799 -0.133621 0.1021 0.210171 0.0270777
8647 0.038403 0.0957978 0.0520345 0.171574 -0.265912 -0.106134 0.23201 -0.342906 0.432743 -0.0822266 0.30471 -0.0615616 0.57317 -0.0727018 0.509289 0.0608423 0.571768 0.0887422 -0.250825 0.518103 -0.226086 0.202362 0.435563 0.0810128
9799 0.0341814 0.0298063 -0.00309599 0.0336466 -0.0503891 0.00272737 0.0639714 -0.0888003 0.133468 -0.0221391 0.094019 -0.0217148 0.165341 -0.0332631 0.162839 -0.0115794 0.188901 0.0163021 -0.0712599 0.150354 -0.0553862 0.0437793 0.130978 -0.000291673
8098 0.0951632 0.0655806 -0.0239565 0.0226394 -0.103905 0.0607028 0.0201413 -0.0651661 0.0707853 -0.0244187 0.0933702 -0.0284626 0.111826 -0.0270868 0.108612 -0.0600095 0.149189 0.0466608 -0.05157 0.0911683 -0.08277 0.0714994 0.120056 -0.00799085
9188 0.056758 0.185417 0.0347618 0.260521 -0.365547 -0.180732 0.338739 -0.502536 0.533606 -0.176292 0.410306 -0.121329 0.785401 -0.12885 0.685634 0.0452404 0.72212 0.191293 -0.339343 0.745567 -0.350456 0.290974 0.549426 0.0771326
9932 -0.130016 -0.0218504 0.152459 0.212557 -0.103929 -0.211482 0.0617399 -0.18432 0.201602 -0.0846956 0.0815963 -0.0407396 0.158739 0.0448871 0.232083 0.17825 0.161281 0.0460345 -0.0970753 0.192121 -0.0600465 0.115337 0.192456 0.0996734
9326 0.0413002 0.0562869 -0.0185165 0.0431571 -0.103349 -0.00164634 0.0718074 -0.128283 0.148032 -0.00596209 0.115413 -0.0202152 0.236159 -0.0575316 0.198969 -0.0259764 0.231394 0.0355691 -0.0681291 0.176788 -0.0860712 0.073227 0.171056 -0.00872366
9905 -0.070578 0.0726587 0.144482 0.348855 -0.391437 -0.236534 0.226561 -0.413721 0.505089 -0.161099 0.344498 -0.0834741 0.56265 -0.0314061 0.586254 0.135595 0.534134 0.11455 -0.266251 0.512801 -0.267147 0.290405 0.520852 0.130715
10184 -0.0713561 0.0620476 0.151701 0.426289 -0.358472 -0.253878 0.178568 -0.392074 0.444262 -0.106361 0.283592 -0.0659499 0.529262 0.0428516 0.505834 0.194297 0.49751 0.0845992 -0.210619 0.377233 -0.224174 0.256266 0.462434 0.13581
3955 0.0471325 0.0492748 -0.00313138 0.0403196 -0.0823556 -0.0175979 0.083562 -0.0857737 0.100365 -0.0236911 0.0978369 -0.035648 0.162559 -0.0442039 0.136328 -0.0518287 0.181704 0.0297601 -0.0560542 0.132863 -0.0681589 0.0662375 0.139564 -0.0135696
8911 0.1283 0.254707 0.128711 0.416738 -0.602694 -0.142883 0.370774 -0.51247 0.612399 0.0106943 0.53067 -0.00135589 0.822817 -0.110487 0.66488 -0.11823 0.615599 -0.0712057 -0.20271 0.549484 -0.270545 0.0392965 0.435123 0.0135421
8917 0.0345209 0.104082 -0.00283599 0.159646 -0.240902 -0.0991053 0.202684 -0.302586 0.344642 -0.0741054 0.264149 -0.0495658 0.478393 -0.0898494 0.439094 -0.0238883 0.480446 0.108621 -0.214202 0.420494 -0.220744 0.176291 0.380907 0.0314767
5923 0.0317704 0.0427094 -0.0303143 0.0227831 -0.0674434 0.00437065 0.0558627 -0.109835 0.129083 -0.0146072 0.0934531 -0.0275952 0.173287 -0.0446859 0.131351 -0.00472466 0.164735 0.0204069 -0.0473562 0.157579 -0.0802601 0.0496062 0.126385 0.00651723
6141 -0.0374424 0.193174 0.146678 0.513012 -0.556779 -0.314258 0.377832 -0.725914 0.791616 -0.232538 0.560442 -0.176493 1.00257 -0.090208 0.942788 0.181276 0.976617 0.244033 -0.484444 0.958157 -0.434868 0.493804 0.876628 0.175943
6615 0.0578968 0.0847951 -0.00320318 0.101253 -0.208465 -0.00175122 0.0786297 -0.15887 0.203963 -0.0520514 0.17225 -0.0624138 0.313386 -0.0545106 0.268261 -0.0282973 0.326356 0.083957 -0.153594 0.291561 -0.148853 0.156992 0.258856 0.0319478
6211 0.0315207 0.0633378 -0.00843023 0.0716319 -0.0853713 -0.0366985 0.102699 -0.187016 0.226324 -0.0389886 0.169937 -0.0104761 0.295208 -0.0636369 0.260931 -0.0100944 0.267288 0.0563049 -0.130557 0.286245 -0.114742 0.0856484 0.217717 0.000618138
9481 0.0570161 0.143241 0.0559455 0.287414 -0.347612 -0.139671 0.243977 -0.423635 0.462664 -0.0875679 0.377631 -0.0615406 0.658644 -0.081703 0.602755 0.0440173 0.619396 0.0822125 -0.268708 0.522001 -0.284585 0.240482 0.468937 0.0613291
9942 0.0114242 0.0936829 0.0497323 0.186564 -0.247364 -0.138506 0.223537 -0.332437 0.423584 -0.0859816 0.287745 -0.0691552 0.541257 -0.0632807 0.505206 0.0716583 0.53736 0.0953148 -0.247808 0.465659 -0.237772 0.20227 0.434648 0.0601917
7345 -0.0290212 0.00353648 0.0191782 0.079418 -0.0736103 -0.0717635 0.0663144 -0.136532 0.1414 -0.0456009 0.107531 -0.0165575 0.169815 -0.0150567 0.152916 0.0615943 0.186708 0.0356656 -0.0886113 0.182164 -0.0810613 0.0739915 0.158964 0.0559746
8270 0.455654 0.50745 -0.244107 -0.025543 -0.585385 0.173236 0.407031 -0.429573 0.426063 -0.104336 0.568514 -0.166361 0.906611 -0.299327 0.560554 -0.443304 0.813145 0.0903391 -0.367978 0.722761 -0.480924 0.286749 0.461507 -0.0231354
9890 0.0365998 0.137585 0.0743268 0.338315 -0.396695 -0.145775 0.202974 -0.384124 0.435028 -0.0812323 0.327166 -0.0682918 0.582594 -0.0372025 0.543357 0.0223463 0.545292 0.0674989 -0.213474 0.442296 -0.282089 0.258149 0.489833 0.0642543
1924 -0.00588243 0.0294166 0.00461516 0.0329866 -0.0544841 -0.0175245 0.0657363 -0.085441 0.0842394 -0.0304567 0.07576 -0.00921087 0.137646 -0.0322074 0.113493 0.0304476 0.132001 0.0172762 -0.0678676 0.144255 -0.0555601 0.0588983 0.0956272 0.0151959
4698 0.0119473 0.0447465 0.00949592 0.0527736 -0.0950137 -0.0491287 0.135331 -0.183126 0.222805 -0.0330791 0.150102 -0.0313292 0.301018 -0.0404439 0.237213 0.023203 0.255841 0.0528999 -0.104998 0.24482 -0.0982242 0.0944676 0.227209 0.0103811
4931 0.0308113 0.123894 0.0617397 0.281519 -0.374454 -0.179785 0.300734 -0.503456 0.561212 -0.157673 0.429136 -0.0934589 0.750248 -0.0971186 0.690652 0.0758717 0.741447 0.162801 -0.33735 0.702432 -0.313186 0.293938 0.599302 0.0929774
7542 0.00113838 0.036426 0.000341681 0.0386573 -0.095636 -0.061157 0.139219 -0.159536 0.230948 -0.0503734 0.14085 -0.0272795 0.280864 -0.080095 0.257676 -0.00285884 0.261641 0.0152177 -0.105081 0.259078 -0.0936064 0.0918398 0.20303 0.036927
7932 0.00480108 0.0285456 0.0360176 0.0705978 -0.11206 -0.0454397 0.107991 -0.157985 0.184709 -0.0229768 0.131042 -0.0247451 0.266116 -0.0338722 0.229263 0.0321539 0.231763 0.040846 -0.100731 0.242296 -0.109477 0.0871031 0.200349 0.0222079
3141 0.0486091 0.0431578 0.00456953 0.0537015 -0.071756 -0.0200375 0.104299 -0.152307 0.200303 -0.020876 0.156403 -0.0152649 0.266121 -0.0643844 0.20966 -0.0302598 0.241701 0.0334465 -0.0924973 0.22149 -0.098043 0.0493682 0.196887 0.0306969
4491 -0.014211 0.110538 0.0765021 0.273603 -0.326375 -0.177982 0.3174 -0.483249 0.588336 -0.12057 0.405581 -0.100987 0.711108 -0.077527 0.654911 0.102792 0.720102 0.169162 -0.309878 0.662628 -0.31988 0.272257 0.583705 0.083617
4507 0.0389611 0.127663 0.0252275 0.248887 -0.331612 -0.150308 0.332461 -0.484118 0.595103 -0.134045 0.440734 -0.108724 0.778079 -0.137178 0.707306 0.078781 0.739181 0.134735 -0.332156 0.702509 -0.323878 0.30515 0.59451 0.0911028
6184 0.0479607 0.108033 0.00726459 0.0885491 -0.166174 -0.0547021 0.19045 -0.237306 0.309215 -0.0531627 0.222835 -0.0592918 0.417822 -0.0899094 0.36862 0.01056 0.405334 0.0613149 -0.16425 0.400921 -0.174389 0.142744 0.324203 0.0325771
7648 0.00161128 0.134451 0.0360309 0.224637 -0.274428 -0.156169 0.271757 -0.432119 0.468414 -0.112241 0.321564 -0.10637 0.617575 -0.0607514 0.592553 0.0774576 0.590601 0.139349 -0.254954 0.581492 -0.281153 0.235051 0.502972 0.0753669
7720 0.0303237 0.13423 0.036074 0.197466 -0.279438 -0.170176 0.302644 -0.454099 0.520017 -0.112378 0.355578 -0.0920136 0.653103 -0.110499 0.608085 0.0650879 0.649699 0.126797 -0.298496 0.608685 -0.297724 0.247187 0.518157 0.0677699
2986 0.0252036 0.0367717 4.28903e-05 0.0179443 -0.0631526 -0.0217791 0.0746177 -0.093533 0.0878801 -0.0234671 0.0878189 -0.0214249 0.171096 -0.0495675 0.149238 -0.0125548 0.138377 0.014791 -0.0695143 0.143795 -0.0590568 0.0279317 0.120309 -0.00143514
3560 0.0185267 0.120849 0.0493281 0.19025 -0.291105 -0.13903 0.279735 -0.449122 0.548639 -0.13569 0.385777 -0.0899205 0.721863 -0.130982 0.662954 0.0809124 0.702404 0.116363 -0.306503 0.663726 -0.318487 0.235955 0.555197 0.0691268
3977 0.0487976 0.049136 -0.0135253 0.0509016 -0.0845867 -0.0279116 0.085475 -0.148719 0.170869 -0.0464674 0.113372 -0.0362069 0.215623 -0.0601192 0.214936 0.00601778 0.219971 0.0149233 -0.0754786 0.196763 -0.106427 0.0905566 0.161494 0.0242182
557 -0.00187162 0.0462277 0.0167944 0.0396112 -0.0534365 -0.000624139 0.0673586 -0.107588 0.106697 -0.0296644 0.0688248 -0.012983 0.165487 -0.0128545 0.143131 0.00216887 0.134437 0.00590607 -0.0736365 0.134575 -0.0753601 0.0347921 0.0952457 0.0206911
1569 0.0213708 0.0278334 0.0211889 0.0508028 -0.0560165 -0.0341547 0.0714527 -0.0989996 0.140148 -0.0368551 0.0764801 -0.02205 0.161187 -0.0309044 0.147766 0.014478 0.125305 0.0332501 -0.0627667 0.131881 -0.0588549 0.0568674 0.127131 0.00304908
6566 -0.0228341 0.119032 0.0677113 0.278927 -0.328164 -0.225196 0.316696 -0.49514 0.594138 -0.14737 0.418349 -0.118764 0.752322 -0.104938 0.720054 0.124363 0.722053 0.139455 -0.346321 0.717371 -0.317349 0.291437 0.61248 0.111546
3156 0.0516614 0.0500185 -0.0271812 0.030601 -0.0440605 0.00979426 0.0405948 -0.049682 0.0841125 0.00143131 0.0896469 0.000738919 0.143502 -0.0278848 0.132496 0.00169441 0.125679 0.0198247 -0.0625642 0.107933 -0.0514551 0.0355991 0.107113 -0.00260045
10235 0.104672 0.0747669 0.0425147 0.203397 -0.328701 -0.0630938 0.174408 -0.280835 0.335763 0.0145813 0.2723 0.0523436 0.565796 -0.0725999 0.44566 -0.0656391 0.507257 -0.0165235 -0.181179 0.333134 -0.240238 0.129996 0.401772 0.0337904
3184 -0.00574936 0.0476512 0.0176074 0.0588076 -0.0807313 -0.0220556 0.0378064 -0.0715654 0.113516 -0.0211437 0.0836332 -0.00886725 0.142075 -0.00648511 0.152662 0.0294676 0.122481 0.0519845 -0.0605796 0.12483 -0.049827 0.0564907 0.141694 0.0197291
3561 0.0269498 0.211779 0.0987019 0.415384 -0.566824 -0.264213 0.446518 -0.73748 0.862434 -0.212098 0.605567 -0.147686 1.08492 -0.15123 1.0231 0.134258 1.05281 0.218662 -0.503245 0.995912 -0.483415 0.473183 0.895788 0.149482
9249 0.0223615 0.0438048 -0.0145921 0.0521299 -0.102206 -0.0587622 0.112261 -0.189835 0.221604 -0.0124179 0.164464 -0.0204599 0.270156 -0.065954 0.256238 0.000894324 0.261907 0.0210249 -0.0895464 0.267691 -0.107512 0.0629453 0.204192 0.0379682
4433 0.0508232 0.0530451 -0.0016728 0.0484917 -0.10981 -0.0129591 0.132919 -0.20495 0.235773 -0.0444847 0.166325 -0.0130675 0.347354 -0.0955587 0.271545 -0.0165576 0.298552 0.0515592 -0.127348 0.322904 -0.140764 0.086902 0.213163 0.00497013
7098 -0.0773734 0.118777 0.118869 0.343905 -0.366634 -0.293246 0.309735 -0.547295 0.646054 -0.180265 0.406013 -0.11205 0.748007 -0.0778371 0.747138 0.169701 0.733876 0.174188 -0.332615 0.711235 -0.295741 0.330597 0.62329 0.114725
7658 0.017957 0.042771 0.0225693 0.0798982 -0.108479 -0.0513796 0.106053 -0.182495 0.2165 -0.0330108 0.155846 -0.018152 0.271134 -0.0682553 0.251591 0.0190744 0.252851 0.0379357 -0.101297 0.23675 -0.09365 0.0747788 0.200848 0.0353838
776 0.00957844 0.0155171 0.0152148 0.0470782 -0.0819737 -0.0367052 0.0717359 -0.136422 0.150758 -0.0260789 0.085199 -0.0216256 0.177121 -0.0499099 0.175513 0.0245051 0.1882 0.0257626 -0.0989378 0.197809 -0.0775308 0.0601016 0.16185 0.0322161
8973 0.0538571 0.0945566 0.0224794 0.16666 -0.262954 -0.114024 0.211698 -0.35032 0.413114 -0.104078 0.302443 -0.0700241 0.571102 -0.0682621 0.524974 0.0395365 0.524228 0.0795206 -0.229274 0.509506 -0.230801 0.227485 0.435742 0.0753543
9360 0.034779 0.0674539 0.00449457 0.0770315 -0.113058 -0.047947 0.131309 -0.183954 0.227074 -0.0552154 0.15627 -0.0438073 0.29932 -0.0417619 0.245815 0.0223585 0.299002 0.0593573 -0.12675 0.264118 -0.137237 0.105274 0.209612 0.0392948
6948 0.0260532 0.0621796 0.0194968 0.0922617 -0.121044 -0.0540914 0.134838 -0.208145 0.227514 -0.0280825 0.169893 -0.0132841 0.337018 -0.0790561 0.295182 0.026032 0.303063 0.0565397 -0.147298 0.308628 -0.12214 0.10121 0.259267 0.00730217
7224 -0.0077474 0.108727 0.0453547 0.208354 -0.252855 -0.170841 0.232387 -0.39406 0.466844 -0.112154 0.320765 -0.0675266 0.572438 -0.0581055 0.525168 0.0692801 0.533015 0.0941133 -0.235574 0.549137 -0.228971 0.221978 0.461718 0.0875507
9517 0.00481873 0.128638 0.0317034 0.217016 -0.295238 -0.133606 0.273573 -0.426733 0.497702 -0.134653 0.379997 -0.109474 0.654841 -0.104371 0.609377 0.0591737 0.631304 0.113257 -0.255899 0.587229 -0.296231 0.236756 0.496611 0.0760367
7633 0.0173749 0.157558 0.0661867 0.284964 -0.393064 -0.203996 0.297572 -0.468044 0.56941 -0.161371 0.404614 -0.120917 0.744539 -0.0857542 0.665887 0.0886296 0.702127 0.168925 -0.32383 0.663765 -0.336721 0.30847 0.591515 0.124959
8824 0.0180376 0.0873972 -0.00540712 0.117287 -0.181707 -0.0903766 0.187664 -0.295579 0.362415 -0.0492885 0.238622 -0.071078 0.452706 -0.0850375 0.411072 0.0223666 0.435965 0.0669706 -0.17814 0.430829 -0.196361 0.146109 0.349975 0.0322209
9118 0.00446987 0.0492924 0.0122139 0.114976 -0.161673 -0.0914883 0.174428 -0.256492 0.304553 -0.0868966 0.194 -0.0612589 0.391912 -0.050703 0.366693 0.0357316 0.367069 0.0743363 -0.158825 0.363382 -0.165251 0.139969 0.314813 0.0443004
7659 0.0471449 0.131668 0.0135548 0.136839 -0.235848 -0.0621441 0.117792 -0.235818 0.29367 -0.11053 0.25336 -0.0741502 0.382979 -0.0537047 0.3714 0.0110254 0.432728 0.123709 -0.215645 0.37157 -0.187458 0.221001 0.367305 0.0666796
9448 -0.0673331 0.113965 0.0995614 0.291394 -0.344669 -0.258486 0.300299 -0.49294 0.520338 -0.154816 0.384608 -0.0863703 0.668387 -0.0584257 0.63749 0.118477 0.612867 0.142572 -0.287055 0.606742 -0.292988 0.251913 0.553541 0.135602
9815 0.0301184 0.131971 0.0364267 0.18828 -0.257068 -0.158254 0.282267 -0.411815 0.476568 -0.101353 0.331853 -0.100303 0.628611 -0.11653 0.554723 0.0659052 0.588369 0.0992911 -0.24572 0.576485 -0.270039 0.236104 0.478162 0.0845465
403 -0.0183005 0.032032 0.0298731 0.0299615 -0.0832801 -0.0369468 0.0507618 -0.114198 0.138444 -0.00959775 0.0803315 -0.0302514 0.147557 -0.0231511 0.154587 0.0400332 0.142744 0.0361742 -0.076228 0.151339 -0.0787796 0.0607728 0.130131 0.0250616
3934 -0.0209724 0.00640068 0.0278375 0.0602538 -0.0498714 -0.021423 0.0572381 -0.0955088 0.121393 -0.0393546 0.0977304 -0.0310565 0.162886 -0.0408618 0.145234 0.0088299 0.150923 0.00254079 -0.0461683 0.17067 -0.0512617 0.025962 0.107807 -0.00402162
7059 -0.0294936 0.0748211 0.0530194 0.170349 -0.210914 -0.165789 0.233655 -0.375935 0.454864 -0.116094 0.29843 -0.080847 0.535923 -0.0856443 0.524956 0.0895787 0.550071 0.120896 -0.218401 0.518926 -0.223235 0.208034 0.438723 0.0714265
4112 0.0585444 0.0903845 -0.0236989 0.0517897 -0.131446 0.0296441 0.0248854 -0.0223 0.0380157 -0.0404172 0.0995137 -0.0441267 0.0839745 0.00703643 0.103123 -0.0440548 0.145666 0.0414445 -0.0946067 0.0908962 -0.0872824 0.109688 0.0990705 0.00770548
9919 1.51675 0.58554 -0.821325 -0.19279 -1.00893 1.04992 0.729678 -0.402945 0.766376 0.723038 1.20932 0.588261 2.4041 -1.0127 1.21871 -1.90032 1.94113 -1.0537 -0.294633 0.705159 -1.01948 -0.234028 0.66238 -0.728938
10297 0.310036 0.452671 0.211423 0.712714 -1.0757 -0.0628133 -0.286516 -0.202211 0.371661 -0.464421 0.443895 -0.282432 0.382809 0.210038 0.746725 0.154396 0.862077 0.516229 -0.517762 0.333327 -0.44559 1.04957 1.12677 0.50587
8271 0.0159298 0.0485189 0.0283727 0.0953123 -0.111234 -0.0375951 0.131715 -0.186004 0.248547 -0.068299 0.162223 -0.0211847 0.312278 -0.0727385 0.29813 0.000576932 0.289848 0.0673791 -0.117251 0.277643 -0.155306 0.128122 0.231448 0.0452855
10144 0.0265838 0.109715 0.0263937 0.144653 -0.197742 -0.0543674 0.144707 -0.269228 0.298503 -0.117226 0.237019 -0.0583914 0.408129 -0.0509043 0.369396 0.0487196 0.406989 0.101047 -0.181784 0.363238 -0.165136 0.192816 0.370913 0.0684338
9015 0.0709951 0.0918998 -0.0119703 0.185864 -0.253996 -0.0678126 0.21057 -0.322396 0.367285 -0.0725261 0.281243 -0.0525876 0.496743 -0.0742591 0.468514 -0.0433693 0.488324 0.0886061 -0.20818 0.462087 -0.215227 0.202405 0.390908 0.0390828
9418 0.0439649 0.113484 -0.0241398 0.103226 -0.178318 -0.0495588 0.165122 -0.268383 0.311435 -0.0394343 0.237314 -0.0387035 0.433285 -0.0741876 0.362842 -0.0254613 0.40838 0.0613652 -0.181583 0.400887 -0.197572 0.12906 0.325127 0.0335226
9526 0.113322 0.217238 -0.036302 0.242504 -0.403968 -0.109769 0.254834 -0.369677 0.411403 -0.168852 0.437969 -0.155327 0.665717 -0.118619 0.607323 -0.0649873 0.649161 0.203163 -0.322611 0.661768 -0.297981 0.250046 0.431291 0.0277034
6745 0.146257 0.198714 -0.0230535 0.113841 -0.288737 -0.0102904 0.142888 -0.262136 0.311857 -0.10427 0.319503 -0.0977753 0.45463 -0.0766126 0.428946 -0.067882 0.506495 0.149759 -0.256978 0.419004 -0.272176 0.25291 0.414871 0.0456466
10146 0.399435 0.557231 -0.0855936 0.465285 -0.866785 0.179128 -0.034545 -0.274657 0.300609 -0.374243 0.55814 -0.344231 0.57838 0.0771738 0.715638 -0.161592 0.928173 0.539029 -0.558373 0.593939 -0.486151 0.88126 0.826764 0.234974
6418 0.010484 0.0377011 -0.00534066 0.0603866 -0.0691511 -0.0356021 0.0595951 -0.120966 0.142976 -0.0172933 0.100663 0.0108771 0.157134 -0.0260241 0.153057 0.0266556 0.173232 0.0291865 -0.0621433 0.158897 -0.0857637 0.0599163 0.125639 0.00734064
9937 0.177248 0.157952 0.0852752 0.466541 -0.654307 -0.0912852 0.142242 -0.405468 0.470368 -0.00630114 0.367583 0.0638842 0.732176 -0.0177932 0.661906 -0.0668008 0.694174 -0.00288504 -0.254492 0.387284 -0.34896 0.290448 0.600096 0.0415911
4217 -0.00509467 0.0057084 0.00414405 0.0674043 -0.0435287 -0.0763608 0.102208 -0.134786 0.167368 -0.0280273 0.110373 -0.0382352 0.183759 -0.0216559 0.178881 0.0423649 0.177724 0.0418382 -0.0633524 0.182435 -0.0718044 0.037474 0.120268 0.0207449
6639 0.0197666 0.105539 0.0322075 0.226441 -0.307265 -0.131212 0.268031 -0.419198 0.465101 -0.0966988 0.366488 -0.0929383 0.625491 -0.0777612 0.568567 0.0372101 0.620441 0.135699 -0.260903 0.604135 -0.2889 0.229144 0.498331 0.0907292
6846 0.0415656 0.0488802 -0.0197504 0.00180829 -0.0640294 0.00504068 0.0632209 -0.100344 0.110721 -0.0306555 0.0913329 0.00344585 0.163193 -0.0681769 0.163963 -0.0133285 0.169781 0.00778429 -0.0642714 0.156705 -0.0540513 0.0373437 0.136614 0.013207
5671 0.0189389 0.048407 0.0332165 0.0837215 -0.11177 -0.0909197 0.148306 -0.210487 0.255474 -0.031459 0.159919 -0.0417648 0.335457 -0.0564387 0.326152 0.0365523 0.315353 0.0605991 -0.120315 0.326334 -0.118736 0.113244 0.258156 0.0504883
8476 -0.0171509 0.153623 0.0662684 0.249811 -0.348617 -0.184617 0.313063 -0.495577 0.558395 -0.125661 0.391376 -0.0983749 0.726265 -0.120382 0.653139 0.0938168 0.671438 0.124599 -0.275244 0.65889 -0.301479 0.253639 0.549835 0.0518021
9166 0.0257179 0.083856 -0.0103976 0.0835918 -0.156564 -0.0420789 0.148729 -0.213024 0.274436 -0.058935 0.223524 -0.0446374 0.381165 -0.0547731 0.327392 -0.00769 0.37121 0.0506549 -0.150138 0.3243 -0.151122 0.123383 0.28907 0.0321562
7810 0.00695947 0.0205347 -0.0197362 0.0501306 -0.0599615 -0.0253416 0.0871691 -0.0949321 0.136911 -0.0344622 0.10211 -0.0119121 0.200254 -0.0346817 0.147864 0.00442094 0.18628 0.0339887 -0.0623696 0.146963 -0.0962617 0.050627 0.140108 0.0201729
9935 0.660249 0.758503 -0.239119 0.363111 -1.11614 0.416383 -0.0128937 -0.28747 0.340147 -0.433663 0.747789 -0.401844 0.789828 -0.0242523 0.862147 -0.34059 1.22828 0.617699 -0.751337 0.823212 -0.708582 1.09345 1.1082 0.268939
1435 0.0322508 0.0425958 0.0145886 0.0171318 -0.0438869 -0.0174621 0.036665 -0.0624796 0.117899 -0.0370549 0.0868202 -0.0168964 0.154441 -0.0166715 0.106996 0.00988037 0.147472 0.0111659 -0.0743305 0.115712 -0.0421571 0.035688 0.0896669 0.0110244
6794 0.0640426 0.15889 0.0481573 0.257371 -0.368752 -0.114321 0.259285 -0.439909 0.50277 -0.152356 0.390641 -0.147032 0.667185 -0.0806712 0.626516 0.0830277 0.665433 0.182663 -0.33077 0.615021 -0.323827 0.348266 0.592901 0.0989491
7306 0.0559139 0.0375969 -0.00279994 0.0201211 -0.0882843 -0.019254 0.0906233 -0.125192 0.172932 -0.0268298 0.125871 -0.0283033 0.239373 -0.0552477 0.201543 -0.0126673 0.217776 0.0609954 -0.112793 0.22136 -0.0906192 0.0824165 0.170603 0.0333799
5529 0.0206828 0.0473562 0.00309415 0.0558164 -0.0568967 -0.003608 0.0646795 -0.0907742 0.112585 -0.0251903 0.0632037 -0.0159316 0.14666 -0.0333052 0.136334 -0.00764865 0.117259 0.0203172 -0.0789328 0.13823 -0.0458296 0.0360903 0.125083 0.0192629
9630 0.0680806 0.136427 0.0136254 0.176333 -0.291153 -0.0949824 0.215558 -0.378073 0.429604 -0.100776 0.340976 -0.0557819 0.585928 -0.0710693 0.524749 0.0239991 0.546769 0.0660164 -0.231805 0.495631 -0.253399 0.228175 0.460551 0.0770051
9692 0.112722 0.146976 0.0158489 0.19495 -0.359568 -0.0510901 0.25979 -0.398756 0.438064 -0.0473734 0.362055 -0.0347589 0.677873 -0.134065 0.578213 -0.0575031 0.605899 0.0628897 -0.232147 0.537291 -0.28142 0.185909 0.472674 0.0259421
7300 0.0548877 0.0397142 -0.0474341 -0.00250367 -0.0352879 -0.00366263 0.103903 -0.104785 0.139471 -0.0148101 0.0863363 -0.012542 0.190615 -0.063346 0.137266 -0.052967 0.197331 -0.0026481 -0.0507356 0.154786 -0.0714774 0.0454025 0.136825 -0.0208199
9703 -0.112444 -0.0251688 0.114699 0.183668 -0.101021 -0.170929 0.0296944 -0.156 0.16729 -0.0695109 0.0657052 -0.0239037 0.103611 0.060699 0.174921 0.177149 0.128864 0.0619487 -0.0689013 0.115594 -0.0262088 0.0950992 0.163441 0.102162
244 -0.0181406 0.0302201 0.00669442 0.0510228 -0.047282 -0.035595 0.0898429 -0.118908 0.152358 -0.0341091 0.100848 0.00354872 0.181686 -0.00904889 0.169916 0.0124972 0.146984 0.0274546 -0.0557362 0.149536 -0.0685462 0.039066 0.134134 0.021291
4839 0.0159973 0.189559 0.111407 0.399864 -0.486492 -0.252763 0.402608 -0.649709 0.745631 -0.205079 0.543863 -0.155141 0.96497 -0.146425 0.911457 0.104281 0.965393 0.219479 -0.408609 0.918376 -0.430724 0.384535 0.783438 0.135747
6951 0.00694246 0.0283942 -0.0139406 0.0636728 -0.0815826 -0.0419204 0.0985385 -0.128412 0.164489 -0.035201 0.120993 -0.0389977 0.21672 -0.0574154 0.200036 -0.0102599 0.227265 0.0421819 -0.110992 0.207198 -0.0988228 0.0657741 0.164797 0.0210246
1753 0.0312008 0.0358065 -0.0198409 0.00806105 -0.0609521 0.0148602 0.0650131 -0.093075 0.0961683 -0.0145257 0.0737441 -0.024105 0.193711 -0.0370162 0.134206 -0.0271873 0.17842 0.0384218 -0.0874188 0.143684 -0.0546004 0.0374115 0.105069 -0.00709053
8916 0.0367651 0.0978846 -0.00623524 0.0704021 -0.159566 -0.0417862 0.173569 -0.205658 0.289942 -0.042846 0.206373 -0.0563334 0.373203 -0.0634255 0.339911 0.010709 0.340904 0.0354965 -0.166071 0.35818 -0.171822 0.107971 0.255013 0.0161268
8951 0.0354152 0.0744309 0.024727 0.0915936 -0.112158 -0.0665045 0.15149 -0.219444 0.230687 -0.0342538 0.163419 -0.0410662 0.300097 -0.0428817 0.268285 0.0282466 0.316246 0.0395554 -0.144363 0.319904 -0.132495 0.114697 0.261289 0.0173257
5238 0.00677402 0.00920926 -0.00295383 0.020274 -0.054796 -0.0263695 0.0407761 -0.091722 0.0990785 -0.0103448 0.0839019 -0.021369 0.118261 -0.0191022 0.11732 0.0148474 0.119688 0.0331861 -0.0374657 0.132562 -0.0732613 0.0420419 0.0785854 0.00688446
5450 0.102698 0.252664 0.0186299 0.347812 -0.527949 -0.147478 0.363766 -0.57998 0.625598 -0.198359 0.546624 -0.165556 0.864607 -0.136216 0.796614 0.0259844 0.910622 0.233881 -0.450026 0.817337 -0.431202 0.425462 0.721536 0.143492
5906 0.0405046 0.14295 0.027752 0.223498 -0.317626 -0.169105 0.339931 -0.486389 0.603109 -0.130907 0.432321 -0.104656 0.77666 -0.114778 0.679117 0.0461173 0.746408 0.104278 -0.308805 0.684141 -0.330028 0.2581 0.580249 0.0885328
84 -0.00683999 0.000891791 -0.00540747 0.0296841 -0.052811 -0.0345774 0.0754048 -0.114392 0.135692 -0.0338416 0.0653783 -0.0148609 0.148951 -0.0150737 0.13473 0.00099139 0.135561 0.0344719 -0.0470449 0.135235 -0.0389373 0.0455243 0.108848 0.032872
3418 0.0457095 0.0564128 -0.00712448 0.0210579 -0.0734103 -0.0262359 0.0884388 -0.108077 0.14903 -0.0210758 0.0888496 -0.00235804 0.204958 -0.0496695 0.159971 -0.00047061 0.19523 0.0232634 -0.085409 0.181325 -0.0650379 0.0652809 0.122824 0.0185476
4599 -0.0392024 0.0970078 0.0808167 0.297218 -0.281843 -0.228731 0.254478 -0.465391 0.550723 -0.141787 0.358057 -0.073005 0.620488 -0.0840334 0.611437 0.106326 0.595011 0.10712 -0.277069 0.60459 -0.265672 0.267795 0.527114 0.0980023
2673 0.0149021 0.0205187 0.0176933 0.0461449 -0.063575 -0.0527047 0.0763175 -0.107189 0.137831 -0.0451589 0.121091 -0.0001483 0.203624 -0.0557355 0.172134 0.0211453 0.217019 0.0407234 -0.100639 0.185908 -0.0741835 0.0697382 0.168171 0.0023357
8234 -0.00441331 0.154608 0.0432025 0.260487 -0.296201 -0.203687 0.349824 -0.493552 0.554149 -0.116937 0.363818 -0.0961012 0.744709 -0.112947 0.658139 0.0626337 0.66074 0.13183 -0.284931 0.68327 -0.289834 0.223105 0.533323 0.0633373
8486 0.0195784 0.0942793 0.0610817 0.173144 -0.221586 -0.121075 0.236606 -0.34265 0.398104 -0.0897683 0.289136 -0.0661178 0.526323 -0.0619467 0.478334 0.0540409 0.510493 0.0829493 -0.229758 0.48085 -0.229278 0.197881 0.421018 0.0705161
4167 -0.0185768 0.0244872 0.0458645 0.0600962 -0.059323 -0.0501264 0.0621688 -0.114741 0.16162 -0.0338557 0.101188 -0.0267632 0.169954 -0.00733215 0.144673 0.0387363 0.140701 0.0417836 -0.0902509 0.147679 -0.0816585 0.0469815 0.157269 0.0359037
4490 -0.0034148 0.138352 0.0622504 0.279157 -0.32749 -0.216913 0.328622 -0.54116 0.640952 -0.135429 0.441969 -0.0978265 0.782998 -0.119747 0.72928 0.132484 0.789626 0.142229 -0.353252 0.77421 -0.317657 0.281403 0.638441 0.114808
5945 0.0163732 0.063403 0.0109612 0.0923413 -0.128487 -0.0411157 0.149324 -0.214656 0.260234 -0.0653636 0.185781 -0.0210783 0.344615 -0.0610529 0.300977 0.0353366 0.336296 0.0286381 -0.126828 0.312419 -0.158915 0.107112 0.258284 0.0271852
8160 0.124716 0.159517 -0.074211 0.0646112 -0.228064 0.100187 0.0240212 -0.105708 0.103125 -0.088341 0.175621 -0.0843949 0.217245 -0.045705 0.205824 -0.0812659 0.301386 0.088581 -0.164415 0.219833 -0.165184 0.200081 0.255845 0.0399259
8645 0.00355045 0.0410368 0.0176671 0.0539348 -0.0901303 -0.0335876 0.105374 -0.113854 0.181743 -0.0322683 0.11008 -0.0246752 0.210129 -0.019502 0.173164 0.0255484 0.216351 0.0322161 -0.0800594 0.214328 -0.081564 0.0698179 0.158178 0.0361599
9480 0.107333 0.165071 0.0243235 0.254914 -0.389651 -0.126953 0.256788 -0.415781 0.480682 -0.106575 0.395919 -0.072795 0.663365 -0.09894 0.6085 0.0208562 0.644708 0.10861 -0.27962 0.556182 -0.295729 0.24807 0.500257 0.0665164
9574 -0.023952 0.0524661 0.0542811 0.16157 -0.199285 -0.107331 0.212626 -0.300958 0.374224 -0.0923225 0.23873 -0.0736753 0.451922 -0.0505475 0.433882 0.0450833 0.449706 0.0755886 -0.189685 0.423836 -0.179488 0.18153 0.381129 0.0660156
1136 0.0250245 0.0937188 0.0566768 0.189442 -0.234528 -0.143053 0.251722 -0.387187 0.442935 -0.0986329 0.293322 -0.0668994 0.577989 -0.064447 0.51696 0.0656977 0.538314 0.111475 -0.246855 0.542359 -0.23216 0.206827 0.456884 0.0641057
1362 -0.00182747 0.0215465 -0.00916681 0.0563999 -0.0777431 -0.0427484 0.0793298 -0.119221 0.153408 -0.0437883 0.0965955 -0.0095625 0.19554 -0.0210452 0.175083 0.00466249 0.210749 0.0439472 -0.0681618 0.194252 -0.0932675 0.0721547 0.158539 0.00539667
4140 -0.0020525 0.0354813 0.0409842 0.107466 -0.157687 -0.108353 0.130886 -0.229227 0.265276 -0.0611209 0.167219 -0.0636715 0.349082 -0.0615853 0.304634 0.0744816 0.312712 0.0559398 -0.150742 0.300842 -0.157213 0.134688 0.259981 0.052718
1498 0.0543727 0.0573753 -0.0426971 -0.00348572 -0.0532845 0.0059456 0.0634805 -0.0748729 0.12985 -0.00351963 0.0969018 -0.0268412 0.174312 -0.0728105 0.143109 -0.0245224 0.160917 0.00262595 -0.0857267 0.165376 -0.0660711 0.0365398 0.0982849 -0.0134574
3339 0.0651063 0.201656 0.077291 0.361055 -0.455202 -0.206437 0.406851 -0.619858 0.747568 -0.193031 0.52608 -0.133414 0.947051 -0.13743 0.881488 0.072622 0.963688 0.195148 -0.44698 0.870946 -0.448201 0.389249 0.775135 0.111549
3526 -0.00339701 0.162395 0.0972406 0.289995 -0.381614 -0.228597 0.329122 -0.531929 0.638777 -0.169031 0.463115 -0.130171 0.84653 -0.107168 0.761191 0.102758 0.811128 0.180153 -0.357407 0.751607 -0.352377 0.344079 0.67474 0.110476
3060 0.0400516 0.0435549 -0.0278409 0.0100417 -0.0598518 -0.0233177 0.0731693 -0.0793918 0.136885 -0.0185414 0.0882718 -0.0299342 0.159227 -0.0235823 0.15432 -0.0196002 0.186318 0.00934114 -0.0583255 0.136619 -0.0600854 0.0721879 0.124251 0.0091714
9358 0.135439 0.264195 0.052079 0.362916 -0.537638 -0.115622 0.205884 -0.371039 0.425537 -0.199405 0.393906 -0.136392 0.656835 -0.0135914 0.576537 -0.0245442 0.667003 0.180915 -0.319265 0.505036 -0.358899 0.358818 0.564409 0.139855
9820 -0.124157 0.0363514 0.135469 0.273292 -0.192162 -0.21812 0.140025 -0.291589 0.322169 -0.0965244 0.172666 -0.0542842 0.350569 0.0334793 0.362828 0.181772 0.318025 0.114212 -0.171805 0.339975 -0.161235 0.195985 0.343533 0.130407
2031 -0.0178015 0.00982376 0.0171204 0.04691 -0.0853397 -0.051093 0.0658415 -0.120244 0.157617 -0.0304166 0.112803 -0.0327404 0.207835 -0.0221818 0.17375 0.0367455 0.19527 0.0370202 -0.0725317 0.159899 -0.061482 0.0557239 0.131531 0.00113939
8952 0.0234208 0.0766272 0.0312069 0.15873 -0.251113 -0.124784 0.230045 -0.34607 0.40076 -0.0788623 0.289326 -0.0541411 0.500576 -0.0956894 0.484064 0.0573822 0.49592 0.0795009 -0.215957 0.465535 -0.235814 0.187852 0.425617 0.0700249
9311 -0.0808102 0.117847 0.151515 0.355084 -0.393392 -0.250729 0.260857 -0.48661 0.526078 -0.176489 0.361086 -0.117079 0.617109 0.0182526 0.642488 0.183458 0.606252 0.186892 -0.285432 0.611379 -0.290253 0.338301 0.570477 0.176641
132 -0.014018 0.0370346 0.0139603 0.0444063 -0.0402766 -0.0425406 0.0630753 -0.105868 0.128438 -0.0327861 0.0780457 -0.0148442 0.125479 -0.0311855 0.148712 0.0246383 0.117742 0.0337146 -0.048251 0.124868 -0.0405479 0.0467113 0.12359 0.003246
8627 0.0162842 0.0702468 -0.00523303 0.109466 -0.172814 -0.0842593 0.170389 -0.249506 0.303372 -0.0626127 0.241059 -0.0525795 0.378449 -0.0726773 0.35904 0.0306446 0.370883 0.0805886 -0.146664 0.382638 -0.176521 0.139344 0.3102 0.0324009
3213 0.0206916 0.0634401 0.00575383 0.0742083 -0.085072 -0.0420676 0.0990595 -0.162103 0.18886 -0.0217982 0.146516 -0.0191255 0.277904 -0.0376909 0.248624 0.0292701 0.251237 0.0554911 -0.116564 0.272846 -0.116501 0.104309 0.224402 0.0157363
4329 0.0216516 0.0676222 0.0494586 0.173463 -0.235626 -0.128846 0.233061 -0.371957 0.437176 -0.0715571 0.314325 -0.0718904 0.565344 -0.10276 0.529001 0.0705689 0.548477 0.106857 -0.254116 0.535242 -0.250931 0.207356 0.444323 0.0441869
8056 0.0169051 0.0450265 0.0144206 0.120464 -0.179579 -0.0968967 0.168107 -0.271595 0.284676 -0.0852108 0.224844 -0.0653101 0.395284 -0.0591562 0.343121 0.0730923 0.388676 0.0747373 -0.15551 0.374459 -0.167794 0.164747 0.292358 0.0378668
7968 0.0372466 0.0636934 -0.00126582 0.0695844 -0.0919163 -0.0228751 0.109354 -0.127108 0.172758 -0.015026 0.114367 -0.0336591 0.226228 -0.0665415 0.193035 0.012119 0.240517 0.0177208 -0.0931527 0.213968 -0.0864546 0.060723 0.163794 0.0234474
9423 -0.107372 0.0588235 0.177632 0.433041 -0.399474 -0.309024 0.281038 -0.52953 0.611454 -0.163826 0.413184 -0.0874507 0.72295 -0.0292613 0.693345 0.262271 0.663659 0.153078 -0.307196 0.635523 -0.267382 0.339223 0.608549 0.193411
9538 0.0304146 0.167788 0.034708 0.251442 -0.33531 -0.141819 0.178782 -0.325464 0.382443 -0.133097 0.331922 -0.120773 0.51373 -0.0339312 0.505669 0.0649885 0.548966 0.155162 -0.260078 0.505735 -0.242351 0.278292 0.492726 0.0963267
7504 0.042675 0.0854648 0.00862957 0.08215 -0.169467 -0.047411 0.175373 -0.230902 0.296318 -0.0612025 0.211269 -0.0428695 0.40393 -0.101793 0.352037 0.000389861 0.376965 0.0724584 -0.151246 0.382863 -0.179076 0.146679 0.284649 0.0513832
7681 0.00170051 0.0390331 0.0368571 0.0688855 -0.101382 -0.0473497 0.104191 -0.150905 0.216301 -0.0457648 0.139831 -0.035767 0.263355 -0.0550137 0.245719 0.0370899 0.26542 0.0612325 -0.0970333 0.249697 -0.123879 0.109942 0.2099 0.0493491
8075 0.0128647 0.0649591 0.0193183 0.0826665 -0.144196 -0.0913883 0.102568 -0.215715 0.247779 -0.0659362 0.141752 -0.0294196 0.285116 -0.0589802 0.26997 0.0268437 0.276247 0.0799802 -0.138146 0.291228 -0.12833 0.107905 0.256308 0.0373826
505 -0.00716345 0.00817665 0.0293381 0.0503179 -0.0434218 -0.0165595 0.0634089 -0.100138 0.114707 -0.00360543 0.0905225 -0.000911703 0.124355 -0.0150829 0.149295 0.00637115 0.131915 0.00471506 -0.0512512 0.124336 -0.0502479 0.0430276 0.120774 0.0168908
1196 -0.00437198 0.0392073 0.0154131 0.0646379 -0.0647386 -0.0275661 0.091106 -0.105337 0.154305 -0.0326318 0.0882687 -0.0197048 0.197121 -0.0256275 0.182582 0.0162825 0.186253 0.0182395 -0.0689744 0.161953 -0.0715719 0.0692584 0.150766 0.0394082
1274 0.0231358 0.0490451 0.00459203 0.0452426 -0.0652982 -0.0340115 0.0891481 -0.149944 0.160451 -0.0259782 0.126613 -0.0415611 0.232127 -0.048759 0.201736 0.0130747 0.241299 0.054694 -0.115972 0.249898 -0.105109 0.059276 0.181977 0.0151741
7819 -0.125567 -0.0313352 0.127617 0.184283 -0.0957077 -0.148742 -0.00362891 -0.0976061 0.139691 -0.081942 0.0144709 -0.047964 0.0483843 0.0596824 0.123385 0.140208 0.0765827 0.0795778 -0.0644443 0.0589894 -0.0145634 0.109673 0.13499 0.0750202
1037 0.0491309 0.0480245 -0.0099161 0.00734454 -0.0742347 0.0108433 0.0625309 -0.114665 0.109441 -0.0203183 0.0907887 -0.00300002 0.184884 -0.04217 0.147422 -0.00307167 0.177028 0.00119556 -0.0679203 0.155137 -0.0626885 0.0338254 0.123572 0.00312754
7387 0.0422059 0.0564434 -0.0285709 0.0411046 -0.0942962 -0.0235367 0.0950429 -0.143864 0.185361 -0.0550103 0.118978 -0.0546346 0.234508 -0.0465596 0.214252 -0.0273534 0.233356 0.0329935 -0.114352 0.235452 -0.0911983 0.0792618 0.18924 0.0183218
8346 0.0441332 0.00878468 -0.0243606 -0.00432842 -0.0573225 -0.0126989 0.088965 -0.0941563 0.124777 -0.0207754 0.0907123 0.00290346 0.180065 -0.0430742 0.114087 -0.0119768 0.145731 0.0223506 -0.0545775 0.140325 -0.0713558 0.0338236 0.12408 0.00943945
4151 -0.0186773 0.073987 0.0348228 0.108544 -0.141388 -0.076533 0.162346 -0.260139 0.314327 -0.0635672 0.231473 -0.0350851 0.422855 -0.0515514 0.360602 0.0562038 0.39727 0.0516059 -0.151769 0.372086 -0.169858 0.134324 0.331757 0.052405
5622 0.0224466 0.0287852 0.0254048 0.0428105 -0.0733079 -0.0516696 0.107515 -0.145876 0.173862 -0.0346954 0.0941073 -0.0276562 0.223016 -0.0306232 0.172703 0.0151033 0.205838 0.0517247 -0.0828885 0.202476 -0.109873 0.080211 0.158149 0.0217833
7989 0.00301982 0.1412 0.0698279 0.281519 -0.38203 -0.177954 0.329998 -0.501947 0.576109 -0.130811 0.421221 -0.089486 0.750824 -0.11286 0.70384 0.0764977 0.737251 0.16788 -0.328546 0.696911 -0.309928 0.293317 0.594869 0.0902478
9949 -0.145497 -0.0228343 0.138868 0.241869 -0.138172 -0.218147 0.0652078 -0.198075 0.230766 -0.0948633 0.0897014 -0.073618 0.150344 0.0838975 0.244818 0.19429 0.183009 0.118057 -0.100291 0.202754 -0.0822836 0.148033 0.229928 0.132738
3668 0.051112 0.0613566 -0.0127399 0.0152918 -0.0718242 0.00842209 0.0877553 -0.093412 0.120445 0.00831711 0.0912156 -0.0222847 0.191203 -0.0811058 0.152688 -0.045167 0.191277 0.000674065 -0.0554269 0.171246 -0.0797844 0.0435422 0.130137 0.0122026
4321 0.0561842 0.0815422 0.00112309 0.0383496 -0.0935775 -0.0166878 0.109538 -0.129287 0.188854 -0.0239579 0.152821 -0.0324879 0.268066 -0.0404731 0.224185 -0.00592764 0.275786 0.0363176 -0.110306 0.240559 -0.107315 0.0858092 0.193373 0.032949
6341 -0.015535 0.0675301 0.0292745 0.168861 -0.217922 -0.126873 0.223646 -0.339059 0.44448 -0.118372 0.277352 -0.0775796 0.506379 -0.0695792 0.496057 0.0935622 0.494961 0.104475 -0.220719 0.481176 -0.243665 0.207199 0.407358 0.0668967
4171 0.0188787 0.043271 -0.0143924 0.0164287 -0.0780048 -0.0279864 0.0956734 -0.150823 0.17268 -0.0314691 0.118641 -0.0100291 0.263355 -0.0629437 0.19278 -0.032236 0.256355 0.0105077 -0.10011 0.230905 -0.0895655 0.0512545 0.190257 0.00781359
10191 0.00656394 0.056628 0.0615879 0.169549 -0.207018 -0.114144 0.135652 -0.249137 0.322306 -0.061309 0.189512 -0.0445204 0.362735 -0.0122316 0.345019 0.0538319 0.363739 0.0797199 -0.173967 0.339905 -0.162852 0.177216 0.337761 0.0896445
6322 0.0323555 0.0476741 0.0290721 0.0791484 -0.135838 -0.0311866 0.102153 -0.163457 0.205455 -0.0608833 0.164789 -0.0569901 0.291808 -0.0532241 0.261465 0.0110987 0.300931 0.0731711 -0.128602 0.265998 -0.143007 0.121943 0.236366 0.0407912
8157 0.212663 0.266601 -0.107331 0.171151 -0.384398 -0.0558782 0.447497 -0.564302 0.570163 -0.0525205 0.520778 -0.108006 0.985873 -0.341195 0.763192 -0.159891 0.854502 0.0879583 -0.346087 0.910703 -0.412274 0.193749 0.560445 -0.0605014
1131 -0.00695237 0.0107366 0.0334435 0.0278103 -0.0391759 -0.0261926 0.0463081 -0.0882539 0.12196 -0.0321589 0.0739859 -0.0238791 0.115676 -0.00166675 0.12884 0.0400851 0.143225 0.0397042 -0.0550278 0.120541 -0.0390686 0.0724326 0.127877 0.00669883
2999 0.0155245 0.14839 0.0745389 0.312483 -0.417418 -0.221045 0.342175 -0.574884 0.676534 -0.175669 0.494095 -0.145585 0.850003 -0.128719 0.808078 0.108718 0.84001 0.171864 -0.396035 0.798225 -0.365998 0.374057 0.695299 0.134693
6851 0.0285559 0.0583084 -0.00114422 0.0619466 -0.0726627 -0.0532755 0.133221 -0.169495 0.226552 -0.0453622 0.148667 -0.0349957 0.287096 -0.0822817 0.263045 0.0226016 0.284836 0.0332501 -0.0976822 0.259057 -0.120414 0.0882025 0.203202 0.00906674
2146 0.037829 0.0414616 0.00300911 0.0378418 -0.0651335 -0.038316 0.0654484 -0.094225 0.126846 -0.00598576 0.0808741 -0.0338835 0.181338 -0.0553061 0.142146 0.00591786 0.158956 0.00729842 -0.0560204 0.144592 -0.0878096 0.0426762 0.115062 -0.00419442
7806 -0.0559053 0.150493 0.13137 0.364843 -0.435101 -0.283982 0.297428 -0.549114 0.605633 -0.179371 0.436216 -0.100671 0.766631 -0.084104 0.724704 0.136566 0.76541 0.185672 -0.341215 0.726213 -0.323855 0.334977 0.638031 0.125147
8164 0.0577878 0.0887537 -0.00441341 0.0650961 -0.139579 0.00495277 0.100644 -0.122958 0.137499 -0.0520714 0.156836 -0.0583639 0.234574 -0.0627235 0.191894 -0.0337247 0.234923 0.0525057 -0.101879 0.200412 -0.137145 0.110878 0.182477 0.0382555
8893 -0.0767138 0.00524246 0.0833953 0.179801 -0.123028 -0.159754 0.11282 -0.218076 0.250849 -0.0908794 0.139833 -0.0370262 0.303316 -0.00327722 0.294012 0.12205 0.276125 0.0621177 -0.127107 0.256059 -0.112941 0.134559 0.266446 0.0907386
9872 -0.0498427 0.0848137 0.145361 0.355275 -0.362498 -0.263963 0.200299 -0.439378 0.523118 -0.141044 0.316476 -0.0865796 0.606995 -0.0137976 0.569955 0.158555 0.53885 0.151863 -0.247942 0.503353 -0.246909 0.272381 0.515721 0.154112
713 -0.0109065 0.0155432 0.0166807 0.0292718 -0.0387451 -0.0345929 0.0829738 -0.0960135 0.124542 -0.0193008 0.080968 -0.014634 0.143923 -0.0216085 0.141267 0.00900889 0.168138 0.01844 -0.0447421 0.138025 -0.0772972 0.0448064 0.136666 0.0105743
939 -0.0222571 0.0137213 0.0201129 0.0562002 -0.0445242 -0.0318061 0.0589858 -0.116865 0.116001 -0.00443781 0.0846202 -0.0227295 0.163574 -0.0139309 0.160347 0.0115364 0.160412 0.0255783 -0.0522934 0.145155 -0.0500464 0.0318229 0.136185 0.00167786
4997 0.0307038 0.167489 0.060027 0.273147 -0.384753 -0.221722 0.452201 -0.60119 0.679169 -0.107977 0.497212 -0.0885578 0.952175 -0.173093 0.797567 0.0504755 0.881444 0.157868 -0.398089 0.883665 -0.394767 0.280325 0.669668 0.0325635
4087 -0.0141825 0.0509596 0.0176568 0.0573907 -0.105741 -0.065352 0.0850296 -0.140509 0.184702 -0.0430144 0.122307 -0.0217964 0.227632 -0.0489476 0.182357 0.0172727 0.227462 0.0316063 -0.0845579 0.210352 -0.0998581 0.0954983 0.169328 0.0166039
8263 -0.0229561 0.0133442 0.0348261 0.100928 -0.105923 -0.0713223 0.111806 -0.182142 0.193462 -0.0467357 0.108823 -0.0272586 0.231875 -0.0166669 0.238362 0.0504967 0.238039 0.0180362 -0.118735 0.221023 -0.0864446 0.0798003 0.206505 0.0478795
8859 0.0835975 0.234643 0.0597376 0.353381 -0.437614 -0.159821 0.309854 -0.489351 0.543002 -0.146647 0.45263 -0.132001 0.77662 -0.106109 0.716124 0.0458331 0.754582 0.169605 -0.332206 0.674418 -0.354853 0.315993 0.585067 0.0692684
3879 0.0523633 0.0596961 -0.00943812 0.0703222 -0.161565 -0.0624482 0.193188 -0.241412 0.291619 -0.0305257 0.221525 -0.00876468 0.419173 -0.110417 0.340636 -0.00521851 0.383874 0.0336627 -0.138368 0.353989 -0.148839 0.108 0.270357 0.0321666
4374 -0.017037 0.159133 0.079815 0.360465 -0.477371 -0.268639 0.406704 -0.665041 0.769046 -0.211289 0.54156 -0.132446 0.979404 -0.147667 0.91541 0.12613 0.92471 0.207436 -0.410624 0.916789 -0.399048 0.389342 0.783948 0.118466
7043 0.0347366 0.0929317 0.0248562 0.139367 -0.242969 -0.118809 0.237038 -0.356507 0.433781 -0.0759098 0.296397 -0.0534449 0.564615 -0.0934108 0.499823 0.0497482 0.544283 0.0945217 -0.22092 0.522522 -0.256012 0.173626 0.446112 0.0444442
6251 -0.0898296 0.0101836 0.11585 0.190257 -0.118661 -0.161097 0.113966 -0.217153 0.220738 -0.0659468 0.118934 -0.0266589 0.226274 0.0169595 0.256382 0.137598 0.231163 0.0730666 -0.133586 0.243719 -0.0991892 0.142941 0.228855 0.0836447
6873 0.0474201 0.145905 -0.00134935 0.204872 -0.279176 -0.1518 0.366888 -0.493003 0.588233 -0.0967397 0.401104 -0.0689541 0.770747 -0.14478 0.642189 0.0341555 0.736869 0.086759 -0.309312 0.708489 -0.31132 0.222815 0.522838 0.0468587
7239 0.056628 0.0535492 -0.0391178 0.0537563 -0.101928 -0.0190207 0.168822 -0.207061 0.224827 -0.0283003 0.176215 -0.0210352 0.349377 -0.0882329 0.27009 -0.0165697 0.347985 0.0428056 -0.120996 0.315729 -0.129215 0.110404 0.219489 -0.00415956
2815 0.0342357 0.0160829 -0.0117598 0.00271242 -0.0580762 -0.00817302 0.0625097 -0.0658765 0.111417 -0.0200616 0.0887885 0.00711384 0.161664 -0.0437086 0.152909 -0.010307 0.145057 0.000356588 -0.0709154 0.126909 -0.0509542 0.0282569 0.128769 0.0157207
2861 0.000182269 0.151282 0.076526 0.339457 -0.422188 -0.251857 0.378151 -0.622807 0.730104 -0.169259 0.481536 -0.132156 0.888685 -0.134598 0.833948 0.147843 0.876766 0.167805 -0.37064 0.816238 -0.387276 0.346579 0.718793 0.119304
3216 -0.0205077 0.0088459 -0.00543852 0.0667629 -0.0485161 -0.0290307 0.0978755 -0.121434 0.141461 -0.043642 0.106584 -0.0141412 0.184127 -0.0424163 0.159186 0.00802762 0.163777 0.0249151 -0.0938469 0.16002 -0.0626845 0.0833435 0.159894 0.0161543
6917 0.0190161 0.133723 0.0597191 0.251609 -0.341515 -0.20022 0.331829 -0.496203 0.593843 -0.141862 0.404031 -0.113497 0.766999 -0.132194 0.712205 0.0910548 0.724864 0.152412 -0.302407 0.696758 -0.306645 0.28085 0.605649 0.10392
7496 0.0109504 0.0506466 0.0396788 0.126578 -0.198435 -0.119757 0.173224 -0.276988 0.337267 -0.0911865 0.235961 -0.0374461 0.428574 -0.0652963 0.39334 0.0433617 0.432888 0.0913006 -0.178316 0.418209 -0.172956 0.162305 0.336168 0.0773405
9590 0.00332603 0.0574824 0.0613721 0.174976 -0.236957 -0.13026 0.186359 -0.31087 0.378987 -0.105287 0.274077 -0.0500768 0.470473 -0.0440027 0.416039 0.0628749 0.438358 0.0937598 -0.202019 0.409162 -0.209196 0.19281 0.367742 0.0723437
5444 0.0121487 0.0475953 0.0142337 0.0647115 -0.0928755 -0.0297633 0.12521 -0.150228 0.188401 -0.0523354 0.147235 -0.0464049 0.250232 -0.048982 0.247286 0.0139912 0.245648 0.0515766 -0.111749 0.225504 -0.117912 0.10591 0.20564 0.0390994
5958 -0.00108873 0.0302931 0.00721598 0.0320478 -0.082831 -0.0404979 0.0647256 -0.10085 0.124161 -0.0151828 0.114598 0.000752872 0.184761 -0.043709 0.155844 0.00966959 0.164565 0.0446865 -0.0523884 0.159579 -0.0964266 0.0364068 0.149672 0.0269961
5990 0.00615558 0.0623022 0.0200913 0.0772074 -0.120311 -0.0854151 0.146679 -0.196351 0.264571 -0.041873 0.178635 -0.0263299 0.328207 -0.0511278 0.305916 0.0355783 0.325876 0.0728114 -0.147677 0.327978 -0.124576 0.140925 0.278023 0.0556378
4367 0.0246577 0.0380695 -0.0215988 0.030883 -0.0566743 -0.013024 0.0916658 -0.0989387 0.144888 -0.0403203 0.0973637 -0.0469443 0.200222 -0.0305828 0.190354 0.00583772 0.175752 0.0273363 -0.0920515 0.207981 -0.098793 0.066996 0.153396 0.0327043
5927 0.0053179 0.103408 0.0516083 0.210358 -0.267019 -0.146828 0.25294 -0.371228 0.448312 -0.113652 0.324686 -0.0782756 0.572936 -0.0665645 0.529998 0.0563025 0.537996 0.133611 -0.249369 0.544148 -0.231088 0.20755 0.461856 0.0687898
9897 0.0639302 0.0711812 -0.0209338 0.101599 -0.167283 -0.0460324 0.160932 -0.213397 0.27001 -0.0189801 0.221313 -0.00140998 0.392361 -0.0646605 0.365456 -0.0416436 0.405557 0.0359475 -0.170726 0.339978 -0.170094 0.131082 0.296182 0.0371518
3034 0.0548492 0.0328898 -0.019806 0.00247632 -0.0491143 0.0221595 0.086611 -0.0916187 0.0875061 -0.018244 0.0926536 -0.0249139 0.144751 -0.0369375 0.111097 -0.0314159 0.155045 -0.00208412 -0.0519846 0.16481 -0.0537191 0.0202144 0.107719 -0.00431326
4623 0.0446783 0.066005 -0.0192532 0.092206 -0.121285 -0.0362559 0.128256 -0.230631 0.244377 -0.0519919 0.194324 -0.0389642 0.352417 -0.0936878 0.29994 -0.00898315 0.326515 0.0617184 -0.155351 0.342411 -0.150895 0.0971096 0.262429 0.0265515
3974 -0.0270149 0.042391 0.00402821 0.0585878 -0.0499618 -0.0519623 0.0619103 -0.122131 0.141514 -0.055275 0.078014 -0.0430931 0.142069 0.00447438 0.1449 0.0423861 0.13738 0.0618572 -0.0756508 0.135459 -0.0470282 0.0684455 0.137517 0.0268485
9425 0.0160798 0.0256851 -0.00495723 0.0375958 -0.0541384 -0.0308531 0.0671655 -0.101423 0.0999579 -0.0216327 0.0695632 -0.0292394 0.166674 -0.028615 0.13214 0.0291066 0.140842 0.0483296 -0.0762115 0.123363 -0.0534395 0.0722963 0.141974 0.00758965
9429 0.00382906 0.0877856 0.0133931 0.142711 -0.201166 -0.118447 0.19355 -0.271756 0.352336 -0.0860628 0.247744 -0.0448875 0.445972 -0.0704549 0.430049 0.0546246 0.416739 0.111556 -0.187193 0.421381 -0.18985 0.168625 0.343168 0.0600082
8979 -0.0129354 0.0967981 0.0611305 0.254101 -0.32257 -0.168588 0.290557 -0.44716 0.523934 -0.129862 0.380933 -0.0922933 0.652468 -0.0923393 0.630827 0.11496 0.631659 0.131394 -0.281578 0.620555 -0.291173 0.272992 0.527764 0.11719
9503 0.024341 0.0733258 0.0115713 0.0967039 -0.145584 -0.0480915 0.178793 -0.221763 0.267533 -0.0560814 0.221648 -0.0479939 0.384024 -0.0890577 0.343236 -0.00561127 0.360415 0.0488647 -0.170551 0.357336 -0.149581 0.13203 0.280866 0.0234698
9823 -0.0771403 0.0459423 0.0944859 0.277845 -0.25056 -0.197339 0.223249 -0.376085 0.476287 -0.143344 0.274792 -0.0950388 0.550701 -0.0426501 0.538189 0.147739 0.512736 0.125648 -0.221125 0.528379 -0.217219 0.244283 0.484789 0.0874024
1758 0.041979 0.0326568 -0.0211784 0.00662299 -0.0495777 -0.0217812 0.0795303 -0.0905789 0.127558 0.00136773 0.118834 -0.00853051 0.203623 -0.0660853 0.168597 0.000952238 0.180328 0.0141801 -0.0529078 0.154913 -0.060102 0.00513033 0.105767 0.0109628
1798 0.0114596 0.0615726 -0.00243476 0.0792067 -0.133481 -0.0668633 0.127322 -0.205675 0.276211 -0.0431055 0.173413 -0.0306245 0.33213 -0.0778891 0.319706 0.0374186 0.321824 0.0373609 -0.155882 0.308194 -0.146857 0.119252 0.294933 0.0306997
4122 0.0293811 0.0410884 0.0154861 0.128045 -0.137643 -0.0907909 0.172824 -0.246636 0.296169 -0.0564105 0.217136 -0.0616154 0.354481 -0.0677961 0.336335 0.049295 0.369375 0.0557731 -0.140808 0.32801 -0.169307 0.119211 0.299597 0.0573026
3075 0.0553089 0.0765563 0.00257047 0.0647109 -0.12487 -0.0260206 0.0938122 -0.162071 0.183202 -0.0496744 0.180771 -0.062242 0.279632 -0.0401181 0.269258 -0.014589 0.281489 0.0633311 -0.118416 0.283927 -0.131906 0.120291 0.214568 0.0164911
5152 -0.000648718 0.117671 0.0508532 0.260031 -0.354724 -0.196588 0.35796 -0.546897 0.643344 -0.134714 0.449985 -0.114094 0.804866 -0.119299 0.759123 0.0850954 0.788242 0.172645 -0.337181 0.786239 -0.346964 0.293257 0.628175 0.105262
7423 0.0184681 0.0825821 0.0400854 0.171797 -0.237606 -0.153711 0.222301 -0.350462 0.438099 -0.0702529 0.310204 -0.0515451 0.532689 -0.104879 0.492127 0.063914 0.528807 0.0872411 -0.204147 0.519048 -0.239783 0.197341 0.415156 0.0665032
1163 -0.00987143 0.0462934 0.00412056 0.0612256 -0.0832412 -0.0586146 0.124662 -0.186815 0.212886 -0.0189905 0.150486 -0.0110371 0.250341 -0.0380157 0.240723 0.0223053 0.235017 0.0427109 -0.115102 0.268876 -0.125272 0.0706672 0.187841 0.0435038
1936 0.0108011 0.0460405 0.00776703 0.0595391 -0.116104 -0.0312946 0.107485 -0.156379 0.204903 -0.0525359 0.115708 -0.0212949 0.229967 -0.0520024 0.203523 0.0194921 0.24788 0.0639309 -0.114202 0.217667 -0.116651 0.087132 0.19637 0.0211607
4652 -0.0145006 0.12647 0.070996 0.332034 -0.412568 -0.243602 0.354691 -0.582428 0.658358 -0.140572 0.453446 -0.100176 0.866878 -0.122007 0.787035 0.138066 0.840811 0.15071 -0.355209 0.799667 -0.374587 0.3432 0.678 0.108532
9016 -0.000371177 0.0314588 -4.33619e-05 0.0374334 -0.0282689 -0.0533522 0.0651955 -0.089627 0.136133 -0.0270928 0.0815501 -0.00625778 0.158249 -0.00490909 0.138907 0.0266093 0.119196 0.0338225 -0.0658098 0.148211 -0.0606406 0.0561724 0.114236 0.0229939
9483 0.0349125 0.119247 0.0397669 0.143852 -0.205374 -0.102465 0.229918 -0.319139 0.382256 -0.0743541 0.288417 -0.0820164 0.512137 -0.0894785 0.469642 0.022818 0.482758 0.0976818 -0.22349 0.474485 -0.231333 0.1988 0.387818 0.049851
266 0.00884526 0.00347641 -0.0130932 0.00921612 -0.0301988 -0.0508155 0.0759585 -0.0806111 0.134771 0.00210773 0.0694271 -0.0268162 0.173707 -0.0229851 0.141133 0.00391892 0.132495 0.0282731 -0.0725526 0.145136 -0.0473737 0.0237385 0.0963018 0.0315563
8452 0.0375478 0.0714255 0.0125525 0.135113 -0.166204 -0.0686211 0.170457 -0.273495 0.331358 -0.0615941 0.23236 -0.0432497 0.407103 -0.0700349 0.369033 0.0564456 0.415185 0.0746574 -0.196019 0.397493 -0.156079 0.163235 0.338279 0.0514186
1687 0.0304449 0.0137009 -0.00102254 0.0188864 -0.0562446 -0.0221721 0.0702963 -0.120656 0.146058 -0.0489358 0.0825441 -0.0337687 0.168916 -0.0249585 0.133726 -0.00360324 0.162413 0.025768 -0.0874683 0.163887 -0.0817958 0.0768684 0.12798 -0.0020305
3406 0.0340221 0.0640064 0.0178527 0.058404 -0.106706 -0.0223521 0.145333 -0.183033 0.203876 -0.0566648 0.139517 -0.0437845 0.283408 -0.0484308 0.26922 0.0190336 0.292109 0.0652161 -0.125272 0.290474 -0.114754 0.115324 0.208811 0.0124986
4026 0.00206617 0.0553972 0.0144118 0.140885 -0.172704 -0.0948408 0.182019 -0.278321 0.340821 -0.0857868 0.241507 -0.0562861 0.458018 -0.0637232 0.432486 0.0772262 0.434173 0.0884791 -0.180511 0.421786 -0.187096 0.151896 0.377655 0.0501747
5113 0.00629026 0.0521994 -0.0154981 0.0340991 -0.0811311 -0.0186792 0.108286 -0.151248 0.180922 -0.0341663 0.104958 -0.0419194 0.233784 -0.0283888 0.206124 0.00458059 0.205578 0.0379376 -0.0860503 0.212489 -0.0738409 0.0908947 0.185058 0.00563723
5323 0.0174631 0.0941954 0.0657397 0.188115 -0.236085 -0.125486 0.200671 -0.343405 0.422389 -0.0972662 0.265753 -0.0559493 0.494861 -0.0919008 0.45513 0.0453814 0.482524 0.101821 -0.211195 0.457339 -0.20409 0.173457 0.420411 0.0591643
9490 -0.190103 -0.0253533 0.151994 0.265344 -0.174778 -0.222244 0.0564402 -0.231729 0.236037 -0.0977224 0.116933 -0.0693603 0.203695 0.0666181 0.247201 0.22261 0.198523 0.0868224 -0.126395 0.180627 -0.0696643 0.17434 0.244081 0.126976
7073 0.051878 0.0589555 -0.0202915 0.0218651 -0.0706626 -0.0291902 0.109804 -0.147508 0.157243 -0.0466553 0.129858 -0.0295274 0.229059 -0.0329365 0.215864 -0.00161757 0.210942 0.0459119 -0.0975546 0.184623 -0.116569 0.0699279 0.179885 0.00154562
8324 0.0371453 0.0815697 0.0321815 0.0974061 -0.152635 -0.0688613 0.148122 -0.24157 0.289984 -0.0757409 0.204085 -0.0301838 0.341372 -0.0721514 0.355585 0.0399535 0.377327 0.0711969 -0.166835 0.324753 -0.149749 0.142875 0.288969 0.0523227
6232 -0.00411364 0.0274441 0.0108275 0.0831748 -0.102516 -0.0703053 0.0816259 -0.139211 0.198823 -0.054491 0.129905 -0.0317179 0.20588 -0.0294513 0.204528 0.0162512 0.207139 0.0414931 -0.0858316 0.219805 -0.0763554 0.0998635 0.172968 0.0201199
8208 -0.0144078 0.0664131 0.0592546 0.135447 -0.18595 -0.101465 0.174135 -0.281145 0.32999 -0.0874933 0.242122 -0.05358 0.398247 -0.0442582 0.384015 0.0740056 0.397202 0.111459 -0.17852 0.372523 -0.164585 0.17155 0.343967 0.0875216
9105 -0.0304642 0.128326 0.137978 0.398519 -0.397645 -0.249677 0.295499 -0.470745 0.554974 -0.162479 0.390634 -0.0960452 0.681825 -0.0670623 0.642416 0.0708776 0.611881 0.136196 -0.269914 0.593733 -0.269273 0.266568 0.551638 0.115888
2058 0.00639031 0.00945422 0.00505611 0.0789329 -0.0978471 -0.0403106 0.0696119 -0.148013 0.158491 -0.0506186 0.126601 -0.0399223 0.206486 -0.0223404 0.185768 0.0123671 0.203974 0.0487509 -0.0846256 0.189743 -0.0711519 0.087055 0.156769 0.0108821
7895 -0.0127821 0.140112 0.0741764 0.267057 -0.365352 -0.17665 0.272419 -0.47561 0.560483 -0.161658 0.41199 -0.122797 0.709137 -0.0646834 0.659783 0.0965407 0.665572 0.154402 -0.298022 0.637482 -0.31409 0.312758 0.59155 0.105183
9398 0.0251461 0.0916017 0.051278 0.158445 -0.202474 -0.108946 0.229526 -0.344753 0.370242 -0.0896561 0.277809 -0.0833112 0.49064 -0.0886357 0.476353 0.0719988 0.482439 0.0786804 -0.222255 0.473226 -0.192473 0.162941 0.383417 0.0793305
10260 -0.12395 -0.0155009 0.163701 0.265752 -0.180492 -0.195731 0.0502762 -0.202093 0.233678 -0.113306 0.0904059 -0.0518953 0.185746 0.0516711 0.265182 0.211019 0.206783 0.110167 -0.128556 0.193322 -0.0674961 0.183035 0.272345 0.110999
10298 -0.0384331 0.0104037 0.298117 0.807415 -0.780294 -0.32532 0.0986285 -0.480104 0.528773 -0.0428667 0.307239 0.145743 0.741318 0.185668 0.603543 0.0896474 0.592722 -0.121515 -0.163723 0.102925 -0.297371 0.328495 0.603915 0.173789
4202 -0.00309098 0.0293966 0.0203522 0.0315148 -0.0441298 -0.045914 0.0408513 -0.0943645 0.110975 -0.0241368 0.0650709 -0.0225042 0.136147 0.00193232 0.134371 0.00971422 0.127082 0.0397806 -0.0707574 0.115365 -0.0416325 0.0356634 0.0892251 0.00314754
9133 0.0774428 0.113574 0.0540049 0.322378 -0.392975 -0.139429 0.292295 -0.448165 0.569156 -0.0628818 0.386557 -0.0455685 0.752664 -0.0966762 0.662212 0.0339084 0.724681 0.0376002 -0.27878 0.589748 -0.343203 0.232381 0.568506 0.0611085
9680 0.0502186 0.0969516 0.0174742 0.181779 -0.299026 -0.0721496 0.19088 -0.302638 0.367154 -0.0650832 0.297599 -0.020635 0.507868 -0.0853645 0.440464 -0.0033679 0.504003 0.0483192 -0.21072 0.394227 -0.244999 0.186897 0.394737 0.0574977
4985 0.0896612 0.0751488 -0.0346079 0.0337259 -0.123575 0.00561574 0.0879764 -0.100252 0.138498 -0.0260902 0.135078 -0.0341221 0.19423 -0.069079 0.177741 -0.0339895 0.216563 0.0606405 -0.110166 0.21873 -0.105548 0.113691 0.171474 -0.00130976
7373 -0.00163457 0.130482 0.0753964 0.271026 -0.33719 -0.201224 0.346235 -0.522543 0.644096 -0.142483 0.425657 -0.107669 0.817598 -0.12277 0.759412 0.114562 0.755563 0.13658 -0.322546 0.745862 -0.338648 0.293918 0.619815 0.113154
9289 0.0644073 0.0982892 0.0133258 0.0933835 -0.183592 -0.0462912 0.183954 -0.261346 0.31593 -0.0470501 0.234545 -0.0253612 0.40283 -0.091515 0.365463 0.00133598 0.415836 0.0527481 -0.167195 0.379119 -0.166862 0.11518 0.29401 0.0123891
9409 -0.0040754 0.0230354 0.025578 0.0618168 -0.063536 -0.0497699 0.0315037 -0.0809217 0.110866 -0.0379729 0.0407003 -0.0220316 0.103508 -0.0202775 0.129147 0.00460801 0.0880459 0.0255781 -0.0509537 0.0872845 -0.0338867 0.0383757 0.109978 0.0286023
10163 -0.0224587 0.0329523 0.0547275 0.201139 -0.207572 -0.16196 0.242376 -0.365721 0.425893 -0.0668265 0.258091 -0.0256353 0.506332 -0.0832418 0.461786 0.0983133 0.480131 0.0500796 -0.210954 0.450973 -0.216716 0.152318 0.402683 0.0485197
10225 0.0522604 0.200388 0.24619 0.446643 -0.483556 -0.261234 0.0728986 -0.420178 0.526575 -0.222896 0.318924 -0.182491 0.504842 -0.00930229 0.649127 0.203284 0.625805 0.316793 -0.356737 0.526604 -0.226476 0.483167 0.695732 0.308139
1622 -0.125053 -0.00899286 0.102802 0.191909 -0.106662 -0.179393 0.000373207 -0.104402 0.112253 -0.0564988 0.0419476 -0.0234445 0.0638118 0.0786752 0.106165 0.159062 0.0669906 0.0810815 -0.0646962 0.089337 -0.0488009 0.112762 0.110704 0.0828461
8746 0.0528658 0.0180772 -0.0426351 0.0168293 -0.0632735 0.0070886 0.0767276 -0.0960077 0.103248 -0.018201 0.082168 0.00180836 0.1865 -0.0565226 0.157089 -0.0281155 0.175397 -0.0052917 -0.0513065 0.13644 -0.0574464 0.0166017 0.0862031 0.00264332
9047 0.0879502 0.107025 -0.00327711 0.176124 -0.282354 -0.0776149 0.239362 -0.353508 0.402997 -0.0650651 0.343737 -0.0783584 0.565935 -0.106084 0.514002 -0.0550318 0.531823 0.121372 -0.237079 0.499445 -0.241841 0.202022 0.388284 0.030388
9061 0.0324855 0.0510866 -0.00377637 0.0759086 -0.0882733 -0.0727548 0.1286 -0.177362 0.220391 -0.0349208 0.163817 -0.028952 0.25223 -0.034383 0.238833 0.0299251 0.24633 0.0691719 -0.131472 0.256818 -0.125851 0.0885711 0.198434 0.0183225
9653 0.108424 0.221542 0.037811 0.266541 -0.436847 -0.10212 0.18229 -0.379744 0.444716 -0.164251 0.391009 -0.110862 0.608023 -0.0478918 0.582533 0.00657643 0.658496 0.205772 -0.311989 0.563966 -0.288943 0.362489 0.548735 0.0968534
9944 0.0315813 0.0866816 0.024859 0.15447 -0.187763 -0.10457 0.151073 -0.277646 0.327246 -0.072012 0.243036 -0.035517 0.405488 -0.074284 0.382426 0.0244158 0.399828 0.0643186 -0.198205 0.400425 -0.170163 0.17382 0.346696 0.0392798
4156 0.0261527 0.0442155 -0.0268814 0.025337 -0.0746948 -0.0213692 0.0885555 -0.0892665 0.134446 -0.0364163 0.106955 -0.0103346 0.170113 -0.0229991 0.178243 0.0101584 0.172336 0.0455785 -0.0832623 0.174984 -0.0809005 0.0713045 0.131948 0.0177213
8042 0.0274468 0.0811346 -0.00916318 0.0908491 -0.161937 -0.0543434 0.158645 -0.224349 0.250564 -0.0574849 0.180504 -0.0413273 0.367074 -0.0846113 0.345786 0.0247297 0.350317 0.078224 -0.151448 0.332833 -0.149095 0.125601 0.305545 0.0432223
9635 0.0243515 0.10247 0.0214923 0.137242 -0.197546 -0.0795806 0.201568 -0.307543 0.346308 -0.0802706 0.24132 -0.0527982 0.47773 -0.117998 0.441938 -0.00531254 0.455028 0.0910686 -0.202317 0.426777 -0.209419 0.146179 0.359338 0.0315277
1951 0.0343724 0.0498898 -0.013488 0.00883897 -0.0749144 -0.0154991 0.0690783 -0.0997198 0.129749 -0.00236806 0.102203 -0.014278 0.173561 -0.0239714 0.169088 -0.0186223 0.183138 0.0394787 -0.0582043 0.167699 -0.0856294 0.0406328 0.13974 0.00121967
2670 0.0271819 0.0463326 0.00526036 0.0738661 -0.140351 -0.0771191 0.148654 -0.196831 0.239234 -0.0749301 0.191864 -0.023681 0.324 -0.0738679 0.289383 0.0321779 0.341949 0.0561707 -0.138504 0.301106 -0.149744 0.132412 0.278377 0.0176135
3430 0.00895891 0.073751 0.0393958 0.135468 -0.160125 -0.0873779 0.199361 -0.292685 0.343695 -0.0708173 0.23519 -0.062388 0.42399 -0.0853796 0.405478 0.0444644 0.416937 0.0858589 -0.172456 0.404084 -0.176234 0.138019 0.320449 0.0692383
2785 0.0226832 0.0225721 0.00645154 0.0447484 -0.0346978 -0.0145651 0.0470047 -0.0935912 0.107326 -0.0263857 0.0639135 -0.00449994 0.138634 -0.0245889 0.141323 0.0132965 0.139438 0.00539551 -0.0650388 0.15481 -0.0660784 0.0273475 0.102622 0.0300895
5901 0.0129304 0.0621912 -0.0115711 0.0787151 -0.115124 -0.0379379 0.154056 -0.220646 0.255462 -0.0496605 0.170121 -0.0220055 0.356455 -0.0893684 0.313133 -0.0106969 0.313125 0.0577453 -0.155455 0.319302 -0.122868 0.0847033 0.263726 0.00887508
6568 0.0315327 0.0759754 0.00777067 0.125129 -0.185863 -0.0878829 0.192182 -0.316562 0.362284 -0.0823431 0.264494 -0.0616204 0.482334 -0.0811144 0.437094 0.0151307 0.489478 0.0973638 -0.222824 0.433255 -0.213334 0.188505 0.378899 0.0556977
7203 0.020715 0.072501 0.0498573 0.162095 -0.249394 -0.100458 0.209923 -0.323792 0.392353 -0.0818432 0.270427 -0.066041 0.522995 -0.0659181 0.44791 0.0322244 0.48673 0.0781951 -0.234549 0.464277 -0.214374 0.18358 0.394726 0.0813885
9420 -0.0242842 0.132784 0.10661 0.367065 -0.406708 -0.24899 0.282797 -0.501161 0.581938 -0.158051 0.374869 -0.0712287 0.715753 -0.0715233 0.651253 0.095488 0.64303 0.0904752 -0.280188 0.594486 -0.293558 0.25226 0.55174 0.111929
2889 0.0169548 0.0163515 0.0021036 0.048822 -0.0683292 -0.0279574 0.0740518 -0.0963768 0.130376 -0.0348788 0.0846111 -0.00652499 0.16702 -0.0580201 0.171682 0.0101338 0.163495 0.00812222 -0.0759606 0.15698 -0.0746315 0.0538392 0.15478 0.00664554
6143 0.00154726 0.016681 -0.0105926 0.0175817 -0.0326269 -0.0172703 0.0796051 -0.0963093 0.136965 -0.0220675 0.10899 -0.0147916 0.1868 -0.0294561 0.163257 0.0200845 0.153074 0.0269592 -0.0601328 0.17045 -0.0826316 0.0341522 0.13277 0.0171665
10103 0.0416817 0.0593493 0.0200509 0.153259 -0.242287 -0.078149 0.177433 -0.289157 0.347239 -0.0585408 0.24012 -0.0383911 0.477614 -0.0628057 0.40841 -0.000100936 0.436812 0.0354291 -0.168558 0.370453 -0.177892 0.135971 0.358441 0.0591548
10291 0.0843564 0.0943076 0.0702559 0.308686 -0.419203 -0.106827 0.19371 -0.329452 0.41169 -0.0545124 0.331503 0.0301083 0.622781 -0.060377 0.543443 -0.0283399 0.563927 0.0111701 -0.232224 0.389688 -0.288418 0.204189 0.472065 0.0421003
4747 0.0312951 0.0272416 -0.020216 0.00672132 -0.0315362 -0.0300224 0.0511452 -0.0948675 0.087981 -0.00207727 0.062613 -0.0311451 0.127945 -0.0528787 0.117944 -0.00836561 0.144165 0.0333689 -0.0719511 0.121495 -0.0517568 0.0222158 0.0859056 -0.00946789
5705 0.0141072 0.13983 0.065833 0.271575 -0.3388 -0.183551 0.384515 -0.548768 0.638044 -0.129843 0.450419 -0.108719 0.837586 -0.160731 0.761322 0.0919155 0.785867 0.165136 -0.332968 0.814587 -0.369048 0.28977 0.630766 0.0812232
7083 -0.0173194 0.00648451 0.0242533 0.0543482 -0.0766862 -0.0660031 0.0930779 -0.123458 0.164211 -0.0213517 0.0977114 0.000788834 0.199397 -0.041934 0.156382 0.0378126 0.175235 0.018162 -0.0726714 0.182968 -0.0553263 0.0628119 0.123663 0.0172438
9430 0.0243127 0.0439812 -0.0166007 0.0558262 -0.108437 0.000755239 0.0698017 -0.117163 0.13838 0.00821077 0.121903 0.0159667 0.184119 -0.0428491 0.172118 -0.0156024 0.180388 -0.00161996 -0.0562694 0.134315 -0.091718 0.0579865 0.149328 -0.0149455
3730 0.0237017 0.0223575 0.0135671 0.0375045 -0.0653766 -4.27151e-05 0.0587665 -0.0785505 0.121048 -0.0338813 0.101164 -0.0315713 0.153915 -0.0435837 0.146382 -0.0152134 0.138351 0.0405156 -0.0800075 0.12195 -0.0720299 0.0278361 0.12719 -0.0115816
9014 0.0955708 0.149827 -0.0108384 0.161526 -0.294471 -0.0464933 0.177756 -0.276998 0.327985 -0.0945233 0.304419 -0.0688282 0.461667 -0.0856191 0.43543 -0.0492187 0.480601 0.124501 -0.236772 0.455171 -0.219907 0.245615 0.40655 0.0540514
7773 0.0476583 0.0166476 -0.00738349 0.0505036 -0.0714607 -0.0149428 0.0459346 -0.0945726 0.0971731 -0.00654573 0.0848761 -0.00067896 0.161761 -0.0279998 0.149047 -0.000247928 0.155327 0.01073 -0.0688535 0.148302 -0.0578553 0.0516518 0.127216 0.0246787
9832 0.00197658 0.0943626 0.0419843 0.219173 -0.228423 -0.121717 0.176601 -0.324164 0.396551 -0.106796 0.281358 -0.060934 0.507444 -0.0656362 0.491136 0.084786 0.490434 0.125516 -0.222411 0.464734 -0.197472 0.217577 0.424241 0.106652
10026 0.0767577 0.0483361 -0.0536667 0.04011 -0.134446 0.0229868 0.0872571 -0.128303 0.15301 -0.0250373 0.134378 -0.00394048 0.283299 -0.0895501 0.229163 -0.0572179 0.26083 0.00680756 -0.0868498 0.217284 -0.120334 0.0821145 0.192847 0.0162384
2501 0.014702 0.0218776 -0.0078442 0.0377445 -0.0868765 -0.0569862 0.0874645 -0.135286 0.191432 -0.0247177 0.124331 -0.0274046 0.226061 -0.0640385 0.220427 0.0340712 0.222551 0.0176187 -0.0786809 0.232649 -0.0996747 0.0784824 0.167499 0.0367461
8255 0.10596 0.0992107 -0.052809 0.035013 -0.108675 0.0429405 0.0467934 -0.052888 0.102634 -0.0476059 0.104325 -0.0346605 0.16821 -0.0314576 0.119855 -0.046725 0.203104 0.0595952 -0.111947 0.142864 -0.101857 0.110396 0.146819 0.0090582
8788 0.000345874 0.0433195 0.0233122 0.0524706 -0.0443157 -0.0427262 0.0590643 -0.0951493 0.105466 -0.0259113 0.0651814 -0.0326291 0.152034 -0.0483129 0.13793 0.0106357 0.137854 0.0148496 -0.051287 0.134774 -0.0681364 0.0512163 0.122002 0.00676826
9958 -0.0143984 0.0358768 0.0188539 0.0422697 -0.0852839 -0.0641203 0.0579198 -0.130892 0.147025 -0.0175498 0.0877615 -0.0297462 0.178008 -0.0378299 0.143939 0.00887474 0.17183 0.0101638 -0.0582218 0.175432 -0.0816189 0.0438772 0.149563 0.00291905
4036 0.019514 0.0395692 -0.00900341 0.0248917 -0.041426 -0.0258858 0.0754237 -0.0882735 0.143361 -0.0216936 0.112022 -0.000893657 0.151135 -0.0359465 0.144385 0.0115269 0.166549 0.0144269 -0.0609443 0.135854 -0.0653869 0.057103 0.124243 0.0320926
4436 -0.00848258 0.0930024 0.0819222 0.256368 -0.314591 -0.212413 0.282366 -0.448074 0.542178 -0.154263 0.36158 -0.083094 0.653133 -0.0884205 0.600431 0.137079 0.641334 0.123271 -0.271458 0.60749 -0.28813 0.257968 0.533335 0.111544
5780 0.0205844 0.0309164 -0.0126007 0.0395604 -0.0621743 -0.0443938 0.0969398 -0.147342 0.190932 -0.0457529 0.116327 -0.00381711 0.240349 -0.0644583 0.203078 0.0157142 0.204311 0.0240778 -0.0905414 0.210549 -0.101572 0.0413437 0.184205 0.00782627
8898 0.0263667 0.0466607 -0.00587596 0.0321953 -0.0594562 -0.0098601 0.0733383 -0.093384 0.115003 -0.0293384 0.113518 -0.0106653 0.171678 -0.0486148 0.177842 -0.0244578 0.156802 0.0197785 -0.092653 0.141407 -0.0857352 0.064866 0.134299 0.0131865
9792 0.0574329 0.104367 0.0143198 0.154295 -0.197659 -0.0757777 0.206905 -0.275864 0.338617 -0.0287001 0.280523 -0.0300537 0.483804 -0.0940723 0.404986 -0.00299571 0.433856 0.0595553 -0.158207 0.416155 -0.199542 0.133147 0.329906 0.0434889
9848 0.0299465 0.0744617 0.00792994 0.136239 -0.218823 -0.0922475 0.226689 -0.311474 0.408469 -0.0848143 0.301151 -0.0507394 0.497338 -0.110695 0.458963 0.0367096 0.49581 0.0527551 -0.193984 0.45066 -0.211797 0.147403 0.385308 0.0486078
6771 0.036697 0.0504981 -0.038304 -0.00447426 -0.0462492 -0.0217212 0.088893 -0.0909203 0.118655 -0.00899948 0.0937294 -0.0168156 0.186847 -0.0688144 0.125981 -0.00800244 0.151817 0.0295973 -0.072769 0.138393 -0.0784214 0.0108034 0.106336 -0.00587806
7459 0.0325181 0.0509733 0.00146563 0.104129 -0.145 -0.0868838 0.137223 -0.211951 0.282361 -0.0452112 0.214747 -0.0660434 0.361424 -0.0762042 0.341749 0.0443432 0.363099 0.0485026 -0.135306 0.333456 -0.153334 0.129003 0.257799 0.028615
3734 0.0296389 0.0143823 -0.0071214 0.0375068 -0.0566395 -0.0428734 0.107118 -0.111631 0.158629 -0.000575659 0.125413 -0.00612289 0.196905 -0.0372743 0.188303 -0.00543521 0.194102 0.0299187 -0.0989245 0.184452 -0.0686368 0.0505659 0.137181 -0.0100912
7146 0.0756918 0.093156 -0.00263504 0.095255 -0.180428 -0.0348882 0.162497 -0.212393 0.284906 -0.0449849 0.217321 -0.0369605 0.383038 -0.0720774 0.319389 -0.0164672 0.384768 0.080974 -0.179879 0.355721 -0.179574 0.174038 0.291227 0.031741
7530 -0.00503838 0.0885764 0.00045315 0.128029 -0.183851 -0.0887618 0.182189 -0.296445 0.354025 -0.0588506 0.229064 -0.0564807 0.419449 -0.0797489 0.417786 0.0333702 0.418227 0.0629289 -0.165295 0.417008 -0.169024 0.160616 0.350113 0.0460455
9755 0.0206573 0.0929255 0.0422551 0.176206 -0.230257 -0.105283 0.179318 -0.318514 0.365087 -0.10031 0.269566 -0.0792093 0.462366 -0.0784706 0.434641 0.0335593 0.466433 0.102776 -0.210644 0.462455 -0.21364 0.1499 0.391245 0.0718105
9860 0.027815 0.0552849 -0.0155049 0.0492313 -0.105727 -0.0659968 0.141399 -0.163999 0.230212 -0.0472303 0.163295 -0.0235598 0.283687 -0.0566106 0.276317 0.018973 0.306455 0.0365191 -0.099723 0.283757 -0.14164 0.107782 0.227729 0.0402129
9876 0.0225921 0.109267 0.0886081 0.278473 -0.394777 -0.171859 0.251566 -0.403003 0.484359 -0.0891236 0.373059 -0.0739584 0.634375 -0.0573222 0.579969 0.0470963 0.612379 0.10576 -0.264853 0.537999 -0.259564 0.244388 0.492015 0.0720613
957 0.0330085 0.0454434 -0.00490162 -0.0103202 -0.0294756 0.0141402 0.0919952 -0.110251 0.109386 -0.0327932 0.0982813 -0.00624019 0.174455 -0.0553404 0.125362 -0.0354528 0.150722 0.015728 -0.0803684 0.167868 -0.0532705 0.0354015 0.0982663 -0.0141358
1009 -0.0183595 0.0921453 0.0667811 0.230015 -0.283046 -0.199079 0.26687 -0.433279 0.532041 -0.115575 0.371276 -0.0701003 0.642828 -0.0931966 0.617575 0.0899372 0.644664 0.138417 -0.275494 0.632141 -0.288366 0.272001 0.518117 0.0817913
2234 0.00501509 0.0303299 0.018842 0.0214638 -0.0361647 -0.0408772 0.0946045 -0.152575 0.180091 -0.0275706 0.112661 0.00447113 0.193471 -0.0536138 0.168503 0.0320745 0.201796 0.01208 -0.0851235 0.21576 -0.0701389 0.0648344 0.168153 0.0190392
8331 0.0191779 0.0462609 -0.00415333 0.0623091 -0.0879617 -0.0524151 0.104623 -0.113006 0.171173 -0.0508566 0.11246 -0.0191772 0.226008 -0.0522774 0.205338 0.0136236 0.205058 0.042724 -0.0753298 0.215444 -0.108014 0.0884869 0.169703 0.0245868
9732 -0.112573 -0.00894294 0.134751 0.241386 -0.147033 -0.21291 0.135251 -0.223634 0.271196 -0.0954926 0.139236 -0.0706141 0.255622 0.0215197 0.283248 0.191942 0.235608 0.0963405 -0.117043 0.247679 -0.0862064 0.159355 0.248668 0.118771
4638 -0.0219881 0.00427498 0.0219873 0.0669775 -0.0590107 -0.0877565 0.0896764 -0.151996 0.166863 -0.0234498 0.0833665 -0.00975027 0.191267 -0.0347644 0.195335 0.0377855 0.175878 0.0270978 -0.0668564 0.173367 -0.058582 0.0567967 0.149251 0.0285696
9216 -0.0311635 0.17489 0.0708824 0.330464 -0.371924 -0.246496 0.309721 -0.501619 0.51829 -0.165373 0.378796 -0.104367 0.678921 -0.0505792 0.645336 0.119248 0.633689 0.148809 -0.295194 0.627856 -0.317777 0.260919 0.54465 0.105041
10152 -0.12511 -0.0247273 0.103369 0.198576 -0.152837 -0.205028 0.100757 -0.193265 0.235766 -0.0875002 0.0967825 -0.0422893 0.198091 0.0358228 0.233259 0.144588 0.210323 0.0794725 -0.0908727 0.214027 -0.0787705 0.122698 0.24796 0.0861845
7006 0.005184 0.0380318 -0.0176069 0.044482 -0.0662485 -0.0338625 0.0688613 -0.08977 0.0975952 -0.0336163 0.0697335 -0.0105714 0.155143 -0.0168785 0.12237 0.00868425 0.160426 0.0299697 -0.0465045 0.15467 -0.0632464 0.0492132 0.120916 0.0361116
10271 -0.0201021 0.00185039 0.0785224 0.432321 -0.484647 -0.249192 0.125148 -0.473482 0.496941 -0.194266 0.341538 -0.148054 0.618064 0.0232761 0.517956 0.217731 0.621439 0.143427 -0.174725 0.263374 -0.217987 0.384291 0.539677 0.268263
10282 -0.139631 0.0347216 0.186986 0.344863 -0.265217 -0.25308 0.130414 -0.396809 0.478983 -0.187911 0.227119 -0.102814 0.469729 0.0572205 0.529927 0.286012 0.49091 0.171331 -0.227854 0.451474 -0.23056 0.274524 0.518815 0.185813
1292 -0.00196191 0.0317031 0.0262352 0.0388362 -0.0713822 -0.0188262 0.0556664 -0.101197 0.113874 -0.0127926 0.0508866 -0.00781118 0.13346 -0.0132706 0.125669 0.0218031 0.10353 0.00590381 -0.0717939 0.101055 -0.0608819 0.0479033 0.120413 0.00980195
3198 -0.0126 0.151671 0.112215 0.420304 -0.492964 -0.28725 0.394097 -0.693177 0.814636 -0.220272 0.560649 -0.118823 1.01465 -0.116964 0.956153 0.146835 0.996157 0.185977 -0.446667 0.943365 -0.445439 0.43283 0.816832 0.137591
6758 0.0203187 0.0395309 0.0250271 0.104544 -0.139247 -0.0807728 0.128991 -0.231853 0.255171 -0.0779188 0.188674 -0.0583375 0.319494 -0.0730763 0.300084 0.0413368 0.32884 0.0714831 -0.143165 0.32619 -0.13683 0.12988 0.255922 0.0371552
1276 0.0389142 0.0286931 -0.00698495 0.0297474 -0.074438 -0.0265031 0.0389758 -0.0743173 0.126516 -0.0122066 0.112994 -0.0116591 0.161529 -0.0153488 0.136874 0.00953577 0.179863 0.0394048 -0.0734155 0.133786 -0.0861862 0.0618538 0.142427 0.031047
4836 0.00120092 0.110387 0.0406898 0.18315 -0.242613 -0.145571 0.245795 -0.367833 0.44354 -0.0893304 0.335201 -0.0657909 0.60492 -0.0910423 0.533711 0.0410471 0.58229 0.0959499 -0.26725 0.5735 -0.252161 0.208894 0.480693 0.0572765
9075 0.0337705 0.040433 0.00307366 0.0411373 -0.0570698 -0.00116961 0.0586066 -0.0763374 0.109979 0.00151447 0.115424 -0.0297557 0.185924 -0.0558104 0.13194 -0.0012 0.190194 0.0341157 -0.0789012 0.142933 -0.0888071 0.0431974 0.107925 0.0164064
3372 0.00195527 0.0431788 0.0123328 0.0599597 -0.131237 -0.0395462 0.130299 -0.197398 0.213092 -0.0725039 0.15918 -0.042952 0.292048 -0.0726594 0.289219 0.0125054 0.285014 0.0679566 -0.137009 0.299945 -0.120319 0.116007 0.258069 0.029401
7417 0.0336452 0.141208 0.068497 0.259061 -0.34742 -0.195457 0.328271 -0.460046 0.583908 -0.105712 0.381861 -0.0931703 0.730842 -0.117594 0.680914 0.0791177 0.690384 0.142244 -0.296208 0.673892 -0.312855 0.26239 0.562633 0.0762723
4183 0.0168009 0.109156 0.0296576 0.144652 -0.206269 -0.113618 0.194925 -0.31194 0.384553 -0.0870832 0.248204 -0.0640207 0.465536 -0.098836 0.463455 0.0201268 0.460591 0.0912408 -0.201751 0.469066 -0.221475 0.16316 0.394107 0.0488657
4984 -0.0621738 0.11942 0.141547 0.379178 -0.410853 -0.328315 0.368002 -0.601252 0.708734 -0.205807 0.476044 -0.128845 0.858238 -0.0701657 0.82307 0.187892 0.842587 0.213319 -0.370799 0.805132 -0.355865 0.35857 0.730725 0.155805
8338 0.0203334 0.1131 0.0184148 0.154579 -0.226194 -0.0947759 0.21296 -0.32649 0.38603 -0.0861401 0.271707 -0.0574963 0.530037 -0.0597397 0.459063 0.0360669 0.488961 0.0770992 -0.202919 0.463356 -0.216123 0.192832 0.41616 0.0828249
10134 0.0320117 0.0769134 0.00800047 0.159083 -0.194416 -0.0842962 0.17681 -0.297968 0.37534 -0.0704512 0.251809 -0.0690099 0.469718 -0.0687038 0.453837 0.0369432 0.488307 0.0937451 -0.195084 0.413918 -0.204505 0.180799 0.357777 0.0387522
10180 0.0100219 0.0941792 0.0618694 0.230721 -0.258435 -0.106057 0.154762 -0.317042 0.387542 -0.0955482 0.243855 -0.0601393 0.49907 -0.0515528 0.447263 0.0373571 0.44131 0.0889362 -0.220598 0.402457 -0.212856 0.202541 0.409078 0.0768966
1527 0.0488256 0.0481049 -0.00697665 -0.0110735 -0.0351571 0.0206557 0.0554202 -0.0823253 0.0670741 -0.00956208 0.0522303 -0.0303086 0.121274 -0.0329654 0.0886283 -0.0189203 0.142562 0.0234972 -0.0471894 0.118062 -0.0545712 0.0392835 0.0940508 0.0173835
3608 0.0061562 0.169999 0.0889391 0.316129 -0.437167 -0.234119 0.35867 -0.586431 0.700866 -0.164745 0.502798 -0.125249 0.850411 -0.112422 0.80756 0.114138 0.869317 0.20422 -0.407154 0.837738 -0.364588 0.39005 0.716682 0.123175
6769 0.0334158 0.0804164 0.00382895 0.125324 -0.217814 -0.109549 0.200928 -0.330931 0.368401 -0.0675932 0.249654 -0.060185 0.494402 -0.0941244 0.459022 0.0485051 0.492155 0.0607251 -0.205524 0.447007 -0.205568 0.175361 0.369901 0.0657343
9959 0.0455473 0.0828649 0.0312763 0.167611 -0.213359 -0.0780217 0.163438 -0.24907 0.335362 -0.0756953 0.24437 -0.0207881 0.454916 -0.0833032 0.389496 -0.0197743 0.44735 0.0544728 -0.15372 0.376968 -0.189962 0.171478 0.339279 0.0581409
10264 -0.0028685 0.0377207 0.0411439 0.139493 -0.159245 -0.0767479 0.127856 -0.212513 0.298509 -0.051498 0.187746 -0.0580007 0.341723 -0.0198457 0.34126 0.0598405 0.344423 0.058497 -0.154119 0.299855 -0.149922 0.148634 0.283547 0.07652
2811 -0.0195164 0.0373173 0.00136802 0.0573891 -0.0653082 -0.0302798 0.100662 -0.146644 0.141281 -0.0291176 0.0975947 -0.0414696 0.199875 -0.0385787 0.166194 0.0306897 0.186959 0.0493981 -0.0746552 0.203364 -0.0728237 0.082646 0.158988 0.0170515
4341 0.0179773 0.0159467 -0.00927042 0.0398246 -0.0853582 -0.0480682 0.0768973 -0.101602 0.14122 -0.0267934 0.107665 -0.00192171 0.182112 -0.047337 0.141703 0.0211959 0.187004 0.0281214 -0.0818113 0.175258 -0.0706494 0.0672442 0.127093 0.0291741
3827 0.0402864 0.0264764 -0.0138631 4.15785e-06 -0.0549064 0.0103861 0.0741285 -0.0806297 0.130575 -0.0185386 0.113073 -0.0352056 0.193793 -0.0742379 0.153592 -0.0380309 0.151999 -0.000800176 -0.075497 0.184191 -0.0940878 0.0591024 0.110711 0.00721928
9802 0.0292733 0.0796652 0.0399448 0.149211 -0.24895 -0.114043 0.219211 -0.314903 0.377051 -0.102989 0.263048 -0.0747245 0.502501 -0.0775545 0.464539 0.0290008 0.489159 0.115487 -0.213466 0.46365 -0.19486 0.19218 0.382073 0.0587254
8697 0.0265694 0.047908 0.00379968 0.0849962 -0.121554 -0.0555735 0.152588 -0.209475 0.232151 -0.0646617 0.169501 -0.0520745 0.288813 -0.0707064 0.270835 0.0465144 0.304731 0.0742531 -0.142371 0.301966 -0.143586 0.111544 0.235449 0.0513923
10070 -0.0826158 0.100425 0.14723 0.340996 -0.33285 -0.199098 0.200563 -0.376566 0.446823 -0.140361 0.277198 -0.0623847 0.51811 -0.0253334 0.492683 0.106246 0.503503 0.101775 -0.249586 0.418942 -0.211018 0.29294 0.493657 0.10924
4248 0.0197933 0.0536702 0.0145564 0.0454009 -0.104537 -0.061178 0.112158 -0.158959 0.186442 -0.0259666 0.102785 -0.0285019 0.2373 -0.0310964 0.187088 0.0238722 0.23144 0.0286826 -0.0984069 0.198339 -0.0747333 0.0870183 0.174714 0.0172761
5242 0.000693857 0.0377978 0.0139375 0.0413934 -0.0924777 -0.0315501 0.123483 -0.161499 0.187742 -0.0530942 0.130432 -0.0374433 0.244031 -0.0386832 0.233725 -0.00703404 0.231494 0.0234468 -0.0896626 0.255947 -0.103798 0.0781855 0.175445 0.00613396
6695 0.0158969 0.0493899 -0.0241944 0.0289493 -0.0819051 -0.0263187 0.0685953 -0.101414 0.142528 -0.0361481 0.100662 -0.0198102 0.167518 -0.0225719 0.153471 0.00891856 0.170394 0.00798028 -0.0918651 0.165063 -0.0788041 0.0558629 0.149773 -0.00208581
9123 0.027404 0.178513 0.0643408 0.299955 -0.379693 -0.203373 0.274941 -0.419107 0.487342 -0.136202 0.356694 -0.111674 0.627496 -0.0375179 0.607156 0.0313829 0.57492 0.155173 -0.263985 0.550709 -0.293981 0.246708 0.48251 0.0924177
6515 0.0032964 0.0282809 0.0178569 0.0449881 -0.0851614 -0.0196532 0.0872513 -0.109582 0.127401 -0.044666 0.0904827 -0.0248063 0.174833 -0.0487086 0.153611 0.0254454 0.159334 0.0192726 -0.077351 0.151554 -0.0857688 0.0842449 0.136133 0.0177495
8498 -0.0574266 0.118877 0.083357 0.261303 -0.289448 -0.205671 0.277629 -0.468734 0.521492 -0.147456 0.330338 -0.110545 0.639022 -0.0627619 0.594528 0.110903 0.594453 0.140005 -0.267745 0.582848 -0.256157 0.250589 0.500793 0.100359
9830 0.0352838 0.0474918 0.00448531 0.054615 -0.105779 -0.0306176 0.08925 -0.136648 0.131856 -0.0320489 0.122369 -0.0215435 0.198606 -0.0439496 0.206674 -0.0199012 0.206475 0.061622 -0.0790925 0.167242 -0.109344 0.113518 0.177951 0.0441932
8235 0.0269136 0.0484447 0.00978073 0.0845455 -0.145781 -0.0969844 0.153615 -0.204846 0.273009 -0.0641143 0.171638 -0.0195289 0.351766 -0.0724522 0.298392 0.0314146 0.323559 0.038313 -0.158852 0.318163 -0.136566 0.124264 0.288367 0.0257447
8303 0.05401 0.0870186 0.00191959 0.106835 -0.229607 -0.0643597 0.189101 -0.275874 0.331423 -0.06355 0.243368 -0.0433243 0.477247 -0.0853583 0.430321 -0.00404482 0.464516 0.0711876 -0.191283 0.432604 -0.213285 0.149744 0.345902 0.0312434
8246 0.0353493 0.057105 -0.00174307 0.0299358 -0.0732521 -0.0124121 0.0777541 -0.0973423 0.124631 -0.0302207 0.0755977 -0.0126086 0.165062 -0.0455735 0.128872 -0.031064 0.157355 0.0207862 -0.0632835 0.155429 -0.0598679 0.0589139 0.100731 0.0202791
9153 0.000606223 0.103849 0.0440002 0.242682 -0.306559 -0.122727 0.237229 -0.376388 0.45833 -0.115746 0.346144 -0.0763711 0.634427 -0.0869953 0.580884 0.0458776 0.606873 0.103433 -0.270257 0.545454 -0.257667 0.250843 0.512056 0.0605426
9218 0.0156829 0.019841 -0.0097334 0.065338 -0.100995 -0.0727356 0.113533 -0.147974 0.211569 -0.0385237 0.120355 -0.0118968 0.237308 -0.0403125 0.240096 0.0286152 0.242651 0.0404804 -0.118185 0.220891 -0.0835736 0.0632356 0.203125 0.0332356
7759 0.0130104 0.0214074 0.00539105 0.025349 -0.0691984 -0.00515438 0.0630708 -0.0958969 0.124513 -0.0207273 0.100699 0.00203767 0.174198 -0.0267848 0.145496 -0.0223091 0.177719 0.0250483 -0.0650715 0.176128 -0.0578946 0.0635777 0.128237 0.0100854
8535 -0.0459714 0.0602631 0.080499 0.170869 -0.218445 -0.169166 0.202551 -0.347277 0.399157 -0.103639 0.271829 -0.0757939 0.458152 -0.0425034 0.436258 0.0989891 0.440974 0.106922 -0.212315 0.432391 -0.183118 0.187923 0.403937 0.0762686
8891 0.0701566 0.111102 0.0248043 0.14086 -0.249501 -0.0169761 0.115981 -0.213564 0.243648 -0.0916374 0.233008 -0.0769163 0.357952 -0.0376808 0.326949 0.0142964 0.404969 0.12694 -0.192702 0.351278 -0.18554 0.215095 0.342183 0.0697039
6088 0.00717942 0.0305797 -0.00133164 0.0382633 -0.0390148 -0.0129465 0.0510598 -0.0979355 0.12145 -0.0403058 0.0545193 -0.0336025 0.124585 -0.0162716 0.136554 0.0242445 0.113887 0.00952715 -0.0711182 0.126722 -0.0738981 0.0346996 0.102216 0.0348824
8967 -0.0166692 0.144983 0.0927607 0.31807 -0.341027 -0.197543 0.308225 -0.490313 0.544931 -0.130059 0.370085 -0.106845 0.703112 -0.0972672 0.667847 0.13086 0.683196 0.158854 -0.288197 0.669238 -0.305093 0.268964 0.548842 0.109615
9172 0.0628945 0.219164 0.0536453 0.302026 -0.4205 -0.128189 0.245433 -0.439569 0.468917 -0.162516 0.397427 -0.131975 0.655144 -0.0554026 0.627759 0.0692366 0.638768 0.210315 -0.332045 0.619423 -0.29545 0.356304 0.598073 0.146428
5402 0.00122725 0.0953189 0.0447944 0.129882 -0.194654 -0.0817573 0.188641 -0.3023 0.356501 -0.0594129 0.253188 -0.0696391 0.472023 -0.0833835 0.438553 0.0582361 0.458326 0.0678442 -0.19579 0.42938 -0.186905 0.186093 0.347 0.0546013
6978 0.0271126 0.065349 0.0160578 0.105334 -0.12568 -0.052324 0.150558 -0.225573 0.273785 -0.0560509 0.203021 -0.0514697 0.368172 -0.0810594 0.328046 0.00158776 0.315184 0.0434031 -0.157315 0.333304 -0.143391 0.123184 0.265648 0.0421777
8330 0.0468787 0.0958789 0.0302773 0.126581 -0.229091 -0.115551 0.223111 -0.331867 0.386849 -0.0531936 0.275996 -0.0401616 0.477125 -0.0900146 0.457446 0.0280015 0.470865 0.0880419 -0.189886 0.455836 -0.199433 0.165439 0.386472 0.0503239
9280 0.0381248 0.0291174 -0.0272118 0.0645958 -0.102632 -0.0388594 0.123855 -0.167627 0.220597 -0.0403039 0.154685 -0.0176752 0.275975 -0.0821053 0.232495 0.00545175 0.269276 0.035409 -0.089485 0.253941 -0.13533 0.0745385 0.189586 -0.00310945
9808 0.0544983 0.0554336 -0.0273819 0.0727927 -0.0982372 -0.0142599 0.100821 -0.145523 0.194738 -0.0183348 0.144074 -0.0206087 0.290714 -0.0844975 0.235937 -0.0463805 0.263637 -0.0175422 -0.110793 0.203518 -0.110781 0.0518862 0.176851 -0.00633473
8189 0.0232164 0.042721 -0.00467866 0.0564168 -0.0441245 -0.0562079 0.0650192 -0.122303 0.136532 -0.0169444 0.0958542 -0.0190472 0.164543 -0.0280511 0.146467 -0.00318305 0.144467 0.0363416 -0.0734951 0.170374 -0.0687036 0.059209 0.128966 0.0165557
9525 -0.0125061 0.121306 0.0805265 0.291386 -0.326507 -0.181513 0.247864 -0.41178 0.464347 -0.105548 0.332419 -0.067782 0.569067 -0.0507278 0.539853 0.116321 0.575564 0.149871 -0.245582 0.500298 -0.245232 0.244179 0.46961 0.109136
1146 0.0159102 0.0527139 0.00596797 0.0351386 -0.0714366 -0.0385777 0.107547 -0.106 0.165912 -0.0401253 0.0895411 -0.0172401 0.203849 -0.0617968 0.190258 0.00514824 0.179904 0.0300635 -0.0801393 0.17957 -0.0955648 0.0483505 0.138532 0.0251494
1681 -0.00386695 0.138836 0.0691694 0.272344 -0.358893 -0.19944 0.331883 -0.511168 0.598715 -0.134928 0.399774 -0.101933 0.744307 -0.0860823 0.709708 0.125329 0.747954 0.139244 -0.319931 0.733961 -0.337289 0.290176 0.624489 0.12286
2437 0.0293447 0.025867 -0.0308085 0.00895424 -0.0640362 -0.0353783 0.0869998 -0.106216 0.114204 -0.0316187 0.0962156 -0.0218373 0.168803 -0.0265426 0.158538 -0.0221472 0.179069 0.0445946 -0.0759292 0.179726 -0.074241 0.0734503 0.133173 0.0218404
7087 0.0477832 0.0234498 -0.0316411 0.0127898 -0.04182 0.0191894 0.0522058 -0.0644054 0.0888797 -0.0167492 0.0691768 -0.0226247 0.131413 -0.0259618 0.118232 0.00206309 0.146505 0.0332486 -0.0773171 0.129999 -0.0410311 0.0234795 0.0806768 -0.00290236
9217 0.0140371 0.0430712 -0.00498476 0.0372418 -0.0941047 -0.0173267 0.0687496 -0.125753 0.143957 -0.0301305 0.10473 -0.00282859 0.188621 -0.0450222 0.165999 0.0199493 0.174534 0.042578 -0.0825181 0.163191 -0.0735621 0.0862891 0.153318 0.0337551
1475 -5.33746e-05 0.0454083 -0.00640637 0.050219 -0.0716075 -0.0118368 0.0881619 -0.093224 0.140939 -0.022034 0.0739978 -0.00885583 0.188873 -0.0504791 0.155695 -0.0111512 0.15962 0.0326513 -0.0534 0.144253 -0.0935004 0.0596356 0.153509 0.00514016
1544 0.000836019 0.024327 0.0301188 0.0676283 -0.0879729 -0.0347152 0.0665314 -0.120766 0.12514 -0.0163389 0.0984288 -0.0216612 0.127853 -0.0345481 0.153248 0.0177683 0.156317 0.0344397 -0.0719352 0.137906 -0.0598733 0.0656882 0.144262 0.0431129
3354 -0.0130333 0.0879264 0.0415765 0.146438 -0.20691 -0.121411 0.212721 -0.36313 0.431817 -0.0996051 0.272202 -0.0630835 0.515145 -0.0971883 0.483868 0.0796984 0.509702 0.0860407 -0.23266 0.51096 -0.228851 0.192346 0.400964 0.0733284
9898 0.0833736 0.10647 -0.0134932 0.121787 -0.228008 -0.0840773 0.223823 -0.307189 0.39642 -0.0555238 0.279401 -0.0296861 0.512613 -0.129819 0.444165 -0.0134241 0.50046 0.056003 -0.211976 0.48141 -0.227724 0.154051 0.369412 0.037267
10140 0.220151 0.148822 0.0531889 0.42071 -0.564966 -0.0183338 0.174089 -0.346857 0.44784 0.00961329 0.411793 0.0865273 0.800065 -0.0801386 0.575775 -0.213485 0.665353 -0.138808 -0.166542 0.311029 -0.378383 0.195131 0.466498 0.020345
3765 -0.0285296 0.0337053 0.0140598 0.0956589 -0.110367 -0.0619162 0.121921 -0.17101 0.215902 -0.070491 0.150026 -0.053389 0.27101 -0.0451349 0.237325 0.0357106 0.266097 0.0738256 -0.12208 0.242667 -0.111857 0.12783 0.22063 0.0258792
4870 0.020671 0.092696 0.0200352 0.105275 -0.17847 -0.0663756 0.166323 -0.243793 0.288704 -0.100431 0.224046 -0.0574822 0.366941 -0.0548581 0.359889 0.0413871 0.4191 0.105767 -0.181121 0.361402 -0.16544 0.174578 0.326425 0.0638111
5700 0.0113128 0.105733 0.0580847 0.249378 -0.300258 -0.169515 0.297942 -0.475527 0.574666 -0.108538 0.384783 -0.0734616 0.694709 -0.113685 0.639996 0.0976602 0.660422 0.116129 -0.2801 0.651543 -0.302688 0.27526 0.55422 0.0993559
6092 0.037741 0.0351232 0.00513724 0.0194521 -0.0786477 -0.0377083 0.0746541 -0.122677 0.155932 -0.0269561 0.0954104 -0.00813822 0.196828 -0.0587845 0.182573 0.0219238 0.2131 0.0313575 -0.0988148 0.220794 -0.0944849 0.0682587 0.153632 0.0242203
9573 0.0182845 0.0594654 -0.0102513 0.122131 -0.166187 -0.0660813 0.132475 -0.22233 0.273526 -0.0257579 0.190794 -0.0364463 0.347472 -0.0555132 0.324382 -0.00724387 0.330329 0.0243323 -0.142822 0.301889 -0.164223 0.105074 0.273917 0.0252292
8100 0.0606417 0.101063 -0.0132611 0.0680451 -0.119032 0.0386098 0.0235633 -0.0327661 0.0391032 -0.0583804 0.0890533 -0.0313975 0.120382 -0.0271629 0.0901963 -0.0616001 0.149175 0.0780853 -0.0975147 0.0944692 -0.0680789 0.104812 0.106191 0.0225916
10110 0.46844 0.631235 -0.115208 0.432693 -0.978179 0.299107 -0.0563065 -0.281961 0.305147 -0.433414 0.587679 -0.382601 0.646552 0.0431095 0.718859 -0.175288 1.04641 0.622477 -0.677884 0.684461 -0.608457 1.0284 1.00781 0.300876
383 0.0418118 0.0199631 -0.0425575 -0.00158404 -0.0181639 -0.00738924 0.0882845 -0.0908979 0.118862 0.00901946 0.0732502 -0.0137857 0.175492 -0.0568115 0.1412 -0.0209392 0.126451 0.011595 -0.0551662 0.161371 -0.0814914 0.00693913 0.0749697 0.0101134
4908 0.0160738 0.0805093 0.0310091 0.143449 -0.234582 -0.125632 0.257495 -0.359432 0.411471 -0.0692499 0.318896 -0.0527408 0.547841 -0.117796 0.514664 0.0238878 0.528522 0.0846933 -0.220261 0.511847 -0.247982 0.209504 0.422461 0.0412116
5122 0.00550101 0.102752 0.0335235 0.1823 -0.264737 -0.132957 0.248299 -0.369948 0.431752 -0.115961 0.323922 -0.08709 0.581649 -0.100361 0.537016 0.0534219 0.591147 0.12382 -0.248757 0.53229 -0.245246 0.207955 0.483712 0.0539637
4165 0.0029509 0.0168198 -0.0120288 0.00872981 -0.0475438 -0.000782907 0.05038 -0.072074 0.105335 0.00506875 0.0672669 0.0102539 0.126997 -0.0540223 0.123545 -0.00569008 0.0989834 -0.000596037 -0.0282926 0.0946318 -0.0330641 0.0410306 0.0971338 -0.00416886
6074 0.0218508 0.158276 0.0774291 0.291875 -0.393681 -0.201474 0.327807 -0.525999 0.628135 -0.175283 0.437358 -0.113387 0.762357 -0.111957 0.753997 0.104241 0.756104 0.199364 -0.377778 0.760542 -0.342764 0.346475 0.656955 0.140362
6355 -0.0209206 0.0306389 0.0119589 0.0566174 -0.0972662 -0.0790317 0.113604 -0.16509 0.202726 -0.0456782 0.124174 -0.042774 0.268382 -0.06094 0.258678 0.0509194 0.229898 0.050264 -0.125943 0.264561 -0.115988 0.103426 0.204678 0.0416977
7801 0.0126675 0.0802101 0.00399989 0.0872284 -0.135363 -0.0426679 0.145332 -0.209912 0.257667 -0.0402543 0.18325 -0.0648086 0.308702 -0.0433721 0.318598 0.0401535 0.326744 0.0583585 -0.156178 0.298391 -0.143384 0.13528 0.279992 0.0582979
10200 -0.127333 0.0111944 0.150915 0.222496 -0.189713 -0.222263 0.109202 -0.233103 0.302632 -0.10892 0.149114 -0.0528542 0.253195 0.0359302 0.322239 0.170081 0.249449 0.125769 -0.157707 0.289853 -0.119648 0.198116 0.288272 0.101251
10219 -0.227664 0.026418 0.27842 0.531446 -0.399821 -0.419605 0.197492 -0.482796 0.606331 -0.198813 0.316924 -0.0984959 0.531124 0.101194 0.61154 0.35931 0.52892 0.192706 -0.281905 0.502055 -0.252171 0.356634 0.587807 0.221905
5347 0.0376765 0.0562052 -0.000880125 0.0404876 -0.0770637 0.00729885 0.075716 -0.129943 0.155139 -0.0232032 0.114221 -0.0354868 0.205986 -0.0434486 0.179271 -0.0186418 0.216218 0.0148272 -0.0955248 0.161628 -0.100238 0.0746211 0.153658 0.0198439
6270 0.0300264 0.0336634 -0.0136142 0.0133128 -0.072221 0.0123035 0.0954819 -0.10594 0.103481 -0.0284031 0.103629 -0.00485776 0.163728 -0.0331707 0.149184 -0.0352422 0.181192 0.00719992 -0.0867578 0.164254 -0.0682695 0.0447199 0.122856 -0.011412
7433 0.0268129 0.0517973 0.0206552 0.0688178 -0.11254 -0.054305 0.0918348 -0.178981 0.215241 -0.0487041 0.147678 -0.0241655 0.26638 -0.0306173 0.224843 0.0177886 0.254992 0.0265566 -0.0951555 0.232071 -0.120173 0.0983123 0.195461 0.0205572
9436 -0.00946829 0.0583384 0.0798137 0.173598 -0.234586 -0.149624 0.225491 -0.341951 0.411807 -0.0899812 0.281334 -0.0582548 0.494091 -0.0623472 0.481182 0.0876495 0.478139 0.0953662 -0.215854 0.453803 -0.195629 0.195867 0.390273 0.0842177
10269 0.00886074 0.0897026 0.1843 0.492981 -0.500624 -0.25054 0.186441 -0.471173 0.642163 -0.138953 0.266659 0.00371151 0.682201 0.0468554 0.563261 0.204266 0.68035 0.130741 -0.249453 0.302826 -0.228408 0.395335 0.641523 0.277784
8569 0.0206681 0.031156 0.00773553 0.0623238 -0.139637 -0.0875791 0.165776 -0.244553 0.282888 -0.0621661 0.185973 -0.0289931 0.357206 -0.0555586 0.306085 0.0271874 0.332735 0.0579171 -0.119949 0.346789 -0.134284 0.0969275 0.272567 0.0152087
9345 0.0242209 0.106485 0.0350204 0.157697 -0.225461 -0.108957 0.172133 -0.292128 0.346529 -0.0803698 0.228436 -0.0606058 0.44144 -0.0772145 0.401257 0.0268883 0.411949 0.0976607 -0.205644 0.431044 -0.211741 0.181248 0.377043 0.0459326
9955 0.019001 0.0309749 0.0276091 0.0848577 -0.125919 -0.062184 0.118118 -0.215612 0.257406 -0.0704061 0.178423 -0.0570666 0.322041 -0.0408022 0.301143 0.0208755 0.292678 0.045798 -0.137596 0.276624 -0.118787 0.096697 0.234613 0.0195093
572 -0.00530552 0.0206184 0.0216085 0.034907 -0.0676648 -0.0376965 0.0794686 -0.0954299 0.0978525 -0.0198576 0.0789419 -0.0113114 0.154159 -0.0182622 0.15104 0.0308697 0.129645 0.0393985 -0.0559599 0.160504 -0.0794835 0.0495019 0.115394 0.0313511
645 0.0164453 0.133679 0.0794224 0.251211 -0.310285 -0.15261 0.261605 -0.426458 0.54039 -0.150453 0.39551 -0.0868634 0.671645 -0.100051 0.625361 0.0725921 0.677683 0.141185 -0.30918 0.636032 -0.2866 0.290169 0.564997 0.101475
8990 0.0502155 0.0967725 0.0242118 0.1221 -0.197452 -0.076655 0.195815 -0.262374 0.347306 -0.0430333 0.237341 -0.0550446 0.456245 -0.0719963 0.423798 0.018264 0.430315 0.0683075 -0.194854 0.391094 -0.188333 0.163564 0.339598 0.0464772
8704 0.0323413 0.0480429 -0.0199228 0.063937 -0.0802636 -0.00984782 0.0960111 -0.148115 0.172071 -0.023929 0.123263 -0.0163803 0.209946 -0.0512441 0.200013 0.0121015 0.222785 0.0253404 -0.104964 0.215338 -0.106981 0.0942776 0.178696 0.00776882
10010 0.0442827 0.0721974 0.0389044 0.164956 -0.24339 -0.0800835 0.17575 -0.288804 0.34757 -0.0329667 0.255331 -0.03271 0.486389 -0.0714827 0.421606 0.0272102 0.450323 0.0632887 -0.169448 0.377483 -0.186573 0.164977 0.361988 0.0486731
10202 0.0100346 0.0625205 0.0302919 0.152 -0.174542 -0.0851905 0.113368 -0.206709 0.246464 -0.0403651 0.195252 -0.0282703 0.348181 -0.0178512 0.324182 0.0230504 0.340664 0.0301354 -0.142323 0.265401 -0.135516 0.123482 0.279445 0.0532657
6534 0.0272769 0.0164575 -0.0280935 0.0161956 -0.0461658 -0.00557226 0.0900393 -0.102363 0.137295 0.00175318 0.11779 -0.0240903 0.192333 -0.0524122 0.174799 -0.0229905 0.188882 0.0250386 -0.0762095 0.189508 -0.068046 0.0391539 0.136072 -0.00318547
8561 -0.075425 0.0469324 0.0901637 0.246875 -0.22493 -0.208424 0.20349 -0.38578 0.434675 -0.111304 0.273211 -0.0672499 0.518535 -0.0562378 0.524529 0.150078 0.508633 0.118701 -0.22403 0.497643 -0.220095 0.223492 0.442757 0.125662
4866 -0.00588824 0.0272423 0.0124132 0.0390784 -0.029879 -0.062953 0.0704694 -0.0897125 0.14918 -0.0230192 0.0634707 -0.0146632 0.145424 -0.0272332 0.138574 0.0418807 0.148756 0.0072335 -0.0505913 0.133224 -0.0454858 0.0239512 0.114967 -0.00113713
5959 0.0166335 0.113686 0.0105065 0.170299 -0.244199 -0.117676 0.278277 -0.36981 0.438182 -0.101889 0.299326 -0.0523732 0.602947 -0.119966 0.520761 0.0488164 0.551007 0.095115 -0.230976 0.570788 -0.22958 0.174128 0.46361 0.0411725
5984 -0.012154 0.0577999 0.0033264 0.119519 -0.124031 -0.0849634 0.138459 -0.204814 0.260366 -0.059423 0.161091 -0.0579485 0.337951 -0.0454522 0.287979 0.0398513 0.323047 0.064047 -0.141824 0.319589 -0.11932 0.132826 0.275116 0.0240892
6879 0.0050452 0.014972 -0.0104837 0.0167187 -0.0668551 -0.0325652 0.0797805 -0.118919 0.131823 -0.0175832 0.0904224 -0.0371301 0.190315 -0.0520663 0.156932 -0.0241947 0.202837 0.0203297 -0.0827621 0.202146 -0.0699908 0.0637537 0.146391 -0.00721658
6959 0.0435845 0.223129 0.054818 0.359872 -0.499593 -0.213644 0.421991 -0.654604 0.76941 -0.180297 0.577702 -0.128354 1.00062 -0.184132 0.899741 0.0537126 0.955599 0.189265 -0.428104 0.897759 -0.431179 0.341758 0.760907 0.0897395
10013 0.123622 0.167965 0.112161 0.405037 -0.524091 -0.148136 0.222372 -0.448373 0.53005 -0.0569978 0.387389 -0.0317065 0.767914 -0.053988 0.67404 0.00237604 0.702239 0.014006 -0.286249 0.452382 -0.342744 0.262037 0.579046 0.0850835
8563 -0.215063 -0.0201092 0.218589 0.341486 -0.207381 -0.287901 0.108558 -0.297112 0.339365 -0.128108 0.112776 -0.0708974 0.24381 0.09311 0.308353 0.253895 0.249925 0.113756 -0.129413 0.236456 -0.085805 0.188061 0.322751 0.161569
4781 0.0402057 0.0219804 -0.00825062 0.0200621 -0.0484072 -0.0153271 0.0764087 -0.0592489 0.0985401 0.0119188 0.0723446 -0.0231013 0.164118 -0.0521807 0.135439 -0.0154369 0.125801 0.0049954 -0.0638846 0.132076 -0.084694 0.0239537 0.0823661 -0.0189145
6945 0.0134172 0.024201 0.0149869 0.0536328 -0.094355 -0.0546297 0.1195 -0.183093 0.186464 -0.0182954 0.134739 -0.01384 0.278047 -0.0566975 0.248016 -0.000608906 0.270775 0.0223649 -0.0873947 0.2277 -0.0943802 0.0872197 0.213346 0.0180882
7149 0.0372036 0.112652 -0.00232587 0.145884 -0.25519 -0.0789844 0.215833 -0.296891 0.377793 -0.084074 0.30504 -0.0788571 0.490754 -0.0740329 0.477263 0.0424732 0.509856 0.112047 -0.244672 0.500457 -0.242951 0.209397 0.423539 0.0611974
9979 -0.159771 -0.0356532 0.162033 0.239845 -0.169057 -0.200005 0.0908977 -0.231847 0.253593 -0.114353 0.137814 -0.0436726 0.232429 0.0451549 0.27456 0.201457 0.21734 0.119296 -0.10459 0.252126 -0.104084 0.164534 0.271042 0.112843
9158 0.0101782 0.0475472 0.0193909 0.0971995 -0.114911 -0.0997882 0.135662 -0.225455 0.259621 -0.0693978 0.153136 -0.0456953 0.332568 -0.0533559 0.305307 0.065646 0.276942 0.068087 -0.115152 0.299491 -0.134595 0.111048 0.24133 0.0302131
9546 0.0465728 0.0958208 0.0317241 0.128203 -0.196106 -0.0957243 0.221194 -0.324893 0.359638 -0.0802318 0.281 -0.056364 0.485238 -0.0651275 0.454008 0.0418593 0.484224 0.0827743 -0.201217 0.415231 -0.191941 0.141512 0.361795 0.0596412
5551 0.00716018 0.0230601 0.00772476 0.0458922 -0.0662048 -0.0304494 0.0409611 -0.0805832 0.0983195 -0.0202116 0.0987388 -0.0218347 0.159221 -0.0222387 0.14675 -0.0187447 0.142555 0.0450595 -0.0625107 0.113698 -0.0702984 0.0631984 0.13297 0.0313497
8290 0.18695 0.217026 -0.0754468 0.0982884 -0.283765 0.0682324 0.121066 -0.185976 0.19984 -0.0784114 0.280051 -0.0730358 0.406237 -0.0584067 0.333211 -0.126103 0.437546 0.119476 -0.200926 0.331681 -0.217512 0.244854 0.325046 0.053469
4046 0.0235808 0.035053 0.00354328 0.0348913 -0.0813951 -0.0238549 0.112665 -0.116339 0.167059 -0.00472003 0.108187 0.00474944 0.220406 -0.0568479 0.171036 0.00073935 0.203437 0.0283316 -0.078955 0.199552 -0.0694061 0.0467176 0.160995 -0.00344749
4314 0.0327313 0.0896181 0.00627958 0.0802438 -0.132951 -0.0480286 0.156447 -0.205294 0.264215 -0.061977 0.180282 -0.0332592 0.347146 -0.0588089 0.285322 0.0178301 0.315647 0.0712227 -0.142 0.309427 -0.138801 0.113425 0.257406 0.0404832
4365 0.0295657 0.0850452 0.0442042 0.122618 -0.189023 -0.105749 0.222561 -0.343796 0.413945 -0.0770285 0.284229 -0.0521057 0.500482 -0.0794619 0.453759 0.0564358 0.496551 0.0547359 -0.189657 0.470515 -0.230071 0.153867 0.389158 0.0600134
